<?xml version="1.0" encoding="ISO-8859-1"?>
<!-- This network was created in GeNIe Academic, which can be used for educational and research purposes only -->
<smile version="1.0" id="Unnamed" numsamples="10000" discsamples="10000">
	<nodes>
		<cpt id="JobSatisfaction">
			<state id="State0" />
			<state id="State1" />
			<state id="State2" />
			<state id="State3" />
			<state id="State4" />
			<state id="State5" />
			<state id="State6" />
			<state id="State7" />
			<state id="State8" />
			<state id="State9" />
			<state id="State10" />
			<probabilities>0.01156627704490294 0.009238161334026627 0.02199326336701919 0.0404943531119618 0.04619080644708469 0.09285218941826524 0.1170497324983307 0.1973697245235635 0.2224836535749314 0.1380275410846311 0.1027342975952828</probabilities>
		</cpt>
		<cpt id="Salary">
			<state id="S1_10000" />
			<state id="S100001_110000" />
			<state id="S10001_20000" />
			<state id="S110001_120000" />
			<state id="S120001_130000" />
			<state id="S130001_140000" />
			<state id="S140001_150000" />
			<state id="S150001_160000" />
			<state id="S160001_170000" />
			<state id="S170001_180000" />
			<state id="S180001_190000" />
			<state id="S190001_200000" />
			<state id="S20001_30000" />
			<state id="S30001_40000" />
			<state id="S40001_50000" />
			<state id="S50001_60000" />
			<state id="S60001_70000" />
			<state id="S70001_80000" />
			<state id="S80001_90000" />
			<state id="S90001_100000" />
			<state id="NA" />
			<parents>JobSatisfaction</parents>
			<probabilities>0.1434685131266328 2.174147473292773e-07 0.01713076018631574 2.174147473292773e-07 2.174147473292773e-07 2.174147473292773e-07 2.174147473292773e-07 2.174147473292773e-07 2.174147473292773e-07 2.174147473292773e-07 2.174147473292773e-07 2.174147473292773e-07 0.027837349418546 0.02141339587920785 0.02569603157209995 0.01070680664697759 0.01070680664697759 0.006424170954085484 0.002141535261193381 0.002141535261193381 0.7323309208992971 0.1742618291847609 3.40437584854068e-07 0.02144790828339114 3.40437584854068e-07 3.40437584854068e-07 3.40437584854068e-07 3.40437584854068e-07 3.40437584854068e-07 3.40437584854068e-07 3.40437584854068e-07 3.40437584854068e-07 3.40437584854068e-07 0.03217169220629428 0.0294907462255685 0.02412885426411692 0.0294907462255685 3.40437584854068e-07 0.00268128641831064 0.00268128641831064 0.00268128641831064 0.6809606195419344 0.1824322618518901 6.025279300315648e-08 0.02815317778351786 6.025279300315648e-08 6.025279300315648e-08 0.001126184954021998 0.001126184954021998 6.025279300315648e-08 6.025279300315648e-08 6.025279300315648e-08 6.025279300315648e-08 6.025279300315648e-08 0.03153155188720485 0.02139642957614389 0.02139642957614389 0.0202703048749149 0.01013518256385395 0.007882933161395964 0.005630683758937975 0.005630683758937975 0.6632875092766707 0.1767583615365192 0.001223258924746243 0.02752294328818262 0.001834879491337786 0.000611638358154699 1.779156315535223e-08 1.779156315535223e-08 1.779156315535223e-08 1.779156315535223e-08 1.779156315535223e-08 1.779156315535223e-08 0.000611638358154699 0.02629970215499953 0.02813456385477416 0.0244648404552249 0.01896025535590101 0.008562705723844766 0.004892982324295503 0.004892982324295503 0.00428136175770396 0.6709477793424865 0.1817693984700116 0.001072399426944975 0.02466488594888839 1.3675947547599e-08 1.3675947547599e-08 1.3675947547599e-08 1.3675947547599e-08 1.3675947547599e-08 1.3675947547599e-08 1.3675947547599e-08 1.3675947547599e-08 0.001072399426944975 0.02466488594888839 0.02359250019789096 0.02520107882438711 0.01608579994090897 0.006434328181932115 0.004289556679937259 0.005361942430934687 0.004289556679937259 0.6815011584348131 0.1600426700529101 0.001066954497354497 0.02000533671957672 0.002133905608465608 3.386243386243387e-09 0.0005334789417989419 0.000266741164021164 3.386243386243387e-09 0.0005334789417989419 3.386243386243387e-09 3.386243386243387e-09 0.0008002167195767197 0.02347292783068783 0.02320619005291005 0.02453987894179894 0.01573753227513228 0.008002136719576719 0.004534545608465609 0.003734332275132275 0.001867167830687831 0.7095224922751323 0.1606009259635344 0.001057979231473065 0.02433347543906822 0.0006347883913349714 0.0004231929712659246 0.0002115975511968777 0.0002115975511968777 0.0002115975511968777 2.131127830846093e-09 2.131127830846093e-09 0.0002115975511968777 0.0006347883913349714 0.02877697926051821 0.03322048308196819 0.02221752123837775 0.01946678077748014 0.01015658229444208 0.005501483052923049 0.006347864733199237 0.004443505952577815 0.6813372547534589 0.1578617124067677 0.0006274320360550247 0.02283849957445577 0.0006274320360550247 0.0003764595214968242 0.0003764595214968242 0.0005019457787759245 0.0002509732642177239 7.49659523385966e-10 7.49659523385966e-10 0.0001254870069386236 0.0003764595214968242 0.03212448261310919 0.03137156506943459 0.02760697735106158 0.02258752705989757 0.01192119519117405 0.008909525016475642 0.004893964783544433 0.004893964783544433 0.6717279359646832 0.1550706877480794 0.001113214424573235 0.0209284206802378 0.001001893041114445 0.0004452861238204965 0.0008905716576556554 0.0001113219734441275 0.0001113219734441275 5.899853377787831e-10 0.0001113219734441275 5.899853377787831e-10 0.0004452861238204965 0.02660581123663608 0.03295113009378708 0.02716241815393003 0.02270956281557844 0.01424913767271042 0.007458533281724248 0.006345319447136351 0.007569854665183037 0.6747189057337097 0.1713619195772419 0.001973803730035474 0.01973802350638446 0.00143549403984308 0.0005383112228557578 0.0007177477862532223 0.0005383112228557578 0.0003588746594582934 1.532663364488272e-09 0.0001794380960608289 1.532663364488272e-09 0.0003588746594582934 0.02799210542266782 0.02888928823965514 0.03014534418343739 0.02314731821093628 0.01363718035087066 0.009330702829331516 0.0078952103221518 0.007715773758754337 0.6540462751164213 0.1550144585635458 0.0007232428399696053 0.01422372421578252 0.0004821628154015175 0.001205402889105781 2.766265342146732e-09 0.0002410827908334299 0.0002410827908334299 2.766265342146732e-09 2.766265342146732e-09 2.766265342146732e-09 0.0007232428399696053 0.01494696428948678 0.02314368512480176 0.01783992458430383 0.01542912433862295 0.00988428377355694 0.005785923355899447 0.003857283159354746 0.005303763306763272 0.7309546372567073</probabilities>
		</cpt>
		<cpt id="Gender">
			<state id="Female" />
			<state id="Male" />
			<state id="NA" />
			<state id="Nonbinary" />
			<parents>JobSatisfaction Salary</parents>
			<probabilities>0.08958693771626297 0.6715506055363322 0.194041955017301 0.04482050173010381 0.25 0.25 0.25 0.25 0.00308641975308642 0.8672839506172839 0.00308641975308642 0.1265432098765432 0.25 0.25 0.25 0.25 0.25 0.25 0.25 0.25 0.25 0.25 0.25 0.25 0.25 0.25 0.25 0.25 0.25 0.25 0.25 0.25 0.25 0.25 0.25 0.25 0.25 0.25 0.25 0.25 0.25 0.25 0.25 0.25 0.25 0.25 0.25 0.25 0.001275510204081633 0.9196428571428571 0.07780612244897958 0.001275510204081633 0.1012396694214876 0.7954545454545455 0.1012396694214876 0.002066115702479339 0.001479289940828403 0.9127218934911243 0.08431952662721895 0.001479289940828403 0.2013888888888889 0.5902777777777777 0.2013888888888889 0.006944444444444444 0.006944444444444444 0.9791666666666666 0.006944444444444444 0.006944444444444444 0.015625 0.953125 0.015625 0.015625 0.8125 0.0625 0.0625 0.0625 0.0625 0.8125 0.0625 0.0625 0.04970930479647086 0.4912260197706738 0.4327469846747528 0.02631769075810249 0.06158172635445363 0.7537304866850322 0.1692493112947658 0.01543847566574839 0.25 0.25 0.25 0.25 0.00308641975308642 0.9907407407407406 0.00308641975308642 0.00308641975308642 0.25 0.25 0.25 0.25 0.25 0.25 0.25 0.25 0.25 0.25 0.25 0.25 0.25 0.25 0.25 0.25 0.25 0.25 0.25 0.25 0.25 0.25 0.25 0.25 0.25 0.25 0.25 0.25 0.25 0.25 0.25 0.25 0.25 0.25 0.25 0.25 0.001479289940828403 0.9955621301775148 0.001479289940828403 0.001479289940828403 0.0920138888888889 0.9045138888888888 0.001736111111111111 0.001736111111111111 0.0025 0.9924999999999998 0.0025 0.0025 0.09201388888888888 0.8142361111111109 0.09201388888888888 0.001736111111111111 0.25 0.25 0.25 0.25 0.0625 0.8125 0.0625 0.0625 0.0625 0.0625 0.8125 0.0625 0.0625 0.8125 0.0625 0.0625 0.07086889657823914 0.4842483660130719 0.4251941560938101 0.01968858131487889 0.03704505250479883 0.8209661635740901 0.135806767285182 0.006182016635929092 0.25 0.25 0.25 0.25 0.04031065088757397 0.8790680473372782 0.08025147928994084 0.0003698224852071006 0.25 0.25 0.25 0.25 0.25 0.25 0.25 0.25 0.0625 0.8125 0.0625 0.0625 0.0625 0.8125 0.0625 0.0625 0.25 0.25 0.25 0.25 0.25 0.25 0.25 0.25 0.25 0.25 0.25 0.25 0.25 0.25 0.25 0.25 0.25 0.25 0.25 0.25 0.071640903686088 0.7137336504161713 0.2143281807372177 0.0002972651605231867 0.0006250000000000001 0.9981250000000002 0.0006250000000000001 0.0006250000000000001 0.05312500000000001 0.683125 0.05312500000000001 0.210625 0.0006925207756232688 0.8871191135734073 0.05609418282548478 0.05609418282548478 0.0025 0.8825 0.1125 0.0025 0.00390625 0.98828125 0.00390625 0.00390625 0.006944444444444444 0.7847222222222221 0.2013888888888889 0.006944444444444444 0.006944444444444444 0.9791666666666666 0.006944444444444444 0.006944444444444444 0.0662144498707268 0.5602707555300201 0.3667229244469979 0.006791870152255099 0.07958680142687277 0.8166022592152199 0.09688763376932223 0.006923305588585018 0.02777777777777778 0.9166666666666666 0.02777777777777778 0.02777777777777778 0.04454158790170132 0.866375236294896 0.08896502835538753 0.0001181474480151229 0.328125 0.640625 0.015625 0.015625 0.0625 0.8125 0.0625 0.0625 0.25 0.25 0.25 0.25 0.25 0.25 0.25 0.25 0.25 0.25 0.25 0.25 0.25 0.25 0.25 0.25 0.25 0.25 0.25 0.25 0.25 0.25 0.25 0.25 0.0625 0.0625 0.8125 0.0625 0.0931043388429752 0.8136621900826446 0.04661673553719008 0.04661673553719008 0.0653010411951109 0.8692847442281575 0.04357175192394749 0.02184246265278407 0.07510410469958358 0.8746281975014872 0.05011897679952409 0.000148720999405116 0.032470703125 0.967041015625 0.000244140625 0.000244140625 0.001111111111111111 0.9966666666666666 0.001111111111111111 0.001111111111111111 0.1265432098765432 0.8672839506172839 0.00308641975308642 0.00308641975308642 0.00308641975308642 0.6203703703703703 0.3734567901234568 0.00308641975308642 0.00390625 0.84765625 0.14453125 0.00390625 0.05104847860491504 0.5332723265682596 0.4056516484683196 0.01002754635850578 0.08259731833910035 0.7699070069204151 0.1415938581314879 0.005901816608996541 0.02777777777777778 0.9166666666666666 0.02777777777777778 0.02777777777777778 0.0653010411951109 0.847555454956994 0.08703033046627433 0.0001131733816206428 0.25 0.25 0.25 0.25 0.25 0.25 0.25 0.25 0.25 0.25 0.25 0.25 0.25 0.25 0.25 0.25 0.25 0.25 0.25 0.25 0.25 0.25 0.25 0.25 0.25 0.25 0.25 0.25 0.25 0.25 0.25 0.25 0.02777777777777778 0.4722222222222222 0.4722222222222222 0.02777777777777778 0.02184246265278407 0.8692847442281575 0.08703033046627433 0.02184246265278407 0.1137037037037037 0.8179012345679013 0.06827160493827161 0.0001234567901234568 0.04264322916666666 0.8720703125 0.0851779513888889 0.0001085069444444444 0.06685744016649324 0.8993236212278876 0.0002601456815816857 0.03355879292403746 0.001479289940828403 0.9127218934911243 0.08431952662721895 0.001479289940828403 0.00308641975308642 0.7438271604938271 0.25 0.00308641975308642 0.002066115702479339 0.9938016528925619 0.002066115702479339 0.002066115702479339 0.1265432098765432 0.8672839506172839 0.00308641975308642 0.00308641975308642 0.05507486476998538 0.5476001307800324 0.3941777236363277 0.003147280813654523 0.08333379475693589 0.7783318706205132 0.1250003460677019 0.01333398855484896 0.01 0.9700000000000001 0.01 0.01 0.06669840720221606 0.8398978531855955 0.08002943213296398 0.01337430747922438 0.1265432098765432 0.6203703703703703 0.25 0.00308641975308642 0.25 0.25 0.25 0.25 0.02777777777777778 0.4722222222222222 0.4722222222222222 0.02777777777777778 0.0625 0.8125 0.0625 0.0625 0.25 0.25 0.25 0.25 0.02777777777777778 0.9166666666666666 0.02777777777777778 0.02777777777777778 0.25 0.25 0.25 0.25 0.25 0.25 0.25 0.25 0.015625 0.640625 0.328125 0.015625 0.06820477212473172 0.8294722888524175 0.09092917560914025 0.01139376341371039 0.06898889462809918 0.7355694731404959 0.1839165805785124 0.01152505165289256 0.09784368135044515 0.8260203491733148 0.06523875592554053 0.0108972135506995 0.08479166666666667 0.8472916666666667 0.06784722222222223 6.944444444444444e-05 0.0002601456815816857 0.9326222684703434 0.06685744016649324 0.0002601456815816857 0.1180555555555556 0.8217592592592592 0.05941358024691357 0.0007716049382716049 0.001111111111111111 0.9966666666666666 0.001111111111111111 0.001111111111111111 0.14453125 0.70703125 0.14453125 0.00390625 0.04586469048306004 0.5394736433297307 0.4090225339330858 0.005639132254123439 0.08959184556786703 0.8063231475069251 0.0948619286703601 0.009223078254847646 0.006944444444444444 0.9791666666666666 0.006944444444444444 0.006944444444444444 0.05218861474435196 0.8173491379310345 0.1304436682520808 1.857907253269917e-05 0.015625 0.953125 0.015625 0.015625 0.02777777777777778 0.9166666666666666 0.02777777777777778 0.02777777777777778 0.0625 0.8125 0.0625 0.0625 0.0625 0.8125 0.0625 0.0625 0.0625 0.8125 0.0625 0.0625 0.25 0.25 0.25 0.25 0.25 0.25 0.25 0.25 0.0625 0.8125 0.0625 0.0625 0.640625 0.328125 0.015625 0.015625 0.03677606691885556 0.8308514039107038 0.1103015610847674 0.02207096808567318 0.06370173049190835 0.8662173529883032 0.07007090209902259 1.00144207659029e-05 0.1047748309006764 0.8094740121039516 0.08572890708437166 2.2249911000356e-05 0.03263383050063592 0.9020985084980923 0.06523875592554053 2.890507573129842e-05 0.06257809246147437 0.8539150354019158 0.06257809246147437 0.02092877967513536 0.1155692729766804 0.8453360768175582 0.0387517146776406 0.0003429355281207133 0.03355879292403747 0.8327263267429762 0.100156087408949 0.03355879292403747 0.09555785123966941 0.9034090909090909 0.0005165289256198347 0.0005165289256198347 0.04596275258579866 0.5677018327317016 0.3810558879890304 0.005279526693469327 0.07392697912598788 0.815579929353768 0.0993641649858903 0.01112892653435377 0.006944444444444444 0.9791666666666666 0.006944444444444444 0.006944444444444444 0.03297351369106274 0.8626190689480129 0.08791692794648992 0.01649048941443459 0.2013888888888889 0.7847222222222221 0.006944444444444444 0.006944444444444444 0.015625 0.953125 0.015625 0.015625 0.015625 0.640625 0.328125 0.015625 0.01 0.9700000000000001 0.01 0.01 0.02777777777777778 0.9166666666666666 0.02777777777777778 0.02777777777777778 0.25 0.25 0.25 0.25 0.25 0.25 0.25 0.25 0.0625 0.8125 0.0625 0.0625 0.015625 0.953125 0.015625 0.015625 0.04687807536828718 0.8281162470287211 0.1171895108177262 0.007816166785265484 0.05600307931620133 0.8639902541229504 0.08000269836986715 3.968190981095538e-06 0.06364017935750702 0.8727145226346718 0.05454945639933663 0.009095841608484676 0.06667226275144225 0.8666478434724214 0.06667226275144225 7.631024693995909e-06 0.03160264756944444 0.8841417100694444 0.07370334201388888 0.01055230034722222 0.05637538580246913 0.7604648919753086 0.1831114969135803 4.822530864197531e-05 0.07703125 0.8970312500000001 0.02578125 0.00015625 0.02578125 0.8970312500000001 0.05140625 0.02578125 0.04894452410711259 0.5832243485472129 0.3605454846546956 0.007285642690978882 0.07322335012319656 0.8248381822897476 0.09475959173255331 0.007178875854502489 0.1012396694214876 0.7954545454545455 0.002066115702479339 0.1012396694214876 0.05319699896419473 0.8670040032473894 0.07979199910416841 6.998684247361496e-06 0.1125 0.8825 0.0025 0.0025 0.25 0.73 0.01 0.01 0.00308641975308642 0.9907407407407406 0.00308641975308642 0.00308641975308642 0.0625 0.8125 0.0625 0.0625 0.0625 0.8125 0.0625 0.0625 0.25 0.25 0.25 0.25 0.0625 0.8125 0.0625 0.0625 0.25 0.25 0.25 0.25 0.25 0.49 0.25 0.01 0.05858072916666666 0.8660980902777777 0.07531684027777777 4.340277777777778e-06 0.06419129567277715 0.8614795542404969 0.06419129567277715 0.01013785441394869 0.03688879633486047 0.9098250728862974 0.045085381091212 0.008200749687630156 0.05392623438429506 0.8774360499702558 0.0637299226650803 0.004907792980368828 0.05469923682471005 0.8515263505798931 0.08594735893275644 0.007827053662640466 0.02989835640138408 0.8804606401384083 0.08958693771626297 5.406574394463668e-05 0.1228448275862069 0.7366973840665875 0.1053061831153389 0.03515160523186683 0.01475530350766646 0.9263285024154589 0.058863684099979 5.250997689561017e-05 0.04817687399565537 0.5952812973191026 0.3510971759322806 0.005444652752961507 0.06806302629505787 0.8314129764009733 0.09528812739622905 0.00523586990773971 0.1822916666666666 0.8142361111111109 0.001736111111111111 0.001736111111111111 0.063651489327165 0.8635865595325053 0.063651489327165 0.009110461813164513 0.00308641975308642 0.9907407407407406 0.00308641975308642 0.00308641975308642 0.015625 0.953125 0.015625 0.015625 0.01 0.9700000000000001 0.01 0.01 0.328125 0.640625 0.015625 0.015625 0.02777777777777778 0.9166666666666666 0.02777777777777778 0.02777777777777778 0.25 0.25 0.25 0.25 0.0625 0.8125 0.0625 0.0625 0.25 0.25 0.25 0.25 0.02777777777777778 0.4722222222222222 0.4722222222222222 0.02777777777777778 0.1089800803278023 0.8012596859913181 0.08334009493285732 0.006420138748022232 0.03727518670934309 0.8881744398719708 0.07454084743179393 9.525986892242035e-06 0.07143482371065439 0.8928346346416441 0.02976961590980708 0.005960925737894332 0.04652366863905326 0.8836834319526627 0.06977810650887574 1.479289940828403e-05 0.07897621858660821 0.7762270197335133 0.1184432450666217 0.02635351661325687 0.05776076895692417 0.8843894624421502 0.05776076895692417 8.899964400142399e-05 0.1137037037037037 0.8633333333333334 0.02283950617283951 0.0001234567901234568 0.0001291322314049587 0.8833935950413223 0.1163481404958678 0.0001291322314049587 0.05514404758000186 0.6115226065490357 0.3253772234106224 0.00795612246034022 0.08398173778017823 0.8009317975772539 0.1119754494425369 0.003111015200030863 0.015625 0.640625 0.328125 0.015625 0.05090277777777778 0.8134027777777778 0.1186805555555556 0.01701388888888889 0.02777777777777778 0.9166666666666666 0.02777777777777778 0.02777777777777778 0.006944444444444444 0.7847222222222221 0.2013888888888889 0.006944444444444444 0.25 0.25 0.25 0.25 0.0625 0.8125 0.0625 0.0625 0.8125 0.0625 0.0625 0.0625 0.25 0.25 0.25 0.25 0.25 0.25 0.25 0.25 0.25 0.25 0.25 0.25 0.015625 0.328125 0.640625 0.015625 0.09681279919375156 0.8708112874779541 0.03231292517006802 6.298815822625346e-05 0.0729354872993942 0.8228557763843128 0.1041821660112658 2.657030502710171e-05 0.08111111111111111 0.8512444444444445 0.05408888888888889 0.01355555555555556 0.01568047337278106 0.8748520710059172 0.09378698224852071 0.01568047337278106 0.02451814058956916 0.9020691609977323 0.07327097505668934 0.0001417233560090703 0.0004 0.8739999999999999 0.1252 0.0004 0.06314878892733564 0.8728373702422145 0.06314878892733564 0.0008650519031141869 0.04584120982986768 0.7717391304347826 0.136578449905482 0.04584120982986768 0.04551453410223556 0.5481530018896437 0.3977572398745137 0.008575224133607144</probabilities>
		</cpt>
		<cpt id="CompetePeers">
			<state id="Agree" />
			<state id="Disagree" />
			<state id="NA" />
			<state id="SSomewhat_agree" />
			<state id="SStrongly_agree" />
			<state id="SStrongly_disagree" />
			<parents>Gender JobSatisfaction</parents>
			<probabilities>0.1538637402834934 0.1154549611339735 0.4611339734796525 0.1154549611339735 0.1538637402834934 0.0002286236854138088 0.1250666666666667 0.3330666666666667 0.1666666666666667 0.2498666666666667 0.08346666666666666 0.04186666666666666 0.1836666666666667 0.2652666666666667 0.2652666666666667 0.2244666666666666 0.02046666666666667 0.04086666666666667 0.05320406278855032 0.2765835641735919 0.3084949215143121 0.2127608494921514 0.04256694367497692 0.1063896583564174 0.08929177434933563 0.2142819850157935 0.3571279400631738 0.2053541128253322 0.03572454120656799 0.09821964653979691 0.1352664262820513 0.256036581607495 0.2512057753944774 0.2270517443293886 0.03865030202169626 0.09178917036489152 0.1374050032047112 0.2633573807148675 0.2786243355645834 0.1984728226035748 0.0419865353939867 0.08015392251827649 0.1764705342120538 0.2729405908586627 0.2117644573754473 0.2188232420081259 0.03764776976937263 0.08235340577633773 0.1046027809618449 0.2949785202586576 0.2615058627998774 0.184100342426448 0.02719726058841561 0.1276152329647564 0.08459288963081241 0.3293036604248318 0.2447122828664054 0.1993954734601055 0.03021271834325253 0.1117829752745924 0.09132575757575756 0.2328753443526171 0.2694042699724518 0.2009125344352617 0.02283402203856749 0.1826480716253443 0.163498144322008 0.1825092783899602 0.2357404537802265 0.1939159588307315 0.1064647421181512 0.1178714225589226 0.1666666666666667 0.2432417033655747 0.2657637729829007 0.1846843223605274 0.06306514642696749 0.07657838819736304 0.1623488902100674 0.2141622076892588 0.2780652992469282 0.1796199960364645 0.07081202933016249 0.09499157748711852 0.1243973391347176 0.2468658850637868 0.271938185805171 0.2198649458038345 0.0511090754291329 0.08582456876335723 0.1639762126439929 0.2599829404004562 0.2557348551014976 0.204757831513995 0.0501275266319037 0.06542063370815449 0.1649305558823206 0.2235242948539987 0.2656249813743897 0.2178819348048742 0.05468752107634853 0.07335071200806823 0.1617312078115937 0.2430849252029072 0.2723722634637801 0.2144484166811648 0.04718517372462417 0.0611780131159301 0.161114248267395 0.2416713694500487 0.2731037041171122 0.2128740808029786 0.04121965435769778 0.07001694300476791 0.1424113015740504 0.2641261471742446 0.2682325859596763 0.2071287768324532 0.03925755928400717 0.07884362917556832 0.1331261353749051 0.2646982581255991 0.2747992675493728 0.1958041938506294 0.03833204693641311 0.09324009816308064 0.1211180192811377 0.2410714173674597 0.2651397367245857 0.1723602475898578 0.06948759227310917 0.1308229867638498 0.0666702956403929 0.07273068176319737 0.6666485217980356 0.09697222625441526 0.04242875114917501 0.05454952339478396 0.07438636567231031 0.07438636567231031 0.6611238018453821 0.1157059034309773 0.03306682791364329 0.0413307354653767 0.1040009946932059 0.1000010581842616 0.659992169436464 0.08000137563954011 0.04000201055009709 0.01600239149643128 0.07786922380998185 0.09016425435936898 0.6475389725982523 0.1168034872163744 0.02459075809597094 0.04303330392005163 0.08978896984709914 0.07042283248033786 0.6813364385045347 0.09683120161683052 0.03521167363168098 0.02640888391951676 0.09248559963257053 0.06771270155068312 0.6738229412875281 0.1147812079062692 0.02559877481147455 0.02559877481147455 0.09251105313236828 0.0895741971508119 0.6556531875958027 0.1079295470355392 0.03303971950585173 0.02129229557962625 0.09036423934818465 0.08898111377745688 0.6712769790538483 0.09543569977418646 0.02627942123779793 0.0276625468085257 0.09221659537505943 0.1061759837422358 0.6277494945521891 0.117174289728496 0.02834181830101001 0.02834181830101001 0.08271241614453072 0.1065574103756699 0.6467955609249175 0.1080477225151161 0.02160961842723649 0.03427727161252919 0.0560182313660059 0.07191526996108374 0.6858437604662323 0.08175629385327476 0.05677523320386675 0.04769121114953657 0.1539115646258503 0.1539115646258503 0.3069727891156462 0.1539115646258503 0.07738095238095237 0.1539115646258503 0.003401360544217687 0.1666666666666667 0.4931972789115646 0.1666666666666667 0.003401360544217687 0.1666666666666667 0.1997245179063361 0.1997245179063361 0.1005509641873278 0.2988980716253444 0.001377410468319559 0.1997245179063361 0.2497116493656286 0.06286043829296424 0.3742791234140715 0.06286043829296424 0.06286043829296424 0.1874279123414071 0.1255144032921811 0.00205761316872428 0.3724279835390946 0.2489711934156378 0.00205761316872428 0.2489711934156378 0.1111819727891156 0.2221513605442177 0.1851615646258503 0.2961309523809523 0.03720238095238095 0.148171768707483 0.1035185185185185 0.3101851851851852 0.3101851851851852 0.137962962962963 0.06907407407407408 0.06907407407407408 0.1451667086587722 0.2741664567061392 0.2419165196942974 0.2580414882002183 0.01616696061140506 0.06454186612916772 0.1132258802011888 0.2641175125743027 0.3584247828074988 0.0943644261545496 5.715592135345221e-05 0.1698102423411065 0.1282291666666667 0.2563541666666667 0.2563541666666667 0.2051041666666667 0.05135416666666667 0.1026041666666667 0.1562595653504744 0.06259565350474441 0.3123660850933578 0.1874808692990511 0.1562595653504744 0.1250382614018978</probabilities>
		</cpt>
		<cpt id="ChangeWorld">
			<state id="Agree" />
			<state id="Disagree" />
			<state id="NA" />
			<state id="SSomewhat_agree" />
			<state id="SStrongly_agree" />
			<state id="SStrongly_disagree" />
			<parents>CompetePeers JobSatisfaction</parents>
			<probabilities>0.383275105258443 0.05003135357878705 4.479082683866342e-05 0.2333154170025978 0.2666397921705634 0.06669354116276985 0.4080666666666666 0.04086666666666667 6.666666666666667e-05 0.2244666666666666 0.2856666666666667 0.04086666666666667 0.2595366544230181 0.1068736608509336 9.565350474441389e-06 0.2671698041016223 0.3358681512090604 0.03054216406489135 0.3693117133220551 0.08522987221637035 5.319884664900465e-06 0.2784055241682361 0.2499973400576675 0.01705023035100599 0.3999964396158854 0.09411875406901042 2.543131510416667e-06 0.2313715616861979 0.2470575968424479 0.02745310465494792 0.3632880028358875 0.1281072150030107 0.007648762698366451 0.2390054726803022 0.2370934337548317 0.02485711302760134 0.3504527540992806 0.1132931727821267 0.004532090904196308 0.3141990601399705 0.2024168370987642 0.01510608497566177 0.3397885984786661 0.1223591892029177 0.006162095986728231 0.3124998871930459 0.2068661660874191 0.01232406305122313 0.3444345700898558 0.1516213962865611 0.00438224538222698 0.2778263827759903 0.1936897251163708 0.02804568034899496 0.3753794586147371 0.1109423775543177 0.001520137115523513 0.2887535182673584 0.1975683179016965 0.02583619054636668 0.3333323514625947 0.1119224636315078 0.009733284632544694 0.2457416266063405 0.2749385348917585 0.02433173877525371 0.2307545148454239 0.1999923477196205 0.01541934496479951 0.2307545148454239 0.1999923477196205 0.1230869299051117 0.3471883405266779 0.1944392318758992 3.127541127165821e-05 0.2222117970851316 0.1944392318758992 0.0416901232251204 0.2195102540557086 0.1707315580042853 0.006103458830731557 0.3170676461585553 0.2682889501071319 0.01829813284358739 0.2629960465000991 0.1865441577434067 0.009175775827880229 0.2966348775530438 0.2048926110450129 0.0397565313305572 0.2459453699600168 0.2351346376927418 0.00540657701314773 0.3270258619645794 0.1621621948886354 0.024325358480879 0.2957314083124638 0.1661585377625494 0.004573546253244341 0.3246947558471505 0.1768292447490129 0.03201250707557916 0.2787749544529307 0.1964096817936347 0.003168080554517023 0.3484686467031043 0.1510031853276125 0.02217545116820073 0.2732918843821889 0.2012422227025739 0.001242299764332299 0.345962663834904 0.1434782698042619 0.03478265951173927 0.2969215170752031 0.1961271029725364 0.001489613670835155 0.3321747358007664 0.1459781580249042 0.02730887245575471 0.2842678415519791 0.1869158755873165 0.003894179573750801 0.3566977042296881 0.1495327206568861 0.01869167840037952 0.2665798054759093 0.1859557542025074 0.003901444875470849 0.3055914431888457 0.2080623489065047 0.02990920335076179 0.01596166587348245 4.665789498240997e-06 0.973381670912535 0.005323665817492978 0.005323665817492978 4.665789498240997e-06 7.712835701173895e-06 7.712835701173895e-06 0.9931124377188517 7.712835701173895e-06 7.712835701173895e-06 0.006856710938343591 0.005883735663321323 0.002942584486430859 0.9852870775678457 1.433309540394963e-06 0.002942584486430859 0.002942584486430859 0.003159964440552366 0.001580189539816962 0.9810406279957673 0.006319514242023173 0.006319514242023173 0.001580189539816962 0.002736284053470294 0.001368297550439448 0.9904225392417411 0.002736284053470294 0.001368297550439448 0.001368297550439448 0.001346876213283 0.001346876213283 0.985858214880684 0.006060678792401883 0.004040477687065219 0.001346876213283 0.003863184187823696 0.001103803128860256 0.9884103460259793 0.003863184187823696 0.002207555552445632 0.0005519269170675679 0.001992050012140848 0.000996034185601377 0.9916997763168617 0.002656060563167162 0.002656060563167162 1.835906190627942e-08 0.002453250636584277 0.00153328752156981 0.9920269080204794 0.00153328752156981 0.002146596264912788 0.0003066700348838536 0.00049509018900424 0.00198023834024452 0.9920790058337645 0.00148518895649776 0.0034653864914848 0.00049509018900424 0.003618877093823874 0.001809468824828085 0.989746383696529 0.002412604914493348 0.001809468824828085 0.0006031966454975588 0.2499843622943641 0.1527803840620504 0.01391755801588791 0.1944392318758992 0.3333020579220616 0.05557640582973666 0.2257915511883766 0.1129167716469304 4.199210548416897e-05 0.4031662047535063 0.2257915511883766 0.03229192911732594 0.2826026948225592 0.1376826596276935 0.007254627952314407 0.275356693062816 0.2681106913030727 0.02899263323154426 0.3071880515089462 0.1535949099371523 1.768365358429974e-06 0.2941162947794318 0.2189536935847242 0.02614528182438717 0.3364469606368067 0.1152652932628628 0.006232076951763693 0.3271012563815696 0.1962613968082507 0.01869301595874645 0.2543101644198989 0.168103445318359 0.001437121722048514 0.3117813104875922 0.2327584846445139 0.03160947340758748 0.3201854087195716 0.1531322687526826 0.004640588782114543 0.3155450437204914 0.1821345499969342 0.02436214002820561 0.3089149287007926 0.1541119617583916 0.002764418185240581 0.3324118076116928 0.1741534173000417 0.02764346644384075 0.327406438729495 0.1594114067706331 0.004905027012847622 0.3231145948473343 0.1563458039976611 0.0288167286420287 0.3158972792372122 0.1353846482240437 0.002051454862044254 0.3261536787265968 0.1928204853645973 0.02769245358550569 0.2906973333076647 0.09468458334823029 0.00332270836713796 0.2691027083121338 0.3023252083052583 0.03986745835957489 0.1000396589331747 0.05006940313305572 9.914733293674399e-05 0.1749950426333532 0.574757089034305 0.1000396589331747 0.1999244142101285 0.100151171579743 0.0003779289493575206 0.1999244142101285 0.4992441421012849 0.0003779289493575206 0.2307464103476919 0.1154028717218464 5.933309600094932e-05 0.2307464103476919 0.3845377951821525 0.03850717930461611 0.2856906698406401 0.04288170336573431 3.30622231038815e-05 0.1714276267936256 0.4713681147920387 0.0285988229848575 0.2529998110355253 0.1204884731670446 2.362055933484504e-05 0.1084419879062736 0.4577900604686319 0.06025604686318972 0.1927701483261023 0.04819701913538194 5.976071808478852e-06 0.1506029856454755 0.59637013398353 0.01205373683770184 0.2709334550813789 0.07389385492759194 0.009855984877611175 0.1576356849929514 0.4531950852236319 0.03448593489683455 0.2320811544572478 0.09215103274870039 0.003414858006694741 0.1774742776929366 0.4641603807055702 0.03071829638885032 0.2601871744791667 0.07837076822916667 0.006271158854166667 0.1880875651041667 0.4451383463541667 0.02194498697916667 0.2063481071098799 0.1005309325946445 0.01058633425669437 0.2433841181902124 0.4126915974145891 0.02645891043397969 0.1401518927257625 0.03409279696214549 0.003790198172540643 0.1477275424231636 0.6212056485107393 0.05303192120564851 0.2618532540111772 0.142870019830539 0.02388678564990085 0.1190733729944114 0.4046331350279431 0.04768343248602849 0.2914666666666667 0.04186666666666666 0.0002666666666666666 0.1250666666666666 0.3746666666666666 0.1666666666666667 0.2698160807291666 0.1269938151041666 4.069010416666665e-05 0.1587320963541666 0.3174235026041666 0.1269938151041666 0.2195087582379466 0.1626018903919529 1.083940339923691e-05 0.260156520985085 0.2764156260839404 0.08130636489767605 0.1904740714370476 0.1619051857125905 0.009537795182152605 0.3333185000593331 0.2380888809778094 0.06667556663106682 0.2286983152636054 0.1748877285289115 3.321641156462584e-06 0.3049299798044218 0.197308806335034 0.09417184842687074 0.2541651601499055 0.1791664514499865 0.004169464483508662 0.2958311094276384 0.1791664514499865 0.08750136303897429 0.2314222146413865 0.1804670293498037 0.002123880829263621 0.3036087271377956 0.2080677547160777 0.07431039332567269 0.2658020094748345 0.171799014114501 0.001621177686311064 0.2739057159714149 0.2090760639987712 0.0777960187541675 0.2483217408056973 0.1610738533694728 0.008949331685799318 0.3131983750531462 0.2035792344281462 0.0648774646577381 0.2680175062071287 0.1351352943651896 0.002253082523250431 0.2477473382990363 0.2725219879644826 0.07432479064091234</probabilities>
		</cpt>
		<cpt id="ChallengeMyself">
			<state id="Agree" />
			<state id="Disagree" />
			<state id="NA" />
			<state id="SSomewhat_agree" />
			<state id="SStrongly_agree" />
			<state id="SStrongly_disagree" />
			<parents>ChangeWorld JobSatisfaction</parents>
			<probabilities>0.5404740740740741 2.962962962962964e-05 2.962962962962964e-05 0.04056296296296297 0.4188740740740742 2.962962962962964e-05 0.4856509951729154 0.04288170336573432 3.306222310388151e-05 0.1000132248892416 0.371387952125901 3.306222310388151e-05 0.471413242123971 8.38321345338095e-06 8.38321345338095e-06 0.1214308468722231 0.3999882635011652 0.00715088107573395 0.4693842765488843 0.006804558077180885 0.003403236617830125 0.119048166235756 0.4013578473618691 1.915158479364167e-06 0.5319736749982498 0.02325701883357838 0.002908352586991529 0.1250003500665126 0.3168592032486173 1.400266050549605e-06 0.5773983996203298 0.01238426948934845 0.003096365980346019 0.08513951364320085 0.3204330692045959 0.001548382062178947 0.556424095517113 0.007821426910607993 0.006704109866602891 0.09720679043101615 0.3318433696720876 2.076025722789115e-07 0.5302196089626094 0.006868207143638886 0.001373704237402974 0.08928575073717755 0.3722526504083269 7.85108439962836e-08 0.5337077494542546 0.01067420648194182 0.002809040422207797 0.08539328404941507 0.3674156670484494 5.254373135945451e-08 0.508869916972971 0.00653608705539467 0.005602381051830401 0.06722697728707212 0.4108307865987229 0.0009338510340090593 0.4359346164936562 0.00294586216839677 0.001473111303344867 0.0721651528258362 0.4874808967704728 3.604382929642445e-07 0.4854681069958848 0.0001286008230452675 0.0001286008230452675 0.199974279835391 0.2856224279835392 0.02867798353909465 0.269090077732053 0.1154549611339735 0.0002286236854138088 0.269090077732053 0.3459076360310928 0.0002286236854138088 0.4867881036712206 0.02633946140439647 0.02633946140439647 0.1973632428177883 0.2499859447911396 0.01318378591105864 0.455769113708303 0.02041484051619187 0.006810019478938399 0.2721040297053811 0.2380919771122474 0.006810019478938399 0.4943077234085566 0.07386659857214296 0.0113685935288923 0.1931809718365306 0.2272707927692128 5.319884664900465e-06 0.4649097456558633 0.05263254822962087 0.005849320152884144 0.2777768333489164 0.1988301359694231 1.416643292052348e-06 0.4988946353833117 0.0353207255461326 8.086061570507224e-07 0.2516552168034829 0.2141278050547588 8.086061570507224e-07 0.5368283882977509 0.03495650939152534 0.002497134138883879 0.233458073436525 0.1872658855769968 0.004994009158317837 0.5674269555334819 0.03112047750722615 0.001037522260105417 0.1960580597241984 0.2033194627148828 0.001037522260105417 0.5240728529240596 0.02592640679328917 0.001852414972843016 0.1851851219131637 0.2629626339484514 5.694481933117171e-07 0.4999967243508483 0.02201400012447467 1.637824575885326e-06 0.1446543043667679 0.3270424491373579 0.006290884195975538 0.01075714680621884 4.766126187956953e-06 0.9838475983490139 4.766126187956953e-06 0.005380956466203401 4.766126187956953e-06 7.818852817914556e-06 7.818852817914556e-06 0.9930646775505096 7.818852817914556e-06 7.818852817914556e-06 0.006904047038218552 1.458865819357398e-06 1.458865819357398e-06 0.9940580395177572 1.458865819357398e-06 0.005936125018965254 1.458865819357398e-06 0.001602986666666667 0.003205546666666667 0.9935876266666668 4.266666666666668e-07 0.001602986666666667 4.266666666666668e-07 0.002743791830862576 0.001372052292487646 0.990396259460812 0.002743791830862576 0.002743791830862576 3.127541127165822e-07 0.0020381193534615 0.000679424327492819 0.9932061407976143 0.000679424327492819 0.003396814379430181 7.681450847855497e-08 0.002771668930307983 5.115573596478439e-08 0.9905762437877754 0.0005543747106503686 0.006097610259794405 5.115573596478439e-08 0.00166557459264752 0.0003331297037590744 0.9946701280367614 0.0003331297037590744 0.002998019481535965 1.848153696305545e-08 0.004302412374361238 0.0003073297766325862 0.9932390123351919 0.0006146438226117132 0.001536585960549094 1.573065345921002e-08 0.003468821006448317 4.088614003192225e-08 0.9930622353286832 0.001486660937700725 0.001982200954887623 4.088614003192225e-08 0.003026694271123637 6.099623689816079e-08 0.9933411018140647 0.0006053876512142459 0.003026694271123637 6.099623689816079e-08 0.321380937724428 0.05360623781676413 5.129783523135323e-05 0.1607161177798297 0.4641941110085154 5.129783523135323e-05 0.4914351851851852 0.03393518518518518 4.629629629629628e-05 0.1525462962962963 0.3219907407407407 4.629629629629628e-05 0.4625715242269297 0.006810019478938399 7.608960311663015e-06 0.1632654614073533 0.3605353664475286 0.006810019478938399 0.5246434800451421 0.0140863855545296 0.00352313532368934 0.1232399712732123 0.3274628090694573 0.007044218733969427 0.5286976218125514 0.01812823583490589 1.512072385929259e-06 0.1842898703246722 0.265860127256012 0.00302263269947259 0.494671997363907 0.009132783942005956 0.006088650942495603 0.2100455619096892 0.2770164878989169 0.003044517942985252 0.5673908319294477 0.009782793647874446 0.003261062205984698 0.1673913034935433 0.2499999017574801 0.002174106965669741 0.5639096186794614 0.01754391811927682 0.001253197689730026 0.154135343259323 0.2625312907328459 0.000626631519362842 0.5580994712056233 0.01316547668295203 0.00286210283693514 0.1408128304419391 0.2844876546280635 0.0005724642044869412 0.5367962598228788 0.008658126898225198 0.000865924937041782 0.1246753560980672 0.327272607088836 0.00173172515495105 0.4731175586836789 0.009216960241885907 3.920609231309671e-07 0.1013826420515136 0.4116737708105938 0.004608676151404518 0.202123730378578 0.0212927054478301 1.846722068328716e-05 0.07447830101569713 0.6914312096029547 0.0106555863342567 0.3933836281651058 4.335761359694762e-05 4.335761359694762e-05 0.1147676031911204 0.491718695802983 4.335761359694762e-05 0.3252955167509293 0.01807761722064852 5.976071808478852e-06 0.07229254066716866 0.5843223732176367 5.976071808478852e-06 0.2690746666666666 0.01205066666666667 0.008034666666666667 0.05622666666666667 0.6546106666666667 2.666666666666667e-06 0.3759966773014185 0.008002518478542669 2.645460654063692e-06 0.07600143913059582 0.5399940741681349 2.645460654063692e-06 0.3048997278232864 0.01088980343765315 0.001815423055380522 0.06352120965483442 0.617058412973465 0.001815423055380522 0.3490395860902363 0.00698128745846941 0.00698128745846941 0.05061117248803151 0.5828957698486892 0.003490896656104441 0.3406248116357578 0.009375170317368708 0.004166842623683345 0.05833345063801113 0.587499544316444 1.804687350549329e-07 0.2948472117588649 0.00572533709680986 0.002862744278373671 0.06106879825324283 0.6316789667281897 0.003816941884519068 0.3090375992208528 0.007288967425120436 0.005831244566203854 0.03498570174453548 0.6428561339127499 3.531305375282416e-07 0.189771156106679 0.005383871449493198 0.002692086272016033 0.04979832687786643 0.7469706878444522 0.005383871449493198 0.317895400126024 0.09105229993698802 0.0003150598613736609 0.1817895400126024 0.2271581600504096 0.1817895400126024 0.3323471400394477 0.08382642998027615 0.0009861932938856016 0.2495069033530572 0.1666666666666667 0.1666666666666667 0.317895400126024 0.09105229993698802 0.04568367989918085 0.2271581600504096 0.317895400126024 0.0003150598613736609 0.2701985226223453 0.08114035087719297 0.0001154201292705448 0.2161819021237304 0.3242151431209602 0.1081486611265005 0.5996656378600824 0.1143261316872428 0.0001286008230452675 0.199974279835391 0.08577674897119343 0.0001286008230452675 0.4073716042038469 0.07408784453698196 0.02471247273448344 0.1975262740432282 0.2469016458457268 0.0494001586357327 0.3703400753519731 0.1481509022407297 0.02471247273448345 0.2839331746976007 0.1234632163394805 0.04940015863573271 0.4025875823794658 0.07792577176552203 6.93721817551162e-06 0.2662296219216094 0.240256677072494 0.01299340964273327 0.47893880832945 0.04737169119998538 4.568588214869841e-06 0.1684210045411767 0.2842073042588379 0.0210566230823351 0.4465760601577909 0.04855461045364892 1.540927021696253e-05 0.1456330128205128 0.3203741370808679 0.03884677021696252 0.3237955381511807 0.04762964281476207 1.483327400023733e-05 0.1333362999881334 0.4190251572327043 0.07619852853921918</probabilities>
		</cpt>
		<cpt id="CheckInCode">
			<state id="SA_few_times_a_month" />
			<state id="SA_few_times_a_week" />
			<state id="SJust_a_few_times_over_the_year" />
			<state id="SMultiple_times_a_day" />
			<state id="NA" />
			<state id="Never" />
			<state id="SOnce_a_day" />
			<parents>Gender JobSatisfaction</parents>
			<probabilities>0.03860474230844601 0.2306486380560455 0.03860474230844601 0.1922398589065256 0.4611013129531648 0.0001959631589261219 0.03860474230844601 0.04182857142857143 0.1666285714285714 0.08342857142857144 0.2082285714285714 0.3330285714285715 0.04182857142857143 0.1250285714285714 0.02045714285714286 0.1836571428571429 0.02045714285714286 0.4692571428571429 0.2448571428571429 0.02045714285714286 0.04085714285714286 0.09574990106846061 0.07447566284131381 0.08511278195488721 0.3191294024535022 0.2978551642263553 1.582904629996043e-05 0.1276612584091809 0.07143416533345266 0.2232079925712943 0.01786693219068503 0.3035588422854457 0.3035588422854457 0.0267948043811463 0.05357842095253012 0.06280378275570583 0.1256042635249366 0.04348055790363483 0.3912986052409129 0.3236673182586645 3.301986475063399e-06 0.05314217032967034 0.07633683958338067 0.1450381364071023 0.03053597503423293 0.358775504303125 0.2748072526296875 0.01908575889694599 0.09542053314552557 0.0635298488898965 0.1952938286998989 0.0447064232027533 0.359998803462402 0.2705875314484718 0.00941250003935979 0.0564710642572178 0.0690379786400114 0.1631798277428309 0.03138123899888362 0.3828441423160762 0.2615057590279978 0.02301307463418856 0.0690379786400114 0.04229698484125832 0.205437498703938 0.04833922609543164 0.3806624950749642 0.2658599112456712 0.01812801982456504 0.03927586421417166 0.02739964580873672 0.1324203069657615 0.01826741440377804 0.4840112160566706 0.2922343565525383 0.004569067296340023 0.04109799291617473 0.05703545192181556 0.1064644004984914 0.05323322510822511 0.4030380919585465 0.2965757411780139 0.02281541059950151 0.06083767873540601 0.06756908156493911 0.1621617739577079 0.04955142587107839 0.3423383308963152 0.3243206752024544 0.01802052840682212 0.03603818410068284 0.05699507389162563 0.1658030405979277 0.04835952097842706 0.3799647528452523 0.27288389672159 0.01554441990827247 0.06044929505690506 0.05014473407169454 0.1465766600000955 0.03857290296028643 0.3886207940803817 0.2873672718555608 0.01542924073747022 0.07328839629451075 0.05522521183291215 0.1537807907687506 0.03143593415874425 0.3899743333908461 0.2914187544550076 0.01359397590311833 0.06457099949062096 0.06076390434020974 0.1549479143909812 0.03255210409458695 0.3962673134150776 0.2612846999321748 0.01171877468243474 0.08246528914453496 0.04262936303104457 0.1623820350310581 0.02375530059625982 0.4077448466832598 0.2792059732049844 0.007809971987562365 0.07647250946583101 0.04667796312738576 0.1537737620828296 0.02220967865601898 0.4253717197150008 0.2685864815253968 0.008846230983195584 0.07453416391017255 0.04434954273575949 0.1445466491002919 0.02447437901427028 0.4341327122489322 0.2794020988138675 0.006734563461205532 0.06636005462567317 0.03418804147390667 0.1323491330536566 0.01579902431780576 0.4794094568448569 0.2698782613619606 0.005698014894032016 0.06267806805378132 0.03920809014177728 0.1230590091924101 0.02173914867289544 0.4689440502762705 0.2729037071254854 0.01281057858880028 0.06133541600236093 0.0484882732306161 0.05454865935342056 0.0484882732306161 0.1393940650726831 0.6545268855110632 0.03030711486220268 0.02424672873939821 0.04132913579298959 0.09091258110339002 0.05785695089645641 0.1487599339655239 0.6198026644143281 0.008273505586055977 0.03306522824125619 0.04400156913609081 0.06400125168081232 0.0240018865913693 0.1360001088418098 0.6799914740582349 0.0160020135734807 0.0360016961182022 0.04508237610725472 0.07377078072249135 0.0143447997337869 0.1372951052276582 0.6721289341259983 0.004098940942630957 0.05327906314017947 0.04577494774584603 0.07042275893990585 0.01936657860935337 0.147887308406951 0.6619702275973414 0.012324346839622 0.04225383186098034 0.02146994225589461 0.05697776283993321 0.02807604841106459 0.170107330747219 0.6738229250789294 0.01321230956193215 0.03633368110502705 0.02496335274037992 0.06534512248678005 0.01027907283259806 0.1806167197628677 0.6769453806458946 0.005139574864874406 0.03671077666660541 0.02535733246769795 0.079299229726081 0.01890274647096835 0.1682803081095676 0.6565236345764708 0.009220867475873954 0.04241588117334045 0.02411169635713615 0.06514383792126061 0.01395941390828062 0.1933164038380617 0.659898384716714 0.01099833152736442 0.03257193173118243 0.01862898094759172 0.06557381334014703 0.009687108110914517 0.2004470619600282 0.6460503916544421 0.007451639901745216 0.05216100408513123 0.02119613320093498 0.05374721222895149 0.01968212952521329 0.1794095173138524 0.6850867450048995 0.0121121111466048 0.02876615157954348 0.0007288629737609328 0.07725947521865889 0.0007288629737609328 0.4599125364431487 0.2303206997084548 0.07725947521865889 0.1537900874635568 0.002915451895043731 0.1661807580174927 0.002915451895043731 0.4927113702623906 0.1661807580174927 0.002915451895043731 0.1661807580174927 0.1003541912632822 0.1003541912632822 0.001180637544273908 0.5962219598583235 0.1995277449822905 0.001180637544273908 0.001180637544273908 0.06277805239742956 0.1873455264458725 0.125061789421651 0.2496292634700939 0.3119130004943154 0.0004943153732081067 0.06277805239742956 0.001763668430335096 0.1252204585537919 0.001763668430335096 0.4955908289241622 0.2486772486772487 0.001763668430335096 0.1252204585537919 0.07416180758017493 0.1111516034985423 0.03717201166180759 0.4440597667638485 0.296100583090379 0.0001822157434402333 0.03717201166180759 0.0001587301587301587 0.0346031746031746 0.0001587301587301587 0.4479365079365079 0.379047619047619 0.0001587301587301587 0.1379365079365079 0.09678580426879746 0.1451607097865601 0.0484108987510348 0.3547853003635316 0.2741604578339272 3.599323327214483e-05 0.08066083576287658 0.01891044483637076 0.07549480697628845 0.03777189888300999 0.3961395257691554 0.3961395257691554 0.01891044483637076 0.05663335292964922 0.05133928571428571 0.07696428571428572 0.05133928571428571 0.4613392857142857 0.2307142857142857 0.02571428571428571 0.1025892857142857 0.0001311819493637675 0.09379509379509381 0.03135248589794044 0.5308933490751673 0.2499016135379772 0.0001311819493637675 0.09379509379509381</probabilities>
		</cpt>
		<cpt id="Overpaid">
			<state id="SGreatly_overpaid" />
			<state id="SGreatly_underpaid" />
			<state id="NA" />
			<state id="SNeither_underpaid_nor_overpaid" />
			<state id="SSomewhat_overpaid" />
			<state id="SSomewhat_underpaid" />
			<parents>JobSatisfaction Salary</parents>
			<probabilities>0.01495818915801615 0.4477004036908881 3.604382929642445e-05 0.1641796424452134 0.04480247981545559 0.3283232410611303 0.1666666666666667 0.1666666666666667 0.1666666666666667 0.1666666666666667 0.1666666666666667 0.1666666666666667 0.00205761316872428 0.1255144032921811 0.00205761316872428 0.1255144032921811 0.1255144032921811 0.6193415637860082 0.1666666666666667 0.1666666666666667 0.1666666666666667 0.1666666666666667 0.1666666666666667 0.1666666666666667 0.1666666666666667 0.1666666666666667 0.1666666666666667 0.1666666666666667 0.1666666666666667 0.1666666666666667 0.1666666666666667 0.1666666666666667 0.1666666666666667 0.1666666666666667 0.1666666666666667 0.1666666666666667 0.1666666666666667 0.1666666666666667 0.1666666666666667 0.1666666666666667 0.1666666666666667 0.1666666666666667 0.1666666666666667 0.1666666666666667 0.1666666666666667 0.1666666666666667 0.1666666666666667 0.1666666666666667 0.1666666666666667 0.1666666666666667 0.1666666666666667 0.1666666666666667 0.1666666666666667 0.1666666666666667 0.1666666666666667 0.1666666666666667 0.1666666666666667 0.1666666666666667 0.1666666666666667 0.1666666666666667 0.1666666666666667 0.1666666666666667 0.1666666666666667 0.1666666666666667 0.1666666666666667 0.1666666666666667 0.1666666666666667 0.1666666666666667 0.1666666666666667 0.1666666666666667 0.1666666666666667 0.1666666666666667 0.0008503401360544216 0.4600340136054422 0.0008503401360544216 0.1539115646258503 0.0008503401360544216 0.3835034013605442 0.001377410468319559 0.5964187327823691 0.001377410468319559 0.001377410468319559 0.001377410468319559 0.3980716253443526 0.0009861932938856016 0.4980276134122288 0.0009861932938856016 0.1666666666666667 0.1666666666666667 0.1666666666666667 0.004629629629629629 0.004629629629629629 0.004629629629629629 0.3935185185185185 0.004629629629629629 0.5879629629629629 0.004629629629629629 0.3935185185185185 0.004629629629629629 0.3935185185185185 0.004629629629629629 0.1990740740740741 0.01041666666666667 0.01041666666666667 0.01041666666666667 0.3229166666666667 0.01041666666666667 0.6354166666666666 0.04166666666666666 0.04166666666666666 0.04166666666666666 0.04166666666666666 0.7916666666666667 0.04166666666666666 0.04166666666666666 0.04166666666666666 0.04166666666666666 0.04166666666666666 0.04166666666666666 0.7916666666666667 1.416643292052348e-06 0.01754512717206833 0.9619815439711912 0.01169722366247624 0.002925368398088098 0.005849320152884144 0.01541934496479951 0.4153275176002449 3.826140189776553e-05 0.1692301805938169 3.826140189776553e-05 0.3999464340373431 0.1666666666666667 0.1666666666666667 0.1666666666666667 0.1666666666666667 0.1666666666666667 0.1666666666666667 0.00205761316872428 0.2489711934156378 0.00205761316872428 0.2489711934156378 0.00205761316872428 0.4958847736625514 0.1666666666666667 0.1666666666666667 0.1666666666666667 0.1666666666666667 0.1666666666666667 0.1666666666666667 0.1666666666666667 0.1666666666666667 0.1666666666666667 0.1666666666666667 0.1666666666666667 0.1666666666666667 0.1666666666666667 0.1666666666666667 0.1666666666666667 0.1666666666666667 0.1666666666666667 0.1666666666666667 0.1666666666666667 0.1666666666666667 0.1666666666666667 0.1666666666666667 0.1666666666666667 0.1666666666666667 0.1666666666666667 0.1666666666666667 0.1666666666666667 0.1666666666666667 0.1666666666666667 0.1666666666666667 0.1666666666666667 0.1666666666666667 0.1666666666666667 0.1666666666666667 0.1666666666666667 0.1666666666666667 0.1666666666666667 0.1666666666666667 0.1666666666666667 0.1666666666666667 0.1666666666666667 0.1666666666666667 0.1666666666666667 0.1666666666666667 0.1666666666666667 0.1666666666666667 0.1666666666666667 0.1666666666666667 0.1666666666666667 0.1666666666666667 0.1666666666666667 0.1666666666666667 0.1666666666666667 0.1666666666666667 0.0009861932938856016 0.4980276134122288 0.0009861932938856016 0.2495069033530572 0.0009861932938856016 0.2495069033530572 0.001157407407407407 0.2719907407407407 0.001157407407407407 0.1817129629629629 0.09143518518518519 0.4525462962962963 0.001666666666666667 0.001666666666666667 0.001666666666666667 0.2216666666666667 0.001666666666666667 0.7716666666666667 0.001157407407407407 0.5428240740740741 0.001157407407407407 0.09143518518518519 0.001157407407407407 0.3622685185185185 0.1666666666666667 0.1666666666666667 0.1666666666666667 0.1666666666666667 0.1666666666666667 0.1666666666666667 0.04166666666666666 0.7916666666666667 0.04166666666666666 0.04166666666666666 0.04166666666666666 0.04166666666666666 0.04166666666666666 0.04166666666666666 0.04166666666666666 0.04166666666666666 0.04166666666666666 0.7916666666666667 0.04166666666666666 0.04166666666666666 0.04166666666666666 0.7916666666666667 0.04166666666666666 0.04166666666666666 2.563116749967961e-06 0.01181340510060233 0.9803024477764962 2.563116749967961e-06 0.003939510444700756 0.003939510444700756 0.006178880148544044 0.3518448818798851 0.01235148732231799 0.2222201312306322 0.04321452319118773 0.364190096227433 0.1666666666666667 0.1666666666666667 0.1666666666666667 0.1666666666666667 0.1666666666666667 0.1666666666666667 0.04018737672583827 0.1600098619329389 0.0002465483234714004 0.1999506903353057 0.04018737672583827 0.5594181459566075 0.1666666666666667 0.1666666666666667 0.1666666666666667 0.1666666666666667 0.1666666666666667 0.1666666666666667 0.1666666666666667 0.1666666666666667 0.1666666666666667 0.1666666666666667 0.1666666666666667 0.1666666666666667 0.04166666666666666 0.04166666666666666 0.04166666666666666 0.04166666666666666 0.04166666666666666 0.7916666666666667 0.04166666666666666 0.7916666666666667 0.04166666666666666 0.04166666666666666 0.04166666666666666 0.04166666666666666 0.1666666666666667 0.1666666666666667 0.1666666666666667 0.1666666666666667 0.1666666666666667 0.1666666666666667 0.1666666666666667 0.1666666666666667 0.1666666666666667 0.1666666666666667 0.1666666666666667 0.1666666666666667 0.1666666666666667 0.1666666666666667 0.1666666666666667 0.1666666666666667 0.1666666666666667 0.1666666666666667 0.1666666666666667 0.1666666666666667 0.1666666666666667 0.1666666666666667 0.1666666666666667 0.1666666666666667 0.1666666666666667 0.1666666666666667 0.1666666666666667 0.1666666666666667 0.1666666666666667 0.1666666666666667 0.03586999603646452 0.2855727308759413 0.0001981767736821244 0.1072136345620293 0.03586999603646452 0.5352754657154182 0.0004166666666666667 0.3154166666666667 0.0004166666666666667 0.2629166666666667 0.0004166666666666667 0.4204166666666667 0.0004166666666666667 0.2629166666666667 0.0004166666666666667 0.2104166666666667 0.05291666666666667 0.4729166666666667 0.0004616805170821791 0.2220683287165282 0.0004616805170821791 0.2220683287165282 0.05586334256694367 0.4990766389658356 0.001666666666666667 0.3316666666666667 0.001666666666666667 0.1116666666666667 0.2216666666666667 0.3316666666666667 0.002604166666666667 0.002604166666666667 0.002604166666666667 0.5651041666666666 0.002604166666666667 0.4244791666666667 0.1990740740740741 0.004629629629629629 0.004629629629629629 0.5879629629629629 0.004629629629629629 0.1990740740740741 0.004629629629629629 0.004629629629629629 0.004629629629629629 0.1990740740740741 0.3935185185185185 0.3935185185185185 4.787896198410419e-07 0.006791630757445179 0.9847175141242938 0.001698266781576175 0.001698266781576175 0.005093842765488844 0.003462148236226714 0.3079567974633373 0.003462148236226714 0.1833908045977011 0.058824811732065 0.4429032897344432 0.01851851851851852 0.01851851851851852 0.01851851851851852 0.01851851851851852 0.4629629629629629 0.4629629629629629 7.876496534341524e-05 0.3110428481411468 7.876496534341524e-05 0.06671392564587271 0.02229048519218651 0.599795211090107 0.01041666666666667 0.01041666666666667 0.01041666666666667 0.3229166666666667 0.01041666666666667 0.6354166666666666 0.04166666666666666 0.04166666666666666 0.04166666666666666 0.7916666666666667 0.04166666666666666 0.04166666666666666 0.1666666666666667 0.1666666666666667 0.1666666666666667 0.1666666666666667 0.1666666666666667 0.1666666666666667 0.1666666666666667 0.1666666666666667 0.1666666666666667 0.1666666666666667 0.1666666666666667 0.1666666666666667 0.1666666666666667 0.1666666666666667 0.1666666666666667 0.1666666666666667 0.1666666666666667 0.1666666666666667 0.1666666666666667 0.1666666666666667 0.1666666666666667 0.1666666666666667 0.1666666666666667 0.1666666666666667 0.1666666666666667 0.1666666666666667 0.1666666666666667 0.1666666666666667 0.1666666666666667 0.1666666666666667 0.1666666666666667 0.1666666666666667 0.1666666666666667 0.1666666666666667 0.1666666666666667 0.1666666666666667 0.04166666666666666 0.04166666666666666 0.04166666666666666 0.04166666666666666 0.04166666666666666 0.7916666666666667 8.608815426997245e-05 0.4184745179063361 8.608815426997245e-05 0.209280303030303 0.02332988980716254 0.3487431129476584 7.544892108042855e-05 0.1087218952768975 7.544892108042855e-05 0.08699260600573411 0.08699260600573411 0.7171419948694733 0.02508427523299624 0.1999801705334127 9.914733293674399e-05 0.2499504263335317 0.05006940313305572 0.4748165774340671 0.0001627604166666667 0.1290690104166667 0.0001627604166666667 0.1935221354166667 0.0001627604166666667 0.6769205729166666 0.0007407407407407406 0.0007407407407407406 0.0007407407407407406 0.2140740740740741 0.142962962962963 0.6407407407407407 0.00205761316872428 0.00205761316872428 0.00205761316872428 0.6193415637860082 0.1255144032921811 0.2489711934156378 0.1255144032921811 0.2489711934156378 0.00205761316872428 0.2489711934156378 0.1255144032921811 0.2489711934156378 0.002604166666666667 0.1432291666666667 0.002604166666666667 0.5651041666666667 0.1432291666666667 0.1432291666666667 0.001823290787577568 0.01093905350900185 0.971740444347121 0.00546959587614728 0.002734867059719996 0.007292748420432135 0.005901095732410611 0.2182886389850058 0.002951268742791234 0.2271381199538639 0.032449538638985 0.5132713379469435 0.01851851851851852 0.01851851851851852 0.01851851851851852 0.4629629629629629 0.01851851851851852 0.4629629629629629 7.544892108042855e-05 0.1739097630903878 7.544892108042855e-05 0.2390976309038781 0.130451184548061 0.4563905236155123 0.1666666666666667 0.1666666666666667 0.1666666666666667 0.1666666666666667 0.1666666666666667 0.1666666666666667 0.1666666666666667 0.1666666666666667 0.1666666666666667 0.1666666666666667 0.1666666666666667 0.1666666666666667 0.1666666666666667 0.1666666666666667 0.1666666666666667 0.1666666666666667 0.1666666666666667 0.1666666666666667 0.1666666666666667 0.1666666666666667 0.1666666666666667 0.1666666666666667 0.1666666666666667 0.1666666666666667 0.1666666666666667 0.1666666666666667 0.1666666666666667 0.1666666666666667 0.1666666666666667 0.1666666666666667 0.1666666666666667 0.1666666666666667 0.1666666666666667 0.1666666666666667 0.1666666666666667 0.1666666666666667 0.1666666666666667 0.1666666666666667 0.1666666666666667 0.1666666666666667 0.1666666666666667 0.1666666666666667 0.1666666666666667 0.1666666666666667 0.1666666666666667 0.1666666666666667 0.1666666666666667 0.1666666666666667 0.01851851851851852 0.01851851851851852 0.01851851851851852 0.01851851851851852 0.01851851851851852 0.9074074074074074 7.544892108042855e-05 0.2608269201750415 7.544892108042855e-05 0.1521804738192244 0.0652633167345707 0.5215783914290025 8.23045267489712e-05 0.2726748971193416 8.23045267489712e-05 0.1363786008230453 0.1136625514403292 0.477119341563786 7.233796296296296e-05 0.1702112268518519 7.233796296296296e-05 0.2552806712962963 0.04260706018518518 0.5317563657407407 0.0001734304543877905 0.1333680194242109 0.0001734304543877905 0.3331599028789455 0.0001734304543877905 0.5329517863336802 0.0009861932938856016 0.2495069033530572 0.0009861932938856016 0.08382642998027615 0.0009861932938856016 0.6637080867850098 0.00205761316872428 0.00205761316872428 0.00205761316872428 0.2489711934156378 0.00205761316872428 0.742798353909465 0.001377410468319559 0.1997245179063361 0.001377410468319559 0.3980716253443526 0.001377410468319559 0.3980716253443526 0.00205761316872428 0.1255144032921811 0.00205761316872428 0.4958847736625514 0.1255144032921811 0.2489711934156378 1.030088472238704e-07 0.003934010884326834 0.9819035087285578 0.004720792459422756 0.0007868845839431459 0.008654700334902366 0.005000447580894479 0.2233331764493085 4.614236025555484e-07 0.2333331487638923 0.05666697120624436 0.4816657945760579 0.006666666666666667 0.006666666666666667 0.006666666666666667 0.2466666666666667 0.4866666666666667 0.2466666666666667 2.885503231763619e-05 0.2399873037857802 2.885503231763619e-05 0.1866632040627886 0.02669090489381348 0.5466008771929824 0.00205761316872428 0.1255144032921811 0.00205761316872428 0.6193415637860082 0.00205761316872428 0.2489711934156378 0.1666666666666667 0.1666666666666667 0.1666666666666667 0.1666666666666667 0.1666666666666667 0.1666666666666667 0.4629629629629629 0.01851851851851852 0.01851851851851852 0.01851851851851852 0.01851851851851852 0.4629629629629629 0.04166666666666666 0.04166666666666666 0.04166666666666666 0.04166666666666666 0.7916666666666667 0.04166666666666666 0.1666666666666667 0.1666666666666667 0.1666666666666667 0.1666666666666667 0.1666666666666667 0.1666666666666667 0.01851851851851852 0.01851851851851852 0.01851851851851852 0.9074074074074076 0.01851851851851852 0.01851851851851852 0.1666666666666667 0.1666666666666667 0.1666666666666667 0.1666666666666667 0.1666666666666667 0.1666666666666667 0.1666666666666667 0.1666666666666667 0.1666666666666667 0.1666666666666667 0.1666666666666667 0.1666666666666667 0.3229166666666667 0.01041666666666667 0.01041666666666667 0.3229166666666667 0.01041666666666667 0.3229166666666667 0.02274544459874595 0.1704540672474014 2.104111433741531e-05 0.2499894794428313 0.03410764634095022 0.5226823212557337 0.01151429063360881 0.126441976584022 2.152203856749311e-05 0.2643551997245179 2.152203856749311e-05 0.5976454889807162 0.01088757852545574 0.1739122056499788 1.927005048753228e-05 0.239122056499788 0.05436081242532856 0.5216980768489614 4.629629629629629e-05 0.1186574074074074 4.629629629629629e-05 0.3050462962962963 0.08476851851851852 0.4914351851851852 0.0001734304543877905 0.03347207769684356 0.0001734304543877905 0.2332639611515782 0.03347207769684356 0.6994450225459591 0.0005144032921810699 0.0005144032921810699 0.0005144032921810699 0.3523662551440329 0.05915637860082305 0.5869341563786008 0.0007407407407407406 0.07185185185185185 0.0007407407407407406 0.4985185185185185 0.07185185185185185 0.3562962962962963 0.002604166666666667 0.002604166666666667 0.002604166666666667 0.5651041666666666 0.1432291666666667 0.2838541666666667 0.0007519031304920173 0.004887240892345312 0.9759397353348054 0.006015060281941666 0.001127842927024135 0.01127821743339131 0.01054045475530932 0.1422925323176362 0.003952850877192982 0.2555993190212373 0.04874855724838412 0.5388662857802401 0.1990740740740741 0.1990740740740741 0.004629629629629629 0.1990740740740741 0.004629629629629629 0.3935185185185185 0.008707391993658343 0.1739125049544193 0.008707391993658343 0.2782525762980578 0.02609740388426476 0.5043227308759413 0.3229166666666667 0.01041666666666667 0.01041666666666667 0.01041666666666667 0.01041666666666667 0.6354166666666666 0.01851851851851852 0.01851851851851852 0.01851851851851852 0.9074074074074076 0.01851851851851852 0.01851851851851852 0.04166666666666666 0.04166666666666666 0.04166666666666666 0.7916666666666667 0.04166666666666666 0.04166666666666666 0.04166666666666666 0.04166666666666666 0.04166666666666666 0.04166666666666666 0.04166666666666666 0.7916666666666667 0.04166666666666666 0.04166666666666666 0.04166666666666666 0.7916666666666667 0.04166666666666666 0.04166666666666666 0.1666666666666667 0.1666666666666667 0.1666666666666667 0.1666666666666667 0.1666666666666667 0.1666666666666667 0.1666666666666667 0.1666666666666667 0.1666666666666667 0.1666666666666667 0.1666666666666667 0.1666666666666667 0.04166666666666666 0.04166666666666666 0.04166666666666666 0.04166666666666666 0.7916666666666667 0.04166666666666666 0.01041666666666667 0.3229166666666666 0.01041666666666667 0.6354166666666666 0.01041666666666667 0.01041666666666667 8.87989059974781e-06 0.1764700658887882 8.87989059974781e-06 0.2352904612215178 0.01471397872378212 0.5735077343847124 0.01274501949473909 0.1464976232441382 6.676280510601933e-06 0.2802502269935374 0.02548336270896758 0.5350170912781071 0.009537795182152605 0.09524445235552391 1.483327400023733e-05 0.3142725762430283 0.06667556663106682 0.5142547763142281 1.927005048753228e-05 0.04349250395036035 1.927005048753228e-05 0.3260685242995337 0.07609742937526497 0.554303002273866 6.941552131056503e-05 0.1041926974871581 0.02089407191448008 0.3749132305983618 0.06254338470081909 0.4373871997778703 0.03863740283493369 0.03863740283493369 0.0002286236854138088 0.3843164151806127 0.1154549611339735 0.4227251943301326 0.0001734304543877905 0.1000693721817551 0.0001734304543877905 0.4663544918487686 0.1333680194242109 0.2998612556364897 0.04786501377410468 0.0003443526170798898 0.0003443526170798898 0.2854683195592286 0.2379476584022038 0.428030303030303 0.0003105750407805447 0.004037282756108423 0.9816769400771218 0.005279518661217716 0.0006211340170578679 0.008074549447713625 0.00476957749582934 0.1120827053422927 0.001589929263341537 0.3195547525121218 0.05484903715751224 0.5071539982289023 0.004629629629629629 0.004629629629629629 0.004629629629629629 0.1990740740740741 0.3935185185185185 0.3935185185185185 0.005499318184080344 0.1153861466949347 4.976758537629271e-06 0.2747220480356734 0.04395970816287935 0.5604278021638947 0.00462962962962963 0.00462962962962963 0.00462962962962963 0.587962962962963 0.3935185185185185 0.00462962962962963 0.01041666666666667 0.01041666666666667 0.01041666666666667 0.6354166666666666 0.01041666666666667 0.3229166666666667 0.01041666666666667 0.01041666666666667 0.01041666666666667 0.6354166666666666 0.01041666666666667 0.3229166666666667 0.006666666666666667 0.006666666666666667 0.006666666666666667 0.006666666666666667 0.4866666666666667 0.4866666666666667 0.01851851851851852 0.01851851851851852 0.01851851851851852 0.9074074074074076 0.01851851851851852 0.01851851851851852 0.1666666666666667 0.1666666666666667 0.1666666666666667 0.1666666666666667 0.1666666666666667 0.1666666666666667 0.1666666666666667 0.1666666666666667 0.1666666666666667 0.1666666666666667 0.1666666666666667 0.1666666666666667 0.04166666666666666 0.04166666666666666 0.04166666666666666 0.7916666666666667 0.04166666666666666 0.04166666666666666 0.01041666666666667 0.3229166666666667 0.01041666666666667 0.3229166666666667 0.01041666666666667 0.3229166666666667 2.523379107430342e-06 0.1328130125613812 2.523379107430342e-06 0.2695296926019571 0.05078300453703564 0.5468692435414112 0.008002518478542669 0.08000137563954011 2.645460654063692e-06 0.3879964868282514 0.02800220102326418 0.4959947725697476 0.009094135391713247 0.04545702722439481 3.412433542856753e-06 0.3863591381557844 0.03636630426622442 0.5227199825283403 0.005560473327025019 0.03889278919039915 5.087349795997273e-06 0.3666605618469114 0.07222510505377329 0.5166559832320951 1.808449074074074e-05 0.07369429976851852 1.808449074074074e-05 0.4210250289351852 0.07369429976851852 0.4315502025462963 3.215020576131687e-05 0.07044110082304526 3.215020576131687e-05 0.4365676440329218 0.1126864711934156 0.3802404835390946 0.0001041666666666667 0.0001041666666666667 0.0001041666666666667 0.3588541666666667 0.3076041666666667 0.3332291666666667 0.0001041666666666667 0.02572916666666666 0.0001041666666666667 0.4101041666666667 0.1026041666666667 0.4613541666666667 0.0005604391965072587 0.002241739343346736 0.9826265360781883 0.007285639783865165 0.001494494833640301 0.005791150764452298 0.005025208809772291 0.07322330723940206 0.004307334089460399 0.4077529269047438 0.07178755779877827 0.4379036651578433 0.001377410468319559 0.001377410468319559 0.001377410468319559 0.2988980716253444 0.001377410468319559 0.6955922865013774 0.01064266584548771 0.0957466662934035 0.01596166587348245 0.2925496673292087 0.06383266612543508 0.5212666685329824 0.001666666666666667 0.001666666666666667 0.001666666666666667 0.4416666666666667 0.3316666666666667 0.2216666666666667 0.006666666666666667 0.006666666666666667 0.006666666666666667 0.4866666666666667 0.2466666666666667 0.2466666666666667 0.00205761316872428 0.00205761316872428 0.00205761316872428 0.2489711934156378 0.00205761316872428 0.742798353909465 0.04166666666666666 0.04166666666666666 0.04166666666666666 0.04166666666666666 0.04166666666666666 0.7916666666666667 0.04166666666666666 0.04166666666666666 0.04166666666666666 0.7916666666666667 0.04166666666666666 0.04166666666666666 0.1666666666666667 0.1666666666666667 0.1666666666666667 0.1666666666666667 0.1666666666666667 0.1666666666666667 0.04166666666666666 0.04166666666666666 0.04166666666666666 0.7916666666666667 0.04166666666666666 0.04166666666666666 0.1666666666666667 0.1666666666666667 0.1666666666666667 0.1666666666666667 0.1666666666666667 0.1666666666666667 0.4866666666666667 0.006666666666666667 0.006666666666666667 0.2466666666666667 0.006666666666666667 0.2466666666666667 2.893518518518518e-06 0.0920515046296296 0.004186921296296295 0.4058535879629629 0.0753153935185185 0.422589699074074 0.003380229530622347 0.05405533071077403 1.889451945568668e-06 0.4222943992865429 0.03378529023871336 0.4864828607814017 2.776620852422602e-06 0.06557545467166459 2.776620852422602e-06 0.3811439677911982 0.08196862418436764 0.4713064001110649 3.96589331746976e-06 0.01961134245488796 3.96589331746976e-06 0.4215625619670831 0.08333531627999206 0.4754828475114019 0.007822045950764175 0.01563407647777578 0.01563407647777578 0.5312280912605412 0.04688219858582216 0.3827995112473209 3.604382929642445e-05 0.04480247981545559 3.604382929642445e-05 0.4626225490196078 0.1343353517877739 0.3581675317185698 4.954419342053111e-05 0.03512683313515656 4.954419342053111e-05 0.4735929449068569 0.08774276654776061 0.4034383670233849 3.500665126374011e-05 0.01473780018203459 3.500665126374011e-05 0.5881467478820975 0.161765735489743 0.2352797031435973 4.535413469880481e-09 0.00148490797627928 0.9825111145749575 0.00676456465491327 0.000989940162657343 0.008249468095779078 0.007330017273273693 0.06492157729498199 0.003141540180785817 0.4659682589006961 0.07958124711868955 0.3790573592315727 0.09143518518518519 0.09143518518518519 0.001157407407407407 0.6331018518518519 0.001157407407407407 0.1817129629629629 0.009103698292887482 0.09091523956388821 0.009103698292887482 0.4636122609095582 0.07273489705922138 0.3545302058815573 0.00205761316872428 0.00205761316872428 0.00205761316872428 0.6193415637860082 0.00205761316872428 0.3724279835390946 0.01041666666666667 0.01041666666666667 0.01041666666666667 0.3229166666666667 0.3229166666666667 0.3229166666666667 0.006666666666666665 0.2466666666666667 0.006666666666666665 0.2466666666666667 0.4866666666666666 0.006666666666666665 0.01041666666666667 0.01041666666666667 0.01041666666666667 0.6354166666666666 0.01041666666666667 0.3229166666666667 0.01851851851851852 0.01851851851851852 0.01851851851851852 0.4629629629629629 0.01851851851851852 0.4629629629629629 0.1666666666666667 0.1666666666666667 0.1666666666666667 0.1666666666666667 0.1666666666666667 0.1666666666666667 0.04166666666666666 0.04166666666666666 0.04166666666666666 0.7916666666666667 0.04166666666666666 0.04166666666666666 0.1666666666666667 0.1666666666666667 0.1666666666666667 0.1666666666666667 0.1666666666666667 0.1666666666666667 0.01851851851851852 0.01851851851851852 0.01851851851851852 0.9074074074074076 0.01851851851851852 0.01851851851851852 6.761599523983394e-06 0.07051672143562282 6.761599523983394e-06 0.3781965461749632 0.07051672143562282 0.4807564877547433 6.350657928161356e-06 0.0310610679266372 6.350657928161356e-06 0.4844599400497891 0.06832672864908805 0.4161395620586292 5.835463277429594e-06 0.03571887072114655 5.835463277429594e-06 0.4583231212725978 0.05357538835008111 0.4523709487296196 9.861932938856017e-06 0.03101577909270217 9.861932938856017e-06 0.581370808678501 0.07752465483234715 0.310069033530572 2.811041772080733e-05 0.01318378591105864 2.811041772080733e-05 0.6315005340979367 0.07896216337774779 0.2762972957778153 5.933309600094932e-05 0.01928325620030853 5.933309600094932e-05 0.596000949329536 0.09617894861753887 0.2884181796606147 8.23045267489712e-05 8.23045267489712e-05 8.23045267489712e-05 0.4998353909465021 0.1136625514403292 0.3862551440329219 0.02332988980716254 8.608815426997245e-05 8.608815426997245e-05 0.4649621212121212 0.1163050964187328 0.3952307162534435 0.0008230577432046802 0.001097406145063178 0.9802468523780423 0.009327858200818115 0.003292193359931161 0.005212632172940647 0.01866287630364055 0.0777607120352867 0.003110814268996823 0.5147736552087754 0.0777607120352867 0.3079312301480138 0.01041666666666667 0.01041666666666667 0.01041666666666667 0.6354166666666666 0.01041666666666667 0.3229166666666667 4.629629629629629e-05 0.1356018518518519 4.629629629629629e-05 0.372824074074074 0.05087962962962963 0.4406018518518518 0.01851851851851852 0.01851851851851852 0.01851851851851852 0.9074074074074076 0.01851851851851852 0.01851851851851852 0.004629629629629628 0.004629629629629628 0.004629629629629628 0.7824074074074074 0.1990740740740741 0.004629629629629628 0.1666666666666667 0.1666666666666667 0.1666666666666667 0.1666666666666667 0.1666666666666667 0.1666666666666667 0.04166666666666666 0.04166666666666666 0.04166666666666666 0.04166666666666666 0.7916666666666667 0.04166666666666666 0.04166666666666666 0.7916666666666667 0.04166666666666666 0.04166666666666666 0.04166666666666666 0.04166666666666666 0.1666666666666667 0.1666666666666667 0.1666666666666667 0.1666666666666667 0.1666666666666667 0.1666666666666667 0.1666666666666667 0.1666666666666667 0.1666666666666667 0.1666666666666667 0.1666666666666667 0.1666666666666667 0.1666666666666667 0.1666666666666667 0.1666666666666667 0.1666666666666667 0.1666666666666667 0.1666666666666667 0.01041666666666667 0.01041666666666667 0.3229166666666667 0.6354166666666667 0.01041666666666667 0.01041666666666667 4.199210548416897e-05 0.06454186612916772 4.199210548416897e-05 0.4192911732594272 0.06454186612916772 0.451541110271269 0.0104332731073086 0.06251107096042796 1.771353668473447e-05 0.5520423707797498 0.06251107096042796 0.3124845006554008 0.01354074074074074 0.05407407407407407 2.962962962962963e-05 0.5539851851851852 0.1216296296296296 0.2567407407407408 3.944773175542407e-05 3.944773175542407e-05 3.944773175542407e-05 0.6561341222879685 0.04690335305719921 0.2968441814595661 0.04884731670445955 0.07322373393801965 9.448223733938019e-05 0.5119992441421012 0.09760015117157973 0.2682350718065004 0.0002666666666666666 0.0002666666666666666 0.0002666666666666666 0.7074666666666667 0.1250666666666667 0.1666666666666667 0.0005767012687427913 0.0005767012687427913 0.0005767012687427913 0.6856978085351787 0.1874279123414071 0.1251441753171857 0.04568367989918085 0.04568367989918085 0.04568367989918085 0.4086326402016383 0.2725267800882167 0.1817895400126024 0.0003298333853131181 0.001978909723198315 0.9821898849621595 0.008245399807162063 0.002968355525929434 0.004287616596237592</probabilities>
		</cpt>
		<cpt id="CompanySize">
			<state id="S10_to_19_employees" />
			<state id="S100_to_499_employees" />
			<state id="S1000_to_4999_employees" />
			<state id="S10000_or_more_employees" />
			<state id="S20_to_99_employees" />
			<state id="S500_to_999_employees" />
			<state id="S5000_to_9999_employees" />
			<state id="SFewer_than_10_employees" />
			<state id="SI_prefer_not_to_answer" />
			<state id="NA" />
			<parents>JobSatisfaction Overpaid</parents>
			<probabilities>0.025 0.025 0.025 0.025 0.025 0.025 0.025 0.7750000000000001 0.025 0.025 0.1052615933412604 0.2631093935790725 0.07018430439952437 0.1228002378121284 0.2104934601664685 0.01756837098692033 0.01756837098692033 0.1578775267538645 2.972651605231867e-05 0.03510701545778834 0.09118549127640035 0.1215803489439853 0.05775114784205693 0.1914885215794306 0.1550146923783287 0.04559320477502295 0.02735629017447199 0.1185408631772268 0.01519834710743801 0.1762910927456382 0.0400887573964497 0.1998520710059171 0.1998520710059171 0.1199704142011834 0.0400887573964497 0.1998520710059171 0.08002958579881657 0.1199704142011834 0.0001479289940828402 0.0001479289940828402 0.1246913580246913 0.1246913580246913 0.001234567901234568 0.2481481481481481 0.2481481481481481 0.2481481481481481 0.001234567901234568 0.001234567901234568 0.001234567901234568 0.001234567901234568 0.0638454861111111 0.233984375 0.1276475694444444 0.1489149305555555 0.2127170138888889 0.0638454861111111 0.02131076388888889 0.1276475694444444 4.340277777777777e-05 4.340277777777777e-05 0.025 0.7750000000000001 0.025 0.025 0.025 0.025 0.025 0.025 0.025 0.025 0.08334027488546439 0.1874635568513119 0.1041649312786339 0.229112869637651 0.1874635568513119 0.02086630570595585 0.06251561849229488 0.1249895876718034 4.164931278633902e-05 4.164931278633902e-05 0.1004016 0.1445776 0.0883536 0.1325296 0.1566256 0.0562256 0.0441776 0.1084336 0.0120496 0.1566256 0.0001890359168241966 0.3631379962192816 0.1362948960302457 0.1362948960302457 0.1816635160680529 0.04555765595463138 0.04555765595463138 0.09092627599243856 0.0001890359168241966 0.0001890359168241966 0.01111111111111111 0.4555555555555556 0.01111111111111111 0.01111111111111111 0.01111111111111111 0.01111111111111111 0.01111111111111111 0.4555555555555556 0.01111111111111111 0.01111111111111111 0.1176405325443787 0.09803994082840238 0.1568417159763314 0.1176405325443787 0.254844674556213 0.09803994082840238 0.03923816568047337 0.1176405325443787 3.698224852071007e-05 3.698224852071007e-05 0.004000000000000002 0.004000000000000002 0.2440000000000001 0.2440000000000001 0.2440000000000001 0.004000000000000002 0.004000000000000002 0.2440000000000001 0.004000000000000002 0.004000000000000002 0.1195629552549428 0.1739044976297838 0.1195629552549428 0.1521678806798474 0.184772806104752 0.04348479593016534 0.03261648745519714 0.1521678806798474 0.02174817898022893 1.156203029251937e-05 0.09106531838335456 0.1580754305081953 0.09278352638655561 0.1391751424729838 0.1872849665626131 0.06357399033213784 0.03608266228092112 0.08247427836734933 0.01030954223290545 0.1391751424729838 0.1492430795847751 0.2238538062283737 0.0895544982698962 0.1193987889273356 0.1940095155709343 0.1193987889273356 0.01494377162629758 0.04478806228373702 2.162629757785468e-05 0.04478806228373702 0.0003460207612456747 0.2494809688581314 0.18719723183391 0.06262975778546712 0.2494809688581314 0.06262975778546712 0.1249134948096886 0.06262975778546712 0.0003460207612456747 0.0003460207612456747 0.118109130859375 0.09448852539062499 0.07086791992187499 0.173223876953125 0.259832763671875 0.07086791992187499 0.07874145507812499 0.118109130859375 6.103515625e-06 0.015753173828125 0.1972222222222222 0.1972222222222222 0.1972222222222222 0.002777777777777777 0.1972222222222222 0.002777777777777777 0.002777777777777777 0.1972222222222222 0.002777777777777777 0.002777777777777777 0.1307176589644122 0.202610052285377 0.05228959352335976 0.1307176589644122 0.2745024456063417 0.03921824928318435 0.03268257716309664 0.1176463147242368 4.216562658121101e-06 0.01961123292292124 0.0796626232658615 0.1405810328381658 0.07122776655585014 0.161199571462638 0.1893157604960092 0.0581068783402769 0.04686040272692842 0.083411448470311 0.01405818218799534 0.1555763336559638 0.04673353909465022 0.1682184499314129 0.1401834705075446 0.1869084362139918 0.233633401920439 0.06542352537722909 0.06542352537722909 0.08411351165980796 8.573388203017835e-06 0.009353566529492457 0.08824489795918367 0.2057959183673469 0.2057959183673469 0.1764081632653061 0.1470204081632653 8.163265306122449e-05 0.02946938775510204 0.1176326530612245 8.163265306122449e-05 0.02946938775510204 0.08921947873799725 0.2193292181069959 0.08921947873799725 0.1747201646090535 0.2230466392318244 0.06319753086419753 0.0483278463648834 0.07806721536351166 0.003718792866941015 0.01115363511659808 0.01111111111111111 0.01111111111111111 0.01111111111111111 0.4555555555555556 0.01111111111111111 0.01111111111111111 0.01111111111111111 0.4555555555555556 0.01111111111111111 0.01111111111111111 0.1317810650887574 0.2092958579881657 0.09302366863905326 0.1162781065088758 0.193792899408284 0.04651479289940829 0.05426627218934912 0.1472840236686391 0.007757396449704143 5.91715976331361e-06 0.107285824 0.155324224 0.084067264 0.138510784 0.182545984 0.05284230400000001 0.04323462400000001 0.080864704 0.017614144 0.137710144 0.08510712160285655 0.1489337433048998 0.1418418964491172 0.1631174370164649 0.2553114461416385 0.02128049990081332 0.05673973417972623 0.07801527474707397 0.01418865304503075 0.03546419361237849 0.03455555555555555 0.1723333333333333 0.06899999999999999 0.1378888888888889 0.2756666666666667 0.1378888888888889 0.03455555555555555 0.1378888888888889 0.0001111111111111111 0.0001111111111111111 0.1174601426053517 0.1809515702611761 0.07619071462906585 0.1301584281365166 0.2444429979170005 0.07619071462906585 0.05396871494952732 0.1079364284569781 1.00144207659029e-06 0.01269928697324147 0.2715277777777778 0.18125 0.2715277777777778 0.18125 0.09097222222222225 0.0006944444444444445 0.0006944444444444445 0.0006944444444444445 0.0006944444444444445 0.0006944444444444445 0.119815251241478 0.2027628145778975 0.05069228179446175 0.1520726369834189 0.2350202003198384 0.08755786549953708 0.02304309401565525 0.1105988553152092 0.009218500126251999 0.009218500126251999 0.08821263657052826 0.1540831969116938 0.09514637976433515 0.1244221843604087 0.1771956742243835 0.05585516833276273 0.03813560239303398 0.071648694496434 0.01386750121470984 0.1814329617317099 0.08333353288394535 0.2222207588510674 0.1319440619724381 0.1631936878150405 0.2013876749559991 0.08333353288394535 0.02777864249709654 0.05555608769052095 0.01041773925120628 0.02083428119874044 0.1694722222222222 0.2203055555555556 0.1694722222222222 0.1864166666666667 0.1525277777777778 0.01697222222222222 0.03391666666666667 0.03391666666666667 2.777777777777778e-05 0.01697222222222222 0.1211072034745154 0.202421839810763 0.1038062170199946 0.1228373021199674 0.2128024316834755 0.08131493462911758 0.03460227120191146 0.09861592108363836 0.00519059422922614 0.01730128474739069 0.05895061728395062 0.2348765432098765 0.1175925925925926 0.2348765432098765 0.2348765432098765 0.05895061728395062 0.05895061728395062 0.000308641975308642 0.000308641975308642 0.000308641975308642 0.1079810463795965 0.1408441785308761 0.05633898157044283 0.1267599790374705 0.2816861734649314 0.09389684688619093 0.06572844789937986 0.1173705127085335 2.183596820683029e-06 0.009391649925757707 0.08528111328051588 0.1718256403435771 0.08149084202227962 0.1279216649356738 0.1974099713366718 0.05653822290555759 0.03916614630530807 0.06917246043301178 0.01547695094133146 0.155716987496073 0.07322668418089698 0.1967958341152186 0.1121280832342945 0.1372995767394341 0.2654453618565084 0.08009163695502595 0.03661360271887575 0.0755150017722733 0.006865474030983507 0.01601874439648882 0.05128985739464829 0.2051113603589168 0.153837526037494 0.153837526037494 0.2563851946803397 0.06410831597500401 0.03847139881429258 0.03847139881429258 1.602307322544464e-05 0.03847139881429258 0.0871165837658593 0.2159507461072665 0.1116564242118416 0.1423312247693195 0.231901642397155 0.0711656874759708 0.04417186298539025 0.07852763960976548 0.0024541342272203 0.01472405445021146 0.06679687500000001 0.133203125 0.133203125 0.199609375 0.133203125 0.199609375 0.000390625 0.133203125 0.000390625 0.000390625 0.1042470414201183 0.1583002958579882 0.123551775147929 0.1158298816568047 0.2316582840236686 0.05791568047337277 0.02702810650887574 0.1698831360946745 0.003862426035502958 0.007723372781065087 0.07715697535908027 0.1628658282131135 0.08741923268528382 0.1250475095480301 0.1944127674010726 0.05378183367161665 0.03705815506595161 0.07753705896375447 0.01976435105327528 0.1649562880388217 0.0912052220721717 0.2073831527237308 0.1140064981813562 0.155265950188452 0.2497283797836449 0.06297507069889564 0.04560266985380268 0.06188929564607733 0.003257442793888604 0.008686318057980152 0.03681216537775134 0.2147196609161214 0.1411027662105889 0.1963154372397383 0.2453933670434265 0.05521638905413444 0.04294690660321238 0.06748587150505651 3.718024985127901e-06 3.718024985127901e-06 0.115641207133059 0.2023720713305899 0.1097108916323731 0.1319495747599451 0.2305410699588478 0.05707934156378602 0.04077097393689987 0.09933283950617285 0.002223923182441701 0.01037810699588477 0.000510204081632653 0.2301020408163265 0.07704081632653061 0.1535714285714286 0.3831632653061224 0.1535714285714286 0.000510204081632653 0.000510204081632653 0.000510204081632653 0.000510204081632653 0.117948250728863 0.1743570387338609 0.05641139108704706 0.117948250728863 0.2615342565597668 0.04615524781341107 0.04615524781341107 0.1435886089129529 0.005130674718867139 0.0307710329029571 0.08882185384157869 0.1583710390851296 0.08815150024886975 0.1245181826533289 0.1803251192463469 0.05714764658608198 0.03385285923944685 0.0765879007746408 0.01491537024541972 0.1773085280791568 0.09397590749467317 0.2232930932756893 0.08353414715210666 0.1574296818841159 0.2570280113055196 0.06265062646697363 0.04176710578184058 0.06265062646697363 0.001606489079661659 0.01606431109244607 0.09174329142428223 0.1972456787806759 0.1330268343028711 0.1513750755822439 0.2247680406997352 0.08715623110443901 0.03669856758616376 0.06422092950522298 2.085027418110548e-06 0.01376326598694773 0.1070631931273997 0.194051992696427 0.1092936751676311 0.1256505434626619 0.2557619958094978 0.06542752837641219 0.04684017804114993 0.08327138469826396 0.001487043223110024 0.0111524653974464 0.3831632653061224 0.1535714285714286 0.0005102040816326531 0.2301020408163265 0.2301020408163265 0.0005102040816326531 0.0005102040816326531 0.0005102040816326531 0.0005102040816326531 0.0005102040816326531 0.141505808367543 0.141505808367543 0.08490697877543889 0.1320726701021923 0.1792383614289458 0.02830814918333479 0.009441872652633417 0.2264040527556992 8.734387282732115e-06 0.05660756397938684 0.09001957025121847 0.1518031829817708 0.08582611237357918 0.1244059248478607 0.1710930892189116 0.05619234337159481 0.03214985153979618 0.08051439906190273 0.019289914048369 0.1887056123049966 0.08750001353515512 0.2427081788069789 0.1020833310774741 0.1385416249332717 0.2552081652718238 0.05625004737304295 0.02916674336587906 0.0770833581477844 0.001041773819978106 0.01041676366861176 0.124222679469593 0.223597774729462 0.08695701874714219 0.2484415485444292 0.124222679469593 0.1055898491083676 0.01242569730224051 0.06832418838591678 3.810394756896814e-06 0.006214753848498704 0.1203703348230256 0.19576702864851 0.07671961734511359 0.1256613308809543 0.2486769892277973 0.06216937818580959 0.04100539395409467 0.1124338407361325 0.003968421548593576 0.01322766464996885 0.3326869806094181 0.1110803324099723 0.05567867036011078 0.05567867036011078 0.1110803324099723 0.1110803324099723 0.1110803324099723 0.1110803324099723 0.0002770083102493074 0.0002770083102493074 0.1445719954648526 0.1445719954648526 0.03615362811791383 0.08433956916099773 0.2168509070294785 0.04820011337868481 0.02410714285714285 0.2770833333333333 1.417233560090703e-05 0.02410714285714285 0.09221998746051067 0.1203889983793514 0.06639839411824004 0.1026156938710352 0.1619718240214495 0.04158283688021372 0.02615694994846762 0.1069751836560939 0.02850436752503768 0.2531857641396003 0.1381577918523731 0.1694077075935408 0.07894742518489758 0.1233552001855042 0.2516443279650346 0.06743429833288844 0.03618438259172079 0.1217104677780744 0.006579199257983018 0.006579199257983018 0.1764633801489301 0.1764633801489301 0.04902441323404657 0.147054387783957 0.1764633801489301 0.08823640305401075 0.02941841832406447 0.1274483928739749 0.01961542086907343 0.009812423414082384 0.1239434730463325 0.2253511235955055 0.08450716449943187 0.1098590771367251 0.2197173652316626 0.05352149349829566 0.01971894331523797 0.1352109897740184 0.008451426587552074 0.01971894331523797</probabilities>
		</cpt>
		<cpt id="CompanyType">
			<state id="SGovernment_agency_or_public_school_university" />
			<state id="SI_prefer_not_to_answer" />
			<state id="NA" />
			<state id="SNon_profit_non_governmental_organization_or_private_school_university" />
			<state id="SPre_series_A_startup" />
			<state id="SPrivately_held_limited_company_not_in_startup_mode" />
			<state id="SPublicly_traded_corporation" />
			<state id="SSole_proprietorship_or_partnership_not_in_startup_mode" />
			<state id="SSomething_else" />
			<state id="SState_owned_company" />
			<state id="SVenture_funded_startup" />
			<parents>CompanySize JobSatisfaction</parents>
