<?xml version="1.0" encoding="ISO-8859-1"?>
<!-- This network was created in trial version of GeNIe, which can be used for evaluation purposes only -->
<smile version="1.0" id="Unnamed" numsamples="10000" discsamples="10000">
	<nodes>
		<cpt id="JobSatisfaction">
			<state id="State0" />
			<state id="State1" />
			<state id="State2" />
			<state id="State3" />
			<state id="State4" />
			<state id="State5" />
			<state id="State6" />
			<state id="State7" />
			<state id="State8" />
			<state id="State9" />
			<state id="State10" />
			<probabilities>0.01156824204598928 0.009240183993137405 0.02199497013376202 0.04049560168142528 0.04619191393840327 0.09285214129556203 0.1170490851002033 0.1973670879235928 0.2224803950043567 0.1380263741509005 0.1027340047326673</probabilities>
		</cpt>
		<cpt id="WorkStart">
			<state id="S10_00_AM" />
			<state id="S10_00_PM" />
			<state id="S11_00_AM" />
			<state id="S11_00_PM" />
			<state id="S1_00_AM" />
			<state id="S1_00_PM" />
			<state id="S2_00_AM" />
			<state id="S2_00_PM" />
			<state id="S3_00_AM" />
			<state id="S3_00_PM" />
			<state id="S4_00_AM" />
			<state id="S4_00_PM" />
			<state id="S5_00_AM" />
			<state id="S5_00_PM" />
			<state id="S6_00_AM" />
			<state id="S6_00_PM" />
			<state id="S7_00_AM" />
			<state id="S7_00_PM" />
			<state id="S8_00_AM" />
			<state id="S8_00_PM" />
			<state id="S9_00_AM" />
			<state id="S9_00_PM" />
			<state id="Midnight" />
			<state id="NA" />
			<state id="Noon" />
			<parents>JobSatisfaction</parents>
			<probabilities>0.1603418803418803 0.01076923076923077 0.03427350427350427 0.002222222222222222 0.004358974358974359 0.004358974358974359 0.002222222222222222 0.0129059829059829 8.547008547008546e-05 0.004358974358974359 0.008632478632478631 0.004358974358974359 0.0129059829059829 8.547008547008546e-05 0.02572649572649572 0.0129059829059829 0.06418803418803418 8.547008547008546e-05 0.1154700854700855 0.006495726495726495 0.1539316239316239 0.006495726495726495 0.002222222222222222 0.3163247863247863 0.03427350427350427 0.1498395721925133 0.005454545454545453 0.0188235294117647 0.000106951871657754 0.002780748663101604 0.008128342245989304 0.000106951871657754 0.01080213903743315 0.000106951871657754 0.01080213903743315 0.000106951871657754 0.008128342245989304 0.005454545454545453 0.005454545454545453 0.03754010695187165 0.005454545454545453 0.07229946524064169 0.002780748663101604 0.120427807486631 0.008128342245989304 0.1845989304812834 0.005454545454545453 0.000106951871657754 0.3022459893048128 0.0348663101604278 0.1766479190101237 0.003419572553430822 0.04728908886389202 0.001169853768278965 0.001169853768278965 0.01016872890888639 0.001169853768278965 0.009043869516310461 0.001169853768278965 0.006794150731158606 0.003419572553430822 0.003419572553430822 0.009043869516310461 0.002294713160854894 0.0304161979752531 0.009043869516310461 0.07203599550056244 0.002294713160854894 0.140652418447694 0.01016872890888639 0.1743982002249719 0.005669291338582677 4.499437570303712e-05 0.2553880764904387 0.02366704161979753 0.1870660146699267 0.003080684596577017 0.04831295843520782 0.002469437652811736 0.001858190709046455 0.006748166259168704 0.001246943765281174 0.008581907090464547 0.001858190709046455 0.003691931540342298 0.004303178484107579 0.003080684596577017 0.006748166259168704 0.003080684596577017 0.02264058679706601 0.00491442542787286 0.08070904645476772 0.003080684596577017 0.1387775061124694 0.006748166259168704 0.174841075794621 0.006136919315403422 0.002469437652811736 0.261638141809291 0.01591687041564792 0.1966988210075027 0.002165058949624865 0.05146838156484458 0.00270096463022508 0.002165058949624865 0.008060021436227222 0.0005573419078242228 0.009667738478027864 0.001093247588424437 0.003236870310825294 0.001629153269024651 0.005916398713826365 0.008595927116827436 0.00270096463022508 0.02306538049303322 0.008595927116827436 0.06272240085744908 0.00270096463022508 0.1227438370846731 0.007524115755627008 0.1682958199356913 0.004844587352625936 0.002165058949624865 0.2749410503751339 0.02574490889603429 0.1794773333333333 0.003210666666666667 0.047744 0.001877333333333334 0.0002773333333333334 0.007477333333333333 0.000544 0.008277333333333333 0.001610666666666667 0.001877333333333334 0.003744 0.004544 0.005344 0.002410666666666666 0.02267733333333334 0.004277333333333334 0.065344 0.001877333333333334 0.1336106666666667 0.005344 0.1760106666666667 0.003477333333333333 0.001610666666666667 0.2920106666666667 0.025344 0.1978083350962556 0.005508779352654962 0.0454918552993442 0.00106621535857838 0.0008546646921937806 0.00825893801565475 0.0006431140258091815 0.009739792680346944 0.0006431140258091815 0.00339327268880897 0.002547070023270574 0.004239475354347367 0.004662576687116565 0.001912418024116776 0.02835625132219167 0.003816374021578168 0.06812777660249632 0.002123968690501375 0.1396319018404908 0.003181722022424371 0.181730484451026 0.001912418024116776 0.00106621535857838 0.2585233763486355 0.02475988999365349 0.1961154328732748 0.003894604767879549 0.04617816813048935 0.001259723964868256 0.0005069008782936011 0.008913425345043916 0.0005069008782936011 0.007156838143036387 0.0006323713927227102 0.003141781681304894 0.001259723964868256 0.004145545796737767 0.004898368883312423 0.002514429109159348 0.0223387703889586 0.005400250941028859 0.06989209535759097 0.00213801756587202 0.1516988707653701 0.004020075282308658 0.2027653701380176 0.002012547051442911 0.0005069008782936011 0.2376461731493099 0.02045671267252196 0.186447016918967 0.003566340160284951 0.04864648263579698 0.001006233303650935 0.0006723063223508459 0.007016918967052537 0.0005609973285841496 0.008352626892252895 0.0006723063223508459 0.003232413178984862 0.001340160284951024 0.003788958147818343 0.00390026714158504 0.001785396260017809 0.02682991985752449 0.003121104185218165 0.07947907390917186 0.001896705253784506 0.1625155832591273 0.003566340160284951 0.1980231522707035 0.002341941228851291 0.001006233303650935 0.230080142475512 0.02015138023152271 0.1973519913885899 0.002160028704700395 0.04719052744886976 0.001621815572299964 0.0007247936849659134 0.008080373161105133 0.0001865805525654826 0.007183351273771081 0.001442411194833154 0.005389307499102979 0.002160028704700395 0.003057050592034446 0.00592752063150341 0.001083602439899534 0.02781485468245426 0.002698241837100826 0.07786867599569432 0.001801219949766775 0.1620093290276283 0.005389307499102979 0.2052457839971296 0.001621815572299964 0.001801219949766775 0.208654467168999 0.0215357014711159 0.1667968185104844 0.003383947939262473 0.04001928175463967 0.0004916847433116413 0.000732706676307544 0.007481320800192818 0.0009737286093034467 0.009650518197155941 0.0004916847433116413 0.004589057604241986 0.003624969872258375 0.004830079537237889 0.008204386599180526 0.003624969872258375 0.03086044830079537 0.002901904073270668 0.06701373825018077 0.00314292600626657 0.143176669076886 0.005553145336225597 0.1764376958303205 0.004589057604241986 0.002419860207278862 0.2856206314774645 0.02338876837792239</probabilities>
		</cpt>
		<cpt id="CompetePeers">
			<state id="Agree" />
			<state id="Disagree" />
			<state id="NA" />
			<state id="SSomewhat_agree" />
			<state id="SStrongly_agree" />
			<state id="SStrongly_disagree" />
			<parents>WorkStart JobSatisfaction</parents>
			<probabilities>0.1732456140350877 0.1864035087719298 0.1337719298245614 0.331140350877193 0.08114035087719297 0.09429824561403508 0.195906432748538 0.2836257309941521 0.1783625730994152 0.1608187134502924 0.09064327485380116 0.09064327485380116 0.1466244725738397 0.3048523206751055 0.2289029535864979 0.1845991561181435 0.04535864978902954 0.08966244725738397 0.1178067318132464 0.2969598262757872 0.2904451682953311 0.1634093376764386 0.0266015200868621 0.1047774158523344 0.1852355072463768 0.2667572463768115 0.2640398550724637 0.1798007246376811 0.0493659420289855 0.05480072463768115 0.1293273986152325 0.2554401582591494 0.2495054401582592 0.2317012858555886 0.04624134520276955 0.087784371909001 0.1604344729344729 0.2629985754985755 0.2533831908831909 0.2224002849002849 0.04077635327635327 0.06000712250712251 0.1586743393009377 0.2488277919863598 0.2737638533674339 0.2085464620630861 0.03591219096334185 0.07427536231884058 0.1337509944311853 0.2668058870326173 0.2590493237867939 0.2160898965791567 0.03112569610182975 0.09317820206841684 0.1191341204965183 0.2844383893430215 0.2753557372085982 0.1999697244928852 0.03648198607326673 0.08462004238570996 0.1026936026936027 0.2368927368927369 0.2671957671957672 0.1777296777296778 0.06806156806156807 0.1474266474266475 0.02777777777777778 0.02777777777777778 0.361111111111111 0.361111111111111 0.02777777777777778 0.1944444444444444 0.05555555555555555 0.05555555555555555 0.3888888888888889 0.05555555555555555 0.05555555555555555 0.3888888888888889 0.2916666666666667 0.04166666666666666 0.04166666666666666 0.2916666666666667 0.04166666666666666 0.2916666666666667 0.02777777777777778 0.02777777777777778 0.5277777777777777 0.1944444444444444 0.02777777777777778 0.1944444444444444 0.03333333333333333 0.2333333333333334 0.4333333333333333 0.2333333333333334 0.03333333333333333 0.03333333333333333 0.08974358974358976 0.3205128205128205 0.3205128205128205 0.1666666666666667 0.01282051282051282 0.08974358974358976 0.191358024691358 0.154320987654321 0.3024691358024691 0.228395061728395 0.1172839506172839 0.006172839506172839 0.1302083333333333 0.2552083333333333 0.09895833333333333 0.3802083333333333 0.1302083333333333 0.005208333333333333 0.03535353535353536 0.398989898989899 0.3080808080808081 0.09595959595959595 0.09595959595959595 0.06565656565656565 0.1666666666666667 0.3205128205128205 0.1666666666666667 0.1666666666666667 0.08974358974358976 0.08974358974358976 0.1444444444444444 0.1444444444444444 0.3444444444444444 0.1444444444444444 0.1444444444444444 0.07777777777777778 0.1862745098039215 0.1862745098039215 0.2450980392156863 0.06862745098039216 0.06862745098039216 0.2450980392156863 0.02083333333333333 0.2708333333333333 0.2708333333333333 0.2708333333333333 0.02083333333333333 0.1458333333333333 0.1434108527131783 0.2596899224806202 0.2596899224806202 0.2131782945736434 0.09689922480620157 0.02713178294573644 0.1895833333333333 0.2520833333333333 0.1520833333333333 0.2645833333333333 0.06458333333333333 0.07708333333333332 0.1048109965635739 0.2285223367697595 0.3419243986254295 0.1975945017182131 0.02233676975945017 0.1048109965635739 0.1731481481481482 0.1898148148148148 0.2898148148148149 0.1953703703703704 0.06759259259259261 0.08425925925925927 0.1396604938271605 0.2739197530864197 0.3016975308641975 0.1813271604938271 0.03780864197530864 0.06558641975308642 0.2009936766034327 0.2145438121047877 0.2389340560072267 0.2199638663053297 0.04923215898825654 0.07633242999096657 0.1579147640791476 0.2492389649923896 0.3017503805175037 0.1624809741248097 0.02777777777777778 0.1008371385083714 0.1332070707070707 0.2316919191919192 0.2619949494949495 0.2316919191919192 0.04608585858585858 0.09532828282828283 0.07884231536926149 0.2405189620758483 0.2405189620758483 0.1866267465069861 0.1087824351297405 0.1447105788423154 0.08333333333333333 0.08333333333333333 0.08333333333333333 0.08333333333333333 0.5833333333333334 0.08333333333333333 0.1666666666666667 0.1666666666666667 0.1666666666666667 0.1666666666666667 0.1666666666666667 0.1666666666666667 0.08333333333333333 0.08333333333333333 0.08333333333333333 0.08333333333333333 0.08333333333333333 0.5833333333333334 0.03333333333333333 0.2333333333333334 0.2333333333333334 0.2333333333333334 0.03333333333333333 0.2333333333333334 0.361111111111111 0.1944444444444444 0.02777777777777778 0.361111111111111 0.02777777777777778 0.02777777777777778 0.2708333333333333 0.1458333333333333 0.2708333333333333 0.2708333333333333 0.02083333333333333 0.02083333333333333 0.1944444444444444 0.361111111111111 0.02777777777777778 0.1944444444444444 0.1944444444444444 0.02777777777777778 0.196969696969697 0.1060606060606061 0.3787878787878788 0.196969696969697 0.1060606060606061 0.01515151515151515 0.1166666666666667 0.2166666666666667 0.3166666666666667 0.1166666666666667 0.2166666666666667 0.01666666666666667 0.1166666666666667 0.1166666666666667 0.4166666666666667 0.1166666666666667 0.1166666666666667 0.1166666666666667 0.05555555555555555 0.05555555555555555 0.3888888888888889 0.05555555555555555 0.05555555555555555 0.3888888888888889 0.05555555555555555 0.05555555555555555 0.3888888888888889 0.05555555555555555 0.05555555555555555 0.3888888888888889 0.08333333333333333 0.5833333333333334 0.08333333333333333 0.08333333333333333 0.08333333333333333 0.08333333333333333 0.08333333333333333 0.08333333333333333 0.08333333333333333 0.5833333333333334 0.08333333333333333 0.08333333333333333 0.04166666666666667 0.5416666666666667 0.2916666666666667 0.04166666666666667 0.04166666666666667 0.04166666666666667 0.03333333333333333 0.4333333333333333 0.4333333333333333 0.03333333333333333 0.03333333333333333 0.03333333333333333 0.5833333333333334 0.08333333333333333 0.08333333333333333 0.08333333333333333 0.08333333333333333 0.08333333333333333 0.2333333333333334 0.03333333333333333 0.4333333333333333 0.2333333333333334 0.03333333333333333 0.03333333333333333 0.2333333333333334 0.4333333333333333 0.2333333333333334 0.03333333333333333 0.03333333333333333 0.03333333333333333 0.3095238095238095 0.1666666666666667 0.3095238095238095 0.02380952380952381 0.02380952380952381 0.1666666666666667 0.03333333333333333 0.03333333333333333 0.2333333333333334 0.6333333333333333 0.03333333333333333 0.03333333333333333 0.04166666666666666 0.04166666666666666 0.2916666666666667 0.04166666666666666 0.2916666666666667 0.2916666666666667 0.05555555555555555 0.05555555555555555 0.3888888888888889 0.05555555555555555 0.3888888888888889 0.05555555555555555 0.2916666666666667 0.04166666666666666 0.2916666666666667 0.04166666666666666 0.04166666666666666 0.2916666666666667 0.01666666666666667 0.1166666666666667 0.4166666666666667 0.3166666666666667 0.1166666666666667 0.01666666666666667 0.3472222222222222 0.09722222222222222 0.2638888888888888 0.1805555555555555 0.01388888888888889 0.09722222222222222 0.1979166666666667 0.1979166666666667 0.1979166666666667 0.1979166666666667 0.07291666666666669 0.1354166666666667 0.1781609195402299 0.2816091954022988 0.1781609195402299 0.1781609195402299 0.1091954022988506 0.07471264367816091 0.1791666666666667 0.3791666666666667 0.2291666666666667 0.1541666666666667 0.05416666666666668 0.004166666666666667 0.224537037037037 0.2523148148148148 0.2384259259259259 0.1967592592592592 0.05787037037037036 0.03009259259259258 0.1744791666666667 0.3151041666666667 0.2369791666666667 0.1276041666666667 0.03385416666666666 0.1119791666666667 0.1557971014492754 0.1557971014492754 0.2644927536231884 0.2210144927536232 0.1123188405797102 0.09057971014492755 0.1302083333333333 0.1927083333333333 0.2552083333333333 0.1302083333333333 0.1302083333333333 0.1614583333333333 0.08333333333333333 0.08333333333333333 0.5833333333333334 0.08333333333333333 0.08333333333333333 0.08333333333333333 0.1666666666666667 0.1666666666666667 0.1666666666666667 0.1666666666666667 0.1666666666666667 0.1666666666666667 0.08333333333333333 0.08333333333333333 0.5833333333333334 0.08333333333333333 0.08333333333333333 0.08333333333333333 0.05555555555555555 0.3888888888888889 0.05555555555555555 0.3888888888888889 0.05555555555555555 0.05555555555555555 0.5833333333333334 0.08333333333333333 0.08333333333333333 0.08333333333333333 0.08333333333333333 0.08333333333333333 0.05555555555555556 0.05555555555555556 0.05555555555555556 0.7222222222222222 0.05555555555555556 0.05555555555555556 0.04166666666666667 0.04166666666666667 0.5416666666666667 0.04166666666666667 0.2916666666666667 0.04166666666666667 0.03333333333333333 0.4333333333333333 0.2333333333333334 0.03333333333333333 0.03333333333333333 0.2333333333333334 0.361111111111111 0.02777777777777778 0.361111111111111 0.1944444444444444 0.02777777777777778 0.02777777777777778 0.08333333333333333 0.08333333333333333 0.5833333333333334 0.08333333333333333 0.08333333333333333 0.08333333333333333 0.03333333333333333 0.2333333333333334 0.03333333333333333 0.03333333333333333 0.4333333333333333 0.2333333333333334 0.1666666666666667 0.1666666666666667 0.3095238095238095 0.3095238095238095 0.02380952380952381 0.02380952380952381 0.03333333333333333 0.03333333333333333 0.6333333333333333 0.2333333333333334 0.03333333333333333 0.03333333333333333 0.01851851851851851 0.2407407407407407 0.1296296296296296 0.4629629629629629 0.01851851851851851 0.1296296296296296 0.01111111111111111 0.1444444444444444 0.4111111111111111 0.2777777777777778 0.07777777777777778 0.07777777777777778 0.008771929824561401 0.2192982456140351 0.3245614035087719 0.2719298245614035 0.06140350877192981 0.1140350877192982 0.1614583333333333 0.2552083333333333 0.2239583333333333 0.2239583333333333 0.005208333333333333 0.1302083333333333 0.1312056737588653 0.1950354609929078 0.2801418439716312 0.2163120567375887 0.0673758865248227 0.1099290780141844 0.1063218390804598 0.2442528735632184 0.2959770114942529 0.1925287356321839 0.07183908045977012 0.08908045977011494 0.1600877192982456 0.2785087719298245 0.2390350877192982 0.1864035087719298 0.04166666666666666 0.09429824561403508 0.1504065040650407 0.3211382113821138 0.1991869918699187 0.2235772357723577 0.004065040650406504 0.1016260162601626 0.1991869918699187 0.1747967479674797 0.2723577235772358 0.1991869918699187 0.05284552845528456 0.1016260162601626 0.1666666666666667 0.1666666666666667 0.1666666666666667 0.1666666666666667 0.1666666666666667 0.1666666666666667 0.1666666666666667 0.1666666666666667 0.1666666666666667 0.1666666666666667 0.1666666666666667 0.1666666666666667 0.08333333333333333 0.08333333333333333 0.08333333333333333 0.5833333333333334 0.08333333333333333 0.08333333333333333 0.2916666666666667 0.04166666666666666 0.2916666666666667 0.2916666666666667 0.04166666666666666 0.04166666666666666 0.3888888888888889 0.05555555555555555 0.05555555555555555 0.3888888888888889 0.05555555555555555 0.05555555555555555 0.1666666666666667 0.1666666666666667 0.1666666666666667 0.3095238095238095 0.1666666666666667 0.02380952380952381 0.5416666666666667 0.2916666666666667 0.04166666666666667 0.04166666666666667 0.04166666666666667 0.04166666666666667 0.1944444444444444 0.361111111111111 0.02777777777777778 0.1944444444444444 0.02777777777777778 0.1944444444444444 0.3095238095238095 0.1666666666666667 0.1666666666666667 0.3095238095238095 0.02380952380952381 0.02380952380952381 0.01851851851851852 0.01851851851851852 0.462962962962963 0.2407407407407407 0.1296296296296296 0.1296296296296296 0.3888888888888889 0.05555555555555555 0.05555555555555555 0.05555555555555555 0.3888888888888889 0.05555555555555555 0.05555555555555555 0.05555555555555555 0.05555555555555555 0.3888888888888889 0.05555555555555555 0.3888888888888889 0.03333333333333333 0.4333333333333333 0.2333333333333334 0.2333333333333334 0.03333333333333333 0.03333333333333333 0.02380952380952381 0.1666666666666667 0.4523809523809523 0.1666666666666667 0.1666666666666667 0.02380952380952381 0.1666666666666667 0.1666666666666667 0.3095238095238095 0.1666666666666667 0.1666666666666667 0.02380952380952381 0.3095238095238095 0.1666666666666667 0.1666666666666667 0.3095238095238095 0.02380952380952381 0.02380952380952381 0.1458333333333333 0.02083333333333333 0.2708333333333333 0.3958333333333333 0.1458333333333333 0.02083333333333333 0.3627450980392157 0.06862745098039216 0.2450980392156863 0.1862745098039215 0.06862745098039216 0.06862745098039216 0.1602564102564102 0.2371794871794872 0.1602564102564102 0.2756410256410256 0.08333333333333331 0.08333333333333331 0.1388888888888889 0.1722222222222222 0.3388888888888889 0.3055555555555555 0.005555555555555555 0.03888888888888889 0.1344086021505377 0.2956989247311828 0.1989247311827957 0.2634408602150538 0.005376344086021505 0.1021505376344086 0.1583333333333333 0.1083333333333333 0.2083333333333333 0.008333333333333331 0.2083333333333333 0.3083333333333333 0.03333333333333333 0.2333333333333333 0.03333333333333333 0.2333333333333333 0.2333333333333333 0.2333333333333333 0.1666666666666667 0.1666666666666667 0.1666666666666667 0.1666666666666667 0.1666666666666667 0.1666666666666667 0.04166666666666666 0.04166666666666666 0.2916666666666666 0.2916666666666666 0.2916666666666666 0.04166666666666666 0.02083333333333333 0.02083333333333333 0.5208333333333334 0.2708333333333333 0.02083333333333333 0.1458333333333333 0.04166666666666666 0.04166666666666666 0.2916666666666667 0.2916666666666667 0.04166666666666666 0.2916666666666667 0.4111111111111111 0.2777777777777778 0.07777777777777778 0.1444444444444444 0.01111111111111111 0.07777777777777778 0.2435897435897436 0.1666666666666667 0.2435897435897436 0.3205128205128205 0.01282051282051282 0.01282051282051282 0.1060606060606061 0.196969696969697 0.2878787878787879 0.2878787878787879 0.01515151515151515 0.1060606060606061 0.1666666666666667 0.2435897435897436 0.3205128205128205 0.1666666666666667 0.08974358974358976 0.01282051282051282 0.08974358974358976 0.1666666666666667 0.3205128205128205 0.3974358974358975 0.01282051282051282 0.01282051282051282 0.1354166666666667 0.01041666666666667 0.3854166666666667 0.1354166666666667 0.01041666666666667 0.3229166666666667 0.05555555555555555 0.05555555555555555 0.3888888888888889 0.05555555555555555 0.3888888888888889 0.05555555555555555 0.2916666666666667 0.2916666666666667 0.04166666666666666 0.2916666666666667 0.04166666666666666 0.04166666666666666 0.2916666666666667 0.04166666666666666 0.2916666666666667 0.04166666666666666 0.04166666666666666 0.2916666666666667 0.1944444444444444 0.5277777777777777 0.02777777777777778 0.02777777777777778 0.02777777777777778 0.1944444444444444 0.1805555555555556 0.2638888888888889 0.1805555555555556 0.1805555555555556 0.01388888888888889 0.1805555555555556 0.1203703703703703 0.1203703703703703 0.1759259259259259 0.287037037037037 0.1759259259259259 0.1203703703703703 0.1984126984126984 0.1984126984126984 0.1984126984126984 0.2936507936507936 0.05555555555555555 0.05555555555555555 0.1519607843137255 0.2696078431372549 0.1519607843137255 0.2990196078431372 0.03431372549019608 0.09313725490196077 0.1761904761904762 0.2904761904761904 0.1476190476190476 0.2333333333333333 0.0619047619047619 0.09047619047619047 0.1203703703703703 0.2314814814814815 0.2314814814814815 0.2314814814814815 0.1203703703703703 0.06481481481481481 0.1031746031746031 0.1984126984126984 0.2936507936507936 0.1507936507936508 0.1507936507936508 0.1031746031746031 0.02380952380952381 0.02380952380952381 0.1666666666666667 0.3095238095238095 0.3095238095238095 0.1666666666666667 0.05555555555555555 0.3888888888888889 0.3888888888888889 0.05555555555555555 0.05555555555555555 0.05555555555555555 0.1296296296296297 0.2407407407407408 0.01851851851851852 0.2407407407407408 0.2407407407407408 0.1296296296296297 0.09722222222222222 0.3472222222222222 0.2638888888888888 0.1805555555555555 0.09722222222222222 0.01388888888888889 0.1862745098039215 0.2450980392156863 0.2450980392156863 0.1862745098039215 0.06862745098039216 0.06862745098039216 0.1984126984126984 0.1031746031746031 0.1984126984126984 0.1507936507936508 0.1984126984126984 0.1507936507936508 0.1376811594202898 0.09420289855072461 0.2681159420289855 0.2681159420289855 0.181159420289855 0.05072463768115942 0.2541666666666667 0.1541666666666667 0.2541666666666667 0.2541666666666667 0.02916666666666667 0.05416666666666668 0.1435185185185185 0.1990740740740741 0.2268518518518519 0.1990740740740741 0.1435185185185185 0.08796296296296298 0.1519607843137255 0.1225490196078431 0.3578431372549019 0.1519607843137255 0.06372549019607843 0.1519607843137255 0.09047619047619047 0.1476190476190476 0.3476190476190476 0.2047619047619048 0.0619047619047619 0.1476190476190476 0.1666666666666667 0.1666666666666667 0.1666666666666667 0.1666666666666667 0.1666666666666667 0.1666666666666667 0.05555555555555555 0.05555555555555555 0.3888888888888889 0.05555555555555555 0.3888888888888889 0.05555555555555555 0.05555555555555555 0.05555555555555555 0.3888888888888889 0.05555555555555555 0.05555555555555555 0.3888888888888889 0.361111111111111 0.1944444444444444 0.1944444444444444 0.1944444444444444 0.02777777777777778 0.02777777777777778 0.02777777777777778 0.1944444444444444 0.361111111111111 0.361111111111111 0.02777777777777778 0.02777777777777778 0.3166666666666667 0.1166666666666667 0.5166666666666667 0.01666666666666667 0.01666666666666667 0.01666666666666667 0.01666666666666667 0.2166666666666667 0.3166666666666667 0.01666666666666667 0.3166666666666667 0.1166666666666667 0.05555555555555556 0.246031746031746 0.3888888888888888 0.246031746031746 0.007936507936507936 0.05555555555555556 0.1862745098039215 0.3039215686274509 0.1862745098039215 0.2450980392156862 0.06862745098039215 0.009803921568627447 0.02380952380952381 0.3095238095238095 0.4523809523809523 0.02380952380952381 0.02380952380952381 0.1666666666666667 0.01041666666666667 0.3854166666666667 0.2604166666666667 0.1979166666666667 0.01041666666666667 0.1354166666666667 0.1666666666666667 0.1666666666666667 0.3974358974358975 0.08974358974358976 0.08974358974358976 0.08974358974358976 0.1444444444444444 0.3444444444444444 0.2111111111111111 0.2111111111111111 0.01111111111111111 0.07777777777777778 0.2559523809523809 0.07738095238095237 0.2916666666666666 0.1488095238095238 0.07738095238095237 0.1488095238095238 0.05701754385964913 0.162280701754386 0.2412280701754386 0.3464912280701755 0.05701754385964913 0.1359649122807018 0.2083333333333334 0.2083333333333334 0.2765151515151515 0.1628787878787879 0.04924242424242425 0.09469696969696972 0.1531007751937984 0.2228682170542635 0.2461240310077519 0.1996124031007752 0.06007751937984496 0.1182170542635659 0.1641975308641976 0.2160493827160494 0.2679012345679012 0.208641975308642 0.07530864197530864 0.06790123456790123 0.1741154562383613 0.2690875232774674 0.2746741154562384 0.1797020484171322 0.05121042830540038 0.05121042830540038 0.1907713498622589 0.3023415977961433 0.2238292011019284 0.1618457300275482 0.03787878787878788 0.08333333333333334 0.1613247863247864 0.219017094017094 0.2895299145299146 0.186965811965812 0.04594017094017095 0.09722222222222224 0.09431524547803617 0.2416020671834625 0.2260981912144703 0.148578811369509 0.1020671834625323 0.1873385012919897 0.1666666666666667 0.02380952380952381 0.4523809523809523 0.1666666666666667 0.1666666666666667 0.02380952380952381 0.05555555555555555 0.05555555555555555 0.3888888888888889 0.3888888888888889 0.05555555555555555 0.05555555555555555 0.3518518518518519 0.1296296296296297 0.3518518518518519 0.01851851851851852 0.1296296296296297 0.01851851851851852 0.01851851851851852 0.1296296296296296 0.462962962962963 0.3518518518518518 0.01851851851851852 0.01851851851851852 0.1862745098039215 0.3039215686274509 0.2450980392156862 0.1274509803921568 0.1274509803921568 0.009803921568627447 0.3039215686274509 0.2450980392156862 0.1862745098039215 0.1862745098039215 0.06862745098039215 0.009803921568627447 0.2192982456140351 0.008771929824561401 0.2719298245614035 0.1666666666666666 0.2719298245614035 0.06140350877192981 0.1401515151515152 0.2310606060606061 0.2992424242424243 0.1856060606060606 0.04924242424242425 0.09469696969696972 0.1781609195402299 0.2471264367816092 0.1436781609195402 0.3505747126436781 0.04022988505747126 0.04022988505747126 0.07291666666666667 0.1354166666666667 0.2604166666666667 0.3854166666666667 0.01041666666666667 0.1354166666666667 0.1666666666666667 0.01282051282051282 0.3974358974358975 0.3205128205128205 0.08974358974358976 0.01282051282051282 0.1989247311827957 0.2311827956989247 0.2634408602150538 0.1344086021505377 0.1344086021505377 0.03763440860215054 0.2202380952380952 0.2202380952380952 0.363095238095238 0.1845238095238095 0.005952380952380952 0.005952380952380952 0.1717948717948718 0.1717948717948718 0.2948717948717949 0.217948717948718 0.04871794871794872 0.09487179487179488 0.06892230576441102 0.2568922305764411 0.2343358395989975 0.2493734335839599 0.05388471177944862 0.1365914786967418 0.153954802259887 0.2810734463276836 0.2217514124293785 0.2387005649717514 0.05225988700564972 0.05225988700564972 0.1470189701897019 0.252710027100271 0.2771002710027101 0.1998644986449865 0.05352303523035231 0.06978319783197834 0.1429308565531475 0.217234262125903 0.2946336429308565 0.2017543859649122 0.04695562435500514 0.09649122807017542 0.165173237753883 0.229689366786141 0.2816606929510156 0.211768219832736 0.05585424133811232 0.05585424133811232 0.1400932400932401 0.2673659673659674 0.2701631701631702 0.2016317016317017 0.0393939393939394 0.08135198135198136 0.1291187739463601 0.303831417624521 0.2578544061302682 0.1842911877394636 0.03026819923371647 0.09463601532567049 0.1296296296296296 0.2550776583034648 0.2729988052568698 0.1941457586618877 0.04002389486260454 0.1081242532855436 0.1666666666666667 0.1666666666666667 0.1666666666666667 0.1666666666666667 0.1666666666666667 0.1666666666666667 0.5833333333333334 0.08333333333333333 0.08333333333333333 0.08333333333333333 0.08333333333333333 0.08333333333333333 0.3888888888888889 0.05555555555555555 0.3888888888888889 0.05555555555555555 0.05555555555555555 0.05555555555555555 0.1944444444444444 0.02777777777777778 0.361111111111111 0.1944444444444444 0.1944444444444444 0.02777777777777778 0.1944444444444444 0.1944444444444444 0.1944444444444444 0.1944444444444444 0.1944444444444444 0.02777777777777777 0.1458333333333333 0.1458333333333333 0.2708333333333333 0.2708333333333333 0.1458333333333333 0.02083333333333333 0.2878787878787879 0.2878787878787879 0.1060606060606061 0.1060606060606061 0.196969696969697 0.01515151515151515 0.1759259259259259 0.3425925925925926 0.1203703703703703 0.2314814814814815 0.009259259259259259 0.1203703703703703 0.06481481481481481 0.1203703703703703 0.3981481481481481 0.287037037037037 0.009259259259259259 0.1203703703703703 0.196969696969697 0.196969696969697 0.5606060606060607 0.01515151515151515 0.01515151515151515 0.01515151515151515 0.0119047619047619 0.1547619047619047 0.2976190476190476 0.2976190476190476 0.1547619047619047 0.08333333333333333 0.2030303030303031 0.2757575757575758 0.2212121212121212 0.1666666666666667 0.05757575757575758 0.07575757575757577 0.06884057971014493 0.3079710144927537 0.2210144927536232 0.1992753623188406 0.06884057971014493 0.1340579710144928 0.1997354497354497 0.2235449735449735 0.2394179894179894 0.1600529100529101 0.08068783068783068 0.09656084656084656 0.1059941520467836 0.2112573099415204 0.2989766081871345 0.2156432748538011 0.07529239766081872 0.09283625730994152 0.113768115942029 0.2485507246376812 0.2528985507246377 0.2442028985507247 0.04855072463768117 0.09202898550724641 0.1716467463479416 0.2254316069057105 0.2712483399734396 0.2075033200531209 0.03818061088977424 0.08598937583001327 0.1364094805849723 0.2710539586485124 0.261976802824004 0.2241553202218861 0.03656076651538075 0.06984367120524458 0.165426997245179 0.2472451790633609 0.2555096418732782 0.2241046831955923 0.03732782369146005 0.07038567493112947 0.1459046315309149 0.2602099018936801 0.2732146931325576 0.2006616472735569 0.04255076431667806 0.07745836185261236 0.1351401179941003 0.288901179941003 0.2468657817109144 0.1959808259587021 0.03558259587020648 0.09752949852507375 0.1330532212885154 0.25406162464986 0.2658263305322129 0.1700280112044818 0.04565826330532214 0.1313725490196079 0.2916666666666666 0.2916666666666666 0.04166666666666666 0.04166666666666666 0.2916666666666666 0.04166666666666666 0.04166666666666667 0.04166666666666667 0.5416666666666667 0.2916666666666667 0.04166666666666667 0.04166666666666667 0.2166666666666667 0.01666666666666667 0.1166666666666667 0.1166666666666667 0.1166666666666667 0.4166666666666667 0.1805555555555555 0.1805555555555555 0.5138888888888888 0.09722222222222222 0.01388888888888889 0.01388888888888889 0.1444444444444445 0.1444444444444445 0.1444444444444445 0.2111111111111111 0.2111111111111111 0.1444444444444445 0.1507936507936508 0.1984126984126984 0.246031746031746 0.246031746031746 0.1031746031746031 0.05555555555555555 0.1979166666666667 0.1354166666666667 0.2604166666666667 0.3229166666666667 0.01041666666666667 0.07291666666666667 0.2474747474747475 0.1565656565656566 0.2171717171717172 0.2777777777777778 0.09595959595959598 0.005050505050505052 0.1565656565656566 0.2777777777777778 0.2777777777777778 0.06565656565656566 0.2171717171717172 0.005050505050505052 0.1666666666666667 0.2311827956989247 0.3924731182795699 0.03763440860215054 0.03763440860215054 0.1344086021505377 0.1736111111111111 0.1736111111111111 0.2569444444444444 0.1736111111111111 0.09027777777777775 0.1319444444444444 0.180365296803653 0.1529680365296804 0.2762557077625571 0.1666666666666667 0.07077625570776255 0.1529680365296804 0.1880952380952381 0.2166666666666666 0.2166666666666666 0.2166666666666666 0.07380952380952381 0.0880952380952381 0.1420940170940171 0.219017094017094 0.3344017094017095 0.1549145299145299 0.07158119658119659 0.07799145299145301 0.1295005807200929 0.2409988385598141 0.2549361207897793 0.2584204413472705 0.05284552845528454 0.06329849012775841 0.1719576719576719 0.2513227513227513 0.2544973544973545 0.1973544973544973 0.04814814814814814 0.07671957671957672 0.1833081190115986 0.2075138678769541 0.2650025214321735 0.2256681795259708 0.05774079677256683 0.06076651538073626 0.1664728682170543 0.2408914728682171 0.2781007751937985 0.2083333333333334 0.04670542635658916 0.05949612403100776 0.1485260770975056 0.2604617604617604 0.2765409193980622 0.2004741290455576 0.03720882292310863 0.07678829107400535 0.1315543071161049 0.2781835205992509 0.2562734082397004 0.223689138576779 0.03717228464419475 0.07312734082397003 0.1224163027656477 0.2639010189228529 0.2857350800582241 0.1931586608442503 0.03595342066957787 0.09883551673944685 0.1284674852205548 0.2498863119599818 0.2594361073215098 0.1721236925875398 0.05206912232833107 0.1380172805820828 0.2916666666666667 0.04166666666666666 0.2916666666666667 0.2916666666666667 0.04166666666666666 0.04166666666666666 0.05555555555555556 0.7222222222222222 0.05555555555555556 0.05555555555555556 0.05555555555555556 0.05555555555555556 0.1944444444444444 0.1944444444444444 0.02777777777777778 0.361111111111111 0.1944444444444444 0.02777777777777778 0.196969696969697 0.2878787878787879 0.196969696969697 0.1060606060606061 0.1060606060606061 0.1060606060606061 0.1166666666666667 0.1166666666666667 0.5166666666666667 0.1166666666666667 0.1166666666666667 0.01666666666666667 0.2976190476190476 0.0119047619047619 0.3690476190476191 0.2261904761904762 0.08333333333333333 0.0119047619047619 0.4166666666666667 0.2166666666666667 0.1166666666666667 0.1166666666666667 0.1166666666666667 0.01666666666666667 0.1862745098039215 0.1274509803921569 0.303921568627451 0.1862745098039215 0.06862745098039216 0.1274509803921569 0.09848484848484847 0.2803030303030303 0.1439393939393939 0.2803030303030303 0.05303030303030302 0.1439393939393939 0.3166666666666667 0.1166666666666667 0.1166666666666667 0.3166666666666667 0.01666666666666667 0.1166666666666667 0.05833333333333333 0.2083333333333333 0.2583333333333333 0.2083333333333333 0.2083333333333333 0.05833333333333333 0.08333333333333333 0.08333333333333333 0.5833333333333334 0.08333333333333333 0.08333333333333333 0.08333333333333333 0.1666666666666667 0.1666666666666667 0.1666666666666667 0.1666666666666667 0.1666666666666667 0.1666666666666667 0.1666666666666667 0.1666666666666667 0.1666666666666667 0.1666666666666667 0.1666666666666667 0.1666666666666667 0.03333333333333333 0.2333333333333334 0.4333333333333333 0.03333333333333333 0.2333333333333334 0.03333333333333333 0.03333333333333333 0.4333333333333333 0.4333333333333333 0.03333333333333333 0.03333333333333333 0.03333333333333333 0.02380952380952381 0.4523809523809523 0.1666666666666667 0.3095238095238095 0.02380952380952381 0.02380952380952381 0.361111111111111 0.1944444444444444 0.361111111111111 0.02777777777777778 0.02777777777777778 0.02777777777777778 0.2333333333333334 0.2333333333333334 0.03333333333333333 0.4333333333333333 0.03333333333333333 0.03333333333333333 0.2166666666666667 0.01666666666666667 0.4166666666666667 0.2166666666666667 0.01666666666666667 0.1166666666666667 0.196969696969697 0.2878787878787879 0.2878787878787879 0.01515151515151515 0.1060606060606061 0.1060606060606061 0.196969696969697 0.01515151515151515 0.3787878787878788 0.196969696969697 0.1060606060606061 0.1060606060606061 0.04138702460850112 0.04809843400447427 0.7393736017897092 0.06823266219239373 0.04809843400447427 0.05480984340044742 0.0891812865497076 0.04532163742690058 0.72953216374269 0.07163742690058479 0.04532163742690058 0.01900584795321637 0.09722222222222224 0.09283625730994154 0.7068713450292399 0.06213450292397661 0.027046783625731 0.01388888888888889 0.07264957264957264 0.06798756798756798 0.709013209013209 0.09129759129759127 0.02369852369852369 0.03535353535353535 0.08203631647211414 0.05479896238651102 0.726005188067445 0.08398184176394292 0.03339818417639429 0.01977950713359274 0.08318126520681265 0.05489659367396593 0.7182177615571775 0.1014294403892944 0.02296228710462287 0.01931265206812652 0.08762605614608886 0.06800218043063505 0.7098664486236032 0.09416734805124012 0.02793676751158354 0.01240119923684928 0.07977132805628848 0.06077396657871592 0.7309586631486368 0.08610378188214599 0.02172383465259455 0.02066842568161829 0.08180206318504191 0.08180206318504191 0.69108639587363 0.100177304964539 0.02667633784655061 0.01845583494519665 0.0766036655211913 0.08004009163802979 0.7106242840778922 0.0843356242840779 0.01990263459335624 0.02849369988545246 0.05410342889263631 0.05578976953344576 0.7311691961776278 0.07096683530073075 0.05578976953344576 0.03218100056211354 0.1274509803921568 0.1862745098039215 0.3039215686274509 0.009803921568627447 0.3039215686274509 0.06862745098039215 0.08333333333333333 0.1547619047619047 0.1547619047619047 0.4404761904761905 0.08333333333333333 0.08333333333333333 0.2348484848484848 0.05303030303030302 0.2803030303030303 0.3257575757575757 0.05303030303030302 0.05303030303030302 0.2654320987654321 0.2654320987654321 0.228395061728395 0.191358024691358 0.006172839506172839 0.04320987654320987 0.1462585034013606 0.2687074829931973 0.3095238095238095 0.227891156462585 0.04421768707482993 0.003401360544217687 0.1475694444444444 0.1684027777777778 0.2934027777777777 0.282986111111111 0.0642361111111111 0.04340277777777777 0.1709039548022599 0.2048022598870056 0.2725988700564971 0.230225988700565 0.06073446327683616 0.06073446327683616 0.1717479674796748 0.1961382113821138 0.2997967479674797 0.1900406504065041 0.06199186991869919 0.08028455284552846 0.1108058608058608 0.2097069597069597 0.3086080586080586 0.1822344322344322 0.03937728937728938 0.1492673992673993 0.1584022038567493 0.2245179063360881 0.2245179063360881 0.2493112947658402 0.05922865013774104 0.08402203856749309 0.08333333333333331 0.2057823129251701 0.3180272108843537 0.1751700680272109 0.1343537414965986 0.08333333333333331</probabilities>
		</cpt>
		<cpt id="ChallengeMyself">
			<state id="Agree" />
			<state id="Disagree" />
			<state id="NA" />
			<state id="SSomewhat_agree" />
			<state id="SStrongly_agree" />
			<state id="SStrongly_disagree" />
			<parents>CompetePeers JobSatisfaction</parents>
			<probabilities>0.494535519125683 0.01912568306010929 0.00273224043715847 0.133879781420765 0.3469945355191256 0.00273224043715847 0.5433333333333333 0.02333333333333333 0.003333333333333333 0.06333333333333332 0.3633333333333333 0.003333333333333333 0.4558080808080809 0.01641414141414142 0.008838383838383842 0.06186868686868688 0.4558080808080809 0.001262626262626263 0.4472693032015066 0.01224105461393597 0.006591337099811676 0.0800376647834275 0.4529190207156309 0.0009416195856873823 0.5123697916666667 0.01627604166666667 0.0006510416666666667 0.1061197916666667 0.3639322916666667 0.0006510416666666667 0.5461195928753181 0.009860050890585241 0.00604325699745547 0.09955470737913485 0.3381043256997455 0.0003180661577608142 0.5553041729512318 0.009301156359979891 0.0002513826043237808 0.08320764203117144 0.3516842634489694 0.0002513826043237808 0.5348871298739373 0.006303136909997069 0.001905599530929346 0.08545880973321607 0.3704192318968045 0.001026092055115802 0.5150321074138937 0.006275539988324577 0.003648569760653824 0.09033858727378868 0.3836835960303561 0.001021599532983071 0.4736975214972181 0.01087506322711179 0.004805260495700557 0.06853818917551846 0.4418310571573091 0.0002529084471421346 0.4008899676375404 0.01011326860841424 0.0004045307443365695 0.07079288025889967 0.514967637540453 0.002831715210355987 0.4116161616161615 0.01767676767676767 0.002525252525252525 0.1237373737373737 0.4116161616161615 0.03282828282828282 0.3995433789954337 0.07077625570776255 0.00228310502283105 0.139269406392694 0.3858447488584474 0.00228310502283105 0.4494949494949494 0.01313131313131313 0.00101010101010101 0.1404040404040404 0.3888888888888888 0.00707070707070707 0.5066056910569106 0.01575203252032521 0.003556910569105691 0.1651422764227642 0.3023373983739838 0.006605691056910569 0.5449236298292902 0.03009883198562444 0.0004492362982929021 0.1540880503144654 0.2699910152740342 0.0004492362982929021 0.5147133434804668 0.03069507864028412 0.003297818366311516 0.1433282597666159 0.3077118214104515 0.0002536783358701167 0.5297116736990154 0.01916315049226442 0.002285513361462728 0.1615682137834036 0.2870956399437412 0.0001758087201125176 0.5345541071798054 0.02307055659010966 0.001344920339333747 0.1670804883095386 0.2732257397061866 0.0007241878750258639 0.5340777502067824 0.01695616211745243 0.002067824648469809 0.1375516956162117 0.3087675765095119 0.0005789909015715466 0.5277561608300908 0.009468223086900131 0.00324254215304799 0.1215304798962386 0.3378728923476005 0.0001297016861219196 0.4482683982683982 0.0106060606060606 0.001515151515151515 0.0989177489177489 0.4365800865800865 0.004112554112554112 0.01146384479717813 0.006172839506172841 0.9691358024691359 0.0008818342151675486 0.01146384479717813 0.0008818342151675486 0.001133786848072563 0.001133786848072563 0.9807256235827666 0.001133786848072563 0.00793650793650794 0.00793650793650794 0.009286412512218963 0.0004887585532746822 0.9858260019550341 0.003421309872922776 0.0004887585532746822 0.0004887585532746822 0.00341745531019979 0.00341745531019979 0.9797581493165091 0.001840168243953733 0.01130389064143008 0.0002628811777076762 0.001593806921675774 0.0002276867030965392 0.9879326047358835 0.00569216757741348 0.004326047358834245 0.0002276867030965392 0.003476895468820098 0.00145805293853746 0.9859802602063704 0.003476895468820098 0.005495737999102735 0.0001121579183490354 0.002298216583930869 0.001195072623644052 0.986302629159772 0.002298216583930869 0.007813936385364956 9.192866335723478e-05 0.003706162186082532 0.0007191060958070584 0.9910941475826973 0.0007191060958070584 0.003374267064940813 0.0003872109746653392 0.004342938892295116 5.109339873288371e-05 0.9905477212344166 0.001277334968322093 0.003729818107500511 5.109339873288371e-05 0.003546099290780142 8.246742536698002e-05 0.991175985485733 0.0005772719775688602 0.004535708395183902 8.246742536698002e-05 0.004319871408479003 0.0001004621257785815 0.9898533252963631 0.0007032348804500702 0.004922644163150491 0.0001004621257785815 0.3995433789954337 0.01598173515981735 0.00228310502283105 0.09817351598173514 0.4817351598173515 0.00228310502283105 0.4788359788359788 0.05026455026455026 0.002645502645502645 0.208994708994709 0.2566137566137566 0.002645502645502645 0.4184652278177459 0.01558752997601919 0.001199040767386091 0.1954436450839329 0.36810551558753 0.001199040767386091 0.4500542888165038 0.007057546145494028 0.003800217155266016 0.1308360477741585 0.4044516829533116 0.003800217155266016 0.5098343685300206 0.03467908902691511 0.006728778467908902 0.1651138716356108 0.2800207039337474 0.003623188405797101 0.4622190339550455 0.01458632233381157 0.00310856049736968 0.2068388330942133 0.3115734098517456 0.001673840267814443 0.5216299729625338 0.0164156044804944 0.005986867516415605 0.1682116647354191 0.2864040169949787 0.001351873310158362 0.51945211786372 0.0153084714548803 0.003568139963167587 0.1416896869244935 0.3191758747697974 0.0008057090239410681 0.523999183006536 0.01480800653594772 0.003165849673202615 0.1312295751633987 0.3260825163398693 0.0007148692810457518 0.4960724043715846 0.01246584699453552 0.003244535519125682 0.09853142076502731 0.3874658469945355 0.002219945355191256 0.4148700939745716 0.008568269762299616 0.0002763957987838585 0.07490326147042566 0.4994472084024324 0.00193477059148701 0.1016260162601626 0.02845528455284553 0.004065040650406504 0.1016260162601626 0.7357723577235773 0.02845528455284553 0.1984126984126984 0.007936507936507934 0.007936507936507934 0.007936507936507934 0.7698412698412698 0.007936507936507934 0.229559748427673 0.003144654088050315 0.02201257861635221 0.1163522012578617 0.6257861635220127 0.003144654088050315 0.1572769953051643 0.002347417840375587 0.002347417840375587 0.04460093896713615 0.7910798122065728 0.002347417840375587 0.2996031746031746 0.01388888888888889 0.001984126984126984 0.0376984126984127 0.6448412698412698 0.001984126984126984 0.1686626746506986 0.006986027944111778 0.0009980039920159682 0.05489021956087825 0.7674650698602795 0.0009980039920159682 0.2606209150326798 0.005718954248366014 0.02532679738562092 0.05473856209150327 0.6527777777777778 0.0008169934640522877 0.2420634920634921 0.003968253968253968 0.0005668934240362811 0.02777777777777778 0.7250566893424035 0.0005668934240362811 0.2317708333333334 0.003645833333333334 0.003645833333333334 0.02864583333333333 0.7317708333333334 0.0005208333333333333 0.2219298245614035 0.006140350877192983 0.0008771929824561405 0.04298245614035088 0.7271929824561404 0.0008771929824561405 0.1213836477987421 0.008176100628930818 0.0006289308176100629 0.02704402515723271 0.8345911949685534 0.008176100628930818 0.2596899224806202 0.05038759689922481 0.003875968992248062 0.07364341085271318 0.5387596899224807 0.07364341085271318 0.3266666666666667 0.006666666666666666 0.006666666666666666 0.2866666666666667 0.2866666666666667 0.08666666666666666 0.3932291666666666 0.03385416666666666 0.002604166666666666 0.1276041666666666 0.4088541666666666 0.03385416666666666 0.2916666666666666 0.04973118279569893 0.009408602150537635 0.1626344086021505 0.4529569892473118 0.03360215053763441 0.369496855345912 0.06761006289308177 0.001572327044025157 0.2091194968553459 0.3506289308176101 0.001572327044025157 0.3668154761904762 0.03199404761904762 0.005208333333333333 0.1614583333333333 0.4025297619047619 0.03199404761904762 0.4322268326417703 0.0297372060857538 0.008990318118948822 0.1666666666666666 0.3326417704011064 0.0297372060857538 0.4092514124293786 0.04060734463276837 0.002471751412429379 0.1698446327683616 0.3711158192090396 0.006709039548022599 0.4517259978425027 0.03586839266450918 0.001887810140237325 0.1264832793959008 0.3724379719525351 0.011596548004315 0.4244791666666667 0.02046130952380952 0.007068452380952382 0.1164434523809524 0.420014880952381 0.0115327380952381 0.3239700374531835 0.01161048689138577 0.002621722846441948 0.1239700374531835 0.5149812734082397 0.02284644194756555</probabilities>
		</cpt>
		<cpt id="ChangeWorld">
			<state id="Agree" />
			<state id="Disagree" />
			<state id="NA" />
			<state id="SSomewhat_agree" />
			<state id="SStrongly_agree" />
			<state id="SStrongly_disagree" />
			<parents>ChallengeMyself JobSatisfaction</parents>
			<probabilities>0.3862179487179487 0.1650641025641026 0.02083333333333333 0.1746794871794872 0.1842948717948718 0.06891025641025642 0.3451178451178451 0.07239057239057239 0.001683501683501684 0.2946127946127947 0.2441077441077441 0.0420875420875421 0.2839771101573677 0.1595135908440629 0.000715307582260372 0.2925608011444922 0.2324749642346209 0.030758226037196 0.3190916089299461 0.1551193225558122 0.002694380292532718 0.344495765973826 0.1551193225558122 0.02347959969207082 0.3253404381290705 0.1548253404381291 0.003848431024274719 0.3111308466548254 0.1672587329780936 0.03759621077560688 0.3513810420590081 0.1498744507219083 0.00298179535467671 0.3061833019460138 0.1583490269930947 0.03123038292529817 0.336144849302744 0.1526090868196131 0.003486279802069276 0.3523391812865497 0.1350652271704903 0.02035537561853351 0.3092377519690295 0.1722733947403551 0.002069149646242158 0.3604992657856094 0.131023895341076 0.02489654251768789 0.3291190393718971 0.1895277681561021 0.004907054612631336 0.3377785475118347 0.1070892506638956 0.03157833968363931 0.3180669000388953 0.1652080902372618 0.004181252430960716 0.3618241929210423 0.1237845196421626 0.02693504472967716 0.3137358757062147 0.1686087570621469 0.005473163841807909 0.3264477401129944 0.1495409604519774 0.03619350282485875 0.02083333333333333 0.02083333333333333 0.02083333333333333 0.3958333333333333 0.2708333333333333 0.2708333333333333 0.3166666666666667 0.3166666666666667 0.01666666666666667 0.2166666666666667 0.01666666666666667 0.1166666666666667 0.01851851851851852 0.2407407407407407 0.01851851851851852 0.1296296296296296 0.3518518518518518 0.2407407407407407 0.1203703703703703 0.1759259259259259 0.1203703703703703 0.2314814814814815 0.1759259259259259 0.1759259259259259 0.2333333333333333 0.3761904761904762 0.03333333333333333 0.1761904761904762 0.0619047619047619 0.1190476190476191 0.177536231884058 0.3949275362318841 0.02536231884057971 0.1340579710144928 0.1340579710144928 0.1340579710144928 0.1462585034013605 0.3299319727891156 0.003401360544217687 0.1870748299319728 0.08503401360544217 0.2482993197278911 0.1142322097378277 0.3164794007490636 0.01310861423220974 0.3164794007490636 0.1029962546816479 0.1367041198501872 0.2153558052434457 0.3389513108614232 0.01310861423220974 0.2602996254681648 0.0692883895131086 0.1029962546816479 0.1706349206349207 0.3373015873015874 0.003968253968253969 0.2420634920634921 0.1230158730158731 0.1230158730158731 0.08666666666666664 0.2866666666666666 0.006666666666666665 0.2466666666666666 0.1666666666666667 0.2066666666666666 0.0009057971014492755 0.0009057971014492755 0.9954710144927537 0.0009057971014492755 0.0009057971014492755 0.0009057971014492755 0.001149425287356322 0.001149425287356322 0.9942528735632186 0.001149425287356322 0.001149425287356322 0.001149425287356322 0.0004916420845624385 0.0063913470993117 0.9886922320550638 0.0004916420845624385 0.0004916420845624385 0.003441494591937069 0.001863684771033014 0.001863684771033014 0.9906815761448351 0.001863684771033014 0.003461128860489883 0.0002662406815761449 0.001606978879706153 0.002984389348025712 0.9947199265381085 0.0002295684113865932 0.0002295684113865932 0.0002295684113865932 0.001469923111714156 0.001469923111714156 0.9919719583898688 0.002826775214834916 0.0007914970601537765 0.001469923111714156 0.003420225550009244 9.24385283786282e-05 0.9912183398040303 0.001756332039193936 0.002310963209465705 0.001201700868922167 0.0007229451673896119 0.0007229451673896119 0.9963852741630521 0.0007229451673896119 0.001390279168056946 5.561116672227784e-05 0.001591212401190843 0.0003593060260753517 0.9954316805256135 0.001591212401190843 0.0009752592136330973 5.132943229647881e-05 0.003057345893240786 0.0005784167906131218 0.9936374153032557 0.0005784167906131218 0.002065774252189721 8.263097008758882e-05 0.0007092198581560283 0.0001013171225937183 0.9976697061803445 0.0001013171225937183 0.001317122593718338 0.0001013171225937183 0.1021505376344086 0.2311827956989247 0.005376344086021505 0.2956989247311828 0.2311827956989247 0.1344086021505377 0.2107843137254902 0.2107843137254902 0.004901960784313725 0.2696078431372549 0.2107843137254902 0.09313725490196077 0.2319819819819819 0.2049549549549549 0.002252252252252252 0.3265765765765765 0.1644144144144144 0.06981981981981981 0.2644110275689223 0.3020050125313283 0.0012531328320802 0.2644110275689223 0.106516290726817 0.06140350877192981 0.2584830339321358 0.2045908183632735 0.01297405189620759 0.3662674650698604 0.1147704590818364 0.04291417165668664 0.1617790811339198 0.2790811339198436 0.003421309872922777 0.4051808406647116 0.103128054740958 0.04740957966764419 0.213121434392828 0.2791361043194784 0.002852485737571312 0.3769356153219234 0.07131214343928281 0.05664221678891606 0.19662638469285 0.2827291037260826 0.00176233635448137 0.371852970795569 0.08484390735146023 0.0621852970795569 0.2218172983479106 0.2757531584062197 0.00315840621963071 0.358843537414966 0.09353741496598642 0.04689018464528669 0.2010213556174559 0.2790157845868153 0.008820798514391829 0.4015784586815227 0.06731662024141133 0.04224698235840297 0.2297507788161993 0.2157320872274143 0.005451713395638629 0.309190031152648 0.1736760124610592 0.06619937694704049 0.2242206235011991 0.07314148681055156 0.008393285371702639 0.1882494004796163 0.4688249400479617 0.03717026378896883 0.3007662835249042 0.1053639846743295 0.001915708812260536 0.2203065134099617 0.3467432950191571 0.02490421455938697 0.2390070921985816 0.08156028368794328 0.00921985815602837 0.2262411347517731 0.4134751773049646 0.03049645390070923 0.2793538219070134 0.08313632781717886 0.002758077226162332 0.2202521670606777 0.3857368006304175 0.02876280535855003 0.2888007054673721 0.1062610229276896 0.005731922398589063 0.2332451499118166 0.3575837742504408 0.008377425044091709 0.2517213446739571 0.08282705548805186 0.006277845281490483 0.2213446739570676 0.4133252328878089 0.02450384771162414 0.3032312925170068 0.09914965986394557 0.01139455782312925 0.2348639455782313 0.3409863945578231 0.01037414965986394 0.3148470770421991 0.08720480061943478 0.00532326751838947 0.2434185056136276 0.3276229190863338 0.02158343012001549 0.3161752859674561 0.09481230868374417 0.002497180602545514 0.2402932173352667 0.3200418881907524 0.02618011922023522 0.3058837155432013 0.09879545981005325 0.002895529302756544 0.2627982395181839 0.3065786425758628 0.02304841324994208 0.2531855249745158 0.079638124362895 0.003950050968399592 0.2050203873598369 0.4244393476044852 0.03376656472986748 0.02380952380952381 0.1666666666666667 0.02380952380952381 0.02380952380952381 0.1666666666666667 0.5952380952380952 0.04166666666666666 0.04166666666666666 0.2916666666666667 0.04166666666666666 0.04166666666666666 0.5416666666666666 0.2916666666666667 0.2916666666666667 0.04166666666666666 0.2916666666666667 0.04166666666666666 0.04166666666666666 0.02083333333333333 0.1458333333333333 0.02083333333333333 0.2708333333333333 0.02083333333333333 0.5208333333333334 0.08333333333333333 0.08333333333333333 0.08333333333333333 0.5833333333333334 0.08333333333333333 0.08333333333333333 0.1296296296296296 0.01851851851851852 0.01851851851851852 0.2407407407407407 0.1296296296296296 0.462962962962963 0.01851851851851852 0.01851851851851852 0.01851851851851852 0.2407407407407407 0.2407407407407407 0.462962962962963 0.02083333333333333 0.5208333333333334 0.02083333333333333 0.1458333333333333 0.02083333333333333 0.2708333333333333 0.01515151515151515 0.1060606060606061 0.01515151515151515 0.1060606060606061 0.3787878787878788 0.3787878787878788 0.1458333333333333 0.02083333333333333 0.02083333333333333 0.2708333333333333 0.02083333333333333 0.5208333333333334 0.009259259259259259 0.1203703703703703 0.009259259259259259 0.1759259259259259 0.2314814814814815 0.4537037037037037</probabilities>
		</cpt>
		<cpt id="CheckInCode">
			<state id="SA_few_times_a_month" />
			<state id="SA_few_times_a_week" />
			<state id="SJust_a_few_times_over_the_year" />
			<state id="SMultiple_times_a_day" />
			<state id="NA" />
			<state id="Never" />
			<state id="SOnce_a_day" />
			<parents>WorkStart JobSatisfaction</parents>
			<probabilities>0.09398496240601506 0.1071428571428572 0.08082706766917296 0.3571428571428572 0.2913533834586467 0.01503759398496241 0.05451127819548874 0.07268170426065163 0.1428571428571428 0.09022556390977443 0.3182957393483709 0.3007518796992481 0.02005012531328321 0.05513784461152882 0.007233273056057866 0.1971066907775768 0.04520795660036166 0.3996383363471971 0.2793851717902351 0.0135623869801085 0.05786618444846293 0.05258259655653792 0.1242438343415542 0.04281060958585389 0.3815728245695673 0.313168915774779 0.01023731968357375 0.07538389948813402 0.05201863354037266 0.1661490683229814 0.03027950310559006 0.3862577639751553 0.296583850931677 0.01940993788819876 0.04930124223602484 0.05659177617634591 0.1396778295888088 0.03730394234845273 0.4126748622297584 0.2657905892327257 0.009114031369224248 0.07884696905468419 0.04395604395604397 0.1636141636141636 0.02472527472527473 0.3975885225885227 0.2875457875457876 0.007631257631257633 0.07493894993894994 0.0557179393496529 0.1567409572524662 0.02119108512970406 0.4182499086591158 0.2673547679941542 0.009042747533796127 0.07170259408111071 0.04960790998977156 0.1361234231162632 0.0227582679849983 0.4284861916126833 0.284691442209342 0.005455165359699966 0.07287759972724173 0.03282729985727261 0.1454521863241209 0.01284546516154145 0.4869599065784351 0.2580770727909693 0.007395873880887504 0.05644219540677307 0.03483817769532055 0.1271902700474129 0.01030715316429602 0.4749536178107607 0.2743764172335601 0.007421150278293136 0.07091321377035663 0.02380952380952381 0.1904761904761905 0.1904761904761905 0.1904761904761905 0.3571428571428571 0.02380952380952381 0.02380952380952381 0.04761904761904762 0.380952380952381 0.04761904761904762 0.04761904761904762 0.380952380952381 0.04761904761904762 0.04761904761904762 0.03571428571428572 0.03571428571428572 0.03571428571428572 0.5357142857142858 0.2857142857142858 0.03571428571428572 0.03571428571428572 0.1904761904761905 0.1904761904761905 0.02380952380952381 0.1904761904761905 0.1904761904761905 0.1904761904761905 0.02380952380952381 0.02857142857142856 0.02857142857142856 0.02857142857142856 0.8285714285714284 0.02857142857142856 0.02857142857142856 0.02857142857142856 0.01098901098901099 0.1648351648351648 0.01098901098901099 0.3956043956043956 0.08791208791208792 0.08791208791208792 0.2417582417582418 0.07936507936507936 0.2275132275132275 0.07936507936507936 0.2645502645502645 0.2645502645502645 0.005291005291005291 0.07936507936507936 0.06696428571428573 0.03571428571428572 0.03571428571428572 0.4419642857142858 0.3482142857142858 0.004464285714285715 0.06696428571428573 0.03463203463203463 0.03463203463203463 0.1255411255411256 0.3982683982683983 0.2467532467532468 0.004329004329004329 0.1558441558441559 0.01098901098901099 0.1648351648351648 0.01098901098901099 0.3956043956043956 0.3186813186813187 0.01098901098901099 0.08791208791208792 0.1428571428571428 0.07619047619047618 0.07619047619047618 0.4761904761904762 0.07619047619047618 0.07619047619047618 0.07619047619047618 0.06722689075630252 0.06722689075630252 0.06722689075630252 0.3025210084033614 0.4201680672268908 0.06722689075630252 0.008403361344537815 0.1428571428571428 0.6428571428571428 0.01785714285714285 0.1428571428571428 0.01785714285714285 0.01785714285714285 0.01785714285714285 0.1893687707641196 0.04983388704318936 0.04983388704318936 0.5149501661129567 0.1428571428571428 0.003322259136212624 0.04983388704318936 0.02678571428571429 0.1642857142857143 0.01428571428571429 0.3517857142857144 0.3267857142857143 0.001785714285714286 0.1142857142857143 0.04270986745213549 0.1973490427098674 0.04270986745213549 0.3622974963181149 0.3107511045655376 0.0117820324005891 0.03240058910162003 0.0507936507936508 0.211904761904762 0.03968253968253969 0.3952380952380953 0.2174603174603175 0.01190476190476191 0.07301587301587303 0.04232804232804233 0.1395502645502646 0.03306878306878307 0.4034391534391535 0.2738095238095238 0.009920634920634922 0.09788359788359789 0.04374758033294619 0.1602787456445993 0.01664730933023616 0.4285714285714285 0.2713898567557104 0.008517228029423151 0.07084785133565621 0.04598825831702544 0.1441617742987606 0.02544031311154599 0.4500978473581213 0.2697325505544683 0.01174168297455969 0.05283757338551859 0.02705627705627706 0.1823593073593074 0.01948051948051948 0.4475108225108225 0.2694805194805195 0.004329004329004329 0.04978354978354978 0.06672369546621044 0.1325919589392643 0.0307955517536356 0.4679213002566296 0.2463644140290848 0.01283147989734816 0.04277159965782722 0.07142857142857144 0.5714285714285715 0.07142857142857144 0.07142857142857144 0.07142857142857144 0.07142857142857144 0.07142857142857144 0.1428571428571429 0.1428571428571429 0.1428571428571429 0.1428571428571429 0.1428571428571429 0.1428571428571429 0.1428571428571429 0.07142857142857144 0.07142857142857144 0.07142857142857144 0.07142857142857144 0.5714285714285715 0.07142857142857144 0.07142857142857144 0.02857142857142857 0.2285714285714286 0.2285714285714286 0.02857142857142857 0.4285714285714286 0.02857142857142857 0.02857142857142857 0.02380952380952381 0.5238095238095237 0.02380952380952381 0.1904761904761905 0.1904761904761905 0.02380952380952381 0.02380952380952381 0.01785714285714286 0.1428571428571428 0.1428571428571428 0.2678571428571428 0.2678571428571428 0.01785714285714286 0.1428571428571428 0.02380952380952381 0.1904761904761905 0.02380952380952381 0.02380952380952381 0.5238095238095237 0.02380952380952381 0.1904761904761905 0.01298701298701299 0.1948051948051948 0.01298701298701299 0.2857142857142857 0.3766233766233767 0.01298701298701299 0.1038961038961039 0.01428571428571429 0.4142857142857144 0.1142857142857143 0.4142857142857144 0.01428571428571429 0.01428571428571429 0.01428571428571429 0.01428571428571429 0.3142857142857143 0.01428571428571429 0.4142857142857144 0.2142857142857143 0.01428571428571429 0.01428571428571429 0.04761904761904762 0.04761904761904762 0.04761904761904762 0.380952380952381 0.380952380952381 0.04761904761904762 0.04761904761904762 0.04761904761904762 0.04761904761904762 0.04761904761904762 0.380952380952381 0.04761904761904762 0.380952380952381 0.04761904761904762 0.07142857142857144 0.07142857142857144 0.07142857142857144 0.5714285714285715 0.07142857142857144 0.07142857142857144 0.07142857142857144 0.07142857142857144 0.07142857142857144 0.07142857142857144 0.07142857142857144 0.5714285714285715 0.07142857142857144 0.07142857142857144 0.03571428571428572 0.2857142857142858 0.03571428571428572 0.03571428571428572 0.5357142857142858 0.03571428571428572 0.03571428571428572 0.02857142857142857 0.4285714285714286 0.02857142857142857 0.02857142857142857 0.2285714285714286 0.02857142857142857 0.2285714285714286 0.07142857142857144 0.07142857142857144 0.07142857142857144 0.07142857142857144 0.5714285714285715 0.07142857142857144 0.07142857142857144 0.02857142857142857 0.02857142857142857 0.2285714285714286 0.4285714285714286 0.02857142857142857 0.02857142857142857 0.2285714285714286 0.2285714285714286 0.2285714285714286 0.2285714285714286 0.02857142857142857 0.02857142857142857 0.02857142857142857 0.2285714285714286 0.02040816326530612 0.163265306122449 0.02040816326530612 0.4489795918367346 0.3061224489795918 0.02040816326530612 0.02040816326530612 0.02857142857142857 0.02857142857142857 0.02857142857142857 0.4285714285714286 0.4285714285714286 0.02857142857142857 0.02857142857142857 0.2857142857142858 0.2857142857142858 0.03571428571428572 0.03571428571428572 0.2857142857142858 0.03571428571428572 0.03571428571428572 0.04761904761904762 0.04761904761904762 0.04761904761904762 0.04761904761904762 0.380952380952381 0.380952380952381 0.04761904761904762 0.03571428571428572 0.5357142857142858 0.03571428571428572 0.03571428571428572 0.2857142857142858 0.03571428571428572 0.03571428571428572 0.2142857142857143 0.1142857142857143 0.01428571428571429 0.1142857142857143 0.5142857142857143 0.01428571428571429 0.01428571428571429 0.0119047619047619 0.0119047619047619 0.0119047619047619 0.5119047619047619 0.2619047619047619 0.09523809523809523 0.09523809523809523 0.1964285714285714 0.1339285714285714 0.07142857142857142 0.2589285714285715 0.1964285714285714 0.008928571428571428 0.1339285714285714 0.0394088669950739 0.1773399014778325 0.0394088669950739 0.4187192118226601 0.2463054187192119 0.004926108374384237 0.07389162561576355 0.02857142857142856 0.2285714285714285 0.05357142857142855 0.4785714285714284 0.1785714285714285 0.00357142857142857 0.02857142857142856 0.04365079365079364 0.1269841269841269 0.04365079365079364 0.4603174603174603 0.2103174603174603 0.001984126984126984 0.1130952380952381 0.04910714285714286 0.1584821428571428 0.06473214285714286 0.3147321428571428 0.2991071428571428 0.002232142857142857 0.1116071428571429 0.1118012422360248 0.1118012422360248 0.02484472049689441 0.4161490683229813 0.2857142857142857 0.003105590062111801 0.04658385093167702 0.06696428571428573 0.2232142857142858 0.004464285714285715 0.2857142857142858 0.3482142857142858 0.03571428571428572 0.03571428571428572 0.07142857142857144 0.07142857142857144 0.07142857142857144 0.5714285714285715 0.07142857142857144 0.07142857142857144 0.07142857142857144 0.1428571428571429 0.1428571428571429 0.1428571428571429 0.1428571428571429 0.1428571428571429 0.1428571428571429 0.1428571428571429 0.5714285714285715 0.07142857142857144 0.07142857142857144 0.07142857142857144 0.07142857142857144 0.07142857142857144 0.07142857142857144 0.04761904761904762 0.04761904761904762 0.04761904761904762 0.04761904761904762 0.380952380952381 0.380952380952381 0.04761904761904762 0.07142857142857144 0.07142857142857144 0.07142857142857144 0.07142857142857144 0.5714285714285715 0.07142857142857144 0.07142857142857144 0.04761904761904762 0.04761904761904762 0.380952380952381 0.04761904761904762 0.380952380952381 0.04761904761904762 0.04761904761904762 0.03571428571428572 0.03571428571428572 0.2857142857142858 0.2857142857142858 0.03571428571428572 0.03571428571428572 0.2857142857142858 0.02857142857142857 0.2285714285714286 0.02857142857142857 0.2285714285714286 0.4285714285714286 0.02857142857142857 0.02857142857142857 0.02380952380952381 0.1904761904761905 0.02380952380952381 0.1904761904761905 0.5238095238095237 0.02380952380952381 0.02380952380952381 0.07142857142857144 0.07142857142857144 0.07142857142857144 0.5714285714285715 0.07142857142857144 0.07142857142857144 0.07142857142857144 0.02857142857142857 0.2285714285714286 0.02857142857142857 0.2285714285714286 0.4285714285714286 0.02857142857142857 0.02857142857142857 0.02040816326530612 0.02040816326530612 0.02040816326530612 0.4489795918367346 0.163265306122449 0.02040816326530612 0.3061224489795918 0.02857142857142857 0.02857142857142857 0.4285714285714286 0.2285714285714286 0.02857142857142857 0.02857142857142857 0.2285714285714286 0.01587301587301587 0.2380952380952381 0.01587301587301587 0.3492063492063492 0.2380952380952381 0.01587301587301587 0.126984126984127 0.07619047619047618 0.2095238095238095 0.009523809523809523 0.2095238095238095 0.3428571428571429 0.009523809523809523 0.1428571428571428 0.1654135338345865 0.2706766917293233 0.06015037593984962 0.1654135338345865 0.2180451127819549 0.007518796992481203 0.112781954887218 0.004464285714285715 0.1919642857142858 0.004464285714285715 0.4107142857142858 0.2857142857142858 0.004464285714285715 0.09821428571428574 0.0668693009118541 0.1306990881458967 0.0243161094224924 0.5349544072948328 0.1732522796352584 0.0243161094224924 0.04559270516717325 0.08866995073891626 0.1231527093596059 0.0541871921182266 0.4679802955665024 0.2266009852216749 0.002463054187192118 0.03694581280788177 0.01503759398496241 0.1597744360902255 0.01503759398496241 0.4755639097744361 0.2650375939849624 0.001879699248120301 0.06766917293233082 0.003484320557491289 0.1742160278745645 0.003484320557491289 0.4181184668989547 0.3693379790940767 0.003484320557491289 0.02787456445993031 0.05226480836236934 0.02787456445993031 0.02787456445993031 0.5156794425087108 0.2717770034843205 0.02787456445993031 0.07665505226480836 0.1428571428571429 0.1428571428571429 0.1428571428571429 0.1428571428571429 0.1428571428571429 0.1428571428571429 0.1428571428571429 0.1428571428571429 0.1428571428571429 0.1428571428571429 0.1428571428571429 0.1428571428571429 0.1428571428571429 0.1428571428571429 0.07142857142857144 0.5714285714285715 0.07142857142857144 0.07142857142857144 0.07142857142857144 0.07142857142857144 0.07142857142857144 0.03571428571428572 0.03571428571428572 0.03571428571428572 0.2857142857142858 0.03571428571428572 0.2857142857142858 0.2857142857142858 0.04761904761904762 0.380952380952381 0.04761904761904762 0.04761904761904762 0.380952380952381 0.04761904761904762 0.04761904761904762 0.02040816326530612 0.3061224489795918 0.02040816326530612 0.3061224489795918 0.3061224489795918 0.02040816326530612 0.02040816326530612 0.03571428571428572 0.5357142857142858 0.03571428571428572 0.2857142857142858 0.03571428571428572 0.03571428571428572 0.03571428571428572 0.1904761904761905 0.02380952380952381 0.02380952380952381 0.02380952380952381 0.5238095238095237 0.02380952380952381 0.1904761904761905 0.02040816326530612 0.02040816326530612 0.02040816326530612 0.3061224489795918 0.4489795918367347 0.163265306122449 0.02040816326530612 0.01587301587301587 0.01587301587301587 0.01587301587301587 0.4603174603174603 0.1269841269841269 0.01587301587301587 0.3492063492063491 0.04761904761904762 0.04761904761904762 0.04761904761904762 0.380952380952381 0.04761904761904762 0.380952380952381 0.04761904761904762 0.380952380952381 0.04761904761904762 0.04761904761904762 0.380952380952381 0.04761904761904762 0.04761904761904762 0.04761904761904762 0.02857142857142856 0.2285714285714285 0.02857142857142856 0.6285714285714284 0.02857142857142856 0.02857142857142856 0.02857142857142856 0.02040816326530612 0.4489795918367346 0.02040816326530612 0.163265306122449 0.3061224489795918 0.02040816326530612 0.02040816326530612 0.02040816326530612 0.163265306122449 0.02040816326530612 0.5918367346938775 0.02040816326530612 0.163265306122449 0.02040816326530612 0.02040816326530612 0.02040816326530612 0.02040816326530612 0.4489795918367346 0.4489795918367346 0.02040816326530612 0.02040816326530612 0.1428571428571428 0.01785714285714286 0.01785714285714286 0.3928571428571428 0.1428571428571428 0.01785714285714286 0.2678571428571428 0.06722689075630252 0.06722689075630252 0.06722689075630252 0.1260504201680672 0.5966386554621849 0.008403361344537815 0.06722689075630252 0.04395604395604396 0.3131868131868132 0.08241758241758242 0.2747252747252747 0.2362637362637363 0.005494505494505495 0.04395604395604396 0.1047619047619048 0.1714285714285715 0.0380952380952381 0.4047619047619048 0.2380952380952382 0.004761904761904762 0.0380952380952381 0.06912442396313365 0.1013824884792627 0.004608294930875577 0.391705069124424 0.2949308755760369 0.004608294930875577 0.1336405529953917 0.05714285714285715 0.2571428571428572 0.007142857142857144 0.4071428571428572 0.1571428571428572 0.007142857142857144 0.1071428571428572 0.02857142857142857 0.02857142857142857 0.02857142857142857 0.4285714285714286 0.4285714285714286 0.02857142857142857 0.02857142857142857 0.1428571428571429 0.1428571428571429 0.1428571428571429 0.1428571428571429 0.1428571428571429 0.1428571428571429 0.1428571428571429 0.03571428571428572 0.03571428571428572 0.2857142857142858 0.2857142857142858 0.2857142857142858 0.03571428571428572 0.03571428571428572 0.01785714285714286 0.1428571428571428 0.2678571428571428 0.1428571428571428 0.2678571428571428 0.01785714285714286 0.1428571428571428 0.03571428571428572 0.2857142857142858 0.03571428571428572 0.5357142857142858 0.03571428571428572 0.03571428571428572 0.03571428571428572 0.1428571428571429 0.0761904761904762 0.0761904761904762 0.5428571428571429 0.1428571428571429 0.009523809523809525 0.009523809523809525 0.08791208791208793 0.08791208791208793 0.08791208791208793 0.6263736263736265 0.08791208791208793 0.01098901098901099 0.01098901098901099 0.1948051948051948 0.1038961038961039 0.01298701298701299 0.3766233766233767 0.2857142857142857 0.01298701298701299 0.01298701298701299 0.01098901098901099 0.01098901098901099 0.01098901098901099 0.3186813186813187 0.3956043956043956 0.08791208791208792 0.1648351648351648 0.01098901098901099 0.08791208791208792 0.01098901098901099 0.5494505494505495 0.3186813186813187 0.01098901098901099 0.01098901098901099 0.00892857142857143 0.1964285714285715 0.00892857142857143 0.5089285714285715 0.1339285714285715 0.00892857142857143 0.1339285714285715 0.380952380952381 0.04761904761904762 0.04761904761904762 0.04761904761904762 0.04761904761904762 0.380952380952381 0.04761904761904762 0.03571428571428572 0.03571428571428572 0.2857142857142858 0.2857142857142858 0.2857142857142858 0.03571428571428572 0.03571428571428572 0.03571428571428572 0.2857142857142858 0.03571428571428572 0.03571428571428572 0.5357142857142858 0.03571428571428572 0.03571428571428572 0.1904761904761905 0.02380952380952381 0.02380952380952381 0.1904761904761905 0.5238095238095237 0.02380952380952381 0.02380952380952381 0.0119047619047619 0.1785714285714285 0.0119047619047619 0.3452380952380952 0.4285714285714286 0.0119047619047619 0.0119047619047619 0.06349206349206349 0.2857142857142857 0.007936507936507936 0.2857142857142857 0.2301587301587302 0.007936507936507936 0.119047619047619 0.05442176870748301 0.05442176870748301 0.006802721088435376 0.435374149659864 0.3401360544217688 0.006802721088435376 0.1020408163265306 0.06302521008403361 0.180672268907563 0.004201680672268907 0.4159663865546218 0.2394957983193277 0.004201680672268907 0.09243697478991596 0.06122448979591837 0.1183673469387755 0.03265306122448979 0.3469387755102041 0.3755102040816326 0.03265306122448979 0.03265306122448979 0.007936507936507936 0.1746031746031746 0.007936507936507936 0.5079365079365079 0.2301587301587302 0.06349206349206349 0.007936507936507936 0.05442176870748301 0.05442176870748301 0.05442176870748301 0.4829931972789117 0.3401360544217688 0.006802721088435376 0.006802721088435376 0.02040816326530612 0.02040816326530612 0.163265306122449 0.4489795918367346 0.3061224489795918 0.02040816326530612 0.02040816326530612 0.04761904761904762 0.04761904761904762 0.04761904761904762 0.7142857142857143 0.04761904761904762 0.04761904761904762 0.04761904761904762 0.126984126984127 0.2380952380952381 0.01587301587301587 0.2380952380952381 0.2380952380952381 0.01587301587301587 0.126984126984127 0.09523809523809523 0.09523809523809523 0.0119047619047619 0.2619047619047619 0.3452380952380952 0.0119047619047619 0.1785714285714285 0.1848739495798319 0.06722689075630252 0.008403361344537815 0.3025210084033614 0.361344537815126 0.008403361344537815 0.06722689075630252 0.05442176870748301 0.1020408163265306 0.1020408163265306 0.4829931972789117 0.1972789115646259 0.006802721088435376 0.05442176870748301 0.006211180124223602 0.2670807453416149 0.006211180124223602 0.3975155279503105 0.1801242236024845 0.006211180124223602 0.1366459627329192 0.07857142857142856 0.1535714285714286 0.05357142857142855 0.4535714285714285 0.1035714285714286 0.02857142857142856 0.1285714285714286 0.03174603174603174 0.2261904761904762 0.003968253968253968 0.3095238095238095 0.3928571428571428 0.003968253968253968 0.03174603174603174 0.004201680672268907 0.1512605042016807 0.03361344537815126 0.5042016806722689 0.180672268907563 0.004201680672268907 0.1218487394957983 0.08979591836734693 0.06122448979591837 0.004081632653061224 0.4040816326530612 0.3469387755102041 0.004081632653061224 0.08979591836734693 0.1428571428571429 0.1428571428571429 0.1428571428571429 0.1428571428571429 0.1428571428571429 0.1428571428571429 0.1428571428571429 0.04761904761904762 0.04761904761904762 0.04761904761904762 0.380952380952381 0.380952380952381 0.04761904761904762 0.04761904761904762 0.380952380952381 0.04761904761904762 0.04761904761904762 0.380952380952381 0.04761904761904762 0.04761904761904762 0.04761904761904762 0.02380952380952381 0.1904761904761905 0.02380952380952381 0.1904761904761905 0.5238095238095237 0.02380952380952381 0.02380952380952381 0.02380952380952381 0.1904761904761905 0.02380952380952381 0.3571428571428571 0.1904761904761905 0.02380952380952381 0.1904761904761905 0.01428571428571429 0.1142857142857143 0.01428571428571429 0.3142857142857143 0.4142857142857144 0.01428571428571429 0.1142857142857143 0.01428571428571429 0.3142857142857143 0.01428571428571429 0.3142857142857143 0.3142857142857143 0.01428571428571429 0.01428571428571429 0.05442176870748301 0.1972789115646259 0.1020408163265306 0.4829931972789117 0.1020408163265306 0.006802721088435376 0.05442176870748301 0.06722689075630252 0.1260504201680672 0.008403361344537815 0.2436974789915967 0.4789915966386554 0.008403361344537815 0.06722689075630252 0.02040816326530612 0.3061224489795917 0.02040816326530612 0.5918367346938774 0.02040816326530612 0.02040816326530612 0.02040816326530612 0.008928571428571428 0.1339285714285714 0.07142857142857142 0.3839285714285715 0.2589285714285715 0.008928571428571428 0.1339285714285714 0.01098901098901099 0.3186813186813187 0.01098901098901099 0.4725274725274726 0.1648351648351648 0.01098901098901099 0.01098901098901099 0.07619047619047618 0.2095238095238095 0.07619047619047618 0.2095238095238095 0.3428571428571429 0.07619047619047618 0.009523809523809523 0.07653061224489796 0.07653061224489796 0.04081632653061225 0.3979591836734694 0.2908163265306123 0.04081632653061225 0.07653061224489796 0.05639097744360902 0.1090225563909775 0.1090225563909775 0.3458646616541353 0.2669172932330827 0.003759398496240601 0.1090225563909775 0.003246753246753247 0.2077922077922078 0.0487012987012987 0.3896103896103896 0.275974025974026 0.02597402597402597 0.0487012987012987 0.02491694352159469 0.2225913621262459 0.02491694352159469 0.3156146179401993 0.3272425249169436 0.0132890365448505 0.07142857142857144 0.0380952380952381 0.1195767195767196 0.03068783068783069 0.4306878306878307 0.3047619047619048 0.008465608465608466 0.06772486772486773 0.05107741420590584 0.1348762968874701 0.02873104549082204 0.4309656823623305 0.2857142857142858 0.01197126895450918 0.05666400638467679 0.03364817001180637 0.1328217237308147 0.0295159386068477 0.4551357733175915 0.2650531286894923 0.0295159386068477 0.05430932703659976 0.02014652014652014 0.1419413919413919 0.0586080586080586 0.3983516483516484 0.3021978021978022 0.01373626373626374 0.06501831501831501 0.0398671096345515 0.1173864894795127 0.0398671096345515 0.5049833887043189 0.2414174972314507 0.02436323366555924 0.03211517165005538 0.163265306122449 0.163265306122449 0.02040816326530612 0.3061224489795918 0.163265306122449 0.02040816326530612 0.163265306122449 0.04761904761904762 0.04761904761904762 0.04761904761904762 0.04761904761904762 0.7142857142857142 0.04761904761904762 0.04761904761904762 0.01587301587301587 0.3492063492063492 0.01587301587301587 0.3492063492063492 0.126984126984127 0.01587301587301587 0.126984126984127 0.01587301587301587 0.1269841269841269 0.01587301587301587 0.5714285714285714 0.1269841269841269 0.01587301587301587 0.1269841269841269 0.1260504201680672 0.1260504201680672 0.06722689075630252 0.361344537815126 0.2436974789915967 0.06722689075630252 0.008403361344537815 0.06722689075630252 0.1848739495798319 0.008403361344537815 0.4201680672268908 0.2436974789915967 0.008403361344537815 0.06722689075630252 0.06015037593984963 0.1127819548872181 0.06015037593984963 0.5338345864661656 0.1654135338345865 0.007518796992481204 0.06015037593984963 0.003246753246753247 0.2305194805194805 0.02597402597402597 0.525974025974026 0.1850649350649351 0.02597402597402597 0.003246753246753247 0.07389162561576355 0.1083743842364532 0.0394088669950739 0.5221674876847291 0.1773399014778325 0.004926108374384237 0.07389162561576355 0.07142857142857142 0.2589285714285715 0.008928571428571428 0.3214285714285715 0.2589285714285715 0.008928571428571428 0.07142857142857142 0.08791208791208792 0.3956043956043956 0.08791208791208792 0.3186813186813187 0.01098901098901099 0.08791208791208792 0.01098901098901099 0.004608294930875577 0.1658986175115208 0.03686635944700462 0.2949308755760369 0.423963133640553 0.03686635944700462 0.03686635944700462 0.04081632653061225 0.1479591836734694 0.005102040816326531 0.4693877551020408 0.2908163265306123 0.04081632653061225 0.005102040816326531 0.04835164835164834 0.09450549450549449 0.06373626373626373 0.5252747252747252 0.2021978021978021 0.01758241758241758 0.04835164835164834 0.03866809881847476 0.09129967776584318 0.04618689581095596 0.4221267454350161 0.3168635875402793 0.03114930182599356 0.05370569280343716 0.07748184019370459 0.1368038740920097 0.0351089588377724 0.3317191283292978 0.3401937046004843 0.009685230024213074 0.06900726392251816 0.05342624854819977 0.1509872241579559 0.02903600464576075 0.4396051103368177 0.2363530778164925 0.004645760743321719 0.0859465737514518 0.04688191065900044 0.1769128704113224 0.01282618310482088 0.3874391862007961 0.2852720035382574 0.003538257408226449 0.08712958867757629 0.04685099846390169 0.1436251920122888 0.03072196620583717 0.4715821812596007 0.2260624679979518 0.01280081925243216 0.06835637480798772 0.05894105894105894 0.14005994005994 0.02537462537462537 0.4211788211788212 0.2743256743256743 0.008591408591408592 0.07152847152847153 0.03711001642036125 0.161247947454844 0.0187192118226601 0.4463054187192118 0.2761904761904762 0.00722495894909688 0.05320197044334975 0.04352278545826933 0.1152073732718894 0.02201740911418331 0.5058883768561188 0.2478238607270865 0.0148489503328213 0.05069124423963133 0.1428571428571429 0.1428571428571429 0.1428571428571429 0.1428571428571429 0.1428571428571429 0.1428571428571429 0.1428571428571429 0.07142857142857144 0.07142857142857144 0.07142857142857144 0.5714285714285715 0.07142857142857144 0.07142857142857144 0.07142857142857144 0.04761904761904762 0.380952380952381 0.04761904761904762 0.380952380952381 0.04761904761904762 0.04761904761904762 0.04761904761904762 0.1904761904761905 0.1904761904761905 0.02380952380952381 0.3571428571428571 0.1904761904761905 0.02380952380952381 0.02380952380952381 0.02380952380952381 0.02380952380952381 0.1904761904761905 0.1904761904761905 0.3571428571428571 0.02380952380952381 0.1904761904761905 0.1428571428571428 0.5178571428571428 0.01785714285714285 0.1428571428571428 0.1428571428571428 0.01785714285714285 0.01785714285714285 0.01298701298701299 0.2857142857142857 0.01298701298701299 0.4675324675324676 0.1038961038961039 0.01298701298701299 0.1038961038961039 0.06349206349206349 0.2301587301587302 0.007936507936507936 0.2857142857142857 0.2857142857142857 0.007936507936507936 0.119047619047619 0.119047619047619 0.1746031746031746 0.007936507936507936 0.3412698412698413 0.3412698412698413 0.007936507936507936 0.007936507936507936 0.1038961038961039 0.3766233766233767 0.01298701298701299 0.2857142857142857 0.1038961038961039 0.1038961038961039 0.01298701298701299 0.08163265306122448 0.08163265306122448 0.2244897959183673 0.2244897959183673 0.3673469387755102 0.01020408163265306 0.01020408163265306 0.05714285714285714 0.1298701298701299 0.03896103896103896 0.4389610389610389 0.2571428571428571 0.002597402597402597 0.07532467532467532 0.09006211180124224 0.09006211180124224 0.02484472049689441 0.3726708074534161 0.3726708074534161 0.003105590062111801 0.04658385093167702 0.01700680272108843 0.191609977324263 0.06462585034013604 0.326530612244898 0.3424036281179139 0.01700680272108843 0.04081632653061225 0.05325814536340853 0.1804511278195489 0.06203007518796993 0.3778195488721805 0.2506265664160401 0.009398496240601505 0.06641604010025064 0.04844720496894411 0.1832298136645963 0.03540372670807454 0.3614906832298137 0.3049689440993789 0.01366459627329193 0.05279503105590063 0.06801365964712579 0.1277746158224246 0.02020489470688674 0.4026750142287991 0.2970973249857712 0.01024473534433694 0.07398975526465566 0.04711476118435271 0.1454506159498595 0.02442187162308191 0.4359196023341259 0.2785822347093149 0.004754700669980549 0.06375621352928464 0.04474616292798111 0.1728453364817001 0.02408500590318772 0.3976387249114522 0.2786304604486423 0.01003541912632822 0.07201889020070838 0.04185000488901926 0.1479417228903882 0.02268504937909456 0.4217268016035983 0.2909944265180405 0.01104918353378312 0.06375281118607606 0.0399810366624526 0.1196270543615676 0.01564475347661188 0.4691845764854615 0.2822376738305942 0.00347661188369153 0.06984829329962074 0.02713085234093638 0.1195678271308523 0.02713085234093638 0.4725090036014407 0.282593037214886 0.017046818727491 0.05402160864345739 0.03571428571428572 0.03571428571428572 0.03571428571428572 0.5357142857142858 0.2857142857142858 0.03571428571428572 0.03571428571428572 0.03571428571428572 0.03571428571428572 0.03571428571428572 0.2857142857142858 0.5357142857142858 0.03571428571428572 0.03571428571428572 0.01428571428571429 0.2142857142857143 0.01428571428571429 0.3142857142857143 0.3142857142857143 0.01428571428571429 0.1142857142857143 0.0119047619047619 0.09523809523809523 0.0119047619047619 0.2619047619047619 0.4285714285714286 0.0119047619047619 0.1785714285714285 0.0761904761904762 0.009523809523809525 0.009523809523809525 0.5428571428571429 0.2761904761904763 0.009523809523809525 0.0761904761904762 0.1496598639455783 0.1496598639455783 0.05442176870748301 0.3877551020408164 0.1496598639455783 0.05442176870748301 0.05442176870748301 0.07142857142857142 0.008928571428571428 0.008928571428571428 0.3214285714285715 0.3214285714285715 0.07142857142857142 0.1964285714285714 0.1255411255411256 0.09523809523809523 0.004329004329004329 0.4588744588744589 0.2770562770562771 0.004329004329004329 0.03463203463203463 0.06493506493506493 0.1558441558441559 0.004329004329004329 0.4891774891774892 0.1861471861471862 0.004329004329004329 0.09523809523809523 0.03686635944700462 0.1336405529953917 0.06912442396313365 0.4562211981566821 0.2304147465437789 0.004608294930875577 0.06912442396313365 0.005952380952380952 0.08928571428571427 0.04761904761904762 0.2976190476190476 0.3392857142857142 0.005952380952380952 0.2142857142857143 0.04305283757338552 0.1252446183953033 0.04305283757338552 0.3581213307240705 0.3581213307240705 0.001956947162426615 0.07045009784735815 0.08775510204081635 0.2020408163265306 0.07346938775510206 0.2877551020408164 0.2591836734693878 0.0163265306122449 0.07346938775510206 0.07783882783882783 0.1675824175824176 0.04578754578754579 0.3983516483516484 0.2316849816849817 0.02014652014652014 0.0586080586080586 0.07018417122946739 0.1607765057242409 0.03185664509706321 0.3942259830761573 0.2548531607765057 0.007466401194624191 0.08063713290194126 0.05759637188208617 0.1560090702947846 0.02267573696145125 0.3909297052154195 0.273469387755102 0.009977324263038548 0.08934240362811791 0.06073049492111521 0.1499891938621137 0.03652474605575968 0.3587637778258051 0.2921979684460774 0.01837043440674303 0.08342338448238601 0.04551495016611296 0.1745847176079734 0.02225913621262458 0.3850498338870432 0.2780730897009966 0.01179401993355482 0.08272425249169435 0.04585210707659687 0.1627352239597138 0.0198780811025709 0.4057778955738139 0.2827104867921195 0.008746355685131196 0.0742998498100539 0.04558587479935795 0.145024077046549 0.02479935794542536 0.4321027287319422 0.2832263242375602 0.00738362760834671 0.06187800963081862 0.03593262632563943 0.1232688708671241 0.01759201497192764 0.4892077354959451 0.2586400499064255 0.008858390517779164 0.06650031191515908 0.03702981874878191 0.1257064899629702 0.01793022802572598 0.479048918339505 0.2798674722276359 0.00565191970376145 0.05476515299161957 0.03571428571428572 0.2857142857142858 0.03571428571428572 0.2857142857142858 0.03571428571428572 0.03571428571428572 0.2857142857142858 0.04761904761904762 0.04761904761904762 0.04761904761904762 0.380952380952381 0.380952380952381 0.04761904761904762 0.04761904761904762 0.1904761904761905 0.1904761904761905 0.02380952380952381 0.3571428571428571 0.1904761904761905 0.02380952380952381 0.02380952380952381 0.1038961038961039 0.01298701298701299 0.01298701298701299 0.2857142857142857 0.4675324675324676 0.01298701298701299 0.1038961038961039 0.01428571428571429 0.2142857142857143 0.01428571428571429 0.3142857142857143 0.2142857142857143 0.1142857142857143 0.1142857142857143 0.1530612244897959 0.08163265306122448 0.1530612244897959 0.08163265306122448 0.4387755102040816 0.01020408163265306 0.08163265306122448 0.3142857142857143 0.01428571428571429 0.1142857142857143 0.3142857142857143 0.1142857142857143 0.01428571428571429 0.1142857142857143 0.06722689075630252 0.06722689075630252 0.008403361344537815 0.1848739495798319 0.4201680672268908 0.008403361344537815 0.2436974789915967 0.006493506493506494 0.2337662337662338 0.05194805194805195 0.4155844155844156 0.2337662337662338 0.006493506493506494 0.05194805194805195 0.1142857142857143 0.2142857142857143 0.01428571428571429 0.2142857142857143 0.2142857142857143 0.01428571428571429 0.2142857142857143 0.007142857142857144 0.05714285714285715 0.05714285714285715 0.4571428571428572 0.4071428571428572 0.007142857142857144 0.007142857142857144 0.07142857142857144 0.07142857142857144 0.07142857142857144 0.07142857142857144 0.07142857142857144 0.07142857142857144 0.5714285714285715 0.1428571428571429 0.1428571428571429 0.1428571428571429 0.1428571428571429 0.1428571428571429 0.1428571428571429 0.1428571428571429 0.1428571428571429 0.1428571428571429 0.1428571428571429 0.1428571428571429 0.1428571428571429 0.1428571428571429 0.1428571428571429 0.2285714285714286 0.02857142857142857 0.02857142857142857 0.02857142857142857 0.4285714285714286 0.02857142857142857 0.2285714285714286 0.2285714285714286 0.02857142857142857 0.02857142857142857 0.4285714285714286 0.2285714285714286 0.02857142857142857 0.02857142857142857 0.02040816326530612 0.02040816326530612 0.02040816326530612 0.7346938775510202 0.02040816326530612 0.02040816326530612 0.1632653061224489 0.02380952380952381 0.02380952380952381 0.02380952380952381 0.5238095238095237 0.3571428571428571 0.02380952380952381 0.02380952380952381 0.2285714285714286 0.02857142857142857 0.02857142857142857 0.4285714285714286 0.2285714285714286 0.02857142857142857 0.02857142857142857 0.01428571428571429 0.1142857142857143 0.2142857142857143 0.2142857142857143 0.3142857142857143 0.01428571428571429 0.1142857142857143 0.1038961038961039 0.01298701298701299 0.01298701298701299 0.3766233766233767 0.4675324675324676 0.01298701298701299 0.01298701298701299 0.1038961038961039 0.2857142857142858 0.01298701298701299 0.1948051948051948 0.2857142857142858 0.1038961038961039 0.01298701298701299 0.04122722914669224 0.02780441035474593 0.04793863854266539 0.1553211888782358 0.6586768935762224 0.04122722914669224 0.02780441035474593 0.03634085213032583 0.07142857142857144 0.04511278195488723 0.1065162907268171 0.6766917293233083 0.01879699248120301 0.04511278195488723 0.04010025062656641 0.06203007518796992 0.01817042606516291 0.1015037593984962 0.7155388471177945 0.01817042606516291 0.04448621553884712 0.03996003996003995 0.06560106560106559 0.01665001665001665 0.1098901098901099 0.7182817182817182 0.002664002664002664 0.04695304695304695 0.04307948860478043 0.04502501389660923 0.01973318510283491 0.1403557531962201 0.6889938854919401 0.01584213451917732 0.04697053918843802 0.02294056308654849 0.04757559958289886 0.02385297184567257 0.1561522419186653 0.7081595411887383 0.01290406673618352 0.02841501564129301 0.02055834598761827 0.05653545146595024 0.006658100689171826 0.1595607989720827 0.7155706109099405 0.007475762177315734 0.03364092979792081 0.01801733886166604 0.06128910667169242 0.02012815680361854 0.1441387108933283 0.7103656238220881 0.009046362608367884 0.03701470033923859 0.01941143962420558 0.05664548217739707 0.01409229068803537 0.1644791378833932 0.7036474164133738 0.009256700746062448 0.03246753246753246 0.01472754050073638 0.05510554737358861 0.01215022091310751 0.1581983308787432 0.7054491899852724 0.007854688267059401 0.04651448208149239 0.01867019995181884 0.04396530956396049 0.01782702963141412 0.1535774512165743 0.7260900987713803 0.01192483738858106 0.02794507347627078 0.06722689075630252 0.1260504201680672 0.06722689075630252 0.1848739495798319 0.5378151260504201 0.008403361344537815 0.008403361344537815 0.01020408163265306 0.1530612244897959 0.01020408163265306 0.4387755102040816 0.3673469387755102 0.01020408163265306 0.01020408163265306 0.1428571428571428 0.006493506493506493 0.05194805194805194 0.3246753246753247 0.3246753246753247 0.05194805194805194 0.09740259740259741 0.1164021164021164 0.1164021164021164 0.005291005291005292 0.3756613756613757 0.2645502645502646 0.04232804232804233 0.07936507936507937 0.0641399416909621 0.1253644314868805 0.002915451895043731 0.4518950437317784 0.3090379008746355 0.002915451895043731 0.04373177842565597 0.0744047619047619 0.1681547619047619 0.09523809523809523 0.3452380952380952 0.1994047619047619 0.001488095238095238 0.1160714285714286 0.05205811138014528 0.1283292978208233 0.02663438256658596 0.3232445520581114 0.3571428571428572 0.009685230024213074 0.1029055690072639 0.04965156794425087 0.1289198606271777 0.03745644599303136 0.3606271777003485 0.2874564459930314 0.0008710801393728223 0.1350174216027875 0.04474097331240189 0.2040816326530613 0.01726844583987441 0.456828885400314 0.2260596546310832 0.006279434850863423 0.04474097331240189 0.04250295159386069 0.1003541912632822 0.03423848878394333 0.4722550177095632 0.2739079102715467 0.009445100354191263 0.06729634002361275 0.03206997084548105 0.1239067055393586 0.04227405247813411 0.3075801749271136 0.3688046647230321 0.02186588921282799 0.1034985422740525</probabilities>
		</cpt>
		<cpt id="Gender">
			<state id="Female" />
			<state id="Male" />
			<state id="NA" />
			<state id="Nonbinary" />
			<parents>WorkStart JobSatisfaction</parents>
