<?xml version="1.0" encoding="ISO-8859-1"?>
<!-- This network was created in trial version of GeNIe, which can be used for evaluation purposes only -->
<smile version="1.0" id="Unnamed" numsamples="10000" discsamples="10000">
	<nodes>
		<cpt id="JobSatisfaction">
			<state id="State0" />
			<state id="State1" />
			<state id="State2" />
			<state id="State3" />
			<state id="State4" />
			<state id="State5" />
			<state id="State6" />
			<state id="State7" />
			<state id="State8" />
			<state id="State9" />
			<state id="State10" />
			<probabilities>0.01156627704490294 0.009238161334026627 0.02199326336701919 0.0404943531119618 0.04619080644708469 0.09285218941826524 0.1170497324983307 0.1973697245235635 0.2224836535749314 0.1380275410846311 0.1027342975952828</probabilities>
		</cpt>
		<cpt id="LearnNewLanguage">
			<state id="State0" />
			<state id="State1" />
			<parents>JobSatisfaction</parents>
			<probabilities>0.5695928300094968 0.4304071699905033 0.5817688524121365 0.4182311475878635 0.4594595107557563 0.5405404892442438 0.5100917393487605 0.4899082606512395 0.5067024109437339 0.4932975890562661 0.5297412622222223 0.4702587377777778 0.5080406259626238 0.4919593740373762 0.5079683773372229 0.4920316226627771 0.5268841141052977 0.4731158858947023 0.5374125234683713 0.4625874765316287 0.6048698106871182 0.3951301893128819</probabilities>
		</cpt>
		<cpt id="WorkStart">
			<state id="S10_00_AM" />
			<state id="S10_00_PM" />
			<state id="S11_00_AM" />
			<state id="S11_00_PM" />
			<state id="S1_00_AM" />
			<state id="S1_00_PM" />
			<state id="S2_00_AM" />
			<state id="S2_00_PM" />
			<state id="S3_00_AM" />
			<state id="S3_00_PM" />
			<state id="S4_00_AM" />
			<state id="S4_00_PM" />
			<state id="S5_00_AM" />
			<state id="S5_00_PM" />
			<state id="S6_00_AM" />
			<state id="S6_00_PM" />
			<state id="S7_00_AM" />
			<state id="S7_00_PM" />
			<state id="S8_00_AM" />
			<state id="S8_00_PM" />
			<state id="S9_00_AM" />
			<state id="S9_00_PM" />
			<state id="Midnight" />
			<state id="NA" />
			<state id="Noon" />
			<parents>LearnNewLanguage JobSatisfaction</parents>
			<probabilities>0.1090215881833102 0.007519252619618734 0.01503794414285514 0.003759906858000533 5.610963823310747e-07 5.610963823310747e-07 5.610963823310747e-07 0.007519252619618734 5.610963823310747e-07 0.007519252619618734 5.610963823310747e-07 0.007519252619618734 0.007519252619618734 5.610963823310747e-07 0.02631598142770974 0.003759906858000533 0.04135336447418255 5.610963823310747e-07 0.09398420513683738 5.610963823310747e-07 0.09774355089845557 0.003759906858000533 5.610963823310747e-07 0.5375870050077852 0.03007532718932795 0.08755660297954719 8.416799932665599e-07 0.009217237606262099 8.416799932665599e-07 0.004609039643127683 0.004609039643127683 8.416799932665599e-07 0.009217237606262099 8.416799932665599e-07 0.01843363353253093 8.416799932665599e-07 0.009217237606262099 0.009217237606262099 8.416799932665599e-07 0.02304183149566535 8.416799932665599e-07 0.06451561316387509 8.416799932665599e-07 0.1013811968689504 8.416799932665599e-07 0.1336385826108913 8.416799932665599e-07 8.416799932665599e-07 0.4976862216985103 0.02765002945879977 0.100489834470143 0.002451204858890131 0.02450989652142204 2.391186088079339e-07 0.002451204858890131 0.007353136339452777 2.391186088079339e-07 0.01470603356029675 2.391186088079339e-07 0.004902170599171455 2.391186088079339e-07 2.391186088079339e-07 0.01225506782001542 0.004902170599171455 0.01470603356029675 0.002451204858890131 0.04901955392423527 2.391186088079339e-07 0.09313693724929908 0.009804102079734102 0.1102936974312683 0.002451204858890131 2.391186088079339e-07 0.5294088390193746 0.01470603356029675 0.1294962745168346 0.001199096417942558 0.02517987737100649 0.002398135465595754 0.001199096417942558 0.004796213560902148 0.002398135465595754 0.004796213560902148 5.737028936139694e-08 0.003597174513248951 0.005995252608555345 0.003597174513248951 0.007194291656208541 0.002398135465595754 0.01318948689447452 0.002398135465595754 0.05155873641937682 0.002398135465595754 0.0911270249919323 0.005995252608555345 0.113908766897343 0.008393330703861737 0.002398135465595754 0.4988003011940191 0.01558756498978092 0.1164020310286105 0.001058244572674977 0.03068784109346576 0.001058244572674977 0.002116444448417505 0.008465643702872673 4.469693244952598e-08 0.003174644324160033 0.001058244572674977 0.004232844199902561 0.003174644324160033 0.002116444448417505 0.007407443827130144 0.005291044075645089 0.01798944258455542 0.004232844199902561 0.03809524022366345 4.469693244952598e-08 0.08994703413504732 0.006349243951387616 0.1068782321469278 0.004232844199902561 0.002116444448417505 0.5248671830652263 0.01904764246029795 0.1102718855246571 0.001510583766804308 0.02870090920626751 0.001007059221629064 0.0005035346764538194 0.006545829218556753 1.013127857495461e-08 0.006042304673381509 1.013127857495461e-08 0.001007059221629064 0.004028206492680531 0.002517632857154797 0.003021157402330042 0.003021157402330042 0.01661632012206164 0.004028206492680531 0.04279959647117436 0.001007059221629064 0.0896273791724721 0.002517632857154797 0.1213494255185125 0.003524681947505286 0.002014108311979553 0.5266866843845843 0.02165156557381409 0.1316118125264749 0.004164937489644003 0.03290295833128236 0.00041649998856074 0.0008329930442366581 0.004164937489644003 0.0008329930442366581 0.006247402768023594 0.00041649998856074 0.00041649998856074 0.002915458322616249 0.002498965266940331 0.002915458322616249 0.001665979155588495 0.0199916736053289 0.002915458322616249 0.04456476389020807 0.001249486099912576 0.09246146529293865 0.003331951378292167 0.1249479236356603 0.001665979155588495 0.001665979155588495 0.4956267431872274 0.01957518054965297 0.1363636304857982 0.001235180230128566 0.03162055387080016 0.001235180230128566 2.439857363498672e-09 0.007658104739538821 0.0004940735559658447 0.003458500252616732 0.0002470379979116041 0.003211464694562491 0.0009881446720743257 0.00271739357845401 0.003458500252616732 0.001729251346237048 0.01753952706170845 0.004199606926779453 0.0501482207248682 0.001976286904291288 0.1126482169125911 0.002223322462345529 0.146492088366022 0.0009881446720743257 0.0004940735559658447 0.4528161803532803 0.016057313713383 0.1299387240662475 0.002112826537400167 0.03126980812249262 0.000845131685874408 0.0006338492106201149 0.006127193567231736 0.0006338492106201149 0.005915911091977442 0.000845131685874408 0.003380521388925925 0.001056414161128701 0.002535391487908753 0.002957956438417339 0.001901544062145874 0.0194379895082522 0.00232410901265446 0.06169448455911083 0.001267696636382994 0.1290935941652303 0.002112826537400167 0.1531797963442197 0.002112826537400167 0.000845131685874408 0.4225649522934434 0.01521234000316634 0.1362270343546625 0.001669453352133062 0.03505843126839346 4.456320042210262e-09 0.001335563572970458 0.007011689818734726 0.0003338942354826462 0.004340571585433895 0.0003338942354826462 0.003338902247946082 0.001001673793807854 0.003005012468783478 0.005676130702084311 0.001335563572970458 0.01702838319361285 0.002003343131295666 0.06744573984716605 0.001669453352133062 0.1432387197170772 0.004674461364596498 0.1632721064668334 0.001335563572970458 0.001335563572970458 0.378631014026713 0.01869783208942586 0.1135910604593578 0.001594266757670513 0.02949382390755702 6.34910556975286e-09 6.34910556975286e-09 0.006377047983365344 0.001195701655529277 0.006377047983365344 0.0003985714512468056 0.0047827875748004 0.002391396961952985 0.001992831859811749 0.007572743289789052 0.003188527166235457 0.02072539166044983 0.002789962064094221 0.05340773003603117 0.002391396961952985 0.1195695369914763 0.005579917779082872 0.1343164457707021 0.003985657370517928 0.002789962064094221 0.4575527436072443 0.01793543594546118 0.2288510930300951 0.01492598764826978 0.05970100970493089 9.802960494069209e-07 0.009950985197529655 0.009950985197529655 0.004975982746789531 0.0199009900990099 9.802960494069209e-07 9.802960494069209e-07 0.0199009900990099 9.802960494069209e-07 0.0199009900990099 9.802960494069209e-07 0.02487599254975003 0.02487599254975003 0.09452602686011174 9.802960494069209e-07 0.144276051367513 0.01492598764826978 0.2288510930300951 0.009950985197529655 0.004975982746789531 0.02487599254975003 0.03980099990197039 0.2371714876871273 0.01282161548135827 0.03205160452756704 1.622783885756014e-06 1.622783885756014e-06 0.01282161548135827 1.622783885756014e-06 0.01282161548135827 1.622783885756014e-06 1.622783885756014e-06 1.622783885756014e-06 0.006411619132622013 1.622783885756014e-06 0.01282161548135827 0.05769158992251208 0.01282161548135827 0.08333157531745711 0.006411619132622013 0.1474315388048197 0.01923161183009453 0.2564014767333361 0.01282161548135827 1.622783885756014e-06 0.03205160452756704 0.04487159722503956 0.2416657950129884 0.004166821547278928 0.06666655140667616 0.002083497218632354 1.728899857797986e-07 0.01250011886186522 0.002083497218632354 0.004166821547278928 0.002083497218632354 0.008333470204572075 0.006250145875925502 0.006250145875925502 0.006250145875925502 1.728899857797986e-07 0.04374998379156384 0.0145834431905118 0.09166644335043504 0.004166821547278928 0.1812493894822377 0.01041679453321865 0.2291658490411089 0.008333470204572075 1.728899857797986e-07 0.0229167405050981 0.03125003781968439 0.2471906891126299 0.004993812227535898 0.07240943775225278 0.00249693720810194 0.00249693720810194 0.008739124756686836 6.218866798092049e-08 0.01248443728583777 0.003745374717818919 0.003745374717818919 0.00249693720810194 0.00249693720810194 0.006242249737252878 0.003745374717818919 0.03245943744130944 0.007490687246969857 0.1111110005534792 0.003745374717818919 0.1885141261559319 0.007490687246969857 0.238451626544611 0.003745374717818919 0.00249693720810194 0.01498131230527173 0.01622974981498871 0.2793475439173537 0.003260912877354431 0.07282604825751172 0.004347868117669389 0.002173957637039473 0.007608733838614263 0.001087002396724516 0.01630437576113392 0.001087002396724516 0.002173957637039473 4.715640955813263e-08 0.009782644319244178 0.009782644319244178 4.715640955813263e-08 0.02826088340459846 0.01304351004018905 0.08804342162192114 0.005434823357984347 0.1565216017617635 0.00869568907892922 0.2315215133434956 0.005434823357984347 0.002173957637039473 0.01847828624176384 0.03260870436585829 0.2575155285092117 0.005104945984440641 0.06920021750196678 0.002836086815678653 1.285472616862316e-08 0.008508234737583621 0.001134442439107163 0.01077709390634561 0.00340330160786915 0.002836086815678653 0.00340330160786915 0.006806590361012131 0.007941019945393125 0.001701657231297659 0.02949518204863201 0.004537731192250143 0.09075437960520566 0.002836086815678653 0.1832103907322567 0.008508234737583621 0.2376630107825443 0.00340330160786915 0.001134442439107163 0.02779353767206051 0.02949518204863201 0.2662365173237003 0.00688172655147353 0.05849462023748881 0.001720437182872001 0.0008602222881050801 0.01247312336745852 0.0004301148407216194 0.01333333826222544 0.0008602222881050801 0.006451619104090069 0.002150544630255462 0.006021511656706609 0.006451619104090069 0.002150544630255462 0.03698924786831578 0.004731189314556227 0.0924731085807822 0.003010759525022383 0.1883870693472939 0.003010759525022383 0.2404300704806927 0.002150544630255462 0.0004301148407216194 0.0137634457096089 0.03010752871018041 0.2578423729840508 0.006630963658760414 0.06120887390811285 0.001275187419337978 0.001020150455555957 0.0102014811517087 0.0005100765279919157 0.01096659204305477 0.001020150455555957 0.003060446165812123 0.001530224383119999 0.005610815803632331 0.006375926694978392 0.003315483129594144 0.02728895772510409 0.006630963658760414 0.09028308777926321 0.002295335274466061 0.1920428363282895 0.00586585276741435 0.2609028165494351 0.003060446165812123 0.0005100765279919157 0.01555725739113114 0.0249936250510659 0.2494117531176054 0.005176472515274611 0.06799999845055622 0.001176472736623721 0.0007058845273706753 0.008000001770792886 0.0004705904227441524 0.01105882513093768 0.0004705904227441524 0.003058825573635904 0.001647060945876767 0.005176472515274611 0.004941178410648088 0.001647060945876767 0.03505882380284302 0.004000001992141996 0.09929411436588377 0.002588237364382859 0.1997646970414091 0.005176472515274611 0.2479999884898462 0.002588237364382859 0.001176472736623721 0.01576470722346814 0.0256470596177821 0.2684251014209227 0.002715288770922598 0.06128781681493723 0.003491083844353256 6.013915297912072e-09 0.009309546895083187 6.013915297912072e-09 0.01047323950522917 0.002715288770922598 0.007757956748221871 0.003491083844353256 0.003103186307637927 0.006206366601360557 0.0007758010873459553 0.04034134983230948 0.003491083844353256 0.08999223453187155 0.001939493697491942 0.1838634384169811 0.006206366601360557 0.2540728925624556 0.001939493697491942 0.00232739123420727 0.01124903457865983 0.02482544836369633 0.2483220701963118 0.006101293872694826 0.05613178167757288 0.001220270672218918 0.001830398572278406 0.009151933372992268 0.000610142772159429 0.01464308447352766 0.000610142772159429 0.00427091017251636 0.005491165972635338 0.009151933372992268 0.009151933372992268 0.00427091017251636 0.04636973527662107 0.003050654372397383 0.0878584324806663 0.00427091017251636 0.1793776174895896 0.005491165972635338 0.2410005353955979 0.005491165972635338 0.001830398572278406 0.02257474717430101 0.03172666567519334</probabilities>
		</cpt>
		<cpt id="CompetePeers">
			<state id="Agree" />
			<state id="Disagree" />
			<state id="NA" />
			<state id="SSomewhat_agree" />
			<state id="SStrongly_agree" />
			<state id="SStrongly_disagree" />
			<parents>WorkStart JobSatisfaction</parents>
			<probabilities>0.1733321791320406 0.1866632040627885 0.1333391043397968 0.3333044783010156 0.08001500461680515 0.09334602954755307 0.1964194111008515 0.2856776444034062 0.1785677644403406 0.1607161177798297 0.08930953113778597 0.08930953113778597 0.1464976232441382 0.3057269134219943 0.2292968541366234 0.1847126528868237 0.04459087753031032 0.08917507878011002 0.1176475789309878 0.2973842339618104 0.2908483555970532 0.1633987274842881 0.02614528182438718 0.1045758222014734 0.1852859660522999 0.267029231647763 0.2643044561279143 0.1798364150126024 0.04904719005986136 0.0544967410995589 0.1292719991077377 0.2555718696710076 0.2496283463503831 0.2317977763885098 0.0460626726189952 0.08766733586336646 0.160427814607836 0.2631014942045926 0.2534758367423966 0.2224598293642097 0.04064185507828671 0.05989317000267855 0.1586692291172001 0.2488803246751831 0.2738323298295188 0.2085732394258716 0.03582858835739344 0.07421628859483302 0.1337313550086105 0.2668656359707832 0.2591044447039301 0.2161193853798205 0.03104482440101541 0.09313435453584036 0.1190909483383256 0.2845453573018556 0.2754544557104529 0.1999999725018101 0.03636374385656065 0.08454552229099518 0.1026012894699763 0.2369940732134094 0.2673408308328943 0.1777456416706056 0.06791928076199361 0.1473988840511207 0.004629629629629629 0.004629629629629629 0.3935185185185185 0.3935185185185185 0.004629629629629629 0.1990740740740741 0.01851851851851852 0.01851851851851852 0.4629629629629629 0.01851851851851852 0.01851851851851852 0.4629629629629629 0.3229166666666667 0.01041666666666667 0.01041666666666667 0.3229166666666667 0.01041666666666667 0.3229166666666667 0.004629629629629629 0.004629629629629629 0.5879629629629629 0.1990740740740741 0.004629629629629629 0.1990740740740741 0.006666666666666667 0.2466666666666667 0.4866666666666667 0.2466666666666667 0.006666666666666667 0.006666666666666667 0.08382642998027615 0.3323471400394477 0.3323471400394477 0.1666666666666667 0.0009861932938856016 0.08382642998027615 0.1922725194330133 0.1538637402834934 0.3074988568815729 0.2306812985825331 0.1154549611339735 0.0002286236854138088 0.1290690104166667 0.2579752604166667 0.09684244791666667 0.3868815104166667 0.1290690104166667 0.0001627604166666667 0.03137434955616774 0.4060299969390879 0.3123660850933578 0.0938169574533211 0.0938169574533211 0.06259565350474441 0.1666666666666667 0.3323471400394477 0.1666666666666667 0.1666666666666667 0.08382642998027615 0.08382642998027615 0.142962962962963 0.142962962962963 0.3562962962962963 0.142962962962963 0.142962962962963 0.07185185185185185 0.1874279123414071 0.1874279123414071 0.2497116493656286 0.06286043829296424 0.06286043829296424 0.2497116493656286 0.002604166666666667 0.2838541666666667 0.2838541666666667 0.2838541666666667 0.002604166666666667 0.1432291666666667 0.142870019830539 0.2618532540111772 0.2618532540111772 0.2142599603389219 0.09527672615828375 0.02388678564990085 0.1898697916666667 0.2531510416666667 0.1519010416666667 0.2658072916666667 0.06330729166666667 0.07596354166666668 0.1041733092429234 0.2291600240904099 0.3437311793672725 0.1979133453785383 0.02084883267793248 0.1041733092429234 0.1731841563786008 0.1899434156378601 0.2904989711934157 0.1955298353909465 0.06704218106995885 0.0838014403292181 0.1395354652491998 0.2744162951531778 0.3023226737540009 0.1813950331504344 0.03721207704618198 0.06511845564700502 0.2010867037306326 0.2146735604664086 0.2391299025908055 0.2201083031607191 0.04891390828994108 0.07608762176149313 0.1578947825663908 0.2494274862214438 0.3020587908230993 0.1624714177491434 0.02746067985794014 0.1006868427819826 0.1330803298132844 0.231938226966636 0.2623560414753597 0.231938226966636 0.04562911310070401 0.09505806167737986 0.07831642105011534 0.2409611913896757 0.2409611913896757 0.1867462679431556 0.1084358229648487 0.1445791052625288 0.04166666666666666 0.04166666666666666 0.04166666666666666 0.04166666666666666 0.7916666666666667 0.04166666666666666 0.1666666666666667 0.1666666666666667 0.1666666666666667 0.1666666666666667 0.1666666666666667 0.1666666666666667 0.04166666666666666 0.04166666666666666 0.04166666666666666 0.04166666666666666 0.04166666666666666 0.7916666666666667 0.006666666666666667 0.2466666666666667 0.2466666666666667 0.2466666666666667 0.006666666666666667 0.2466666666666667 0.3935185185185185 0.1990740740740741 0.004629629629629629 0.3935185185185185 0.004629629629629629 0.004629629629629629 0.2838541666666667 0.1432291666666667 0.2838541666666667 0.2838541666666667 0.002604166666666667 0.002604166666666667 0.1990740740740741 0.3935185185185185 0.004629629629629629 0.1990740740740741 0.1990740740740741 0.004629629629629629 0.1997245179063361 0.1005509641873278 0.3980716253443526 0.1997245179063361 0.1005509641873278 0.001377410468319559 0.1116666666666667 0.2216666666666666 0.3316666666666666 0.1116666666666667 0.2216666666666666 0.001666666666666667 0.1116666666666667 0.1116666666666667 0.4416666666666667 0.1116666666666667 0.1116666666666667 0.1116666666666667 0.01851851851851852 0.01851851851851852 0.4629629629629629 0.01851851851851852 0.01851851851851852 0.4629629629629629 0.01851851851851852 0.01851851851851852 0.4629629629629629 0.01851851851851852 0.01851851851851852 0.4629629629629629 0.04166666666666666 0.7916666666666667 0.04166666666666666 0.04166666666666666 0.04166666666666666 0.04166666666666666 0.04166666666666666 0.04166666666666666 0.04166666666666666 0.7916666666666667 0.04166666666666666 0.04166666666666666 0.01041666666666667 0.6354166666666667 0.3229166666666667 0.01041666666666667 0.01041666666666667 0.01041666666666667 0.006666666666666667 0.4866666666666667 0.4866666666666667 0.006666666666666667 0.006666666666666667 0.006666666666666667 0.7916666666666667 0.04166666666666666 0.04166666666666666 0.04166666666666666 0.04166666666666666 0.04166666666666666 0.2466666666666667 0.006666666666666667 0.4866666666666667 0.2466666666666667 0.006666666666666667 0.006666666666666667 0.2466666666666667 0.4866666666666667 0.2466666666666667 0.006666666666666667 0.006666666666666667 0.006666666666666667 0.3299319727891156 0.1666666666666667 0.3299319727891156 0.003401360544217687 0.003401360544217687 0.1666666666666667 0.006666666666666667 0.006666666666666667 0.2466666666666667 0.7266666666666667 0.006666666666666667 0.006666666666666667 0.01041666666666667 0.01041666666666667 0.3229166666666667 0.01041666666666667 0.3229166666666667 0.3229166666666667 0.01851851851851852 0.01851851851851852 0.4629629629629629 0.01851851851851852 0.4629629629629629 0.01851851851851852 0.3229166666666667 0.01041666666666667 0.3229166666666667 0.01041666666666667 0.01041666666666667 0.3229166666666667 0.001666666666666666 0.1116666666666667 0.4416666666666666 0.3316666666666666 0.1116666666666667 0.001666666666666666 0.3622685185185185 0.09143518518518519 0.2719907407407407 0.1817129629629629 0.001157407407407407 0.09143518518518519 0.1998697916666667 0.1998697916666667 0.1998697916666667 0.1998697916666667 0.06705729166666669 0.1334635416666667 0.1785572730875941 0.2855727308759413 0.1785572730875941 0.1785572730875941 0.1072136345620293 0.07154181529924693 0.1794791666666667 0.3844791666666667 0.2307291666666667 0.1538541666666667 0.05135416666666667 0.0001041666666666667 0.2253407921810699 0.2535043724279835 0.2394225823045268 0.1971772119341564 0.05635931069958847 0.0281957304526749 0.1746012369791667 0.3174235026041667 0.2380777994791667 0.1269938151041667 0.03177897135416666 0.1111246744791667 0.1555608065532451 0.1555608065532451 0.2666194076874606 0.2221959672337744 0.1111373660995589 0.08892564587271581 0.1290690104166667 0.1935221354166667 0.2579752604166667 0.1290690104166667 0.1290690104166667 0.1612955729166667 0.04166666666666666 0.04166666666666666 0.7916666666666667 0.04166666666666666 0.04166666666666666 0.04166666666666666 0.1666666666666667 0.1666666666666667 0.1666666666666667 0.1666666666666667 0.1666666666666667 0.1666666666666667 0.04166666666666666 0.04166666666666666 0.7916666666666667 0.04166666666666666 0.04166666666666666 0.04166666666666666 0.01851851851851852 0.462962962962963 0.01851851851851852 0.462962962962963 0.01851851851851852 0.01851851851851852 0.7916666666666667 0.04166666666666666 0.04166666666666666 0.04166666666666666 0.04166666666666666 0.04166666666666666 0.01851851851851852 0.01851851851851852 0.01851851851851852 0.9074074074074076 0.01851851851851852 0.01851851851851852 0.01041666666666667 0.01041666666666667 0.6354166666666666 0.01041666666666667 0.3229166666666666 0.01041666666666667 0.006666666666666667 0.4866666666666667 0.2466666666666667 0.006666666666666667 0.006666666666666667 0.2466666666666667 0.3935185185185185 0.004629629629629629 0.3935185185185185 0.1990740740740741 0.004629629629629629 0.004629629629629629 0.04166666666666666 0.04166666666666666 0.7916666666666667 0.04166666666666666 0.04166666666666666 0.04166666666666666 0.006666666666666667 0.2466666666666667 0.006666666666666667 0.006666666666666667 0.4866666666666667 0.2466666666666667 0.1666666666666667 0.1666666666666667 0.3299319727891156 0.3299319727891156 0.003401360544217687 0.003401360544217687 0.006666666666666667 0.006666666666666667 0.7266666666666667 0.2466666666666667 0.006666666666666667 0.006666666666666667 0.00205761316872428 0.2489711934156379 0.1255144032921811 0.4958847736625515 0.00205761316872428 0.1255144032921811 0.0007407407407407406 0.142962962962963 0.4274074074074074 0.2851851851851852 0.07185185185185185 0.07185185185185185 0.000461680517082179 0.2220683287165282 0.3328716528162511 0.2774699907663896 0.05586334256694367 0.1112650046168052 0.1612955729166667 0.2579752604166667 0.2257486979166667 0.2257486979166667 0.0001627604166666667 0.1290690104166667 0.130451184548061 0.1956390523615512 0.2825562094462049 0.2173683416327147 0.0652633167345707 0.1087218952768975 0.1052814110186286 0.2455905667855728 0.2982065001981768 0.1929746333729687 0.0702041220768926 0.08774276654776063 0.1600011542012927 0.279980378578024 0.2399873037857802 0.1866632040627886 0.0400219298245614 0.09334602954755308 0.1500099147332937 0.3249058100337101 0.1999801705334127 0.2249652984334721 9.914733293674402e-05 0.1000396589331747 0.1999801705334127 0.1749950426333532 0.2749355542335911 0.1999801705334127 0.05006940313305572 0.1000396589331747 0.1666666666666667 0.1666666666666667 0.1666666666666667 0.1666666666666667 0.1666666666666667 0.1666666666666667 0.1666666666666667 0.1666666666666667 0.1666666666666667 0.1666666666666667 0.1666666666666667 0.1666666666666667 0.04166666666666666 0.04166666666666666 0.04166666666666666 0.7916666666666667 0.04166666666666666 0.04166666666666666 0.3229166666666667 0.01041666666666667 0.3229166666666667 0.3229166666666667 0.01041666666666667 0.01041666666666667 0.462962962962963 0.01851851851851852 0.01851851851851852 0.462962962962963 0.01851851851851852 0.01851851851851852 0.1666666666666667 0.1666666666666667 0.1666666666666667 0.3299319727891156 0.1666666666666667 0.003401360544217687 0.6354166666666667 0.3229166666666667 0.01041666666666667 0.01041666666666667 0.01041666666666667 0.01041666666666667 0.1990740740740741 0.3935185185185185 0.004629629629629629 0.1990740740740741 0.004629629629629629 0.1990740740740741 0.3299319727891156 0.1666666666666667 0.1666666666666667 0.3299319727891156 0.003401360544217687 0.003401360544217687 0.00205761316872428 0.00205761316872428 0.4958847736625514 0.2489711934156378 0.1255144032921811 0.1255144032921811 0.4629629629629629 0.01851851851851852 0.01851851851851852 0.01851851851851852 0.4629629629629629 0.01851851851851852 0.01851851851851852 0.01851851851851852 0.01851851851851852 0.4629629629629629 0.01851851851851852 0.4629629629629629 0.006666666666666667 0.4866666666666667 0.2466666666666667 0.2466666666666667 0.006666666666666667 0.006666666666666667 0.003401360544217687 0.1666666666666667 0.4931972789115646 0.1666666666666667 0.1666666666666667 0.003401360544217687 0.1666666666666667 0.1666666666666667 0.3299319727891156 0.1666666666666667 0.1666666666666667 0.003401360544217687 0.3299319727891156 0.1666666666666667 0.1666666666666667 0.3299319727891156 0.003401360544217687 0.003401360544217687 0.1432291666666667 0.002604166666666667 0.2838541666666667 0.4244791666666667 0.1432291666666667 0.002604166666666667 0.3742791234140715 0.06286043829296424 0.2497116493656286 0.1874279123414071 0.06286043829296424 0.06286043829296424 0.1600098619329389 0.2398915187376726 0.1600098619329389 0.2798323471400395 0.08012820512820513 0.08012820512820513 0.137962962962963 0.1724074074074074 0.3446296296296296 0.3101851851851852 0.0001851851851851851 0.03462962962962964 0.1333680194242109 0.2998612556364898 0.1999653139091225 0.2665626083940341 0.0001734304543877905 0.1000693721817551 0.1579166666666667 0.1054166666666667 0.2104166666666667 0.0004166666666666666 0.2104166666666667 0.3154166666666667 0.006666666666666665 0.2466666666666667 0.006666666666666665 0.2466666666666667 0.2466666666666667 0.2466666666666667 0.1666666666666667 0.1666666666666667 0.1666666666666667 0.1666666666666667 0.1666666666666667 0.1666666666666667 0.01041666666666667 0.01041666666666667 0.3229166666666667 0.3229166666666667 0.3229166666666667 0.01041666666666667 0.002604166666666667 0.002604166666666667 0.5651041666666667 0.2838541666666667 0.002604166666666667 0.1432291666666667 0.01041666666666667 0.01041666666666667 0.3229166666666667 0.3229166666666667 0.01041666666666667 0.3229166666666667 0.4274074074074074 0.2851851851851852 0.07185185185185185 0.142962962962963 0.0007407407407407406 0.07185185185185185 0.2495069033530572 0.1666666666666667 0.2495069033530572 0.3323471400394477 0.0009861932938856016 0.0009861932938856016 0.1005509641873278 0.1997245179063361 0.2988980716253444 0.2988980716253444 0.001377410468319559 0.1005509641873278 0.1666666666666667 0.2495069033530572 0.3323471400394477 0.1666666666666667 0.08382642998027615 0.0009861932938856016 0.08382642998027615 0.1666666666666667 0.3323471400394477 0.4151873767258383 0.0009861932938856016 0.0009861932938856016 0.1334635416666667 0.0006510416666666666 0.3990885416666667 0.1334635416666667 0.0006510416666666666 0.3326822916666667 0.01851851851851852 0.01851851851851852 0.4629629629629629 0.01851851851851852 0.4629629629629629 0.01851851851851852 0.3229166666666667 0.3229166666666667 0.01041666666666667 0.3229166666666667 0.01041666666666667 0.01041666666666667 0.3229166666666667 0.01041666666666667 0.3229166666666667 0.01041666666666667 0.01041666666666667 0.3229166666666667 0.1990740740740741 0.5879629629629629 0.004629629629629629 0.004629629629629629 0.004629629629629629 0.1990740740740741 0.1817129629629629 0.2719907407407407 0.1817129629629629 0.1817129629629629 0.001157407407407407 0.1817129629629629 0.117798353909465 0.117798353909465 0.176440329218107 0.293724279835391 0.176440329218107 0.117798353909465 0.1999244142101285 0.1999244142101285 0.1999244142101285 0.2996976568405139 0.05026455026455025 0.05026455026455025 0.1515282583621684 0.2726355247981546 0.1515282583621684 0.3029123414071511 0.03042099192618224 0.09097462514417531 0.1764625850340136 0.2940136054421769 0.1470748299319728 0.2352380952380952 0.05891156462585033 0.08829931972789115 0.117798353909465 0.235082304526749 0.235082304526749 0.235082304526749 0.117798353909465 0.05915637860082305 0.100151171579743 0.1999244142101285 0.2996976568405139 0.1500377928949357 0.1500377928949357 0.100151171579743 0.003401360544217687 0.003401360544217687 0.1666666666666667 0.3299319727891156 0.3299319727891156 0.1666666666666667 0.01851851851851852 0.462962962962963 0.462962962962963 0.01851851851851852 0.01851851851851852 0.01851851851851852 0.1255144032921811 0.2489711934156379 0.00205761316872428 0.2489711934156379 0.2489711934156379 0.1255144032921811 0.09143518518518519 0.3622685185185185 0.2719907407407407 0.1817129629629629 0.09143518518518519 0.001157407407407407 0.1874279123414071 0.2497116493656286 0.2497116493656286 0.1874279123414071 0.06286043829296424 0.06286043829296424 0.1999244142101285 0.100151171579743 0.1999244142101285 0.1500377928949357 0.1999244142101285 0.1500377928949357 0.1364209199747952 0.09105229993698802 0.2725267800882167 0.2725267800882167 0.1817895400126024 0.04568367989918085 0.2563541666666667 0.1538541666666667 0.2563541666666667 0.2563541666666667 0.02572916666666667 0.05135416666666667 0.1428755144032922 0.199974279835391 0.2285236625514403 0.199974279835391 0.1428755144032922 0.0857767489711934 0.1515282583621684 0.1212514417531719 0.3634659746251442 0.1515282583621684 0.06069780853517877 0.1515282583621684 0.08829931972789115 0.1470748299319728 0.3527891156462585 0.2058503401360544 0.05891156462585033 0.1470748299319728 0.1666666666666667 0.1666666666666667 0.1666666666666667 0.1666666666666667 0.1666666666666667 0.1666666666666667 0.01851851851851852 0.01851851851851852 0.4629629629629629 0.01851851851851852 0.4629629629629629 0.01851851851851852 0.01851851851851852 0.01851851851851852 0.4629629629629629 0.01851851851851852 0.01851851851851852 0.4629629629629629 0.3935185185185185 0.1990740740740741 0.1990740740740741 0.1990740740740741 0.004629629629629629 0.004629629629629629 0.004629629629629629 0.1990740740740741 0.3935185185185185 0.3935185185185185 0.004629629629629629 0.004629629629629629 0.3316666666666667 0.1116666666666667 0.5516666666666666 0.001666666666666667 0.001666666666666667 0.001666666666666667 0.001666666666666667 0.2216666666666667 0.3316666666666667 0.001666666666666667 0.3316666666666667 0.1116666666666667 0.05026455026455025 0.2498110355253212 0.3994708994708994 0.2498110355253212 0.0003779289493575207 0.05026455026455025 0.1874279123414071 0.31199538638985 0.1874279123414071 0.2497116493656285 0.06286043829296423 0.0005767012687427909 0.003401360544217687 0.3299319727891156 0.4931972789115646 0.003401360544217687 0.003401360544217687 0.1666666666666667 0.0006510416666666666 0.3990885416666667 0.2662760416666667 0.1998697916666667 0.0006510416666666666 0.1334635416666667 0.1666666666666667 0.1666666666666667 0.4151873767258383 0.08382642998027615 0.08382642998027615 0.08382642998027615 0.142962962962963 0.3562962962962963 0.2140740740740741 0.2140740740740741 0.0007407407407407406 0.07185185185185185 0.259141156462585 0.07419217687074831 0.2961309523809523 0.148171768707483 0.07419217687074831 0.148171768707483 0.05413204062788549 0.1621652816251154 0.2431902123730378 0.3512234533702677 0.05413204062788549 0.135156971375808 0.209280303030303 0.209280303030303 0.2790117079889807 0.1627926997245179 0.0465736914600551 0.09306129476584023 0.1529430322696953 0.2235217234541193 0.2470479538489273 0.1999954930593113 0.0588381106904633 0.1176536866774833 0.1641792409693644 0.2164151806127115 0.2686511202560585 0.2089529035208048 0.07463191586648377 0.06716963877457706 0.1741570695879238 0.2696597068339524 0.2752775090248952 0.1797748717788667 0.05056542138718102 0.05056542138718102 0.1908709559911664 0.3029022380074221 0.2240654099219088 0.1618258088017668 0.03734660656148259 0.08298898071625344 0.1612905435020819 0.2193526736795967 0.2903174994521148 0.1870959346920885 0.04516628314705237 0.09677706552706551 0.09375438174789175 0.2421829617611121 0.2265589007070889 0.1484385954369729 0.1015664122749033 0.1874987480720309 0.1666666666666667 0.003401360544217687 0.4931972789115646 0.1666666666666667 0.1666666666666667 0.003401360544217687 0.01851851851851852 0.01851851851851852 0.462962962962963 0.462962962962963 0.01851851851851852 0.01851851851851852 0.3724279835390946 0.1255144032921811 0.3724279835390946 0.00205761316872428 0.1255144032921811 0.00205761316872428 0.00205761316872428 0.1255144032921811 0.4958847736625514 0.3724279835390946 0.00205761316872428 0.00205761316872428 0.1874279123414071 0.31199538638985 0.2497116493656285 0.1251441753171857 0.1251441753171857 0.0005767012687427909 0.31199538638985 0.2497116493656285 0.1874279123414071 0.1874279123414071 0.06286043829296423 0.0005767012687427909 0.2220683287165282 0.000461680517082179 0.2774699907663896 0.1666666666666667 0.2774699907663896 0.05586334256694367 0.1395488980716254 0.2325241046831956 0.3022555096418733 0.1860365013774105 0.04657369146005511 0.09306129476584024 0.1785572730875941 0.2499009116131589 0.1428854538248117 0.3569163694015061 0.03586999603646452 0.03586999603646452 0.06705729166666667 0.1334635416666667 0.2662760416666667 0.3990885416666667 0.0006510416666666666 0.1334635416666667 0.1666666666666667 0.0009861932938856016 0.4151873767258383 0.3323471400394477 0.08382642998027615 0.0009861932938856016 0.1999653139091224 0.2332639611515782 0.266562608394034 0.1333680194242109 0.1333680194242109 0.03347207769684356 0.2221513605442177 0.2221513605442177 0.3701105442176871 0.1851615646258503 0.0002125850340136055 0.0002125850340136055 0.1718737672583826 0.1718737672583826 0.2968441814595661 0.2187376725838264 0.04690335305719921 0.09376725838264299 0.06818738575762717 0.2575706182750109 0.2348446303729248 0.2499952889743156 0.05303672715623647 0.1363653494638853 0.1538470745954228 0.2820429953078618 0.2222182323087236 0.2393110217370488 0.05129033802547162 0.05129033802547162 0.1469391015048362 0.2530597968581312 0.277549188093507 0.1999994491814837 0.05306310176922908 0.06938936259281292 0.14285737107292 0.2173908181489966 0.2950298255199098 0.201863016674814 0.04658500193298764 0.09627396665037206 0.1651705613579819 0.2298023106931651 0.2818667754353961 0.2118490469889475 0.05565565276225468 0.05565565276225468 0.1400560744616689 0.2675068055487637 0.2703079205177107 0.2016806037785059 0.03921593557957195 0.081232660113779 0.1290324569516008 0.3041467388910909 0.2580640331175409 0.1843317038798609 0.02995463953846832 0.09447042762143834 0.1294968803929377 0.2553945435781486 0.2733799240331788 0.1942442500310462 0.03956997811778711 0.1079144238469016 0.1666666666666667 0.1666666666666667 0.1666666666666667 0.1666666666666667 0.1666666666666667 0.1666666666666667 0.7916666666666667 0.04166666666666666 0.04166666666666666 0.04166666666666666 0.04166666666666666 0.04166666666666666 0.462962962962963 0.01851851851851852 0.462962962962963 0.01851851851851852 0.01851851851851852 0.01851851851851852 0.1990740740740741 0.004629629629629629 0.3935185185185185 0.1990740740740741 0.1990740740740741 0.004629629629629629 0.1990740740740741 0.1990740740740741 0.1990740740740741 0.1990740740740741 0.1990740740740741 0.004629629629629628 0.1432291666666667 0.1432291666666667 0.2838541666666667 0.2838541666666667 0.1432291666666667 0.002604166666666667 0.2988980716253443 0.2988980716253443 0.1005509641873278 0.1005509641873278 0.1997245179063361 0.001377410468319559 0.176440329218107 0.3523662551440329 0.117798353909465 0.235082304526749 0.0005144032921810699 0.117798353909465 0.05915637860082305 0.117798353909465 0.4110082304526749 0.293724279835391 0.0005144032921810699 0.117798353909465 0.1997245179063361 0.1997245179063361 0.5964187327823691 0.001377410468319559 0.001377410468319559 0.001377410468319559 0.0008503401360544216 0.1539115646258503 0.3069727891156462 0.3069727891156462 0.1539115646258503 0.07738095238095237 0.2036914600550964 0.2777410468319559 0.2222038567493113 0.1666666666666667 0.05559228650137742 0.07410468319559231 0.06671392564587271 0.3110428481411468 0.2221959672337744 0.1999842470069313 0.06671392564587271 0.133349086326402 0.1999979003947258 0.2239963886789283 0.2399953808683968 0.1600004199210548 0.08000545897371293 0.09600445116318132 0.105728044526521 0.21145288293834 0.2995569149481891 0.2158580845388325 0.07489163332307376 0.0925124397250436 0.1135381222432262 0.2489067422810333 0.2532734719596723 0.2445400126023944 0.04803717706364209 0.09170447385003148 0.1716566668253943 0.2255486685396528 0.2714566699999471 0.2075846679682333 0.03792466257149357 0.08582866409527891 0.1363637057194931 0.2712118819344153 0.2621209936502632 0.2242422924662963 0.03636393459382054 0.06969719163571141 0.165425972724996 0.247311772875259 0.25558306581973 0.2241521526307402 0.03722093208569542 0.07030610386357944 0.1458904206923552 0.2602739287487294 0.2732876212820893 0.2006849155696602 0.04246581161144194 0.07739730209572389 0.1351052434933563 0.2890363951105542 0.2469544975461404 0.1960132531260605 0.03543759136711307 0.09745301935677553 0.1329967281030059 0.2542085069321847 0.2659929854294659 0.1700336605230328 0.04545488783748794 0.1313132311748229 0.3229166666666667 0.3229166666666667 0.01041666666666667 0.01041666666666667 0.3229166666666667 0.01041666666666667 0.01041666666666667 0.01041666666666667 0.6354166666666667 0.3229166666666667 0.01041666666666667 0.01041666666666667 0.2216666666666667 0.001666666666666667 0.1116666666666667 0.1116666666666667 0.1116666666666667 0.4416666666666667 0.1817129629629629 0.1817129629629629 0.5428240740740741 0.09143518518518519 0.001157407407407407 0.001157407407407407 0.1429629629629629 0.1429629629629629 0.1429629629629629 0.214074074074074 0.214074074074074 0.1429629629629629 0.1500377928949357 0.1999244142101285 0.2498110355253212 0.2498110355253212 0.100151171579743 0.05026455026455025 0.1998697916666667 0.1334635416666667 0.2662760416666667 0.3326822916666667 0.0006510416666666666 0.06705729166666667 0.2499234771962045 0.1562595653504744 0.2187021732476278 0.2811447811447812 0.0938169574533211 0.0001530456075910622 0.1562595653504744 0.2811447811447812 0.2811447811447812 0.06259565350474441 0.2187021732476278 0.0001530456075910622 0.1666666666666667 0.2332639611515782 0.3997571973638571 0.03347207769684356 0.03347207769684356 0.1333680194242109 0.1739004629629629 0.1739004629629629 0.2607060185185185 0.1739004629629629 0.0870949074074074 0.1304976851851852 0.1805529492712829 0.1527803840620504 0.2777569275035967 0.1666666666666667 0.06946268843435291 0.1527803840620504 0.1884013605442177 0.2173809523809524 0.2173809523809524 0.2173809523809524 0.07248299319727891 0.08697278911564625 0.141936500109577 0.2193526736795967 0.3354769340346263 0.1548391957045803 0.07097167433705893 0.07742302213456058 0.1293710821627878 0.2412578356744245 0.255243679863379 0.2587401409106176 0.05244893912353758 0.0629383222652535 0.1719744687998656 0.25159150079785 0.2547761820777694 0.1974519190392206 0.04777189888300999 0.07643403040228437 0.1833332951876121 0.2075756639453509 0.2651512897449806 0.225757440513655 0.057576007256842 0.06060630335155936 0.1664726428700198 0.2409777807824049 0.2782303497385974 0.2083817829457364 0.0465659365422751 0.05937150712096629 0.1485148584273949 0.2605197660856288 0.2766088688431652 0.2004950365671278 0.03712876241368158 0.07673270766300187 0.1315345810714136 0.2782461705171906 0.2563237491057527 0.2237211736733578 0.03709953499137315 0.07307479064091234 0.1223776561596207 0.2639859397545178 0.2858390699389154 0.1931817979570692 0.03583926062940575 0.09877627556047112 0.1284153717397279 0.2499998449003547 0.2595626686320894 0.1721311373705151 0.05191278188585038 0.1379781954714626 0.3229166666666667 0.01041666666666667 0.3229166666666667 0.3229166666666667 0.01041666666666667 0.01041666666666667 0.01851851851851852 0.9074074074074076 0.01851851851851852 0.01851851851851852 0.01851851851851852 0.01851851851851852 0.1990740740740741 0.1990740740740741 0.004629629629629629 0.3935185185185185 0.1990740740740741 0.004629629629629629 0.1997245179063361 0.2988980716253444 0.1997245179063361 0.1005509641873278 0.1005509641873278 0.1005509641873278 0.1116666666666667 0.1116666666666667 0.5516666666666665 0.1116666666666667 0.1116666666666667 0.001666666666666666 0.3069727891156462 0.0008503401360544216 0.3835034013605442 0.2304421768707483 0.07738095238095237 0.0008503401360544216 0.4416666666666666 0.2216666666666666 0.1116666666666667 0.1116666666666667 0.1116666666666667 0.001666666666666666 0.1874279123414071 0.1251441753171857 0.31199538638985 0.1874279123414071 0.06286043829296424 0.1251441753171857 0.09538567493112947 0.2854683195592286 0.1429063360881543 0.2854683195592286 0.04786501377410467 0.1429063360881543 0.3316666666666666 0.1116666666666667 0.1116666666666667 0.3316666666666666 0.001666666666666667 0.1116666666666667 0.05291666666666667 0.2104166666666667 0.2629166666666666 0.2104166666666667 0.2104166666666667 0.05291666666666667 0.04166666666666666 0.04166666666666666 0.7916666666666667 0.04166666666666666 0.04166666666666666 0.04166666666666666 0.1666666666666667 0.1666666666666667 0.1666666666666667 0.1666666666666667 0.1666666666666667 0.1666666666666667 0.1666666666666667 0.1666666666666667 0.1666666666666667 0.1666666666666667 0.1666666666666667 0.1666666666666667 0.006666666666666667 0.2466666666666667 0.4866666666666667 0.006666666666666667 0.2466666666666667 0.006666666666666667 0.006666666666666667 0.4866666666666667 0.4866666666666667 0.006666666666666667 0.006666666666666667 0.006666666666666667 0.003401360544217687 0.4931972789115646 0.1666666666666667 0.3299319727891156 0.003401360544217687 0.003401360544217687 0.3935185185185185 0.1990740740740741 0.3935185185185185 0.004629629629629629 0.004629629629629629 0.004629629629629629 0.2466666666666667 0.2466666666666667 0.006666666666666667 0.4866666666666667 0.006666666666666667 0.006666666666666667 0.2216666666666666 0.001666666666666666 0.4416666666666666 0.2216666666666666 0.001666666666666666 0.1116666666666667 0.1997245179063361 0.2988980716253444 0.2988980716253444 0.00137741046831956 0.1005509641873279 0.1005509641873279 0.1997245179063361 0.001377410468319559 0.3980716253443526 0.1997245179063361 0.1005509641873278 0.1005509641873278 0.0405462216416678 0.04730267405372131 0.743217272495233 0.06757203128988183 0.04730267405372131 0.05405912646577481 0.0885015902328922 0.04425720734585002 0.7344695803837079 0.07080383707807532 0.04425720734585002 0.01771057761362471 0.09691764132553606 0.0925124397250436 0.7092406637939879 0.06167602852159638 0.02643441571765671 0.01321881091617934 0.07243041858426474 0.0677575467785258 0.7102774200676298 0.09112190580722049 0.02336526462400589 0.03504744413835323 0.08187166598535431 0.05458132093849516 0.7270933953075243 0.08382097634584425 0.03313890697310583 0.01949373444967625 0.08310509239526172 0.05479461368035947 0.7187210016072604 0.101369917372618 0.02283116996998598 0.01917820497451472 0.0875614276828668 0.06792150627999236 0.7103106021656775 0.09410806815049162 0.02782333341579034 0.0122750623051814 0.07972547299633577 0.06071808652589906 0.7312564425663053 0.08606126848648134 0.02164734767000137 0.02059138175497711 0.08176102614273939 0.08176102614273939 0.6913399837504224 0.1001451534356695 0.02660864426394901 0.01838416626448027 0.076526291808867 0.0799656701818196 0.7110916016186235 0.08426489314801036 0.01977654865514893 0.02837499458753045 0.05400851891137658 0.05569628142456445 0.7316451679563049 0.07088614404325526 0.05569628142456445 0.03206760623993433 0.1251441753171857 0.1874279123414071 0.31199538638985 0.000576701268742791 0.31199538638985 0.06286043829296424 0.07738095238095237 0.1539115646258503 0.1539115646258503 0.4600340136054422 0.07738095238095237 0.07738095238095237 0.2379476584022038 0.04786501377410467 0.2854683195592286 0.3329889807162534 0.04786501377410467 0.04786501377410467 0.269090077732053 0.269090077732053 0.2306812985825331 0.1922725194330133 0.0002286236854138088 0.03863740283493369 0.1458420102734972 0.2707899486325143 0.3124392614188533 0.2291406358461752 0.0417187283076496 6.941552131056505e-05 0.1473705150462963 0.1684208622685185 0.2947229456018519 0.2841977719907407 0.0631691261574074 0.04211877893518518 0.170939864023748 0.2051254428803984 0.2734966005936992 0.2307646270228862 0.05983673273963422 0.05983673273963422 0.1717789510212175 0.1963179159230616 0.3006085167558992 0.1901831746976006 0.06135360896291889 0.07975783263930199 0.1104989333011311 0.2099434448335547 0.3093879563659784 0.1823199694078815 0.03867789719438072 0.1491717988970736 0.1583339025112128 0.2249960157548437 0.2249960157548437 0.2499943082212052 0.05834073264576645 0.08333902511212803 0.08248299319727892 0.2061814521727058 0.3195717062335138 0.1752568374288491 0.1340240177703735 0.08248299319727892</probabilities>
		</cpt>
		<cpt id="ChallengeMyself">
			<state id="Agree" />
			<state id="Disagree" />
			<state id="NA" />
			<state id="SSomewhat_agree" />
			<state id="SStrongly_agree" />
			<state id="SStrongly_disagree" />
			<parents>CompetePeers JobSatisfaction</parents>
			<probabilities>0.4999104183463226 0.01670697841082146 4.479082683866342e-05 0.1333422914987011 0.3499507300904774 4.479082683866342e-05 0.5508666666666667 0.02046666666666667 6.666666666666667e-05 0.06126666666666667 0.3672666666666667 6.666666666666667e-05 0.457998546066728 0.01527586470768289 0.007642715029078668 0.06107476277930825 0.457998546066728 9.565350474441389e-06 0.448854628831647 0.01136859352889229 0.005686956706778597 0.07954823539425665 0.4545362656537606 5.319884664900465e-06 0.513720194498698 0.01568857828776042 2.543131510416667e-06 0.1058832804361979 0.364702860514323 2.543131510416667e-06 0.5468437396810597 0.009560801623836993 0.005736723772895907 0.09942663112095254 0.3384314968047705 6.069964842763629e-07 0.5558903532020381 0.009063802649110074 3.791592825396391e-07 0.08308176114936827 0.3519633246809185 3.791592825396391e-07 0.5352109825240756 0.006162095986728231 0.001760690940660448 0.0853873868159483 0.3705984338011406 0.0008804099314468917 0.5153371559609579 0.006135092416802386 0.003505821864939277 0.09027175007642188 0.3838736283678024 0.0008765513130761672 0.4741634256775376 0.0106386571520897 0.004559643794378909 0.06838928405034223 0.4422486055495559 3.837760958150753e-07 0.4014584707952368 0.009733284632544695 9.818707386809942e-07 0.07056017689383229 0.5158130282464575 0.002434057561190185 0.4153275176002449 0.01541934496479951 3.826140189776553e-05 0.1230869299051117 0.4153275176002449 0.03080042852770126 0.4027334709451429 0.06946268843435291 3.127541127165821e-05 0.1388941014574342 0.3888471883405266 3.127541127165821e-05 0.4512090602999694 0.01220079583715947 6.121824303642484e-06 0.1402448729721457 0.3902356902356902 0.006103458830731557 0.507642090521515 0.01529192692841563 0.003059624727344835 0.1651376288915328 0.3027510286535792 0.006117700277612533 0.5459431903768985 0.02973072461451651 1.210879510223456e-06 0.1540541456881792 0.2702695175613856 1.210879510223456e-06 0.5152430948911423 0.03048812036322722 0.003049159540892407 0.1432927370772703 0.3079265020112792 3.861161885389904e-07 0.530094632567193 0.01900755606592011 0.002112115520423484 0.1615628356685479 0.287222674725679 1.854522364056092e-07 0.5347824668573432 0.02298142182283682 0.001242299764332299 0.1670807451820668 0.2732918843821889 0.0006211819912321702 0.534260088213502 0.01688186410030642 0.001986137878237453 0.1375372464990651 0.3088380980528582 0.0004965652560305566 0.5280371643274943 0.009345889667771907 0.003115363846033501 0.1214953544590632 0.3380061267644729 1.009351642972137e-07 0.448634114802946 0.01040338449429358 0.001300669027941755 0.09882976331028279 0.436930623489065 0.003901444875470849 0.01064266584548771 0.005323665817492977 0.9733816709125349 4.665789498240997e-06 0.01064266584548771 4.665789498240997e-06 7.712835701173895e-06 7.712835701173895e-06 0.9862634396162093 7.712835701173895e-06 0.006856710938343591 0.006856710938343591 0.008824886840211786 1.433309540394963e-06 0.9882282287447363 0.002942584486430859 1.433309540394963e-06 1.433309540394963e-06 0.003159964440552366 0.003159964440552366 0.9810406279957673 0.001580189539816962 0.01105883894422938 4.146390815578489e-07 0.001368297550439448 3.110474086018295e-07 0.9890545527387102 0.005472257059531985 0.00410427055650114 3.110474086018295e-07 0.003367077318619664 0.001346876213283 0.9865316152491296 0.003367077318619664 0.005387278423956329 7.547639189033341e-08 0.002207555552445632 0.001103803128860256 0.9867547173906009 0.002207555552445632 0.007726317670372511 5.07052748798868e-08 0.003652076389706632 0.0006640289100882201 0.9913677710413484 0.0006640289100882201 0.003320071114193475 0.0003320236345750632 0.004293176866613211 1.566321236446466e-08 0.9908002905337935 0.001226633149898321 0.003679868123270233 1.566321236446466e-08 0.0034653864914848 4.080525747995053e-08 0.9915839564500178 0.00049509018900424 0.00445548525897832 4.080525747995053e-08 0.004222013183489138 6.055583229570914e-08 0.9903495197861945 0.0006031966454975589 0.004825149273154401 6.055583229570914e-08 0.4027334709451429 0.01391755801588791 3.127541127165821e-05 0.0972352536435854 0.4860511665728404 3.127541127165821e-05 0.4837910472831108 0.04841689762324684 4.199210548416898e-05 0.2096665826824557 0.2580414882002184 4.199210548416898e-05 0.4202767282576816 0.01450062971205769 8.626192571122959e-06 0.1956506737056398 0.3695547159394786 8.626192571122959e-06 0.4509773755336042 0.006537646730115613 0.003269707547737022 0.1307193356605021 0.4052262269803039 0.003269707547737022 0.5109001067345652 0.03426918971747489 0.006232076951763693 0.1651090492907938 0.2803727351053843 0.003116842200018003 0.462643068915287 0.0143681295872795 0.002873900373740846 0.206896468914052 0.3117813104875922 0.001437121722048514 0.5220412861795626 0.01624150127981517 0.005800680031884606 0.1682134549996934 0.2865427624762398 0.001160315032804355 0.519695754225044 0.01520394231454066 0.003455502859090585 0.1416724376290915 0.3192811988085427 0.000691164163690567 0.5242181367542933 0.01471495588635781 0.003065665349064463 0.1312078612592913 0.3261801976203063 0.0006131831306869154 0.4964099102503808 0.01230785435142883 0.003077094810982711 0.09846161006225926 0.3876920756629043 0.002051454862044254 0.4152817082818816 0.008306083366106635 4.583678255122033e-07 0.07475108335235561 0.4999990832643491 0.001661583367481737 0.1000396589331747 0.02508427523299624 9.914733293674399e-05 0.1000396589331747 0.7496529843347214 0.02508427523299624 0.1999244142101285 0.0003779289493575207 0.0003779289493575207 0.0003779289493575207 0.7985638699924413 0.0003779289493575207 0.2307464103476919 5.933309600094932e-05 0.01928325620030853 0.1154028717218464 0.6344487955381511 5.933309600094932e-05 0.1571447464127488 3.306222310388151e-05 3.306222310388151e-05 0.04288170336573431 0.7998743635522053 3.306222310388151e-05 0.3011857520786092 0.01207010582010582 2.362055933484505e-05 0.03616307634164777 0.6505338246409675 2.362055933484505e-05 0.1686746267943156 0.006029856454755161 5.976071808478852e-06 0.05422089951832861 0.7710626650889838 5.976071808478852e-06 0.2610814750736897 0.004929994873766501 0.0246339548891452 0.05418989491221326 0.6551606753812637 4.004869921824941e-06 0.2423199438505561 0.003414858006694741 1.928208925293473e-06 0.02730536659108088 0.7269559751338177 1.928208925293473e-06 0.2319742838541667 0.003136393229166667 0.003136393229166667 0.02821451822916667 0.7335367838541668 1.627604166666667e-06 0.2222206832871653 0.005295475530932594 4.616805170821792e-06 0.04233148661126501 0.7301431209602954 4.616805170821792e-06 0.1212127684822594 0.007578023021241248 2.373323840037973e-06 0.02651714726474428 0.8371116648866739 0.007578023021241248 0.2618532540111773 0.04768343248602849 9.013881377321076e-05 0.07148007932215614 0.5474130160447089 0.07148007932215614 0.3330666666666667 0.0002666666666666667 0.0002666666666666667 0.2914666666666667 0.2914666666666667 0.08346666666666666 0.3967692057291666 0.03177897135416666 4.069010416666665e-05 0.1269938151041666 0.4126383463541666 0.03177897135416666 0.2926747311827957 0.04878815469996532 0.008140391952826917 0.1626018903919528 0.4552657821713493 0.03252904960110995 0.3714103476919425 0.0666755666310668 1.483327400023733e-05 0.2095199952533523 0.3523644238756378 1.483327400023733e-05 0.3677089976615646 0.03139283056972789 0.004487537202380952 0.1614350818452381 0.4035827221513605 0.03139283056972789 0.4333287420441568 0.02916903405014836 0.008336059411281948 0.1666666666666667 0.3333304637775981 0.02916903405014836 0.4097653631619266 0.04034026979795078 0.002123880829263621 0.1698513657473906 0.3715489741932395 0.006370146270228861 0.4521872588961853 0.03565674497194905 0.001621177686311064 0.1264182577336503 0.3727709352296967 0.01134562548220763 0.4250546409970238 0.02013495828018708 0.006712206366921769 0.1163313469919218 0.4205803903592687 0.01118645700467687 0.3243235281740521 0.01126204603795817 0.002253082523250431 0.1238740899718049 0.5157640028615915 0.02252325043134284</probabilities>
		</cpt>
		<cpt id="ChangeWorld">
			<state id="Agree" />
			<state id="Disagree" />
			<state id="NA" />
			<state id="SSomewhat_agree" />
			<state id="SStrongly_agree" />
			<state id="SStrongly_disagree" />
			<parents>ChallengeMyself JobSatisfaction</parents>
			<probabilities>0.3883290187376726 0.1650486932938856 0.01943108974358974 0.174756533530572 0.1844643737672584 0.06797029092702168 0.3469203822739176 0.07143828861000578 1.700506751011801e-05 0.2959051797435636 0.2448899772132095 0.04082916709179336 0.284480588455611 0.1594828909478286 3.069989623435073e-06 0.2931011193182167 0.2327574032799769 0.03017492800874333 0.3194436295818244 0.1550926543246093 0.002315691409451577 0.3449064567343507 0.1550926543246093 0.0231489136251549 0.3256222743128403 0.1548043078871015 0.003559233447645248 0.311387443777362 0.1672597846056449 0.03736695596940606 0.3515549727326356 0.1498586388424877 0.002827666473968622 0.3063146735423221 0.1583411949406715 0.0311028534679146 0.3362592070508115 0.1525996012731576 0.003376171578813812 0.352464466384134 0.1350439036620583 0.02025665005102465 0.309294848919491 0.1722756401260474 0.002003231537703741 0.3605768919766862 0.1310096211034606 0.02483976633661101 0.3291753096776487 0.1895356867918795 0.004851024265539533 0.3378378173008354 0.1070686142191423 0.0315315477449545 0.3181552315636166 0.1652072392591816 0.004086453472830198 0.3619380537881686 0.1237595008866057 0.02685352102959724 0.3138916693598582 0.1686108143612946 0.005302408012544287 0.3266169997246959 0.1495228188140381 0.0360552897275687 0.002604166666666667 0.002604166666666667 0.002604166666666667 0.4244791666666667 0.2838541666666667 0.2838541666666667 0.3316666666666666 0.3316666666666666 0.001666666666666667 0.2216666666666666 0.001666666666666667 0.1116666666666667 0.00205761316872428 0.2489711934156378 0.00205761316872428 0.1255144032921811 0.3724279835390946 0.2489711934156378 0.117798353909465 0.176440329218107 0.117798353909465 0.235082304526749 0.176440329218107 0.176440329218107 0.2352380952380952 0.3821768707482993 0.02952380952380953 0.1764625850340136 0.05891156462585033 0.117687074829932 0.1777725267800882 0.3998897290485192 0.02229048519218651 0.133349086326402 0.133349086326402 0.133349086326402 0.1458420102734971 0.3332639178120227 6.941552131056503e-05 0.1874913230598362 0.08336804109398861 0.2499652922393447 0.1136430585363801 0.3181626898960569 0.01138324285654168 0.3181626898960569 0.1022808567941758 0.1363674620207886 0.2159028742162185 0.3408870933804655 0.01138324285654168 0.2613516811850356 0.06819425156756302 0.1022808567941758 0.17072940287226 0.3413643235071806 9.448223733938021e-05 0.2438586545729403 0.1219765684051398 0.1219765684051398 0.08346666666666665 0.2914666666666667 0.0002666666666666666 0.2498666666666667 0.1666666666666667 0.2082666666666667 4.922810333963454e-06 4.922810333963454e-06 0.9999753859483302 4.922810333963454e-06 4.922810333963454e-06 4.922810333963454e-06 7.927070947284979e-06 7.927070947284979e-06 0.9999603646452635 7.927070947284979e-06 7.927070947284979e-06 7.927070947284979e-06 1.4502716358774e-06 0.005918558546015669 0.991117086230251 1.4502716358774e-06 1.4502716358774e-06 0.002960004408825773 0.001600421221678966 0.001600421221678966 0.9919978938916052 0.001600421221678966 0.003200417138754776 4.253046031567809e-07 0.001379623937850835 0.00275893166576863 0.9958604957665813 3.162099330393846e-07 3.162099330393846e-07 3.162099330393846e-07 0.001357849337253538 0.001357849337253538 0.9925318670002645 0.002715621964189169 0.0006789630237857215 0.001357849337253538 0.003329683985330011 5.126928917283872e-08 0.9916756618634521 0.001664867627309592 0.002219806413316398 0.001109928841302786 0.0006675752236127427 0.0006675752236127427 0.9966621238819363 0.0006675752236127427 0.0013351318916143 1.855561118527789e-08 0.001540373025069662 0.0003080872516249077 0.9956869207516248 0.001540373025069662 0.0009242301383472846 1.580826371927281e-08 0.002976230711895508 0.0004960725913686727 0.994047415674419 0.0004960725913686727 0.001984167463684774 4.096726330569599e-08 0.0006083338722541981 6.159095598402329e-08 0.9981748752013254 6.159095598402329e-08 0.001216606153552412 6.159095598402329e-08 0.1000693721817551 0.2332639611515782 0.0001734304543877905 0.2998612556364897 0.2332639611515782 0.1333680194242109 0.2120818915801615 0.2120818915801615 0.0001441753171856978 0.2726355247981546 0.2120818915801615 0.09097462514417531 0.2328646213781349 0.205472364256148 3.043584124665205e-05 0.3287375213050889 0.1643839785731678 0.06851107864621378 0.2651459475757062 0.3030225940791829 9.422051369024063e-06 0.2651459475757062 0.1060640322611039 0.0606120564569318 0.2590328325385158 0.2048179090919957 0.01205373683770184 0.3674626794315561 0.1144597033477954 0.04217313875243525 0.1617647480385159 0.2794107951141344 0.002942584486430858 0.4058802957204243 0.1029417245007066 0.04705985213978781 0.2132350157320118 0.2794110907196075 0.002451962067818023 0.3774497203308604 0.07107900279569507 0.05637320835400713 0.1966716410644907 0.282904424627985 0.001513236157635168 0.3721629198954616 0.08472030801714724 0.06202747023728031 0.2218976928547345 0.2759121766157525 0.002920055985742902 0.3591236786259693 0.09343081255825944 0.04671558335954123 0.2011170511298536 0.2793287347760078 0.008381116430402206 0.4022328090771073 0.06703987916501786 0.04190040942161115 0.2300455643869916 0.215961364893586 0.004698372492502984 0.3098560281829563 0.1737087664133694 0.06572990363059364 0.224634680744613 0.07246864379000398 0.007254627952314407 0.1884046719458965 0.4709987405758847 0.03623863499128755 0.3023076584313207 0.1046593561456819 2.201964152023605e-05 0.2209230633725283 0.3488131413220593 0.0232747610868895 0.2393149237965897 0.0811981288667572 0.008549871736834164 0.2264946431266033 0.4145254262864041 0.02991700618681153 0.2796202218011986 0.08293885656694368 0.002370586470983835 0.2203788467306399 0.3862546969282043 0.02843679150202967 0.2891238113901253 0.1061012196373748 0.005306169106874574 0.2334212834653752 0.3580888459636254 0.007958670436624581 0.2518246917918274 0.08272518475757965 0.006082962144934982 0.2214111113899843 0.4136249395296328 0.02433111038604086 0.3033706441760378 0.09908076495904485 0.01123611689573789 0.2349335346383452 0.3411642718311815 0.01021466749965292 0.3149331283838804 0.08715865551720059 0.005229572164644825 0.2434630769486722 0.3277163896161941 0.02149917736940767 0.31624754726243 0.0947775796562029 0.002417833340068896 0.2403288029083303 0.3201160183123204 0.02611221852064777 0.305980461233873 0.09874829427366924 0.002781720312232631 0.2628650439468507 0.3066758711901152 0.02294860904325917 0.2532516708906533 0.07957158878009396 0.003825649886061468 0.205049709776269 0.4246364215195753 0.03366495914734699 0.003401360544217687 0.1666666666666667 0.003401360544217687 0.003401360544217687 0.1666666666666667 0.6564625850340136 0.01041666666666667 0.01041666666666667 0.3229166666666667 0.01041666666666667 0.01041666666666667 0.6354166666666666 0.3229166666666667 0.3229166666666667 0.01041666666666667 0.3229166666666667 0.01041666666666667 0.01041666666666667 0.002604166666666667 0.1432291666666667 0.002604166666666667 0.2838541666666667 0.002604166666666667 0.5651041666666666 0.04166666666666666 0.04166666666666666 0.04166666666666666 0.7916666666666667 0.04166666666666666 0.04166666666666666 0.1255144032921811 0.00205761316872428 0.00205761316872428 0.2489711934156378 0.1255144032921811 0.4958847736625514 0.00205761316872428 0.00205761316872428 0.00205761316872428 0.2489711934156378 0.2489711934156378 0.4958847736625514 0.002604166666666667 0.5651041666666666 0.002604166666666667 0.1432291666666667 0.002604166666666667 0.2838541666666667 0.001377410468319559 0.1005509641873278 0.001377410468319559 0.1005509641873278 0.3980716253443526 0.3980716253443526 0.1432291666666667 0.002604166666666667 0.002604166666666667 0.2838541666666667 0.002604166666666667 0.5651041666666666 0.0005144032921810699 0.117798353909465 0.0005144032921810699 0.176440329218107 0.235082304526749 0.4696502057613169</probabilities>
		</cpt>
		<cpt id="CheckInCode">
			<state id="SA_few_times_a_month" />
			<state id="SA_few_times_a_week" />
			<state id="SJust_a_few_times_over_the_year" />
			<state id="SMultiple_times_a_day" />
			<state id="NA" />
			<state id="Never" />
			<state id="SOnce_a_day" />
			<parents>WorkStart JobSatisfaction</parents>
			<probabilities>0.09334190740007914 0.1066729323308271 0.08001088246933122 0.3599624060150376 0.293307281361298 0.01335575781559161 0.05334883260783537 0.07145055621509915 0.1428571428571428 0.08930220287561007 0.3213736094622521 0.3035219628017412 0.01789561623356637 0.05359890955458822 0.006374894133266188 0.1974500423466935 0.04458992377595165 0.4012635337743493 0.2802492732391787 0.01274406574038043 0.05732826699018014 0.05228854265979327 0.1241832046721223 0.0424847251126575 0.3823504000800311 0.3137236772500807 0.009805333288871574 0.07516411693644341 0.05177178976505536 0.1662123615987038 0.02997358560626519 0.3869191787064542 0.2970015865514448 0.0190744835268701 0.04904701424520659 0.05646378601806581 0.1396731125068083 0.03714733522603628 0.4130751852555339 0.2659729830700783 0.008915599453070067 0.07875199847040756 0.04385038038884193 0.1636363399183912 0.02459906546445008 0.397860671498492 0.2877003694311386 0.007486785531657326 0.07486638776702879 0.05566222374638724 0.1567498343716448 0.02111329353269162 0.4184259909901912 0.2674343700562622 0.008957188457502426 0.0716570988453204 0.04955227202266693 0.1361194053837209 0.02268660994509845 0.4286566146728 0.2847760688795999 0.00537318327288765 0.07283584582322628 0.03272736357843531 0.1454545433118294 0.01272738007734927 0.4872724431485726 0.2581817230452234 0.007272839122507618 0.05636370771608244 0.03468230617272052 0.1271676627273411 0.01011588333789942 0.4754328335033344 0.2745661997362678 0.007225715945567522 0.0708093985768692 0.003968253968253968 0.1984126984126984 0.1984126984126984 0.1984126984126984 0.3928571428571428 0.003968253968253968 0.003968253968253968 0.01587301587301587 0.4603174603174603 0.01587301587301587 0.01587301587301587 0.4603174603174603 0.01587301587301587 0.01587301587301587 0.00892857142857143 0.00892857142857143 0.00892857142857143 0.6339285714285714 0.3214285714285715 0.00892857142857143 0.00892857142857143 0.1984126984126984 0.1984126984126984 0.003968253968253968 0.1984126984126984 0.1984126984126984 0.1984126984126984 0.003968253968253968 0.005714285714285713 0.005714285714285713 0.005714285714285713 0.9657142857142859 0.005714285714285713 0.005714285714285713 0.005714285714285713 0.0008453085376162301 0.1665257819103973 0.0008453085376162301 0.4150464919695689 0.08368554522400676 0.08368554522400676 0.2493660185967878 0.0770135214579659 0.2306486380560455 0.0770135214579659 0.2690574172055653 0.2690574172055653 0.0001959631589261219 0.0770135214579659 0.06459263392857142 0.03236607142857143 0.03236607142857143 0.4513113839285715 0.3546316964285715 0.0001395089285714286 0.06459263392857142 0.03135248589794044 0.03135248589794044 0.1250163977436705 0.4060081332808606 0.2499016135379772 0.0001311819493637675 0.1562377016922471 0.0008453085376162301 0.1665257819103973 0.0008453085376162301 0.4150464919695689 0.3322062552831784 0.0008453085376162301 0.08368554522400676 0.1428571428571428 0.07174603174603174 0.07174603174603174 0.4984126984126984 0.07174603174603174 0.07174603174603174 0.07174603174603174 0.06277805239742956 0.06277805239742956 0.06277805239742956 0.3119130004943154 0.4364804745427583 0.06277805239742956 0.0004943153732081067 0.1428571428571428 0.7053571428571428 0.002232142857142857 0.1428571428571428 0.002232142857142857 0.002232142857142857 0.002232142857142857 0.1904504365293981 0.04767055551263231 0.04767055551263231 0.523603492235185 0.1428571428571428 7.726184037703775e-05 0.04767055551263231 0.02533482142857143 0.1645535714285714 0.01267857142857143 0.3543973214285714 0.3290848214285715 2.232142857142857e-05 0.1139285714285714 0.04167742131393954 0.1979108148732976 0.04167742131393954 0.3645597680032795 0.3124819701501602 0.01043074260206793 0.03126186174331567 0.05028218694885363 0.2122883597883598 0.03910934744268078 0.3966402116402117 0.2178747795414462 0.01117724867724868 0.0726278659611993 0.04186262982559279 0.1395349549284735 0.03256050362531844 0.4046455516362923 0.2744157848324515 0.009305188124632569 0.09767538702723888 0.04347899073260962 0.1603259586602835 0.01630527726105755 0.4293457220286489 0.271738183893647 0.008153163219591935 0.07065270420416168 0.04576709648017585 0.1441647529093579 0.02517223815778891 0.4507993101537856 0.2700222204350559 0.01144233260953096 0.05263204925430483 0.02661763741309196 0.1825089367703004 0.01901318378591105 0.4486648137216318 0.2699601534828807 0.003804276531549258 0.04943099829463465 0.06626780655967789 0.1325304907720914 0.03012452426199781 0.4698677922171055 0.2469842180480783 0.01205288311315777 0.04217228502789117 0.03571428571428572 0.7857142857142858 0.03571428571428572 0.03571428571428572 0.03571428571428572 0.03571428571428572 0.03571428571428572 0.1428571428571428 0.1428571428571428 0.1428571428571428 0.1428571428571428 0.1428571428571428 0.1428571428571428 0.1428571428571428 0.03571428571428571 0.03571428571428571 0.03571428571428571 0.03571428571428571 0.7857142857142856 0.03571428571428571 0.03571428571428571 0.005714285714285714 0.2457142857142857 0.2457142857142857 0.005714285714285714 0.4857142857142858 0.005714285714285714 0.005714285714285714 0.003968253968253968 0.5873015873015872 0.003968253968253968 0.1984126984126984 0.1984126984126984 0.003968253968253968 0.003968253968253968 0.002232142857142857 0.1428571428571428 0.1428571428571428 0.2834821428571428 0.2834821428571428 0.002232142857142857 0.1428571428571428 0.003968253968253968 0.1984126984126984 0.003968253968253968 0.003968253968253968 0.5873015873015872 0.003968253968253968 0.1984126984126984 0.001180637544273908 0.1995277449822905 0.001180637544273908 0.2987012987012987 0.397874852420307 0.001180637544273908 0.1003541912632822 0.001428571428571429 0.4414285714285715 0.1114285714285714 0.4414285714285715 0.001428571428571429 0.001428571428571429 0.001428571428571429 0.001428571428571429 0.3314285714285714 0.001428571428571429 0.4414285714285715 0.2214285714285714 0.001428571428571429 0.001428571428571429 0.01587301587301587 0.01587301587301587 0.01587301587301587 0.4603174603174603 0.4603174603174603 0.01587301587301587 0.01587301587301587 0.01587301587301587 0.01587301587301587 0.01587301587301587 0.4603174603174603 0.01587301587301587 0.4603174603174603 0.01587301587301587 0.03571428571428572 0.03571428571428572 0.03571428571428572 0.7857142857142858 0.03571428571428572 0.03571428571428572 0.03571428571428572 0.03571428571428571 0.03571428571428571 0.03571428571428571 0.03571428571428571 0.7857142857142856 0.03571428571428571 0.03571428571428571 0.00892857142857143 0.3214285714285715 0.00892857142857143 0.00892857142857143 0.6339285714285714 0.00892857142857143 0.00892857142857143 0.005714285714285714 0.4857142857142858 0.005714285714285714 0.005714285714285714 0.2457142857142857 0.005714285714285714 0.2457142857142857 0.03571428571428571 0.03571428571428571 0.03571428571428571 0.03571428571428571 0.7857142857142856 0.03571428571428571 0.03571428571428571 0.005714285714285714 0.005714285714285714 0.2457142857142857 0.4857142857142858 0.005714285714285714 0.005714285714285714 0.2457142857142857 0.2457142857142857 0.2457142857142857 0.2457142857142857 0.005714285714285714 0.005714285714285714 0.005714285714285714 0.2457142857142857 0.002915451895043731 0.1661807580174927 0.002915451895043731 0.4927113702623906 0.3294460641399417 0.002915451895043731 0.002915451895043731 0.005714285714285714 0.005714285714285714 0.005714285714285714 0.4857142857142858 0.4857142857142858 0.005714285714285714 0.005714285714285714 0.3214285714285715 0.3214285714285715 0.00892857142857143 0.00892857142857143 0.3214285714285715 0.00892857142857143 0.00892857142857143 0.01587301587301587 0.01587301587301587 0.01587301587301587 0.01587301587301587 0.4603174603174603 0.4603174603174603 0.01587301587301587 0.00892857142857143 0.6339285714285714 0.00892857142857143 0.00892857142857143 0.3214285714285715 0.00892857142857143 0.00892857142857143 0.2214285714285714 0.1114285714285714 0.001428571428571429 0.1114285714285714 0.5514285714285715 0.001428571428571429 0.001428571428571429 0.000992063492063492 0.000992063492063492 0.000992063492063492 0.5426587301587301 0.2718253968253968 0.09126984126984128 0.09126984126984128 0.1997767857142858 0.1333705357142858 0.06696428571428573 0.2661830357142858 0.1997767857142858 0.0005580357142857144 0.1333705357142858 0.03584168506879565 0.1785289621199253 0.03584168506879565 0.4282316969594021 0.2498726006454901 0.0001698658060132496 0.07151350433157805 0.02571428571428571 0.2307142857142857 0.05133928571428571 0.4869642857142857 0.1794642857142857 8.928571428571427e-05 0.02571428571428571 0.04227292768959435 0.1267636684303351 0.04227292768959435 0.4647266313932981 0.2112544091710758 2.755731922398588e-05 0.1126818783068783 0.04764229910714286 0.1587262834821428 0.06351143973214286 0.3174176897321428 0.3015485491071428 3.487723214285714e-05 0.1111188616071429 0.1111261139616527 0.1111261139616527 0.02227923305428032 0.4220901971374561 0.2888198757763975 6.751282743721307e-05 0.04449095328112342 0.06459263392857142 0.2257254464285714 0.0001395089285714286 0.2901785714285715 0.3546316964285715 0.03236607142857143 0.03236607142857143 0.03571428571428572 0.03571428571428572 0.03571428571428572 0.7857142857142858 0.03571428571428572 0.03571428571428572 0.03571428571428572 0.1428571428571428 0.1428571428571428 0.1428571428571428 0.1428571428571428 0.1428571428571428 0.1428571428571428 0.1428571428571428 0.7857142857142858 0.03571428571428572 0.03571428571428572 0.03571428571428572 0.03571428571428572 0.03571428571428572 0.03571428571428572 0.01587301587301587 0.01587301587301587 0.01587301587301587 0.01587301587301587 0.4603174603174603 0.4603174603174603 0.01587301587301587 0.03571428571428571 0.03571428571428571 0.03571428571428571 0.03571428571428571 0.7857142857142856 0.03571428571428571 0.03571428571428571 0.01587301587301587 0.01587301587301587 0.4603174603174603 0.01587301587301587 0.4603174603174603 0.01587301587301587 0.01587301587301587 0.00892857142857143 0.00892857142857143 0.3214285714285715 0.3214285714285715 0.00892857142857143 0.00892857142857143 0.3214285714285715 0.005714285714285714 0.2457142857142857 0.005714285714285714 0.2457142857142857 0.4857142857142858 0.005714285714285714 0.005714285714285714 0.003968253968253968 0.1984126984126984 0.003968253968253968 0.1984126984126984 0.5873015873015872 0.003968253968253968 0.003968253968253968 0.03571428571428572 0.03571428571428572 0.03571428571428572 0.7857142857142858 0.03571428571428572 0.03571428571428572 0.03571428571428572 0.005714285714285714 0.2457142857142857 0.005714285714285714 0.2457142857142857 0.4857142857142858 0.005714285714285714 0.005714285714285714 0.002915451895043731 0.002915451895043731 0.002915451895043731 0.4927113702623906 0.1661807580174927 0.002915451895043731 0.3294460641399417 0.005714285714285714 0.005714285714285714 0.4857142857142858 0.2457142857142857 0.005714285714285714 0.005714285714285714 0.2457142857142857 0.001763668430335097 0.2486772486772487 0.001763668430335097 0.3721340388007054 0.2486772486772487 0.001763668430335097 0.1252204585537919 0.07174603174603174 0.213968253968254 0.0006349206349206348 0.213968253968254 0.3561904761904762 0.0006349206349206348 0.1428571428571428 0.1666007123070835 0.2774040364068065 0.0557973882073605 0.1666007123070835 0.2220023743569449 0.0003957261574990106 0.111199050257222 0.0001395089285714286 0.1934988839285714 0.0001395089285714286 0.4190848214285715 0.2901785714285715 0.0001395089285714286 0.09681919642857142 0.0652525383172735 0.1304404061307638 0.02179395977494665 0.5432969022828688 0.1738989846730906 0.02179395977494665 0.04352324904611007 0.0877356888058434 0.1228129777475794 0.05265839986410736 0.4735858671649398 0.2280448445727875 4.246645150331239e-05 0.03511975539323935 0.01335575781559161 0.1599970320538187 0.01335575781559161 0.4799416303917688 0.2666452314998021 2.473288484368816e-05 0.0666798575385833 8.498342823149487e-05 0.174980878728648 8.498342823149487e-05 0.4248321577292428 0.3748619019291239 8.498342823149487e-05 0.02507011132829099 0.05005523922835046 0.02507011132829098 0.02507011132829098 0.5247726693294807 0.2749213903288859 0.02507011132829098 0.07504036712840996 0.1428571428571428 0.1428571428571428 0.1428571428571428 0.1428571428571428 0.1428571428571428 0.1428571428571428 0.1428571428571428 0.1428571428571428 0.1428571428571428 0.1428571428571428 0.1428571428571428 0.1428571428571428 0.1428571428571428 0.1428571428571428 0.03571428571428572 0.7857142857142858 0.03571428571428572 0.03571428571428572 0.03571428571428572 0.03571428571428572 0.03571428571428572 0.00892857142857143 0.00892857142857143 0.00892857142857143 0.3214285714285715 0.00892857142857143 0.3214285714285715 0.3214285714285715 0.01587301587301587 0.4603174603174603 0.01587301587301587 0.01587301587301587 0.4603174603174603 0.01587301587301587 0.01587301587301587 0.002915451895043731 0.3294460641399417 0.002915451895043731 0.3294460641399417 0.3294460641399417 0.002915451895043731 0.002915451895043731 0.008928571428571432 0.6339285714285715 0.008928571428571432 0.3214285714285715 0.008928571428571432 0.008928571428571432 0.008928571428571432 0.1984126984126984 0.003968253968253968 0.003968253968253968 0.003968253968253968 0.5873015873015872 0.003968253968253968 0.1984126984126984 0.002915451895043732 0.002915451895043732 0.002915451895043732 0.3294460641399417 0.4927113702623906 0.1661807580174927 0.002915451895043732 0.001763668430335096 0.001763668430335096 0.001763668430335096 0.4955908289241622 0.1252204585537919 0.001763668430335096 0.3721340388007054 0.01587301587301587 0.01587301587301587 0.01587301587301587 0.4603174603174603 0.01587301587301587 0.4603174603174603 0.01587301587301587 0.4603174603174603 0.01587301587301588 0.01587301587301588 0.4603174603174603 0.01587301587301588 0.01587301587301588 0.01587301587301588 0.005714285714285713 0.2457142857142857 0.005714285714285713 0.7257142857142859 0.005714285714285713 0.005714285714285713 0.005714285714285713 0.002915451895043731 0.4927113702623906 0.002915451895043731 0.1661807580174927 0.3294460641399417 0.002915451895043731 0.002915451895043731 0.002915451895043731 0.1661807580174927 0.002915451895043731 0.6559766763848397 0.002915451895043731 0.1661807580174927 0.002915451895043731 0.002915451895043731 0.002915451895043731 0.002915451895043731 0.4927113702623906 0.4927113702623906 0.002915451895043731 0.002915451895043731 0.1428571428571428 0.002232142857142857 0.002232142857142857 0.4241071428571428 0.1428571428571428 0.002232142857142857 0.2834821428571428 0.06277805239742956 0.06277805239742956 0.06277805239742956 0.125061789421651 0.6233316856154226 0.0004943153732081067 0.06277805239742956 0.04015215553677092 0.319737954353339 0.08009298393913779 0.2797971259509721 0.2398562975486052 0.0002113271344040575 0.04015215553677092 0.1034920634920635 0.1723809523809524 0.03460317460317461 0.4134920634920635 0.2412698412698413 0.0001587301587301587 0.03460317460317461 0.0667459491601011 0.1000445964025569 0.0001486546751895348 0.3997324215846589 0.2998364798572916 0.0001486546751895348 0.1333432436450127 0.05285714285714286 0.2628571428571428 0.0003571428571428572 0.4203571428571429 0.1578571428571429 0.0003571428571428572 0.1053571428571429 0.005714285714285714 0.005714285714285714 0.005714285714285714 0.4857142857142858 0.4857142857142858 0.005714285714285714 0.005714285714285714 0.1428571428571428 0.1428571428571428 0.1428571428571428 0.1428571428571428 0.1428571428571428 0.1428571428571428 0.1428571428571428 0.00892857142857143 0.00892857142857143 0.3214285714285715 0.3214285714285715 0.3214285714285715 0.00892857142857143 0.00892857142857143 0.002232142857142857 0.1428571428571428 0.2834821428571428 0.1428571428571428 0.2834821428571428 0.002232142857142857 0.1428571428571428 0.008928571428571432 0.3214285714285715 0.008928571428571432 0.6339285714285715 0.008928571428571432 0.008928571428571432 0.008928571428571432 0.1428571428571428 0.07174603174603174 0.07174603174603174 0.5695238095238095 0.1428571428571428 0.0006349206349206349 0.0006349206349206349 0.08368554522400677 0.08368554522400677 0.08368554522400677 0.6635672020287405 0.08368554522400677 0.0008453085376162302 0.0008453085376162302 0.1995277449822905 0.1003541912632822 0.001180637544273908 0.397874852420307 0.2987012987012987 0.001180637544273908 0.001180637544273908 0.0008453085376162301 0.0008453085376162301 0.0008453085376162301 0.3322062552831784 0.4150464919695689 0.08368554522400676 0.1665257819103973 0.0008453085376162301 0.08368554522400676 0.0008453085376162301 0.58072696534235 0.3322062552831784 0.0008453085376162301 0.0008453085376162301 0.0005580357142857145 0.1997767857142858 0.0005580357142857145 0.5318080357142858 0.1333705357142858 0.0005580357142857145 0.1333705357142858 0.4603174603174603 0.01587301587301587 0.01587301587301587 0.01587301587301587 0.01587301587301587 0.4603174603174603 0.01587301587301587 0.00892857142857143 0.00892857142857143 0.3214285714285715 0.3214285714285715 0.3214285714285715 0.00892857142857143 0.00892857142857143 0.00892857142857143 0.3214285714285715 0.00892857142857143 0.00892857142857143 0.6339285714285714 0.00892857142857143 0.00892857142857143 0.1984126984126984 0.003968253968253968 0.003968253968253968 0.1984126984126984 0.5873015873015872 0.003968253968253968 0.003968253968253968 0.0009920634920634918 0.181547619047619 0.0009920634920634918 0.3621031746031745 0.4523809523809523 0.0009920634920634918 0.0009920634920634918 0.05908289241622575 0.2936507936507936 0.0004409171075837742 0.2936507936507936 0.2350088183421517 0.0004409171075837742 0.1177248677248677 0.05021056041464204 0.05021056041464204 0.0003239390994493036 0.449303530936184 0.3495302883057985 0.0003239390994493036 0.1000971817298348 0.0606772120612951 0.1817844784972813 0.0001235788433020267 0.4239990113692536 0.2423381117152743 0.0001235788433020267 0.09095402867029165 0.05889212827988339 0.117667638483965 0.02950437317784257 0.3527696793002916 0.3821574344023324 0.02950437317784257 0.02950437317784257 0.0004409171075837742 0.1763668430335097 0.0004409171075837742 0.5282186948853616 0.2350088183421517 0.05908289241622575 0.0004409171075837742 0.05021056041464207 0.05021056041464207 0.05021056041464207 0.4991901522513769 0.3495302883057986 0.0003239390994493037 0.0003239390994493037 0.002915451895043731 0.002915451895043731 0.1661807580174927 0.4927113702623906 0.3294460641399417 0.002915451895043731 0.002915451895043731 0.01587301587301588 0.01587301587301588 0.01587301587301588 0.9047619047619049 0.01587301587301588 0.01587301587301588 0.01587301587301588 0.1252204585537919 0.2486772486772487 0.001763668430335097 0.2486772486772487 0.2486772486772487 0.001763668430335097 0.1252204585537919 0.09126984126984126 0.09126984126984126 0.0009920634920634918 0.2718253968253967 0.3621031746031745 0.0009920634920634918 0.181547619047619 0.1873455264458725 0.06277805239742956 0.0004943153732081067 0.3119130004943154 0.3741967375185368 0.0004943153732081067 0.06277805239742956 0.05021056041464204 0.1000971817298348 0.1000971817298348 0.4991901522513768 0.1998704243602203 0.0003239390994493036 0.05021056041464204 0.0002700513097488522 0.2724817715365919 0.0002700513097488522 0.4085876316500134 0.1817445314609775 0.0002700513097488522 0.1363759114231704 0.07696428571428574 0.1538392857142857 0.05133928571428572 0.4613392857142858 0.1025892857142857 0.02571428571428572 0.1282142857142857 0.02865961199294533 0.228505291005291 0.0001102292768959436 0.3141534391534392 0.3998015873015874 0.0001102292768959436 0.02865961199294533 0.0001235788433020267 0.1515076618882847 0.03040039545229857 0.5148294611962432 0.1817844784972813 0.0001235788433020267 0.1212308452792882 0.0882798833819242 0.05889212827988338 0.0001166180758017493 0.4115451895043731 0.3527696793002915 0.0001166180758017493 0.0882798833819242 0.1428571428571428 0.1428571428571428 0.1428571428571428 0.1428571428571428 0.1428571428571428 0.1428571428571428 0.1428571428571428 0.01587301587301587 0.01587301587301587 0.01587301587301587 0.4603174603174603 0.4603174603174603 0.01587301587301587 0.01587301587301587 0.4603174603174603 0.01587301587301588 0.01587301587301588 0.4603174603174603 0.01587301587301588 0.01587301587301588 0.01587301587301588 0.003968253968253968 0.1984126984126984 0.003968253968253968 0.1984126984126984 0.5873015873015872 0.003968253968253968 0.003968253968253968 0.003968253968253968 0.1984126984126984 0.003968253968253968 0.3928571428571428 0.1984126984126984 0.003968253968253968 0.1984126984126984 0.001428571428571429 0.1114285714285714 0.001428571428571429 0.3314285714285714 0.4414285714285715 0.001428571428571429 0.1114285714285714 0.001428571428571429 0.3314285714285715 0.001428571428571429 0.3314285714285715 0.3314285714285715 0.001428571428571429 0.001428571428571429 0.05021056041464204 0.1998704243602203 0.1000971817298348 0.4991901522513768 0.1000971817298348 0.0003239390994493036 0.05021056041464204 0.06277805239742956 0.125061789421651 0.0004943153732081067 0.2496292634700939 0.4987642115669798 0.0004943153732081067 0.06277805239742956 0.002915451895043732 0.3294460641399418 0.002915451895043732 0.6559766763848398 0.002915451895043732 0.002915451895043732 0.002915451895043732 0.0005580357142857144 0.1333705357142858 0.06696428571428573 0.3989955357142858 0.2661830357142858 0.0005580357142857144 0.1333705357142858 0.0008453085376162301 0.3322062552831784 0.0008453085376162301 0.4978867286559595 0.1665257819103973 0.0008453085376162301 0.0008453085376162301 0.07174603174603174 0.213968253968254 0.07174603174603174 0.213968253968254 0.3561904761904762 0.07174603174603174 0.0006349206349206348 0.07416180758017492 0.07416180758017492 0.03717201166180758 0.407069970845481 0.296100583090379 0.03717201166180758 0.07416180758017492 0.05411555203798971 0.1081321725366047 0.1081321725366047 0.3512069647803719 0.2701820340324496 9.893153937475266e-05 0.1081321725366047 7.378984651711925e-05 0.2092680047225502 0.04656139315230225 0.3952184179456907 0.2789994096812279 0.02331759149940969 0.04656139315230225 0.02354554585490226 0.2235185042107703 0.02354554585490226 0.3176234257900023 0.3293865409874063 0.01178243065749826 0.07059800664451826 0.03731922398589065 0.1194042719968646 0.02985694689398393 0.4328199098569469 0.3059611992945326 0.007470115618263767 0.06716833235351755 0.05056467829165312 0.134831711155796 0.02809346952788169 0.4325752272757672 0.286512370311253 0.01124006295505313 0.05618248048259597 0.0331968932645116 0.1327802550567389 0.02904758652316879 0.4564261808814777 0.2655580707797086 0.02904758652316879 0.05394342697122562 0.01935991359068282 0.141935521743214 0.05806800037569268 0.3999894336432798 0.3032192166807551 0.01290856579318118 0.06451934817319432 0.03906873728398877 0.1171890425541047 0.03906873728398877 0.5077905689046847 0.2421815309862903 0.02344467622996557 0.03125670675697717 0.1661807580174927 0.1661807580174927 0.002915451895043731 0.3294460641399417 0.1661807580174927 0.002915451895043731 0.1661807580174927 0.01587301587301587 0.01587301587301587 0.01587301587301587 0.01587301587301587 0.9047619047619048 0.01587301587301587 0.01587301587301587 0.001763668430335097 0.3721340388007054 0.001763668430335097 0.3721340388007054 0.1252204585537919 0.001763668430335097 0.1252204585537919 0.001763668430335097 0.1252204585537919 0.001763668430335097 0.6190476190476192 0.1252204585537919 0.001763668430335097 0.1252204585537919 0.125061789421651 0.125061789421651 0.06277805239742956 0.3741967375185368 0.2496292634700939 0.06277805239742956 0.0004943153732081067 0.06277805239742956 0.1873455264458725 0.0004943153732081067 0.4364804745427583 0.2496292634700939 0.0004943153732081067 0.06277805239742956 0.05579738820736052 0.111199050257222 0.05579738820736052 0.5544123466561141 0.1666007123070835 0.0003957261574990108 0.05579738820736052 7.378984651711924e-05 0.2325118063754428 0.02331759149940968 0.5346812278630461 0.1860242030696576 0.02331759149940968 7.378984651711924e-05 0.07151350433157805 0.1071853235943605 0.03584168506879565 0.5352471547477493 0.1785289621199253 0.0001698658060132496 0.07151350433157805 0.06696428571428573 0.2661830357142858 0.0005580357142857144 0.3325892857142858 0.2661830357142858 0.0005580357142857144 0.06696428571428573 0.08368554522400676 0.4150464919695689 0.08368554522400676 0.3322062552831784 0.0008453085376162301 0.08368554522400676 0.0008453085376162301 0.0001486546751895347 0.1666418908874684 0.03344730191764531 0.2998364798572915 0.4330310688271146 0.03344730191764531 0.03344730191764531 0.03717201166180758 0.1481413994169096 0.0001822157434402332 0.4810495626822157 0.296100583090379 0.03717201166180758 0.0001822157434402332 0.04689771766694844 0.09376162299239223 0.06251901944209637 0.5311580726965343 0.2031107354184277 0.01565511411665258 0.04689771766694844 0.03788472254750733 0.09091202765237476 0.04546005184820267 0.42422651688297 0.3181719066732352 0.03030939324681198 0.05303538114889802 0.07692781220503141 0.1367525752041696 0.03419583863421841 0.3333196536299093 0.3418660483440719 0.00855665449173062 0.0683814174908688 0.05306270832743171 0.1510202732689348 0.02857331709205594 0.4408114028875481 0.23673314259275 0.00408392585668017 0.08571522997459942 0.04658477371721053 0.1770183061003447 0.01242361047400873 0.3881964061492285 0.2857129164196231 0.003106929589499154 0.08695705755008538 0.04667894444169158 0.1436265684444665 0.03052100710789577 0.472171294231648 0.2262115814838673 0.01256774340367819 0.06822286088675267 0.05882369378872875 0.1400560278881957 0.02521031416136311 0.4215680822673829 0.2745095463976582 0.008403624347680291 0.07142871114899087 0.03686691957797784 0.1612902251665629 0.01843383726855784 0.4470030009625729 0.2764969896004379 0.006913160825170337 0.05299586659872035 0.04316674833497587 0.1151082701550964 0.02158429178893972 0.5071895640747531 0.2482000855223193 0.01439013960692767 0.05036090051698792 0.1428571428571428 0.1428571428571428 0.1428571428571428 0.1428571428571428 0.1428571428571428 0.1428571428571428 0.1428571428571428 0.03571428571428572 0.03571428571428572 0.03571428571428572 0.7857142857142858 0.03571428571428572 0.03571428571428572 0.03571428571428572 0.01587301587301588 0.4603174603174603 0.01587301587301588 0.4603174603174603 0.01587301587301588 0.01587301587301588 0.01587301587301588 0.1984126984126984 0.1984126984126984 0.003968253968253968 0.3928571428571428 0.1984126984126984 0.003968253968253968 0.003968253968253968 0.003968253968253968 0.003968253968253968 0.1984126984126984 0.1984126984126984 0.3928571428571428 0.003968253968253968 0.1984126984126984 0.1428571428571428 0.5647321428571428 0.002232142857142857 0.1428571428571428 0.1428571428571428 0.002232142857142857 0.002232142857142857 0.001180637544273908 0.2987012987012987 0.001180637544273908 0.4970484061393152 0.1003541912632822 0.001180637544273908 0.1003541912632822 0.05908289241622575 0.2350088183421517 0.0004409171075837742 0.2936507936507936 0.2936507936507936 0.0004409171075837742 0.1177248677248677 0.1177248677248677 0.1763668430335097 0.0004409171075837742 0.3522927689594356 0.3522927689594356 0.0004409171075837742 0.0004409171075837742 0.1003541912632822 0.3978748524203069 0.001180637544273908 0.2987012987012986 0.1003541912632822 0.1003541912632822 0.001180637544273908 0.0772594752186589 0.0772594752186589 0.2303206997084548 0.2303206997084548 0.3833819241982508 0.000728862973760933 0.000728862973760933 0.05558441558441559 0.1296340023612751 0.03707201889020071 0.4443447461629281 0.2592207792207792 4.722550177095632e-05 0.07409681227863048 0.08891439373480962 0.08891439373480962 0.02227923305428032 0.3776667566837699 0.3776667566837699 6.751282743721307e-05 0.04449095328112342 0.01600799049778642 0.1919969045819386 0.06400496706619156 0.3279883381924198 0.3439873303818883 0.01600799049778642 0.04000647878198899 0.05286516730422547 0.1806160137185068 0.06167557050521039 0.3788500857406674 0.2510992393263861 0.008813151299300883 0.06608077210570285 0.04803672697812585 0.183405347015933 0.03493653794220902 0.3624412638401296 0.3056737780178234 0.01310288954901431 0.05240345665676479 0.06786456904312177 0.1277445709478534 0.01996056751933643 0.4031925797096191 0.2974045763445932 0.009980567201881148 0.07385256923359493 0.0469699164314438 0.1454545395097577 0.02424269572106367 0.4363629646026235 0.2787875676773212 0.004545771105400878 0.06363654495238924 0.04466507947349419 0.1728701201127948 0.02398684711231668 0.3978492882024061 0.2787426698020236 0.009925649106715973 0.07196034619024851 0.04178086927097126 0.1479452030957497 0.0226027960639145 0.4219176774822748 0.2910958209627091 0.01095896590248719 0.06369866722189327 0.03986723566002483 0.1196013573610194 0.01550403180694315 0.469545558159829 0.2823918558338833 0.003322429880402313 0.0697675312978978 0.02693635437368224 0.1195286854237493 0.02693635437368224 0.4730630403421873 0.282827887457504 0.01683537280458402 0.05387230522461086 0.00892857142857143 0.00892857142857143 0.00892857142857143 0.6339285714285714 0.3214285714285715 0.00892857142857143 0.00892857142857143 0.00892857142857143 0.00892857142857143 0.00892857142857143 0.3214285714285715 0.6339285714285714 0.00892857142857143 0.00892857142857143 0.001428571428571429 0.2214285714285714 0.001428571428571429 0.3314285714285715 0.3314285714285715 0.001428571428571429 0.1114285714285714 0.0009920634920634918 0.09126984126984126 0.0009920634920634918 0.2718253968253967 0.4523809523809523 0.0009920634920634918 0.181547619047619 0.07174603174603174 0.0006349206349206349 0.0006349206349206349 0.5695238095238095 0.285079365079365 0.0006349206349206349 0.07174603174603174 0.1499838030450275 0.1499838030450275 0.05021056041464204 0.3994169096209912 0.1499838030450275 0.05021056041464204 0.05021056041464204 0.06696428571428573 0.0005580357142857144 0.0005580357142857144 0.3325892857142858 0.3325892857142858 0.06696428571428573 0.1997767857142858 0.1250163977436705 0.09379509379509381 0.0001311819493637675 0.4684507411780139 0.2811229174865538 0.0001311819493637675 0.03135248589794044 0.06257378984651712 0.1562377016922471 0.0001311819493637675 0.4996720451265906 0.1874590056408239 0.0001311819493637675 0.09379509379509381 0.03344730191764531 0.1333432436450126 0.06674594916010108 0.4663297160695704 0.2332391853723799 0.0001486546751895347 0.06674594916010108 0.000248015873015873 0.08705357142857142 0.04365079365079365 0.3040674603174603 0.347470238095238 0.000248015873015873 0.2172619047619048 0.04168565530922446 0.125003350936922 0.04168565530922446 0.3610701552153982 0.3610701552153982 2.680749537570705e-05 0.06945822051845696 0.08696793002915451 0.2028862973760933 0.07247813411078717 0.2898250728862973 0.2608454810495627 0.01451895043731778 0.07247813411078717 0.07742204376819761 0.1677409129332206 0.04516530478068939 0.3999894336432798 0.232254390908237 0.01935991359068282 0.05806800037569268 0.06993095530045111 0.1608389425286559 0.03146988378082601 0.3951018326936451 0.2552433908040993 0.006994656450155485 0.08042033844216705 0.05732570276787963 0.1560508224453803 0.02229420868876651 0.391717237159414 0.2738840298023971 0.009555483569089012 0.0891725155670734 0.06060624885767189 0.1499999836518338 0.03636388009993308 0.359090414187331 0.2924239001035493 0.01818210353162896 0.08333346956805203 0.04540176156996059 0.1746216101367534 0.02211890597234026 0.3853314532952174 0.2782303175461639 0.01164162095341111 0.08265433052615312 0.04579211633090698 0.1627475171453059 0.01980202726104055 0.4059404934419132 0.282796976182308 0.008663417659669222 0.07425745197885593 0.0455312280195502 0.1450252944253071 0.02473303334716035 0.4322652262520966 0.2833051833282234 0.007307518891914802 0.06183251573574765 0.03583924246840666 0.1232517632059975 0.0174826131135126 0.4895102250965029 0.2587411703492632 0.008741361039753518 0.06643362472656344 0.03688544313608292 0.1256830920736193 0.01775979567261354 0.4795075701478029 0.2800543894573365 0.005464736588954654 0.0546449729235902 0.00892857142857143 0.3214285714285715 0.00892857142857143 0.3214285714285715 0.00892857142857143 0.00892857142857143 0.3214285714285715 0.01587301587301587 0.01587301587301587 0.01587301587301587 0.4603174603174603 0.4603174603174603 0.01587301587301587 0.01587301587301587 0.1984126984126984 0.1984126984126984 0.003968253968253968 0.3928571428571428 0.1984126984126984 0.003968253968253968 0.003968253968253968 0.1003541912632822 0.001180637544273908 0.001180637544273908 0.2987012987012987 0.4970484061393152 0.001180637544273908 0.1003541912632822 0.001428571428571429 0.2214285714285714 0.001428571428571429 0.3314285714285715 0.2214285714285714 0.1114285714285714 0.1114285714285714 0.1537900874635568 0.07725947521865889 0.1537900874635568 0.07725947521865889 0.4599125364431487 0.0007288629737609328 0.07725947521865889 0.3314285714285715 0.001428571428571429 0.1114285714285714 0.3314285714285715 0.1114285714285714 0.001428571428571429 0.1114285714285714 0.06277805239742956 0.06277805239742956 0.0004943153732081067 0.1873455264458725 0.4364804745427583 0.0004943153732081067 0.2496292634700939 0.000295159386068477 0.2378984651711925 0.04781582054309327 0.4279811097992917 0.2378984651711925 0.000295159386068477 0.04781582054309327 0.1114285714285714 0.2214285714285714 0.001428571428571429 0.2214285714285714 0.2214285714285714 0.001428571428571429 0.2214285714285714 0.0003571428571428572 0.05285714285714286 0.05285714285714286 0.4728571428571429 0.4203571428571429 0.0003571428571428572 0.0003571428571428572 0.03571428571428571 0.03571428571428571 0.03571428571428571 0.03571428571428571 0.03571428571428571 0.03571428571428571 0.7857142857142856 0.1428571428571428 0.1428571428571428 0.1428571428571428 0.1428571428571428 0.1428571428571428 0.1428571428571428 0.1428571428571428 0.1428571428571428 0.1428571428571428 0.1428571428571428 0.1428571428571428 0.1428571428571428 0.1428571428571428 0.1428571428571428 0.2457142857142857 0.005714285714285714 0.005714285714285714 0.005714285714285714 0.4857142857142858 0.005714285714285714 0.2457142857142857 0.2457142857142857 0.005714285714285714 0.005714285714285714 0.4857142857142858 0.2457142857142857 0.005714285714285714 0.005714285714285714 0.002915451895043731 0.002915451895043731 0.002915451895043731 0.8192419825072887 0.002915451895043731 0.002915451895043731 0.1661807580174927 0.003968253968253968 0.003968253968253968 0.003968253968253968 0.5873015873015872 0.3928571428571428 0.003968253968253968 0.003968253968253968 0.2457142857142857 0.005714285714285714 0.005714285714285714 0.4857142857142858 0.2457142857142857 0.005714285714285714 0.005714285714285714 0.001428571428571429 0.1114285714285714 0.2214285714285714 0.2214285714285714 0.3314285714285715 0.001428571428571429 0.1114285714285714 0.1003541912632822 0.001180637544273908 0.001180637544273908 0.397874852420307 0.4970484061393152 0.001180637544273908 0.001180637544273908 0.1003541912632822 0.2987012987012986 0.001180637544273908 0.1995277449822904 0.2987012987012986 0.1003541912632822 0.001180637544273908 0.04054514918890396 0.02703224436479695 0.04730160160095748 0.1554048401938136 0.6621387710978269 0.04054514918890396 0.02703224436479695 0.0354064987028976 0.07080200501253134 0.04425537528030603 0.1061975113221651 0.6813744888537133 0.01770874554808073 0.04425537528030603 0.03964956250274809 0.06167557050521039 0.0176235545002858 0.1013223849096425 0.7180506089785867 0.0176235545002858 0.04405476410324055 0.03972018657333343 0.06542098150489759 0.01635582754463873 0.1098132636594175 0.7196230343083491 0.002337212127421918 0.04672949428194183 0.04288536865487311 0.04483467901536305 0.01949364432899384 0.1403508866793701 0.6900564083375329 0.01559502360801396 0.04678398937585299 0.0228311501488016 0.04748866386823257 0.02374439139766941 0.1561643724835024 0.7086753280485298 0.01278549641125564 0.02831059764200848 0.02045834697137172 0.05646486954330822 0.006546735977668988 0.1595744569083991 0.7160388966565086 0.007365066036122091 0.03355162790662135 0.01795146033713017 0.0612460628531249 0.02006339216717869 0.1441393871825295 0.7106651005930459 0.008975750059423939 0.03695884680756688 0.01935174634411229 0.0566037937534707 0.01403002528563251 0.1644895933935606 0.7039185915940103 0.0091920970506509 0.03241415257856264 0.01461746352276696 0.05503015940496012 0.0120379297430525 0.1582115105935384 0.7059325164862417 0.007738706776861734 0.0464317134725786 0.01856548920737927 0.04388192690519727 0.01772160795078534 0.1535864902624086 0.7265818634896893 0.01181443915462781 0.02784818302991254 0.06277805239742956 0.125061789421651 0.06277805239742956 0.1873455264458725 0.5610479485912012 0.0004943153732081067 0.0004943153732081067 0.0007288629737609328 0.1537900874635568 0.0007288629737609328 0.4599125364431487 0.3833819241982507 0.0007288629737609328 0.0007288629737609328 0.1428571428571428 0.000295159386068477 0.04781582054309327 0.3329397874852421 0.3329397874852421 0.04781582054309327 0.09533648170011806 0.1154223006074858 0.1154223006074858 0.000195963158926122 0.3842837546541251 0.2690574172055654 0.03860474230844602 0.07701352145796593 0.06253346819777474 0.1250074373772833 5.949901826619859e-05 0.4582019396679954 0.3124293449158089 5.949901826619859e-05 0.04170881180460522 0.07369171626984125 0.1684182787698413 0.09474206349206346 0.3473462301587301 0.1999937996031746 