<?xml version="1.0" encoding="ISO-8859-1"?>
<!-- This network was created in trial version of GeNIe, which can be used for evaluation purposes only -->
<smile version="1.0" id="Unnamed" numsamples="10000" discsamples="10000">
	<nodes>
		<cpt id="JobSatisfaction">
			<state id="S0" />
			<state id="S1" />
			<state id="S10" />
			<state id="S2" />
			<state id="S3" />
			<state id="S4" />
			<state id="S5" />
			<state id="S6" />
			<state id="S7" />
			<state id="S8" />
			<state id="S9" />
			<state id="NA" />
			<probabilities>0.009088462112220213 0.007259419246460283 0.01728023920248542 0.03181529261442868 0.03629061026469234 0.07294929919119984 0.09195967025340676 0.1550616491221243 0.1747919625889389 0.1084405139480733 0.08071300241926592 0.2143498790367041</probabilities>
		</cpt>
		<cpt id="MajorUndergrad">
			<state id="SA_business_discipline" />
			<state id="SA_health_science" />
			<state id="SA_humanities_discipline" />
			<state id="SA_natural_science" />
			<state id="SA_non_computer_focused_engineering_discipline" />
			<state id="SA_social_science" />
			<state id="SComputer_engineering_or_electrical_electronics_engineering" />
			<state id="SComputer_programming_or_Web_development" />
			<state id="SComputer_science_or_software_engineering" />
			<state id="SFine_arts_or_performing_arts" />
			<state id="SI_never_declared_a_major" />
			<state id="SInformation_technology__networking__or_system_administration" />
			<state id="SManagement_information_systems" />
			<state id="SMathematics_or_statistics" />
			<state id="NA" />
			<state id="Psychology" />
			<state id="SSomething_else" />
			<parents>JobSatisfaction</parents>
			<probabilities>0.02362996480643539 0.004399195575666163 0.0300402212166918 0.03645047762694821 0.02362996480643539 0.006535947712418299 0.09414278531925591 0.07704876822523882 0.455253896430367 0.01508295625942685 0.01508295625942685 0.0300402212166918 0.01721970839617898 0.0300402212166918 0.1133735545500251 0.002262443438914027 0.02576671694318753 0.01620006291286568 0.0001572821642025794 0.02956904687008493 0.04026423403586032 0.03224284366152878 0.008178672538534128 0.09106637307329347 0.09641396665618118 0.4145957848379993 0.01085246932997798 0.01352626612142183 0.04828562441019187 0.02154765649575338 0.03491664045297262 0.09641396665618118 0.01085246932997798 0.03491664045297262 0.01356448091047443 0.002315886984715146 0.01918877787335407 0.03943624693972077 0.03943624693972077 0.0124396215178985 0.08893006021306162 0.07543174750215048 0.4736319724740291 0.01131476212532257 0.01356448091047443 0.04393568451002449 0.01131476212532257 0.03943624693972077 0.08555548203533384 0.00569046516244293 0.02481307483623371 0.01653962318423702 0.001258449590104991 0.02204084567812455 0.04160074787861355 0.0367107723284913 0.01898461095929814 0.09661297281748886 0.08561052782971379 0.4462462246512297 0.01776211707176758 0.01226089457788005 0.04771321731626636 0.01348338846541061 0.03915576010355243 0.07888681144829571 0.003092190421400834 0.02204084567812455 0.02093184540697308 0.001103335224765147 0.01610869428157115 0.02789861925477587 0.03486539310257866 0.01450097723977051 0.09810226341340395 0.09488682932980266 0.473236239833554 0.01021373179496879 0.01182144883676944 0.05415799760418637 0.01021373179496879 0.02629090221297522 0.07880965891179623 0.004854674988966648 0.02200365676817351 0.01521568627450981 0.001615686274509804 0.01308235294117647 0.02961568627450981 0.03948235294117648 0.01361568627450981 0.09921568627450982 0.09254901960784315 0.4690823529411765 0.009082352941176472 0.0112156862745098 0.05228235294117647 0.01254901960784314 0.03494901960784314 0.08294901960784314 0.002415686274509804 0.02108235294117647 0.01862890279869088 0.002974153486230541 0.01862890279869088 0.03555295610945881 0.03491830411030501 0.01566719346930649 0.09478714269714658 0.08590201470899342 0.4719819808608869 0.01524409213653729 0.009955325476922313 0.05184235742107295 0.0143978894709989 0.03068729078261303 0.07595913338891726 0.003820356151768938 0.01905200413146008 0.01707137058085468 0.002265849878219795 0.02221566167244815 0.04141265038010186 0.04254188500996384 0.0133072551479814 0.0941102664403277 0.07779909956454352 0.466757694294782 0.01431101926341428 0.01280537309026497 0.04342017861096761 0.01544025389327626 0.03463724260092996 0.07742268802125618 0.00464978965237287 0.01983172189829508 0.01981954847834058 0.002900581425802734 0.0191516945157404 0.0435283641506469 0.03896469540621235 0.0130296998585721 0.09918286103399507 0.07625320831805563 0.4621614897071918 0.01425409879000576 0.01136006495207166 0.03918731339374575 0.01648027866533969 0.03640458854957834 0.08148473102509035 0.004792834319836572 0.02104394740977424 0.02153907849469175 0.002342810105743051 0.02171848287215856 0.04773211760484604 0.03445619367230209 0.0136452858861521 0.08540703687287619 0.06782540788112879 0.4707676396715845 0.01687456468055468 0.01328647713121847 0.04037653812870682 0.01310707275375167 0.04091475126110725 0.085586441250343 0.005033875767745204 0.01938622596509003 0.01881388853444487 0.003147462889711199 0.01736775693646946 0.03785462124112118 0.04098790637006791 0.01134220861157189 0.07762324018544511 0.08003345951540414 0.4454227099371925 0.01543958147250223 0.01399344987452682 0.04122892830306382 0.01302936214254321 0.03592644577715396 0.1210071881247076 0.00411155062169481 0.02267023946237931 0.01343912349363817 0.003999167062667856 0.01035298389120557 0.02315138636011725 0.02197139180624596 0.007902225971626738 0.05510200812647832 0.05982198634196348 0.2426303733801772 0.006449924982246689 0.00917298933733428 0.03222826754374256 0.006722231417755447 0.01970217151033964 0.4640155054487983 0.00354532300348659 0.01979294032217589</probabilities>
		</cpt>
		<cpt id="CompetePeers">
			<state id="Agree" />
			<state id="Disagree" />
			<state id="NA" />
			<state id="SSomewhat_agree" />
			<state id="SStrongly_agree" />
			<state id="SStrongly_disagree" />
			<parents>JobSatisfaction</parents>
			<probabilities>0.1285612535612536 0.1392450142450143 0.4020655270655271 0.1542022792022792 0.08582621082621084 0.09009971509971511 0.1314616755793226 0.1929590017825312 0.390819964349376 0.1662210338680927 0.05392156862745098 0.06461675579322639 0.1475440569928759 0.1846644169478815 0.3826396700412449 0.1554180727409074 0.05868016497937758 0.07105361829771278 0.107681336593317 0.1999796251018745 0.3870211898940505 0.1871434392828036 0.04288916055419723 0.07528524857375714 0.136745266166488 0.1983744194355127 0.39183637013219 0.1721150410861022 0.04456948910325116 0.05635941407645588 0.1395111111111111 0.1749777777777778 0.3960444444444445 0.1856444444444444 0.04431111111111111 0.05951111111111111 0.140081799591002 0.2003737395106127 0.383365065933291 0.1823919328679218 0.04298004372047105 0.05080741837670121 0.1425554161438728 0.2020284399832706 0.3779381012128816 0.1815767461313258 0.03678377248013383 0.05911752404851527 0.1270221133867617 0.2241948649450876 0.362997180172158 0.1815635203324429 0.03552612051053726 0.06869620065301277 0.1180779811027389 0.2303851213969621 0.3624267432125344 0.1749491687597177 0.03393732807080492 0.08022365745724196 0.09910018478348197 0.1853860367960151 0.3996545352293726 0.1451353739856994 0.06366996063308428 0.1070539085723468 0.1215545671840489 0.138437566185592 0.4807267556201023 0.1568636349883513 0.05483949048440288 0.04757798553750264</probabilities>
		</cpt>
		<cpt id="CompanySize">
			<state id="S1_000_to_4_999_employees" />
			<state id="S10_000_or_more_employees" />
			<state id="S10_to_19_employees" />
			<state id="S100_to_499_employees" />
			<state id="S20_to_99_employees" />
			<state id="S5_000_to_9_999_employees" />
			<state id="S500_to_999_employees" />
			<state id="SFewer_than_10_employees" />
			<state id="SI_don_t_know" />
			<state id="SI_prefer_not_to_answer" />
			<state id="NA" />
			<parents>JobSatisfaction</parents>
			<probabilities>0.07284382284382286 0.1754079254079254 0.08780108780108782 0.1540404040404041 0.1625874125874126 0.02797202797202798 0.05574980574980575 0.1241258741258741 0.02797202797202798 0.01087801087801088 0.1006216006216006 0.1018473505104521 0.1419543023821099 0.09382596013612056 0.1606708799222168 0.1740398638794361 0.04569761789013126 0.05639280505590665 0.1125425376762275 0.01361205639280505 0.008264462809917354 0.09115216334467671 0.09459044892115757 0.1429594028019225 0.1002147458840372 0.1564577155128336 0.1992023724307189 0.04172205747008897 0.06646896410675938 0.09234073013600572 0.02259944779629819 0.009101135085387053 0.07434297985479088 0.08012891753723053 0.1620360080017782 0.08440764614358749 0.1626472549455435 0.2048232940653479 0.04651033563014005 0.05629028673038455 0.08685263391864861 0.01717048232940654 0.009835519004223164 0.08929762169370975 0.08740134463607134 0.1377764786124915 0.1077657604988795 0.1629640456007016 0.2004774432427166 0.04667251291045504 0.05524700380005847 0.09115268440027284 0.01076683231024067 0.01344636071324174 0.08632953327487092 0.09842424242424243 0.1298909090909091 0.09655757575757576 0.1706909090909091 0.1872242424242424 0.03575757575757576 0.06295757575757577 0.07602424242424242 0.01869090909090909 0.01175757575757576 0.1120242424242424 0.08971671442583225 0.1320268477027521 0.08485104909898647 0.1811066023039791 0.2145316075927457 0.04106006115737446 0.06306133046137276 0.07279266111506433 0.01588553185760717 0.01144296786353059 0.09352462642075504 0.09662370252081671 0.1310026234743926 0.0853313562221969 0.1755446560967264 0.2090452834492985 0.03840538382571005 0.05584578533135623 0.08232006387589827 0.01343675145431733 0.01393863351203376 0.09850576023725335 0.09106087590059095 0.1297964057314013 0.09284181980085809 0.1740973852505464 0.2053752124989881 0.03718732291750991 0.05978304865214928 0.07670201570468713 0.01759694001457136 0.01047316441350279 0.1050858091151947 0.08720683693773039 0.1309815050396321 0.09635646018853772 0.1752943862739342 0.1950288677952833 0.03177088430048603 0.05778451903317351 0.08648921942786314 0.01598329908340673 0.01311282904393777 0.1099911928760153 0.06871316198865006 0.1067946274020027 0.1058305396700191 0.1383685006244659 0.1812704046977366 0.02749841144635071 0.04798527575100243 0.1154714169898552 0.01376016126558426 0.02267797278643266 0.1716295273779005 0.02079430962066888 0.03649731406834066 0.03141426060551049 0.03840345911690198 0.04484804475727594 0.01044666507133603 0.01344203586193238 0.03431886258427059 0.02061277199699638 0.0139866487329499 0.7352356275838167</probabilities>
		</cpt>
		<cpt id="CompanyType">
			<state id="SGovernment_agency_or_public_school_university" />
			<state id="SI_don_t_know" />
			<state id="SI_prefer_not_to_answer" />
			<state id="NA" />
			<state id="SNon_profit_non_governmental_organization_or_private_school_university" />
			<state id="SPre_series_A_startup" />
			<state id="SPrivately_held_limited_company__not_in_startup_mode" />
			<state id="SPublicly_traded_corporation" />
			<state id="SSole_proprietorship_or_partnership__not_in_startup_mode" />
			<state id="SSomething_else" />
			<state id="SState_owned_company" />
			<state id="SVenture_funded_startup" />
			<parents>JobSatisfaction</parents>
			<probabilities>0.04504985754985755 0.09205840455840457 0.03436609686609687 0.1027421652421653 0.02154558404558405 0.02581908831908832 0.4018874643874644 0.1347934472934473 0.07282763532763534 0.006588319088319089 0.02368233618233619 0.03863960113960114 0.06439393939393939 0.08845811051693404 0.02963458110516934 0.09113190730837789 0.02428698752228164 0.02428698752228164 0.4093137254901961 0.1392602495543672 0.05102495543672014 0.008244206773618538 0.02428698752228164 0.04567736185383243 0.0495875515560555 0.06421072365954257 0.03046494188226472 0.07433445819272591 0.03046494188226472 0.03158980127484064 0.4050431196100487 0.1497000374953131 0.08895763029621298 0.01134233220847394 0.02821522309711286 0.03608923884514436 0.06056438467807661 0.07278932355338223 0.03000203748981255 0.09173797881010595 0.02755704971475143 0.01594335778321108 0.4132538712306439 0.1430827220863896 0.06973308883455583 0.009830888345558271 0.02388956805215974 0.04161572942135289 0.05041979278313683 0.06596105752054304 0.03273490532332976 0.08739728474455163 0.02255269739192569 0.0343426223651304 0.4475259021078957 0.123302965344766 0.07239192568774563 0.005939621293319043 0.01505001786352269 0.04238120757413361 0.05335555555555556 0.06802222222222223 0.04055555555555556 0.1160222222222222 0.02695555555555556 0.02535555555555555 0.4061555555555555 0.1293555555555556 0.07148888888888889 0.005888888888888889 0.01842222222222222 0.03842222222222223 0.04825118115788731 0.07596431845426979 0.03915450250334955 0.09500387842888371 0.02392285452365842 0.02476905718919681 0.4184648473309358 0.1379486637049573 0.06454058246950144 0.008691206543967281 0.01419152386996685 0.04909738382342571 0.05358636553743203 0.07014847344207445 0.03740066917607695 0.1000104558762024 0.02598285236302802 0.02598285236302802 0.3988812212463405 0.1493203680468423 0.06588247595148473 0.005782099539941447 0.0148159765788373 0.05220618987871183 0.05366021074502819 0.06946608785989908 0.03395851884832294 0.1069772187592758 0.02727997922232116 0.02739128821608786 0.3860288661323835 0.1482728554467201 0.06634943603443158 0.00813483229444939 0.01147410210745028 0.06100660433363016 0.04594247099629231 0.06693278315990911 0.03751046525535223 0.110528046884344 0.03033429015667983 0.03553701710321732 0.3755083124028227 0.137976916636766 0.06424171749790696 0.007011721085994499 0.0140084918072001 0.07446776701351514 0.04846549369325942 0.06340885353900538 0.04870651562625532 0.1737968988511288 0.02436330039366916 0.04533220856431269 0.3319072868964409 0.1116132401381859 0.06051659034305455 0.00725074315096007 0.01279424760986583 0.07184462119386197 0.03404586850624792 0.03858430909806057 0.02732897643036519 0.7378672354845541 0.0141674987141085 0.00890290762760582 0.07979334967171946 0.02433360563976884 0.01335057940758222 0.004364467035793168 0.006361380896190734 0.01089982148800339</probabilities>
		</cpt>
		<cpt id="ProgramHobby">
			<state id="No" />
			<state id="SYes__both" />
			<state id="SYes__I_contribute_to_open_source_projects" />
			<state id="SYes__I_program_as_a_hobby" />
			<parents>JobSatisfaction</parents>
			<probabilities>0.2313034188034188 0.04967948717948718 0.4385683760683761 0.280448717948718 0.2199197860962567 0.06216577540106952 0.4846256684491979 0.2332887700534759 0.2050056242969629 0.05427446569178853 0.4873453318335209 0.2533745781777278 0.2281479217603912 0.05944376528117359 0.4683679706601467 0.2440403422982885 0.2241425509110397 0.05854769560557342 0.4604769560557342 0.2568327974276527 0.2304666666666667 0.06646666666666667 0.4475333333333333 0.2555333333333333 0.2194309287074254 0.06372963824836048 0.4813306536915591 0.235508779352655 0.2193538268506901 0.05787327478042659 0.4661543287327478 0.2566185696361355 0.2057268477292965 0.0631400267141585 0.4590661175422974 0.2720670080142475 0.1875224255471834 0.06445102260495157 0.4465823466092573 0.3014442052386078 0.1866112316220776 0.07019763798505664 0.4218486382260786 0.3213424921667872 0.1187482980847781 0.04722247435781066 0.574226195879096 0.2598030316783153</probabilities>
		</cpt>
		<cpt id="FormalEducation">
			<state id="SBachelor_s_degree" />
			<state id="SDoctoral_degree" />
			<state id="SI_never_completed_any_formal_education" />
			<state id="SI_prefer_not_to_answer" />
			<state id="SMaster_s_degree" />
			<state id="SPrimary_elementary_school" />
			<state id="SProfessional_degree" />
			<state id="SSecondary_school" />
			<state id="SSome_college_university_study_without_earning_a_bachelor_s_degree" />
			<parents>JobSatisfaction</parents>
			<probabilities>0.5045109211775879 0.02801519468186135 0.02801519468186135 0.01733143399810066 0.2160493827160494 0.004510921177587845 0.01092117758784425 0.06220322886989554 0.1284425451092118 0.4789067142008318 0.02168746286393345 0.02168746286393345 0.01633986928104575 0.2837195484254308 0.00029708853238265 0.01633986928104575 0.0564468211527035 0.1045751633986928 0.4916885389326334 0.02149731283589551 0.004624421947256593 0.007999000124984378 0.2577177852768404 0.007999000124984378 0.0169978752655918 0.060867391576053 0.1306086739157606 0.5043466449334421 0.023906547133931 0.009847867427329531 0.006791632708503125 0.2323417549578919 0.006791632708503125 0.01045911437109481 0.05508014126596035 0.1504346644933442 0.5005954507562226 0.0204239609384304 0.00541860188162439 0.00541860188162439 0.2455043467905205 0.007026318923425034 0.01399309277122782 0.06008098130284627 0.1415386447540788 0.4874962962962963 0.02296296296296297 0.006696296296296297 0.01096296296296296 0.2472296296296296 0.006962962962962963 0.01762962962962963 0.05762962962962963 0.1424296296296296 0.4882824436452531 0.0220247749335966 0.005523822955597866 0.008485532284982254 0.2543074066238864 0.004042968290905672 0.01525515360928942 0.05714218555344004 0.1449357121030487 0.4710302523351457 0.02498257353966262 0.004279938658859612 0.007793113062874669 0.2646312560992611 0.006287466889725359 0.01243552209675171 0.05785584832008921 0.15070402899763 0.45971851192243 0.03518600969625012 0.004687345404175324 0.007136143267042644 0.2590283961610765 0.005355199366775502 0.01414860987434451 0.06356980310675769 0.1511699812011477 0.4470956424670096 0.03608021369054738 0.006119682653590082 0.008631343938125424 0.2617709205437946 0.004146234501455169 0.01742215843399912 0.0663995534824383 0.1523342502890404 0.4288047990144881 0.03810824562812994 0.01400605232853968 0.01328298652955197 0.2181516295760692 0.00798050400364211 0.01834444712246592 0.08438445676334323 0.1769368790337698 0.2457212590642744 0.0115377245267415 0.01417002006999284 0.06872207598358092 0.08515123092594272 0.07398666707008358 0.009903885913688943 0.3053563684406926 0.1854507680050023</probabilities>
		</cpt>
		<cpt id="HomeRemote">
			<state id="SA_few_days_each_month" />
			<state id="SAbout_half_the_time" />
			<state id="SAll_or_almost_all_the_time__I_m_full_time_remote_" />
			<state id="SIt_s_complicated" />
			<state id="SLess_than_half_the_time__but_at_least_one_day_each_week" />
			<state id="SMore_than_half__but_not_all__the_time" />
			<state id="NA" />
			<state id="Never" />
			<parents>JobSatisfaction</parents>
			<probabilities>0.2374465811965812 0.04300213675213676 0.109241452991453 0.04941239316239317 0.06223290598290599 0.0451388888888889 0.004540598290598291 0.4489850427350428 0.2810828877005347 0.05648395721925133 0.09124331550802138 0.03509358288770053 0.06985294117647059 0.02707219251336898 0.0003342245989304813 0.4388368983957219 0.2892294713160855 0.02938695163104612 0.07100674915635546 0.05075928008998876 0.06875703037120361 0.0406355455568054 0.003515185601799775 0.4467097862767154 0.3105898533007335 0.03186124694376528 0.08503973105134474 0.0440861858190709 0.09359718826405868 0.04286369193154034 0.001298899755501222 0.3906632029339853 0.3344721329046088 0.03490085744908896 0.07509378349410503 0.0477625937834941 0.09760182207931405 0.04133172561629153 0.00167470525187567 0.3671623794212219 0.3373666666666667 0.04136666666666667 0.09256666666666667 0.04136666666666667 0.08136666666666667 0.04403333333333333 0.001366666666666667 0.3605666666666667 0.3748942246668077 0.03831711444891051 0.09035857837952189 0.04720224243706368 0.09162788237782948 0.03852866511529511 0.000237994499682674 0.3188332980748889 0.3786856963613551 0.03702948557089084 0.09449498117942283 0.04217377666248431 0.0956242158092848 0.0365276035131744 0.00127038895859473 0.3141938519447929 0.3854769590382903 0.03184828584149599 0.1019729519145147 0.04720892698130009 0.09763190115761353 0.03941729741763134 0.001015694568121104 0.295427983081033 0.3911239684248296 0.032494617868676 0.1272201291711518 0.03769734481521349 0.1083826695371367 0.03715913168281306 0.001457660566917833 0.2644644779332616 0.3386659436008677 0.04847553627380092 0.1873041696794408 0.03473728609303447 0.09981320800192818 0.04558327307785009 0.001958303205591709 0.2434622800674862 0.06772487973132431 0.02597122628664791 0.04984342379958246 0.01044975946264863 0.0273327584641917 0.02787737133520922 0.6656190432967232 0.1251815376236725</probabilities>
		</cpt>
		<cpt id="YearsProgram">
			<state id="S1_to_2_years" />
			<state id="S10_to_11_years" />
			<state id="S11_to_12_years" />
			<state id="S12_to_13_years" />
			<state id="S13_to_14_years" />
			<state id="S14_to_15_years" />
			<state id="S15_to_16_years" />
			<state id="S16_to_17_years" />
			<state id="S17_to_18_years" />
			<state id="S18_to_19_years" />
			<state id="S19_to_20_years" />
			<state id="S2_to_3_years" />
			<state id="S20_or_more_years" />
			<state id="S3_to_4_years" />
			<state id="S4_to_5_years" />
			<state id="S5_to_6_years" />
			<state id="S6_to_7_years" />
			<state id="S7_to_8_years" />
			<state id="S8_to_9_years" />
			<state id="S9_to_10_years" />
			<state id="SLess_than_a_year" />
			<state id="NA" />
			<parents>JobSatisfaction</parents>
			<probabilities>0.05137917637917637 0.03214840714840714 0.03214840714840714 0.01932789432789432 0.01932789432789432 0.04924242424242423 0.030011655011655 0.01505439005439005 0.01719114219114218 0.01505439005439005 0.030011655011655 0.05778943278943278 0.1838578088578088 0.06419968919968919 0.07274669774669773 0.07915695415695413 0.0471056721056721 0.05565268065268064 0.02360139860139859 0.05992618492618491 0.03642191142191142 0.008644133644133642 0.0642926592124453 0.02418570734078755 0.0429022848808945 0.0429022848808945 0.02418570734078755 0.0322070977151191 0.0322070977151191 0.02953330092367525 0.002795333009236752 0.01883811375789985 0.03755469129800679 0.07231404958677684 0.1605493437044239 0.06964025279533299 0.07766164316966455 0.06161886242100145 0.04557608167233835 0.03755469129800679 0.0322070977151191 0.0589450656295576 0.0268595041322314 0.005469129800680601 0.04392064628285101 0.04954494324573065 0.02367317721648431 0.02704775539421209 0.02142345843133245 0.04729522446057879 0.03829634931997137 0.03267205235709173 0.01804888025360466 0.01354944268330095 0.01804888025360466 0.04842008385315472 0.1811534921771142 0.05629409960118622 0.06529297474179364 0.06529297474179364 0.06529297474179364 0.0551692402086103 0.04617036506800287 0.06079353717148994 0.01917373964618059 0.003425708150117599 0.03242387197154924 0.04770504556568126 0.02753389642142699 0.03120137808401867 0.02570015559013114 0.04098132918426317 0.03486885974661036 0.02203267392753945 0.02142142698377417 0.01164147588352967 0.02142142698377417 0.05259502111580351 0.1858468548566348 0.05870749055345632 0.06726494776617026 0.07765614581018004 0.05992998444098688 0.0464825516781507 0.0367026005779062 0.07948988664147588 0.01469771060235608 0.003695265614581018 0.04128909675533469 0.05093539900613855 0.02842736042092955 0.02789145474032934 0.02306830361492741 0.03593003994933255 0.03860956835233362 0.02146058657312677 0.01770924680892526 0.01235019000292312 0.01770924680892526 0.04771996492253727 0.1634755919321836 0.0637971353405437 0.08469745688395205 0.06862028646594562 0.06326122965994349 0.05468673877034005 0.03646594562993277 0.08469745688395205 0.01663743544772484 0.0005602650297184059 0.03494545454545454 0.04187878787878788 0.02774545454545455 0.03067878787878788 0.02054545454545455 0.04427878787878788 0.03574545454545455 0.02187878787878788 0.02001212121212121 0.01574545454545455 0.02294545454545455 0.04774545454545454 0.1848121212121212 0.05814545454545454 0.06987878787878789 0.07227878787878789 0.05894545454545454 0.06507878787878787 0.03627878787878788 0.06694545454545454 0.01974545454545455 0.003745454545454545 0.03660788122391676 0.05332038386830009 0.03237686789622478 0.02624189857107141 0.0279343039021482 0.04866626920783891 0.03512702655922457 0.02899205723407119 0.01608746658461065 0.01439506125353386 0.02391484124084082 0.04126199588437794 0.1703079023789834 0.05628209319768449 0.06516722118583765 0.0774371598361444 0.06410946785391465 0.05310883320191549 0.04528145854568533 0.06897513318076043 0.01122180125776487 0.003182875935150104 0.02647998174974335 0.0516995551499943 0.03413368312991901 0.03049503821147485 0.0257271586631687 0.04931561537584122 0.03902703319265427 0.02121022014372077 0.02196304323029542 0.01594045853769819 0.02409604197559028 0.04053267936580358 0.1884624158777232 0.04981749743355766 0.0696418387133569 0.06311737196304323 0.0572202577848751 0.05521272955400935 0.04329303068324398 0.07905212729554008 0.01104710847496293 0.002515113493783507 0.02293471221565612 0.04697745486926254 0.0329525216546588 0.0360691734801263 0.02783230794139076 0.04619829191289566 0.04241378612482799 0.02549481907229014 0.0204859143527888 0.01447522868938719 0.0233799481907229 0.03395430259855906 0.2309712215656116 0.05065065166356352 0.06000060713996601 0.06311725896543351 0.05332206751396423 0.04720007285679594 0.04241378612482799 0.06846009066623493 0.0082419250384522 0.002453857362583988 0.02117787128551391 0.0489855497928695 0.03283915582085657 0.02512476758978373 0.0245865544573833 0.05311185047460613 0.04396222722379881 0.0262011938545846 0.02135727566298072 0.01794859249111133 0.02709821574191865 0.03624783899272597 0.2447157256091594 0.04611507975340053 0.06100564308314578 0.05921159930847768 0.04970316730273674 0.04450044035619924 0.03893890465472812 0.06459373063248199 0.01023420426003849 0.002340411651498842 0.03037971909989264 0.04725125440960581 0.02989767523390083 0.02845154363592542 0.02242599531102785 0.04146672801770415 0.03761037708976971 0.02507723657398278 0.02435417077499507 0.01326716185718355 0.02411314884199917 0.04773329827559762 0.2181358049037008 0.05930235105940095 0.06556892131729443 0.07159446964219199 0.05616906593045422 0.04315388154867547 0.03230789456385985 0.06195359232235589 0.0173645347181139 0.002421174872367931 0.1444173054865621 0.02042710851824041 0.009716388721562547 0.008264087732182497 0.006902555554638701 0.01162253377012386 0.007901012484837485 0.005087179317913639 0.005087179317913639 0.003725647140369843 0.005177948129749892 0.1431465421208546 0.05056235404787643 0.1398788648947495 0.1089267000585872 0.07851914809344238 0.05328541840296402 0.03749164514345599 0.02641785009943311 0.0332255109871521 0.08777756690074019 0.01243945307665014</probabilities>
		</cpt>
		<cpt id="JobSeekingStatus">
			<state id="SI_am_actively_looking_for_a_job" />
			<state id="SI_am_not_interested_in_new_job_opportunities" />
			<state id="SI_m_not_actively_looking__but_I_am_open_to_new_opportunities" />
			<state id="NA" />
			<parents>JobSatisfaction</parents>
			<probabilities>0.3445512820512821 0.05181623931623932 0.2719017094017094 0.3317307692307693 0.2974598930481283 0.02740641711229946 0.3188502673796791 0.356283422459893 0.2589988751406074 0.02052868391451069 0.3624859392575928 0.3579865016872891 0.2171454767726161 0.03560513447432763 0.3999083129584352 0.347341075794621 0.1705519828510182 0.03389603429796356 0.4610128617363344 0.3345391211146838 0.135 0.0454 0.4715333333333334 0.3480666666666667 0.09123122487835836 0.07134546223820605 0.5039665749947112 0.3334567378887243 0.04444792973651192 0.1194792973651192 0.5035445420326223 0.3325282308657465 0.02473842386464826 0.2082869545859306 0.4368043187889581 0.3301703027604631 0.01834409759598134 0.3195640473627557 0.3414513814137065 0.3206404736275565 0.02295733911785973 0.3902747650036154 0.2360207278862377 0.3507471679922873 0.1349051465916311 0.1250113461014795 0.3338703821366978 0.4062131251701915</probabilities>
		</cpt>
		<cpt id="WorkStart">
			<state id="S10_00_AM" />
			<state id="S10_00_PM" />
			<state id="S11_00_AM" />
			<state id="S11_00_PM" />
			<state id="S1_00_AM" />
			<state id="S1_00_PM" />
			<state id="S2_00_AM" />
			<state id="S2_00_PM" />
			<state id="S3_00_AM" />
			<state id="S3_00_PM" />
			<state id="S4_00_AM" />
			<state id="S4_00_PM" />
			<state id="S5_00_AM" />
			<state id="S5_00_PM" />
			<state id="S6_00_AM" />
			<state id="S6_00_PM" />
			<state id="S7_00_AM" />
			<state id="S7_00_PM" />
			<state id="S8_00_AM" />
			<state id="S8_00_PM" />
			<state id="S9_00_AM" />
			<state id="S9_00_PM" />
			<state id="Midnight" />
			<state id="NA" />
			<state id="Noon" />
			<parents>JobSatisfaction</parents>
			<probabilities>0.1603418803418803 0.01076923076923077 0.03427350427350427 0.002222222222222222 0.004358974358974359 0.004358974358974359 0.002222222222222222 0.0129059829059829 8.547008547008546e-05 0.004358974358974359 0.008632478632478631 0.004358974358974359 0.0129059829059829 8.547008547008546e-05 0.02572649572649572 0.0129059829059829 0.06418803418803418 8.547008547008546e-05 0.1154700854700855 0.006495726495726495 0.1539316239316239 0.006495726495726495 0.002222222222222222 0.3163247863247863 0.03427350427350427 0.1498395721925133 0.005454545454545453 0.0188235294117647 0.000106951871657754 0.002780748663101604 0.008128342245989304 0.000106951871657754 0.01080213903743315 0.000106951871657754 0.01080213903743315 0.000106951871657754 0.008128342245989304 0.005454545454545453 0.005454545454545453 0.03754010695187165 0.005454545454545453 0.07229946524064169 0.002780748663101604 0.120427807486631 0.008128342245989304 0.1845989304812834 0.005454545454545453 0.000106951871657754 0.3022459893048128 0.0348663101604278 0.1766479190101237 0.003419572553430822 0.04728908886389202 0.001169853768278965 0.001169853768278965 0.01016872890888639 0.001169853768278965 0.009043869516310461 0.001169853768278965 0.006794150731158606 0.003419572553430822 0.003419572553430822 0.009043869516310461 0.002294713160854894 0.0304161979752531 0.009043869516310461 0.07203599550056244 0.002294713160854894 0.140652418447694 0.01016872890888639 0.1743982002249719 0.005669291338582677 4.499437570303712e-05 0.2553880764904387 0.02366704161979753 0.1870660146699267 0.003080684596577017 0.04831295843520782 0.002469437652811736 0.001858190709046455 0.006748166259168704 0.001246943765281174 0.008581907090464547 0.001858190709046455 0.003691931540342298 0.004303178484107579 0.003080684596577017 0.006748166259168704 0.003080684596577017 0.02264058679706601 0.00491442542787286 0.08070904645476772 0.003080684596577017 0.1387775061124694 0.006748166259168704 0.174841075794621 0.006136919315403422 0.002469437652811736 0.261638141809291 0.01591687041564792 0.1966988210075027 0.002165058949624865 0.05146838156484458 0.00270096463022508 0.002165058949624865 0.008060021436227222 0.0005573419078242228 0.009667738478027864 0.001093247588424437 0.003236870310825294 0.001629153269024651 0.005916398713826365 0.008595927116827436 0.00270096463022508 0.02306538049303322 0.008595927116827436 0.06272240085744908 0.00270096463022508 0.1227438370846731 0.007524115755627008 0.1682958199356913 0.004844587352625936 0.002165058949624865 0.2749410503751339 0.02574490889603429 0.1794773333333333 0.003210666666666667 0.047744 0.001877333333333334 0.0002773333333333334 0.007477333333333333 0.000544 0.008277333333333333 0.001610666666666667 0.001877333333333334 0.003744 0.004544 0.005344 0.002410666666666666 0.02267733333333334 0.004277333333333334 0.065344 0.001877333333333334 0.1336106666666667 0.005344 0.1760106666666667 0.003477333333333333 0.001610666666666667 0.2920106666666667 0.025344 0.1978083350962556 0.005508779352654962 0.0454918552993442 0.00106621535857838 0.0008546646921937806 0.00825893801565475 0.0006431140258091815 0.009739792680346944 0.0006431140258091815 0.00339327268880897 0.002547070023270574 0.004239475354347367 0.004662576687116565 0.001912418024116776 0.02835625132219167 0.003816374021578168 0.06812777660249632 0.002123968690501375 0.1396319018404908 0.003181722022424371 0.181730484451026 0.001912418024116776 0.00106621535857838 0.2585233763486355 0.02475988999365349 0.1961154328732748 0.003894604767879549 0.04617816813048935 0.001259723964868256 0.0005069008782936011 0.008913425345043916 0.0005069008782936011 0.007156838143036387 0.0006323713927227102 0.003141781681304894 0.001259723964868256 0.004145545796737767 0.004898368883312423 0.002514429109159348 0.0223387703889586 0.005400250941028859 0.06989209535759097 0.00213801756587202 0.1516988707653701 0.004020075282308658 0.2027653701380176 0.002012547051442911 0.0005069008782936011 0.2376461731493099 0.02045671267252196 0.186447016918967 0.003566340160284951 0.04864648263579698 0.001006233303650935 0.0006723063223508459 0.007016918967052537 0.0005609973285841496 0.008352626892252895 0.0006723063223508459 0.003232413178984862 0.001340160284951024 0.003788958147818343 0.00390026714158504 0.001785396260017809 0.02682991985752449 0.003121104185218165 0.07947907390917186 0.001896705253784506 0.1625155832591273 0.003566340160284951 0.1980231522707035 0.002341941228851291 0.001006233303650935 0.230080142475512 0.02015138023152271 0.1973519913885899 0.002160028704700395 0.04719052744886976 0.001621815572299964 0.0007247936849659134 0.008080373161105133 0.0001865805525654826 0.007183351273771081 0.001442411194833154 0.005389307499102979 0.002160028704700395 0.003057050592034446 0.00592752063150341 0.001083602439899534 0.02781485468245426 0.002698241837100826 0.07786867599569432 0.001801219949766775 0.1620093290276283 0.005389307499102979 0.2052457839971296 0.001621815572299964 0.001801219949766775 0.208654467168999 0.0215357014711159 0.1667968185104844 0.003383947939262473 0.04001928175463967 0.0004916847433116413 0.000732706676307544 0.007481320800192818 0.0009737286093034467 0.009650518197155941 0.0004916847433116413 0.004589057604241986 0.003624969872258375 0.004830079537237889 0.008204386599180526 0.003624969872258375 0.03086044830079537 0.002901904073270668 0.06701373825018077 0.00314292600626657 0.143176669076886 0.005553145336225597 0.1764376958303205 0.004589057604241986 0.002419860207278862 0.2856206314774645 0.02338876837792239 0.135430698012163 0.005994372333666152 0.0312281020241445 0.002908232731233548 0.001819006989198511 0.007446673323046202 0.001002087682672234 0.009443587183443769 0.001274394118180993 0.005086684215303621 0.002817463919397295 0.007628210946718708 0.006175909957338658 0.004088227285104838 0.01470817826994644 0.007446673323046202 0.04030498320776981 0.003634383225923573 0.09703549060542796 0.00799128619406372 0.1556721430516474 0.003634383225923573 0.003362076790414813 0.4212616864845239 0.02260506489970046</probabilities>
		</cpt>
		<cpt id="Overpaid">
			<state id="SGreatly_overpaid" />
			<state id="SGreatly_underpaid" />
			<state id="NA" />
			<state id="SNeither_underpaid_nor_overpaid" />
			<state id="SSomewhat_overpaid" />
			<state id="SSomewhat_underpaid" />
			<parents>JobSatisfaction</parents>
			<probabilities>0.002492877492877493 0.1221509971509971 0.7033475783475783 0.05377492877492877 0.01745014245014245 0.1007834757834758 0.003119429590017825 0.1287878787878788 0.6662210338680926 0.05926916221033868 0.005793226381461675 0.1368092691622103 0.004686914135733035 0.1036745406824147 0.6548556430446194 0.07555305586801651 0.01818522684664417 0.1430446194225722 0.003158109209453953 0.09362265688671555 0.6523023634881825 0.06550529747351262 0.0208842705786471 0.1645273023634882 0.001161128974633797 0.06922115041086101 0.669435512683101 0.07565201857806357 0.01563058235083958 0.1688996070025009 0.002977777777777778 0.05791111111111111 0.6923111111111111 0.07684444444444445 0.01577777777777778 0.1541777777777778 0.003631619772935618 0.04509555038431704 0.6698046682180382 0.09248289965446725 0.01653621042239617 0.1724490515478457 0.001902969468841489 0.03251777498954413 0.6602467586783772 0.1155792555416144 0.02047260560434964 0.1692806357172731 0.001465568417928168 0.0217238052834669 0.6641993173048382 0.138598248738498 0.02428391214010091 0.1497291481151677 0.002362157636646334 0.01904676474105968 0.6417593589283579 0.1722581030977156 0.02891400550173424 0.1356596100944863 0.004378565116092232 0.02004499076082591 0.7187675745159477 0.1465815055836748 0.02462440748774806 0.08560295653571144 0.0001058969471422953 0.0002874345708148014 0.9965659132855286 0.001467429124686092 0.0006505098181598138 0.0009228162536685729</probabilities>
		</cpt>
		<cpt id="LastNewJob">
			<state id="SBetween_1_and_2_years_ago" />
			<state id="SBetween_2_and_4_years_ago" />
			<state id="SLess_than_a_year_ago" />
			<state id="SMore_than_4_years_ago" />
			<state id="NA" />
			<state id="SNot_applicable__never" />
			<parents>JobSatisfaction</parents>
			<probabilities>0.1349715099715099 0.1328347578347578 0.2076210826210826 0.1221509971509971 0.3465099715099715 0.05591168091168091 0.1287878787878788 0.1261140819964349 0.2009803921568627 0.1341354723707665 0.3774509803921567 0.03253119429590017 0.1362954630671166 0.1284214473190851 0.1857892763404574 0.1407949006374203 0.365766779152606 0.04293213348331459 0.1455786471067644 0.1382436837815811 0.1681947840260798 0.1565810920945395 0.357681336593317 0.03372045639771801 0.1415684172918899 0.1506788138620936 0.1897999285459092 0.1421043229724901 0.34199714183637 0.03385137549124687 0.1480444444444445 0.1325777777777778 0.1952444444444444 0.1315111111111111 0.3605777777777778 0.03204444444444444 0.1396586982582328 0.1493900289119244 0.1897962061913828 0.1476976235808476 0.3423242366546788 0.0311332064029335 0.1424299456294437 0.1379130071099958 0.195629443747386 0.1502091175240485 0.3418025930572982 0.03201589293182768 0.129470911249629 0.1291369842683289 0.2263097358266548 0.1482821311962007 0.3385092015434847 0.02829103591570199 0.1399653151536897 0.1277658174859466 0.2429434278196388 0.1353008013395527 0.3269046764741059 0.02711996172706614 0.1198280710211296 0.1094641279023058 0.2451594761789989 0.1203101148871214 0.3610910259500281 0.04414718406041616 0.07399170978185228 0.05166258207013403 0.1634897582523978 0.04403800187588878 0.4335269734652507 0.2332909745544764</probabilities>
		</cpt>
		<cpt id="ChangeWorld">
			<state id="Agree" />
			<state id="Disagree" />
			<state id="NA" />
			<state id="SSomewhat_agree" />
			<state id="SStrongly_agree" />
			<state id="SStrongly_disagree" />
			<parents>JobSatisfaction</parents>
			<probabilities>0.1584757834757835 0.07514245014245015 0.3977920227920228 0.120014245014245 0.2012108262108263 0.04736467236467237 0.1876114081996435 0.06996434937611408 0.3881461675579322 0.1581996434937611 0.1635472370766488 0.03253119429590017 0.1576677915260593 0.08567679040119987 0.3792650918635171 0.1655418072740907 0.1869141357330334 0.02493438320209974 0.1798084759576202 0.08995517522412387 0.381519967400163 0.1736960065199674 0.1523023634881825 0.02271801140994295 0.1844408717399071 0.09440871739907108 0.3907645587709896 0.1774740978921043 0.134065737763487 0.01884601643444087 0.1723111111111111 0.09124444444444445 0.3925777777777778 0.1752444444444445 0.1469777777777778 0.02164444444444445 0.1893731048586136 0.09586771031662082 0.3816726606022142 0.1946618715182286 0.1212537902827727 0.01717086242154996 0.1827059807611878 0.1005227938101213 0.3766833960685905 0.2002718527812631 0.1204726056043496 0.01934337097448766 0.1981485604036807 0.1073204214900564 0.3622180172157911 0.1944753636093797 0.1166703769664589 0.02116726031463343 0.1921719889965315 0.09690826456165529 0.3620679344576008 0.2072419567037436 0.1231013036718096 0.01850855160865925 0.1636940628263839 0.07668514501486302 0.3982084036313971 0.1569454487024986 0.1791194665381216 0.02534747328673576 0.1582251671658951 0.05157181325829777 0.4750990892862546 0.1322652869807268 0.1683912740915555 0.01444736921727028</probabilities>
		</cpt>
		<cpt id="ChallengeMyself">
			<state id="Agree" />
			<state id="Disagree" />
			<state id="NA" />
			<state id="SSomewhat_agree" />
			<state id="SStrongly_agree" />
			<state id="SStrongly_disagree" />
			<parents>JobSatisfaction</parents>
			<probabilities>0.2204415954415955 0.01531339031339032 0.3913817663817664 0.06445868945868946 0.2952279202279202 0.01317663817663818 0.2624777183600713 0.02450980392156862 0.3854723707664884 0.08868092691622102 0.2303921568627451 0.008467023172905526 0.2611548556430446 0.009186351706036745 0.380389951256093 0.08230221222347207 0.2634045744281965 0.003562054743157106 0.264160554197229 0.01049307253463733 0.3821312143439283 0.08078647106764465 0.2580480847595762 0.004380603096984515 0.3012683101107538 0.01831011075384066 0.3886209360485888 0.08904966059306894 0.2021257591997142 0.0006252232940335835 0.2829777777777778 0.01204444444444444 0.3928444444444445 0.09071111111111112 0.2192444444444444 0.002177777777777778 0.3133417953599887 0.01018969043085819 0.381249559269445 0.08634793032931386 0.2071433608349199 0.001727663775474226 0.3131953157674613 0.01106231702216646 0.3759305729820158 0.08295692179004599 0.2159556670849017 0.0008992053534086157 0.3212563075096468 0.009813742950430398 0.3613275452656575 0.07626521222914813 0.2302055506084892 0.00113164143662808 0.3073495993302237 0.007385480205717019 0.3617091257026671 0.06425666786269585 0.2580133955268508 0.001285731371845473 0.2273238531373021 0.005824696714067646 0.3962802281674299 0.05137784205029323 0.3150558367478107 0.004137543183096328 0.2346525067320202 0.0107258479319839 0.4746452452270733 0.06954403800187588 0.2060603310036005 0.004372031103446188</probabilities>
		</cpt>
		<cpt id="UnderstandComputers">
			<state id="Agree" />
			<state id="Disagree" />
			<state id="NA" />
			<state id="SSomewhat_agree" />
			<state id="SStrongly_agree" />
			<state id="SStrongly_disagree" />
			<parents>JobSatisfaction</parents>
			<probabilities>0.1029202279202279 0.167022792022792 0.3871082621082621 0.09650997150997151 0.1456552706552707 0.1007834757834758 0.1368092691622103 0.1234402852049911 0.4015151515151515 0.1555258467023173 0.1100713012477718 0.07263814616755793 0.145294338207724 0.1329208848893889 0.3826396700412449 0.1542932133483315 0.1070491188601425 0.07780277465316837 0.1504686226568867 0.1541361043194784 0.3821312143439283 0.1565810920945395 0.08567644661776691 0.07100651996740016 0.1517506252232941 0.1560378706680958 0.3827259735619864 0.1597892104322973 0.09012147195426938 0.05957484816005717 0.1381777777777778 0.1549777777777778 0.3893777777777778 0.1664444444444445 0.08857777777777778 0.06244444444444445 0.1565827515690008 0.1544672449051548 0.37596079260983 0.1682180382201537 0.0787321063394683 0.06603906635639235 0.147323295692179 0.1687787536595567 0.3753032204098703 0.1730447511501464 0.07003345880384776 0.06551652028439982 0.1426053725140992 0.1769998515880084 0.3612162362718908 0.1669820421490057 0.07526343128524786 0.07693306619174831 0.1370948451142208 0.1824841526133237 0.3606326994378662 0.1562911135031695 0.08040306183470876 0.08309412749671091 0.111392303366273 0.1610428215634289 0.3974853378324095 0.1333252992689001 0.09066441712862537 0.1060898208403631 0.1289068409427854 0.1198299597591601 0.4722852561193308 0.1411606305406796 0.0936885419503192 0.04412877068772503</probabilities>
		</cpt>
	</nodes>
	<extensions>
		<genie version="1.0" app="GeNIe 2.2.2601.2 EVALUATION" name="full_cleaned_survey_results_public" faultnameformat="nodestate">
			<node id="MajorUndergrad">
				<name>MajorUndergrad</name>
				<interior color="e5f6f7" />
				<outline color="000080" />
				<font color="000000" name="Arial" size="8" />
				<position>766 883 838 931</position>
				<barchart active="true" width="128" height="324" />
			</node>
			<node id="CompetePeers">
				<name>CompetePeers</name>
				<interior color="e5f6f7" />
				<outline color="000080" />
				<font color="000000" name="Arial" size="8" />
				<position>619 911 691 959</position>
				<barchart active="true" width="128" height="126" />
			</node>
			<node id="CompanySize">
				<name>CompanySize</name>
				<interior color="e5f6f7" />
				<outline color="000080" />
				<font color="000000" name="Arial" size="8" />
				<position>563 1086 635 1134</position>
				<barchart active="true" width="128" height="216" />
			</node>
			<node id="CompanyType">
				<name>CompanyType</name>
				<interior color="e5f6f7" />
				<outline color="000080" />
				<font color="000000" name="Arial" size="8" />
				<position>430 1085 502 1133</position>
				<barchart active="true" width="128" height="234" />
			</node>
			<node id="JobSatisfaction">
				<name>JobSatisfaction</name>
				<interior color="ffff80" />
				<outline color="000080" />
				<font color="000000" name="Arial" size="8" />
				<position>450 629 522 677</position>
				<barchart active="true" width="128" height="234" />
			</node>
			<node id="ProgramHobby">
				<name>ProgramHobby</name>
				<interior color="e5f6f7" />
				<outline color="000080" />
				<font color="000000" name="Arial" size="8" />
				<position>757 618 829 666</position>
				<barchart active="true" width="129" height="90" />
			</node>
			<node id="FormalEducation">
				<name>FormalEducation</name>
				<interior color="e5f6f7" />
				<outline color="000080" />
				<font color="000000" name="Arial" size="8" />
				<position>294 1072 366 1120</position>
				<barchart active="true" width="128" height="180" />
			</node>
			<node id="HomeRemote">
				<name>HomeRemote</name>
				<interior color="e5f6f7" />
				<outline color="000080" />
				<font color="000000" name="Arial" size="8" />
				<position>261 651 333 699</position>
				<barchart active="true" width="128" height="162" />
			</node>
			<node id="YearsProgram">
				<name>YearsProgram</name>
				<interior color="e5f6f7" />
				<outline color="000080" />
				<font color="000000" name="Arial" size="8" />
				<position>111 905 183 953</position>
				<barchart active="true" width="128" height="414" />
			</node>
			<node id="JobSeekingStatus">
				<name>JobSeekingStatus</name>
				<interior color="e5f6f7" />
				<outline color="000080" />
				<font color="000000" name="Arial" size="8" />
				<position>252 910 324 958</position>
				<barchart active="true" width="128" height="90" />
			</node>
			<node id="WorkStart">
				<name>WorkStart</name>
				<interior color="e5f6f7" />
				<outline color="000080" />
				<font color="000000" name="Arial" size="8" />
				<position>111 437 183 485</position>
				<barchart active="true" width="128" height="468" />
			</node>
			<node id="Overpaid">
				<name>Overpaid</name>
				<interior color="e5f6f7" />
				<outline color="000080" />
				<font color="000000" name="Arial" size="8" />
				<position>430 147 502 195</position>
				<barchart active="true" width="129" height="126" />
			</node>
			<node id="LastNewJob">
				<name>LastNewJob</name>
				<interior color="e5f6f7" />
				<outline color="000080" />
				<font color="000000" name="Arial" size="8" />
				<position>556 285 628 333</position>
				<barchart active="true" width="135" height="126" />
			</node>
			<node id="ChangeWorld">
				<name>ChangeWorld</name>
				<interior color="e5f6f7" />
				<outline color="000080" />
				<font color="000000" name="Arial" size="8" />
				<position>761 497 833 545</position>
				<barchart active="true" width="128" height="126" />
			</node>
			<node id="ChallengeMyself">
				<name>ChallengeMyself</name>
				<interior color="e5f6f7" />
				<outline color="000080" />
				<font color="000000" name="Arial" size="8" />
				<position>745 212 817 260</position>
				<barchart active="true" width="128" height="126" />
			</node>
			<node id="UnderstandComputers">
				<name>UnderstandComputers</name>
				<interior color="e5f6f7" />
				<outline color="000080" />
				<font color="000000" name="Arial" size="8" />
				<position>800 344 872 392</position>
				<barchart active="true" width="128" height="126" />
			</node>
		</genie>
	</extensions>
</smile>
