<?xml version="1.0" encoding="ISO-8859-1"?>
<!-- This network was created in trial version of GeNIe, which can be used for evaluation purposes only -->
<smile version="1.0" id="Unnamed" numsamples="10000" discsamples="10000">
	<nodes>
		<cpt id="JobSatisfaction">
			<state id="S0" />
			<state id="S1" />
			<state id="S10" />
			<state id="S2" />
			<state id="S3" />
			<state id="S4" />
			<state id="S5" />
			<state id="S6" />
			<state id="S7" />
			<state id="S8" />
			<state id="S9" />
			<state id="NA" />
			<probabilities>0.009088462112220213 0.007259419246460283 0.01728023920248542 0.03181529261442868 0.03629061026469234 0.07294929919119984 0.09195967025340676 0.1550616491221243 0.1747919625889389 0.1084405139480733 0.08071300241926592 0.2143498790367041</probabilities>
		</cpt>
		<cpt id="MajorUndergrad">
			<state id="SA_business_discipline" />
			<state id="SA_health_science" />
			<state id="SA_humanities_discipline" />
			<state id="SA_natural_science" />
			<state id="SA_non_computer_focused_engineering_discipline" />
			<state id="SA_social_science" />
			<state id="SComputer_engineering_or_electrical_electronics_engineering" />
			<state id="SComputer_programming_or_Web_development" />
			<state id="SComputer_science_or_software_engineering" />
			<state id="SFine_arts_or_performing_arts" />
			<state id="SI_never_declared_a_major" />
			<state id="SInformation_technology__networking__or_system_administration" />
			<state id="SManagement_information_systems" />
			<state id="SMathematics_or_statistics" />
			<state id="NA" />
			<state id="Psychology" />
			<state id="SSomething_else" />
			<parents>JobSatisfaction</parents>
			<probabilities>0.02362996480643539 0.004399195575666163 0.0300402212166918 0.03645047762694821 0.02362996480643539 0.006535947712418299 0.09414278531925591 0.07704876822523882 0.455253896430367 0.01508295625942685 0.01508295625942685 0.0300402212166918 0.01721970839617898 0.0300402212166918 0.1133735545500251 0.002262443438914027 0.02576671694318753 0.01620006291286568 0.0001572821642025794 0.02956904687008493 0.04026423403586032 0.03224284366152878 0.008178672538534128 0.09106637307329347 0.09641396665618118 0.4145957848379993 0.01085246932997798 0.01352626612142183 0.04828562441019187 0.02154765649575338 0.03491664045297262 0.09641396665618118 0.01085246932997798 0.03491664045297262 0.01356448091047443 0.002315886984715146 0.01918877787335407 0.03943624693972077 0.03943624693972077 0.0124396215178985 0.08893006021306162 0.07543174750215048 0.4736319724740291 0.01131476212532257 0.01356448091047443 0.04393568451002449 0.01131476212532257 0.03943624693972077 0.08555548203533384 0.00569046516244293 0.02481307483623371 0.01653962318423702 0.001258449590104991 0.02204084567812455 0.04160074787861355 0.0367107723284913 0.01898461095929814 0.09661297281748886 0.08561052782971379 0.4462462246512297 0.01776211707176758 0.01226089457788005 0.04771321731626636 0.01348338846541061 0.03915576010355243 0.07888681144829571 0.003092190421400834 0.02204084567812455 0.02093184540697308 0.001103335224765147 0.01610869428157115 0.02789861925477587 0.03486539310257866 0.01450097723977051 0.09810226341340395 0.09488682932980266 0.473236239833554 0.01021373179496879 0.01182144883676944 0.05415799760418637 0.01021373179496879 0.02629090221297522 0.07880965891179623 0.004854674988966648 0.02200365676817351 0.01521568627450981 0.001615686274509804 0.01308235294117647 0.02961568627450981 0.03948235294117648 0.01361568627450981 0.09921568627450982 0.09254901960784315 0.4690823529411765 0.009082352941176472 0.0112156862745098 0.05228235294117647 0.01254901960784314 0.03494901960784314 0.08294901960784314 0.002415686274509804 0.02108235294117647 0.01862890279869088 0.002974153486230541 0.01862890279869088 0.03555295610945881 0.03491830411030501 0.01566719346930649 0.09478714269714658 0.08590201470899342 0.4719819808608869 0.01524409213653729 0.009955325476922313 0.05184235742107295 0.0143978894709989 0.03068729078261303 0.07595913338891726 0.003820356151768938 0.01905200413146008 0.01707137058085468 0.002265849878219795 0.02221566167244815 0.04141265038010186 0.04254188500996384 0.0133072551479814 0.0941102664403277 0.07779909956454352 0.466757694294782 0.01431101926341428 0.01280537309026497 0.04342017861096761 0.01544025389327626 0.03463724260092996 0.07742268802125618 0.00464978965237287 0.01983172189829508 0.01981954847834058 0.002900581425802734 0.0191516945157404 0.0435283641506469 0.03896469540621235 0.0130296998585721 0.09918286103399507 0.07625320831805563 0.4621614897071918 0.01425409879000576 0.01136006495207166 0.03918731339374575 0.01648027866533969 0.03640458854957834 0.08148473102509035 0.004792834319836572 0.02104394740977424 0.02153907849469175 0.002342810105743051 0.02171848287215856 0.04773211760484604 0.03445619367230209 0.0136452858861521 0.08540703687287619 0.06782540788112879 0.4707676396715845 0.01687456468055468 0.01328647713121847 0.04037653812870682 0.01310707275375167 0.04091475126110725 0.085586441250343 0.005033875767745204 0.01938622596509003 0.01881388853444487 0.003147462889711199 0.01736775693646946 0.03785462124112118 0.04098790637006791 0.01134220861157189 0.07762324018544511 0.08003345951540414 0.4454227099371925 0.01543958147250223 0.01399344987452682 0.04122892830306382 0.01302936214254321 0.03592644577715396 0.1210071881247076 0.00411155062169481 0.02267023946237931 0.01343912349363817 0.003999167062667856 0.01035298389120557 0.02315138636011725 0.02197139180624596 0.007902225971626738 0.05510200812647832 0.05982198634196348 0.2426303733801772 0.006449924982246689 0.00917298933733428 0.03222826754374256 0.006722231417755447 0.01970217151033964 0.4640155054487983 0.00354532300348659 0.01979294032217589</probabilities>
		</cpt>
		<cpt id="UnderstandComputers">
			<state id="Agree" />
			<state id="Disagree" />
			<state id="NA" />
			<state id="SSomewhat_agree" />
			<state id="SStrongly_agree" />
			<state id="SStrongly_disagree" />
			<parents>JobSatisfaction</parents>
			<probabilities>0.1029202279202279 0.167022792022792 0.3871082621082621 0.09650997150997151 0.1456552706552707 0.1007834757834758 0.1368092691622103 0.1234402852049911 0.4015151515151515 0.1555258467023173 0.1100713012477718 0.07263814616755793 0.145294338207724 0.1329208848893889 0.3826396700412449 0.1542932133483315 0.1070491188601425 0.07780277465316837 0.1504686226568867 0.1541361043194784 0.3821312143439283 0.1565810920945395 0.08567644661776691 0.07100651996740016 0.1517506252232941 0.1560378706680958 0.3827259735619864 0.1597892104322973 0.09012147195426938 0.05957484816005717 0.1381777777777778 0.1549777777777778 0.3893777777777778 0.1664444444444445 0.08857777777777778 0.06244444444444445 0.1565827515690008 0.1544672449051548 0.37596079260983 0.1682180382201537 0.0787321063394683 0.06603906635639235 0.147323295692179 0.1687787536595567 0.3753032204098703 0.1730447511501464 0.07003345880384776 0.06551652028439982 0.1426053725140992 0.1769998515880084 0.3612162362718908 0.1669820421490057 0.07526343128524786 0.07693306619174831 0.1370948451142208 0.1824841526133237 0.3606326994378662 0.1562911135031695 0.08040306183470876 0.08309412749671091 0.111392303366273 0.1610428215634289 0.3974853378324095 0.1333252992689001 0.09066441712862537 0.1060898208403631 0.1289068409427854 0.1198299597591601 0.4722852561193308 0.1411606305406796 0.0936885419503192 0.04412877068772503</probabilities>
		</cpt>
		<cpt id="ChallengeMyself">
			<state id="Agree" />
			<state id="Disagree" />
			<state id="NA" />
			<state id="SSomewhat_agree" />
			<state id="SStrongly_agree" />
			<state id="SStrongly_disagree" />
			<parents>JobSatisfaction UnderstandComputers</parents>
			<probabilities>0.3503401360544218 0.04421768707482993 0.04421768707482993 0.1870748299319728 0.3503401360544218 0.02380952380952381 0.4451476793248945 0.02742616033755274 0.040084388185654 0.05274261603375528 0.4071729957805907 0.02742616033755274 0.006410256410256411 0.0009157509157509158 0.9514652014652015 0.0173992673992674 0.0228937728937729 0.0009157509157509158 0.4166666666666666 0.02536231884057971 0.04710144927536231 0.09057971014492752 0.4166666666666666 0.003623188405797101 0.3067632850241546 0.002415458937198067 0.002415458937198067 0.08937198067632848 0.5676328502415457 0.03140096618357487 0.2118055555555556 0.04513888888888889 0.06597222222222222 0.08680555555555557 0.5659722222222223 0.02430555555555556 0.3685897435897436 0.04166666666666666 0.003205128205128205 0.1762820512820513 0.4070512820512821 0.003205128205128205 0.5354609929078015 0.04609929078014184 0.02482269503546099 0.1524822695035461 0.2375886524822695 0.003546099290780142 0.02759381898454747 0.001103752759381898 0.9481236203090508 0.00772626931567329 0.00772626931567329 0.00772626931567329 0.443502824858757 0.0367231638418079 0.002824858757062146 0.1723163841807909 0.3248587570621468 0.01977401129943503 0.3373015873015874 0.07539682539682541 0.003968253968253969 0.1230158730158731 0.4325396825396827 0.02777777777777779 0.363095238095238 0.005952380952380952 0.005952380952380952 0.04166666666666666 0.5773809523809524 0.005952380952380952 0.408974358974359 0.02435897435897436 0.008974358974358977 0.1320512820512821 0.4166666666666667 0.008974358974358977 0.4803921568627452 0.009803921568627453 0.001400560224089636 0.1442577030812325 0.3543417366946779 0.009803921568627453 0.01221896383186706 0.003421309872922776 0.9740957966764417 0.006353861192570869 0.003421309872922776 0.0004887585532746822 0.4214975845410629 0.001207729468599034 0.03019323671497585 0.1171497584541063 0.4287439613526571 0.001207729468599034 0.3559027777777778 0.03298611111111111 0.01215277777777778 0.1475694444444444 0.4496527777777778 0.001736111111111111 0.3738095238095238 0.00238095238095238 0.00238095238095238 0.1023809523809524 0.5023809523809523 0.01666666666666667 0.4824561403508771 0.02091767881241565 0.02496626180836707 0.1342780026990553 0.3326585695006747 0.004723346828609986 0.4354413702239789 0.01251646903820817 0.008563899868247692 0.119235836627141 0.4235836627140975 0.0006587615283267456 0.01943556975505858 0.001863684771033014 0.968317358892439 0.001863684771033014 0.005058572949946753 0.003461128860489883 0.4403372243839169 0.02010376134889753 0.02399481193255512 0.1679636835278858 0.3469520103761348 0.0006485084306095978 0.3203309692671396 0.01536643026004728 0.02955082742316786 0.1004728132387707 0.5260047281323879 0.008274231678486999 0.2834757834757835 0.009971509971509973 0.009971509971509973 0.09544159544159544 0.5740740740740742 0.02706552706552707 0.4865023474178404 0.0357981220657277 0.0357981220657277 0.1484741784037559 0.2928403755868545 0.0005868544600938967 0.5416666666666666 0.01769406392694064 0.007420091324200912 0.1135844748858447 0.3190639269406393 0.0005707762557077625 0.007226107226107227 0.001631701631701632 0.9792540792540794 0.008624708624708627 0.003030303030303031 0.0002331002331002331 0.4687848383500557 0.02731326644370122 0.03734671125975474 0.1811594202898551 0.2848383500557414 0.0005574136008918618 0.4447731755424063 0.04832347140039447 0.006903353057199212 0.131163708086785 0.3619329388560157 0.006903353057199212 0.412202380952381 0.0193452380952381 0.01041666666666667 0.0818452380952381 0.474702380952381 0.001488095238095238 0.4762363519588954 0.02536929993577393 0.01958895311496468 0.1486833654463713 0.3298008991650611 0.0003211303789338472 0.4968499427262314 0.01403207331042382 0.01746849942726231 0.1291523482245132 0.3404925544100801 0.002004581901489118 0.006958704083960755 0.0001140771161305042 0.9795801962126396 0.005589778690394705 0.006958704083960755 0.0007985398129135295 0.4674666666666667 0.01466666666666667 0.01146666666666667 0.1810666666666667 0.3218666666666667 0.003466666666666667 0.3788788788788788 0.02152152152152152 0.03053053053053052 0.1326326326326326 0.4299299299299298 0.006506506506506505 0.4134751773049645 0.03475177304964538 0.02198581560283688 0.09858156028368793 0.4219858156028368 0.009219858156028366 0.545434098065677 0.01372019793072425 0.01776878092667566 0.1189833558254611 0.3038686459739091 0.0002249212775528565 0.4639762881896944 0.01801185590515276 0.01801185590515276 0.1397628818969448 0.3572731418148655 0.002963976288189694 0.008530183727034119 0.0006561679790026247 0.9770341207349081 0.00290588676415448 0.01021747281589801 0.0006561679790026247 0.5165410385259632 0.0190536013400335 0.02659128978224456 0.1547319932998325 0.2816164154103852 0.001465661641541039 0.4803395889186774 0.02189454870420018 0.02993744414655943 0.145218945487042 0.3194816800714924 0.003127792672028597 0.4254526091586795 0.003727369542066029 0.02289669861554846 0.1155484558040469 0.4222577209797658 0.01011714589989351 0.5235460992907801 0.02397163120567376 0.01546099290780142 0.1388652482269503 0.2963120567375886 0.001843971631205674 0.4904655770183258 0.01646854878652798 0.01052501238236751 0.1375681030212977 0.3426201089648341 0.002352649826646855 0.01041666666666667 0.001392602495543672 0.9773284313725491 0.003732174688057041 0.007074420677361855 5.570409982174688e-05 0.5211352657004831 0.01316425120772947 0.01823671497584541 0.1370772946859903 0.308816425120773 0.001570048309178744 0.4815146094215862 0.02355396541443053 0.01997614788312463 0.09868813357185449 0.375968992248062 0.0002981514609421586 0.3865519439133207 0.006054811982154239 0.007966857871255579 0.1112173358827279 0.4878903760356916 0.0003186743148502231 0.5289911596463859 0.01105044201768071 0.01417056682267291 0.1374154966198648 0.3066822672906916 0.001690067602704108 0.4960192750890426 0.0177037502618898 0.01581814372512047 0.114498219149382 0.3552273203435994 0.0007332914309658498 0.01422263298418567 0.0003594167180119122 0.9760217703840626 0.002515917026083385 0.006828917642226331 5.134524543027317e-05 0.5157672662669331 0.0154341550077726 0.01276926493448812 0.1260270930490784 0.3272262935820564 0.00277592715967133 0.4699655342195962 0.02535696701132447 0.01354012801575578 0.103643525356967 0.3857705563761693 0.0017232890201871 0.4063102119460501 0.007466281310211946 0.01035645472061657 0.0869460500963391 0.4857899807321773 0.003131021194605009 0.4812636165577342 0.01328976034858388 0.01982570806100218 0.1139433551198257 0.3701525054466231 0.001525054466230937 0.5178454485920105 0.006057629338572366 0.01293385723641127 0.09544859201047808 0.3665684348395548 0.00114603798297315 0.01052544339466269 8.287750704458809e-05 0.9757168904359357 0.004060997845184816 0.00953091331012763 8.287750704458809e-05 0.4543195718654434 0.01280581039755352 0.01509938837920489 0.1171636085626911 0.400420489296636 0.000191131498470948 0.4502598366740906 0.01818856718634002 0.007052709725315517 0.07609502598366742 0.4435783221974759 0.004825538233110617 0.4292385057471264 0.01329022988505747 0.02191091954022988 0.06501436781609196 0.4637212643678161 0.00682471264367816 0.4064074874010079 0.008999280057595394 0.008999280057595394 0.09971202303815695 0.4733621310295176 0.00251979841612671 0.4367214748380668 0.009217737917289488 0.01519681116093672 0.06601893373193822 0.466616841056303 0.00622820129546587 0.00919191919191919 0.001313131313131313 0.9710101010101009 0.000707070707070707 0.01707070707070707 0.000707070707070707 0.3901925391095067 0.01113116726835139 0.02015643802647413 0.1049939831528279 0.4696149217809868 0.003910950661853189 0.2895667550839964 0.008399646330680811 0.02166224580017683 0.09328028293545532 0.5813439434129087 0.005747126436781607 0.2792894935752078 0.007180650037792893 0.02078609221466364 0.06613756613756613 0.610355253212396 0.01625094482237339 0.4659863945578231 0.01771053248885761 0.02826647900539526 0.1415669716162327 0.3435374149659864 0.002932207365704903 0.4641685591723442 0.01678021700731769 0.02662124653040625 0.1129195054251829 0.3755992934645471 0.003911178400201868 0.01060081988214194 0.0008006661542403279 0.9721688444786061 0.004067384063540866 0.01117729951319498 0.001184985908275685 0.4396958011996572 0.02324335904027421 0.0360968294772922 0.1350685518423308 0.3632176520994002 0.002677806341045416 0.3796385930945466 0.02145853501129396 0.02629880606647305 0.1376250403355921 0.4222329783801226 0.0127460471119716 0.3678986995208761 0.0188227241615332 0.02498288843258042 0.08863791923340178 0.4664613278576318 0.03319644079397673</probabilities>
		</cpt>
		<cpt id="CompetePeers">
			<state id="Agree" />
			<state id="Disagree" />
			<state id="NA" />
			<state id="SSomewhat_agree" />
			<state id="SStrongly_agree" />
			<state id="SStrongly_disagree" />
			<parents>JobSatisfaction ChallengeMyself</parents>
			<probabilities>0.2900641025641025 0.2612179487179487 0.02083333333333333 0.280448717948718 0.04006410256410256 0.1073717948717949 0.1458333333333333 0.1458333333333333 0.1458333333333333 0.1458333333333333 0.1458333333333333 0.2708333333333333 0.0009057971014492755 0.0009057971014492755 0.9954710144927537 0.0009057971014492755 0.0009057971014492755 0.0009057971014492755 0.2634408602150538 0.2634408602150538 0.005376344086021505 0.2311827956989247 0.1344086021505377 0.1021505376344086 0.1522781774580336 0.1954436450839329 0.01558752997601918 0.2529976019184652 0.2170263788968825 0.1666666666666667 0.02380952380952381 0.3095238095238095 0.02380952380952381 0.02380952380952381 0.1666666666666667 0.4523809523809523 0.2744107744107744 0.2946127946127946 0.001683501683501683 0.3047138047138047 0.04208754208754209 0.08249158249158248 0.1166666666666667 0.5166666666666667 0.01666666666666667 0.3166666666666667 0.01666666666666667 0.01666666666666667 0.001149425287356322 0.001149425287356322 0.9942528735632186 0.001149425287356322 0.001149425287356322 0.001149425287356322 0.09313725490196077 0.2990196078431372 0.004901960784313725 0.3872549019607843 0.004901960784313725 0.2107843137254902 0.2088122605363985 0.3237547892720306 0.01340996168582375 0.185823754789272 0.185823754789272 0.08237547892720305 0.04166666666666666 0.04166666666666666 0.2916666666666667 0.04166666666666666 0.04166666666666666 0.5416666666666666 0.2582260371959942 0.3183118741058655 0.01359084406294707 0.2496423462088698 0.05221745350500715 0.1080114449213162 0.2407407407407407 0.2407407407407407 0.01851851851851852 0.2407407407407407 0.01851851851851852 0.2407407407407407 0.003441494591937069 0.0004916420845624385 0.9916420845624384 0.0004916420845624385 0.003441494591937069 0.0004916420845624385 0.1103603603603603 0.313063063063063 0.01576576576576576 0.3671171171171171 0.08333333333333331 0.1103603603603603 0.2560283687943262 0.2730496453900709 0.0007092198581560283 0.2177304964539007 0.1411347517730496 0.1113475177304965 0.04166666666666666 0.2916666666666667 0.04166666666666666 0.04166666666666666 0.04166666666666666 0.5416666666666666 0.182832948421863 0.3837567359507313 0.005003849114703618 0.3190916089299461 0.02578906851424172 0.08352578906851424 0.1203703703703703 0.287037037037037 0.1203703703703703 0.1203703703703703 0.009259259259259259 0.3425925925925926 0.001863684771033014 0.001863684771033014 0.9922790202342919 0.001863684771033014 0.0002662406815761449 0.001863684771033014 0.106516290726817 0.4072681704260651 0.008771929824561403 0.3020050125313283 0.02380952380952381 0.1516290726817043 0.1895193065405831 0.2344365642237982 0.0169424743892829 0.2935382190701339 0.1327817178881008 0.1327817178881008 0.02083333333333333 0.2708333333333333 0.02083333333333333 0.1458333333333333 0.02083333333333333 0.5208333333333334 0.2329780935464772 0.3590882178804026 0.00207223208999408 0.2915926583777383 0.04470100651272944 0.06956779159265838 0.1190476190476191 0.319047619047619 0.004761904761904761 0.319047619047619 0.03333333333333333 0.2047619047619048 0.0002295684113865932 0.0002295684113865932 0.996097337006428 0.002984389348025712 0.0002295684113865932 0.0002295684113865932 0.1626746506986028 0.3423153692614771 0.02495009980039921 0.3183632734530938 0.01896207584830339 0.1327345309381238 0.2464726631393298 0.2649911816578483 0.008377425044091709 0.2385361552028218 0.1432980599647266 0.09832451499118162 0.08333333333333333 0.08333333333333333 0.08333333333333333 0.5833333333333334 0.08333333333333333 0.08333333333333333 0.2694601381042059 0.3184243565599498 0.004865034526051476 0.3033584431889517 0.02652228499686127 0.07736974262397991 0.1123188405797101 0.4384057971014493 0.04710144927536231 0.2210144927536232 0.02536231884057971 0.1557971014492754 0.002148349163274536 0.001469923111714156 0.9940072365445499 0.001469923111714156 0.0001130710085933966 0.0007914970601537765 0.1529814271749756 0.2761485826001955 0.01515151515151515 0.4227761485826002 0.02688172043010752 0.106060606060606 0.2152693398136898 0.2456460105305792 0.009923045767517213 0.2638720129607128 0.1557310652085865 0.1095585257189146 0.01851851851851852 0.01851851851851852 0.01851851851851852 0.1296296296296296 0.01851851851851852 0.7962962962962963 0.24842555105713 0.3388439046333783 0.002811515969410706 0.3037561853351327 0.0358749437696806 0.07028789923526764 0.1258503401360544 0.3707482993197279 0.04421768707482993 0.2891156462585034 0.02380952380952381 0.1462585034013605 9.24385283786282e-05 0.001201700868922167 0.9917729709743021 0.002865594379737474 0.002865594379737474 0.001201700868922167 0.134881825590872 0.3744906275468622 0.01018744906275469 0.3549307253463733 0.02730236348818256 0.09820700896495517 0.2379251700680272 0.2777210884353742 0.01445578231292517 0.2522108843537415 0.1358843537414966 0.08180272108843539 0.01851851851851852 0.01851851851851852 0.01851851851851852 0.1296296296296296 0.01851851851851852 0.7962962962962963 0.2435589373915365 0.3448805232946203 0.004472033106394341 0.3012281404351889 0.02850086770791617 0.07735949806434389 0.08052434456928839 0.4176029962546816 0.02434456928838951 0.249063670411985 0.01310861423220974 0.2153558052434457 0.0007229451673896119 0.0007229451673896119 0.9963852741630521 0.001723946168390613 5.561116672227784e-05 0.0003892781670559449 0.1467774420946626 0.4065961732124874 0.003272910372608258 0.3099194360523665 0.01233635448136959 0.1210976837865055 0.244579945799458 0.255613627564847 0.005903987611304683 0.2683894696089817 0.1237901664730933 0.1017228029423151 0.1458333333333333 0.1458333333333333 0.1458333333333333 0.1458333333333333 0.02083333333333333 0.3958333333333333 0.2037293615055998 0.3727629603971828 0.004907054612631336 0.2962129084401339 0.0256898741484817 0.09669784089597046 0.08052434456928839 0.3838951310861423 0.001872659176029962 0.2715355805243446 0.01310861423220974 0.249063670411985 0.00128323580741197 0.00128323580741197 0.9951237039318347 0.001591212401190843 0.0003593060260753517 0.0003593060260753517 0.1503887269193392 0.4040330417881439 0.006073858114674442 0.3121963070942663 0.01336248785228377 0.1139455782312925 0.2117770259384566 0.300708877074271 0.005880457547929757 0.2572096020621878 0.1131786692444015 0.1112453681327533 0.1060606060606061 0.1060606060606061 0.01515151515151515 0.1060606060606061 0.01515151515151515 0.6515151515151516 0.1821275768183586 0.395663166083236 0.004181252430960716 0.2824776351614158 0.02460132244262932 0.1109490470633994 0.1706349206349207 0.2896825396825398 0.003968253968253969 0.2896825396825398 0.02777777777777779 0.2182539682539683 0.001569988431664187 0.002065774252189721 0.9931416294827301 0.001569988431664187 8.263097008758882e-05 0.001569988431664187 0.1258124419684308 0.4350046425255339 0.003249767873723306 0.2678737233054782 0.02274837511606314 0.1453110492107706 0.2023395876766273 0.3017141533472318 0.006370164466064395 0.2627982395181839 0.09601575167940697 0.1307621033124855 0.02083333333333333 0.02083333333333333 0.02083333333333333 0.2708333333333333 0.02083333333333333 0.6458333333333334 0.1749646892655367 0.3656426553672317 0.00759180790960452 0.2650070621468926 0.03407485875706214 0.1527189265536723 0.1666666666666667 0.3266666666666667 0.006666666666666666 0.2066666666666667 0.08666666666666666 0.2066666666666667 0.0001013171225937183 0.0007092198581560283 0.9982776089159068 0.0001013171225937183 0.0001013171225937183 0.0007092198581560283 0.1362928348909657 0.3559190031152648 0.005451713395638629 0.2110591900311526 0.03348909657320872 0.2577881619937694 0.1622069317023445 0.2570081549439348 0.006243628950050967 0.230249745158002 0.1690876656472987 0.175203873598369 0.06481481481481481 0.1759259259259259 0.009259259259259259 0.06481481481481481 0.1203703703703703 0.5648148148148148 0.2514178912090745 0.2912477442639856 0.01707914410930652 0.3140629028100026 0.05536220675431813 0.07083011085331271 0.1778711484593838 0.3375350140056022 0.02661064425770308 0.2871148459383753 0.06022408963585434 0.1106442577030812 0.001370299553855959 0.002517527087316762 0.9939133205863606 0.001370299553855959 0.0002230720203951561 0.0006054811982154237 0.1801390699695784 0.3053020425901782 0.02238157322903086 0.3470230334637114 0.04715341156019122 0.09800086918730987 0.2277264054014384 0.2118743578452958 0.0137237633935124 0.2664758549831205 0.1797299280786731 0.1004696902979598 0.1258503401360544 0.08503401360544217 0.06462585034013604 0.08503401360544217 0.1870748299319728 0.4523809523809524</probabilities>
		</cpt>
		<cpt id="CompanyType">
			<state id="SGovernment_agency_or_public_school_university" />
			<state id="SI_don_t_know" />
			<state id="SI_prefer_not_to_answer" />
			<state id="NA" />
			<state id="SNon_profit_non_governmental_organization_or_private_school_university" />
			<state id="SPre_series_A_startup" />
			<state id="SPrivately_held_limited_company__not_in_startup_mode" />
			<state id="SPublicly_traded_corporation" />
			<state id="SSole_proprietorship_or_partnership__not_in_startup_mode" />
			<state id="SSomething_else" />
			<state id="SState_owned_company" />
			<state id="SVenture_funded_startup" />
			<parents>JobSatisfaction</parents>
			<probabilities>0.04504985754985755 0.09205840455840457 0.03436609686609687 0.1027421652421653 0.02154558404558405 0.02581908831908832 0.4018874643874644 0.1347934472934473 0.07282763532763534 0.006588319088319089 0.02368233618233619 0.03863960113960114 0.06439393939393939 0.08845811051693404 0.02963458110516934 0.09113190730837789 0.02428698752228164 0.02428698752228164 0.4093137254901961 0.1392602495543672 0.05102495543672014 0.008244206773618538 0.02428698752228164 0.04567736185383243 0.0495875515560555 0.06421072365954257 0.03046494188226472 0.07433445819272591 0.03046494188226472 0.03158980127484064 0.4050431196100487 0.1497000374953131 0.08895763029621298 0.01134233220847394 0.02821522309711286 0.03608923884514436 0.06056438467807661 0.07278932355338223 0.03000203748981255 0.09173797881010595 0.02755704971475143 0.01594335778321108 0.4132538712306439 0.1430827220863896 0.06973308883455583 0.009830888345558271 0.02388956805215974 0.04161572942135289 0.05041979278313683 0.06596105752054304 0.03273490532332976 0.08739728474455163 0.02255269739192569 0.0343426223651304 0.4475259021078957 0.123302965344766 0.07239192568774563 0.005939621293319043 0.01505001786352269 0.04238120757413361 0.05335555555555556 0.06802222222222223 0.04055555555555556 0.1160222222222222 0.02695555555555556 0.02535555555555555 0.4061555555555555 0.1293555555555556 0.07148888888888889 0.005888888888888889 0.01842222222222222 0.03842222222222223 0.04825118115788731 0.07596431845426979 0.03915450250334955 0.09500387842888371 0.02392285452365842 0.02476905718919681 0.4184648473309358 0.1379486637049573 0.06454058246950144 0.008691206543967281 0.01419152386996685 0.04909738382342571 0.05358636553743203 0.07014847344207445 0.03740066917607695 0.1000104558762024 0.02598285236302802 0.02598285236302802 0.3988812212463405 0.1493203680468423 0.06588247595148473 0.005782099539941447 0.0148159765788373 0.05220618987871183 0.05366021074502819 0.06946608785989908 0.03395851884832294 0.1069772187592758 0.02727997922232116 0.02739128821608786 0.3860288661323835 0.1482728554467201 0.06634943603443158 0.00813483229444939 0.01147410210745028 0.06100660433363016 0.04594247099629231 0.06693278315990911 0.03751046525535223 0.110528046884344 0.03033429015667983 0.03553701710321732 0.3755083124028227 0.137976916636766 0.06424171749790696 0.007011721085994499 0.0140084918072001 0.07446776701351514 0.04846549369325942 0.06340885353900538 0.04870651562625532 0.1737968988511288 0.02436330039366916 0.04533220856431269 0.3319072868964409 0.1116132401381859 0.06051659034305455 0.00725074315096007 0.01279424760986583 0.07184462119386197 0.03404586850624792 0.03858430909806057 0.02732897643036519 0.7378672354845541 0.0141674987141085 0.00890290762760582 0.07979334967171946 0.02433360563976884 0.01335057940758222 0.004364467035793168 0.006361380896190734 0.01089982148800339</probabilities>
		</cpt>
		<cpt id="CompanySize">
			<state id="S1_000_to_4_999_employees" />
			<state id="S10_000_or_more_employees" />
			<state id="S10_to_19_employees" />
			<state id="S100_to_499_employees" />
			<state id="S20_to_99_employees" />
			<state id="S5_000_to_9_999_employees" />
			<state id="S500_to_999_employees" />
			<state id="SFewer_than_10_employees" />
			<state id="SI_don_t_know" />
			<state id="SI_prefer_not_to_answer" />
			<state id="NA" />
			<parents>CompanyType JobSatisfaction</parents>
			<probabilities>0.1859504132231405 0.04958677685950414 0.0950413223140496 0.0950413223140496 0.231404958677686 0.04958677685950414 0.0950413223140496 0.0950413223140496 0.0950413223140496 0.004132231404958679 0.004132231404958679 0.1236363636363637 0.1236363636363637 0.04363636363636364 0.04363636363636364 0.2036363636363637 0.1236363636363637 0.1636363636363637 0.1236363636363637 0.04363636363636364 0.003636363636363637 0.003636363636363637 0.09090909090909088 0.1797979797979798 0.06868686868686867 0.1797979797979798 0.09090909090909088 0.02424242424242424 0.1131313131313131 0.1353535353535353 0.06868686868686867 0.04646464646464645 0.00202020202020202 0.1309090909090909 0.2209090909090909 0.02090909090909091 0.1809090909090909 0.1309090909090909 0.1009090909090909 0.1309090909090909 0.01090909090909091 0.06090909090909091 0.01090909090909091 0.0009090909090909091 0.2325358851674641 0.2325358851674641 0.05358851674641148 0.1062200956937799 0.09569377990430622 0.1167464114832536 0.07464114832535886 0.05358851674641148 0.02200956937799043 0.01148325358851674 0.0009569377990430622 0.2392582541836273 0.1795567616463139 0.05517865219357756 0.1347806422433288 0.09497964721845316 0.06015377657168701 0.1099050203527815 0.0303030303030303 0.08005427408412481 0.01537765716870194 0.0004522840343735866 0.2274712187375943 0.1314013497419611 0.04843191742755062 0.1270345375148869 0.1270345375148869 0.1052004763795157 0.1139341008336641 0.01786423183803096 0.07899960301707026 0.0222310440651052 0.0003969829297340214 0.2221750212404418 0.1777824978759558 0.03292268479184367 0.1590909090909091 0.1006796941376381 0.1123619371282923 0.0960067969413764 0.02824978759558199 0.05862361937128293 0.0118946474086661 0.0002124044180118947 0.207227555053642 0.1596085074345944 0.04573687182382834 0.1616789008093356 0.06022962544701675 0.1326933935629588 0.09956709956709958 0.03124411820063994 0.08300395256916997 0.01882175795219274 0.0001882175795219274 0.2338167668906969 0.1482136540502299 0.04704633887513265 0.1676689069685179 0.08206579412805093 0.07428369296073575 0.1015210470463389 0.0314821365405023 0.09373894587902369 0.01980898478952954 0.0003537318712415989 0.2232223222322232 0.1984698469846984 0.045004500450045 0.1291629162916291 0.08955895589558954 0.05985598559855985 0.07470747074707471 0.0648064806480648 0.09945994599459944 0.0153015301530153 0.00045004500450045 0.1465183752417795 0.1199226305609284 0.0640715667311412 0.1066247582205029 0.09864603481624759 0.05609284332688588 0.0640715667311412 0.09598646034816248 0.2023694390715667 0.04279497098646035 0.002901353965183752 0.09297520661157023 0.09297520661157023 0.115702479338843 0.1611570247933884 0.1611570247933884 0.02479338842975206 0.09297520661157023 0.1611570247933884 0.09297520661157023 0.002066115702479338 0.002066115702479338 0.09090909090909088 0.1497326203208556 0.1203208556149732 0.2085561497326203 0.1497326203208556 0.06149732620320854 0.09090909090909088 0.09090909090909088 0.03208556149732619 0.00267379679144385 0.00267379679144385 0.122257053291536 0.122257053291536 0.1739811912225705 0.122257053291536 0.122257053291536 0.05329153605015673 0.05329153605015673 0.1394984326018809 0.07053291536050155 0.01880877742946708 0.001567398119122257 0.09242424242424244 0.09242424242424244 0.1090909090909091 0.1757575757575758 0.2424242424242424 0.04242424242424242 0.05075757575757576 0.1590909090909091 0.03409090909090909 0.0007575757575757576 0.0007575757575757576 0.1136363636363636 0.04912023460410557 0.1378299120234604 0.1620234604105572 0.2426686217008797 0.04912023460410557 0.0652492668621701 0.1055718475073314 0.04105571847507331 0.03299120234604105 0.0007331378299120235 0.07848011363636363 0.09019886363636363 0.08629261363636363 0.2308238636363636 0.2464488636363636 0.03160511363636364 0.07066761363636363 0.1058238636363636 0.05504261363636364 0.004261363636363636 0.0003551136363636364 0.07247474747474748 0.09191919191919194 0.09191919191919194 0.2335858585858586 0.2335858585858586 0.05303030303030304 0.07247474747474748 0.1030303030303031 0.03636363636363638 0.01136363636363637 0.0002525252525252526 0.08051948051948052 0.0948051948051948 0.1269480519480519 0.1983766233766233 0.2430194805194805 0.02516233766233766 0.0698051948051948 0.1162337662337662 0.03766233766233765 0.007305194805194804 0.0001623376623376623 0.05454545454545454 0.07054545454545454 0.1217454545454545 0.2337454545454545 0.2929454545454545 0.02254545454545454 0.06894545454545453 0.08494545454545453 0.04494545454545453 0.004945454545454545 0.0001454545454545454 0.06708799222168206 0.09649975692756443 0.1125425376762275 0.2462323772484201 0.2515799708313078 0.02698104035002431 0.05371900826446281 0.09649975692756443 0.03767622751579972 0.008264462809917356 0.002916869227029655 0.06852617079889807 0.06473829201101929 0.140495867768595 0.1821625344352617 0.2162534435261708 0.04201101928374656 0.07988980716253444 0.1518595041322314 0.01928374655647383 0.03443526170798898 0.0003443526170798898 0.06359368331199317 0.1034997865983782 0.1387110542040119 0.1504481434058899 0.2255655142979087 0.02838241570635937 0.01899274434485702 0.1457533077251387 0.1081946222791293 0.01429790866410585 0.002560819462227913 0.1229946524064171 0.1818181818181819 0.005347593582887702 0.06417112299465241 0.06417112299465241 0.005347593582887702 0.005347593582887702 0.1818181818181819 0.06417112299465241 0.2994652406417113 0.005347593582887702 0.007575757575757574 0.09090909090909088 0.2575757575757575 0.09090909090909088 0.1742424242424242 0.1742424242424242 0.007575757575757574 0.09090909090909088 0.007575757575757574 0.09090909090909088 0.007575757575757574 0.003246753246753247 0.1103896103896104 0.1461038961038961 0.1103896103896104 0.2532467532467533 0.03896103896103896 0.03896103896103896 0.03896103896103896 0.07467532467532469 0.1818181818181819 0.003246753246753247 0.1018181818181818 0.1418181818181818 0.1218181818181818 0.0818181818181818 0.1418181818181818 0.04181818181818181 0.02181818181818181 0.1218181818181818 0.04181818181818181 0.1818181818181818 0.001818181818181818 0.03372434017595307 0.1304985337243402 0.2111436950146627 0.1627565982404692 0.1304985337243402 0.04985337243401758 0.06598240469208209 0.04985337243401758 0.01759530791788856 0.1466275659824047 0.001466275659824047 0.07902554961378491 0.09863339275103981 0.124777183600713 0.1705288175876411 0.1705288175876411 0.04634581105169341 0.04634581105169341 0.07902554961378491 0.0267379679144385 0.1574569221628045 0.0005941770647653001 0.1026392961876833 0.1348973607038123 0.08113391984359727 0.1133919843597263 0.1617790811339198 0.04349951124144674 0.07575757575757577 0.1133919843597263 0.02737047898338221 0.1456500488758553 0.0004887585532746823 0.09060504712678626 0.1273943447856491 0.08726056552143509 0.1407722712070538 0.1474612344177562 0.03374885983581636 0.04712678625722104 0.06384919428397688 0.03709334144116753 0.2243843113408331 0.0003040437823046519 0.08526440879382056 0.08199643493761141 0.1212121212121212 0.1538918597742127 0.1636957813428402 0.02970885323826501 0.07219251336898397 0.1016042780748663 0.02970885323826501 0.160427807486631 0.0002970885323826501 0.0670995670995671 0.1432900432900433 0.1051948051948052 0.1528138528138528 0.148051948051948 0.029004329004329 0.04805194805194805 0.07662337662337661 0.01948051948051948 0.20995670995671 0.0004329004329004328 0.05463502015226153 0.09896999552171964 0.1137483206448723 0.1038961038961039 0.167935512763099 0.02015226153157187 0.03000447828034034 0.08419167039856693 0.03000447828034034 0.2960143304970891 0.0004478280340349305 0.06652618904274533 0.07977122215532811 0.08308248043347381 0.07977122215532811 0.09632751354605659 0.03010234798314269 0.04334738109572547 0.1161950632149308 0.08308248043347381 0.3214930764599639 0.0003010234798314269 0.001855287569573284 0.001855287569573284 0.001855287569573284 0.001855287569573284 0.001855287569573284 0.001855287569573284 0.0222634508348794 0.001855287569573284 0.001855287569573284 0.001855287569573284 0.961038961038961 0.002597402597402597 0.002597402597402597 0.002597402597402597 0.002597402597402597 0.002597402597402597 0.002597402597402597 0.002597402597402597 0.002597402597402597 0.002597402597402597 0.002597402597402597 0.974025974025974 0.00135685210312076 0.00135685210312076 0.00135685210312076 0.01628222523744912 0.00135685210312076 0.00135685210312076 0.00135685210312076 0.00135685210312076 0.00135685210312076 0.00135685210312076 0.9715061058344641 0.0006020469596628537 0.0006020469596628537 0.007224563515954244 0.0006020469596628537 0.01384708007224563 0.0006020469596628537 0.0006020469596628537 0.007224563515954244 0.0006020469596628537 0.0006020469596628537 0.9674894641782059 0.006651884700665188 0.0005543237250554324 0.006651884700665188 0.0005543237250554324 0.0005543237250554324 0.0005543237250554324 0.0005543237250554324 0.006651884700665188 0.0005543237250554324 0.0005543237250554324 0.9761640798226164 0.0002085070892410342 0.004795663052543787 0.004795663052543787 0.01396997497914929 0.007089241034195163 0.0002085070892410342 0.0002085070892410342 0.004795663052543787 0.0002085070892410342 0.0002085070892410342 0.963511259382819 0.002424242424242424 0.004646464646464646 0.002424242424242424 0.002424242424242424 0.004646464646464646 0.000202020202020202 0.000202020202020202 0.000202020202020202 0.000202020202020202 0.004646464646464646 0.9779797979797979 0.001367053998632946 0.001367053998632946 0.002620186830713146 0.003873319662793347 0.003873319662793347 0.0001139211665527455 0.0001139211665527455 0.001367053998632946 0.0001139211665527455 0.001367053998632946 0.9838231943495102 0.001134001134001134 0.003213003213003213 0.002173502173502173 0.002173502173502173 0.005292005292005292 0.002173502173502173 9.450009450009451e-05 0.001134001134001134 9.450009450009451e-05 0.002173502173502173 0.9803439803439804 0.0001473405039045233 0.0001473405039045233 0.0001473405039045233 0.00176808604685428 0.00176808604685428 0.0001473405039045233 0.00176808604685428 0.00176808604685428 0.0001473405039045233 0.0001473405039045233 0.9920436127891558 0.0001259128682951398 0.002895995970788214 0.005666079073281289 0.0001259128682951398 0.0001259128682951398 0.0001259128682951398 0.0001259128682951398 0.004281037522034752 0.0001259128682951398 0.0001259128682951398 0.9862754973558298 1.118193000111819e-05 0.000872190540087219 0.0006261880800626187 0.0002571843900257184 0.000872190540087219 1.118193000111819e-05 0.0003801856200380185 0.0005031868500503186 0.0001341831600134183 0.0006261880800626187 0.9957061388795705 0.09917355371900824 0.1900826446280992 0.1900826446280992 0.09917355371900824 0.09917355371900824 0.09917355371900824 0.09917355371900824 0.09917355371900824 0.008264462809917354 0.008264462809917354 0.008264462809917354 0.309090909090909 0.1090909090909091 0.009090909090909089 0.209090909090909 0.009090909090909089 0.1090909090909091 0.009090909090909089 0.209090909090909 0.009090909090909089 0.009090909090909089 0.009090909090909089 0.07467532467532469 0.1461038961038961 0.07467532467532469 0.1103896103896104 0.1818181818181819 0.1103896103896104 0.2175324675324675 0.03896103896103896 0.03896103896103896 0.003246753246753247 0.003246753246753247 0.1324110671936758 0.1976284584980237 0.08893280632411064 0.1758893280632411 0.1976284584980237 0.04545454545454543 0.001976284584980237 0.1106719367588932 0.02371541501976284 0.02371541501976284 0.001976284584980237 0.1416490486257928 0.04862579281183931 0.09513742071881603 0.3044397463002114 0.09513742071881603 0.1183932346723044 0.07188160676532768 0.07188160676532768 0.02536997885835094 0.02536997885835094 0.002114164904862579 0.2950089126559715 0.07932263814616757 0.07932263814616757 0.2361853832442068 0.09893048128342247 0.06951871657754011 0.05971479500891266 0.06951871657754011 0.0106951871657754 0.0008912655971479501 0.0008912655971479501 0.1499202551834131 0.06220095693779904 0.07097288676236045 0.2376395534290271 0.2200956937799043 0.07097288676236045 0.08851674641148326 0.07097288676236045 0.02711323763955343 0.0007974481658692185 0.0007974481658692185 0.1590909090909091 0.1158216783216783 0.05812937062937062 0.2456293706293706 0.1879370629370629 0.07255244755244755 0.1062062937062937 0.02928321678321678 0.01486013986013986 0.01005244755244755 0.000437062937062937 0.1670362158167036 0.07354028085735402 0.049150036954915 0.2117516629711751 0.2117516629711751 0.08573540280857353 0.08167036215816702 0.06947524020694751 0.0450849963045085 0.004434589800443458 0.0003695491500369549 0.2005347593582888 0.1005347593582887 0.06524064171122994 0.2122994652406417 0.1240641711229946 0.053475935828877 0.1064171122994652 0.07112299465240642 0.053475935828877 0.01229946524064171 0.00053475935828877 0.1381461675579323 0.08912655971479501 0.1283422459893048 0.177361853832442 0.177361853832442 0.0303030303030303 0.1185383244206774 0.1087344028520499 0.0303030303030303 0.0008912655971479501 0.0008912655971479501 0.07701215981470758 0.06427330631152287 0.1279675738274464 0.121598147075854 0.210770121598147 0.01968731905037637 0.05153445280833815 0.1661841343370005 0.1470758540822235 0.01331789229878401 0.000579038795599305 0.006993006993006992 0.08391608391608391 0.2377622377622377 0.006993006993006992 0.08391608391608391 0.006993006993006992 0.006993006993006992 0.5454545454545454 0.006993006993006992 0.006993006993006992 0.006993006993006992 0.009090909090909089 0.009090909090909089 0.1090909090909091 0.1090909090909091 0.409090909090909 0.009090909090909089 0.009090909090909089 0.309090909090909 0.009090909090909089 0.009090909090909089 0.009090909090909089 0.003134796238244515 0.003134796238244515 0.2100313479623825 0.1065830721003135 0.2100313479623825 0.003134796238244515 0.03761755485893417 0.4169278996865205 0.003134796238244515 0.003134796238244515 0.003134796238244515 0.04040404040404041 0.003367003367003368 0.1515151515151515 0.04040404040404041 0.2255892255892256 0.04040404040404041 0.003367003367003368 0.4848484848484849 0.003367003367003368 0.003367003367003368 0.003367003367003368 0.001398601398601399 0.001398601398601399 0.3398601398601399 0.01678321678321678 0.2167832167832168 0.001398601398601399 0.001398601398601399 0.4167832167832168 0.001398601398601399 0.001398601398601399 0.001398601398601399 0.000946969696969697 0.000946969696969697 0.1988636363636364 0.0321969696969697 0.271780303030303 0.000946969696969697 0.000946969696969697 0.4801136363636364 0.01136363636363636 0.000946969696969697 0.000946969696969697 0.0007704160246533126 0.0007704160246533126 0.322804314329738 0.0431432973805855 0.2041602465331278 0.0007704160246533126 0.009244992295839751 0.399075500770416 0.01771956856702619 0.0007704160246533126 0.0007704160246533126 0.000437062937062937 0.000437062937062937 0.3273601398601398 0.05332167832167832 0.2167832167832168 0.000437062937062937 0.005244755244755244 0.3946678321678321 0.000437062937062937 0.000437062937062937 0.000437062937062937 0.004416635995583363 0.0003680529996319469 0.3161575266838424 0.04085388295914611 0.2189915347810084 0.0003680529996319469 0.0003680529996319469 0.409274935590725 0.004416635995583363 0.004416635995583363 0.0003680529996319469 0.0004568296025582457 0.005481955230698948 0.2265874828688899 0.05573321151210598 0.2165372316126085 0.0004568296025582457 0.005481955230698948 0.4878940155322064 0.0004568296025582457 0.0004568296025582457 0.0004568296025582457 0.00577200577200577 0.00577200577200577 0.2068302068302068 0.04810004810004809 0.138047138047138 0.0004810004810004809 0.0004810004810004809 0.5613275613275612 0.01106301106301106 0.02164502164502164 0.0004810004810004809 0.0009182736455463729 0.02112029384756657 0.2433425160697888 0.05142332415059688 0.1726354453627181 0.0009182736455463729 0.01101928374655647 0.4655647382920111 0.01101928374655647 0.02112029384756657 0.0009182736455463729 0.08513708513708511 0.1486291486291486 0.1063011063011063 0.227994227994228 0.1962481962481962 0.02164502164502164 0.05868205868205868 0.138047138047138 0.01635401635401635 0.0004810004810004809 0.0004810004810004809 0.1109799291617473 0.1174734356552538 0.1109799291617473 0.2148760330578512 0.2473435655253837 0.02007083825265643 0.0525383707201889 0.1174734356552538 0.0005903187721369538 0.007083825265643446 0.0005903187721369538 0.099974817426341 0.08335431881138253 0.099974817426341 0.2024678922185848 0.2966507177033493 0.03349282296650719 0.08058423570888947 0.09166456811886177 0.01133215814656258 0.0002518257365902796 0.0002518257365902796 0.08432926010474015 0.1109171478447697 0.1064858332214314 0.2069289646837652 0.273398684033839 0.04297032362024975 0.06512689673694104 0.09614609910030883 0.01047401638243588 0.003088492010205451 0.0001342822613132805 0.08025228360156589 0.1053719008264463 0.1185297955632884 0.217812092214006 0.2704436711613745 0.03719008264462809 0.0682905611135276 0.0850369725967812 0.006089604175728576 0.009678120922140059 0.001304915180513266 0.09323550465282752 0.0952040085898354 0.1135767120019089 0.2402171319494155 0.2572774994034837 0.02696253877356241 0.07683130517776189 0.07879980911476978 0.01252684323550466 0.005308995466475784 5.965163445478408e-05 0.08695851899490102 0.08089485047544674 0.1000964674537186 0.255225320409757 0.2911020258165281 0.0283430566401764 0.07179934769626534 0.07129404198631081 0.008130828241995498 0.005604299692222887 0.0005512425926776609 0.09028016009148083 0.0739279588336192 0.1012864493996569 0.2402801600914808 0.2965694682675815 0.02833047455688965 0.06229273870783304 0.09499714122355631 0.006003430531732418 0.006003430531732418 2.858776443682104e-05 0.09140700752116146 0.07612882937183889 0.1156214785502765 0.2415943814041249 0.285411043266333 0.02279933960533557 0.0703634791268115 0.08218244712911764 0.009539034041772584 0.004638486333499305 0.0003144736497287665 0.08839107406442649 0.07024398714943128 0.1137014847616567 0.2421637579230702 0.280845706347139 0.02487626986194321 0.07263176174350959 0.0922115134149518 0.009594512459841971 0.005296518190500999 4.341408352869671e-05 0.07118353344768441 0.07190922285261911 0.1393983375115451 0.2192241720543608 0.2845362184984827 0.0225623433170603 0.0595725029687294 0.1183533447684391 0.005145797598627789 0.008048555218366543 6.597176408497165e-05 0.07169421487603306 0.1194214876033058 0.1364669421487603 0.187603305785124 0.2046487603305785 0.04328512396694215 0.0762396694214876 0.109194214876033 0.03078512396694215 0.01828512396694215 0.002376033057851239 0.07954545454545453 0.5795454545454545 0.01704545454545454 0.07954545454545453 0.04829545454545453 0.07954545454545453 0.07954545454545453 0.001420454545454545 0.03267045454545454 0.001420454545454545 0.001420454545454545 0.1715265866209262 0.4356775300171525 0.02058319039451114 0.09605488850771868 0.03945111492281302 0.07718696397941679 0.05831903945111491 0.03945111492281302 0.03945111492281302 0.02058319039451114 0.001715265866209262 0.1797829036635006 0.4932157394843961 0.0006784260515603798 0.1051560379918589 0.03799185888738126 0.112618724559023 0.03799185888738126 0.008141112618724557 0.02306648575305291 0.0006784260515603798 0.0006784260515603798 0.1152804642166344 0.5408123791102514 0.004642166344294003 0.08549323017408121 0.03442940038684719 0.1067698259187621 0.07698259187620887 0.008897485493230172 0.01740812379110251 0.008897485493230172 0.0003868471953578336 0.1345926800472255 0.5328610783156237 0.009051554506099959 0.09563164108618652 0.03502558048012593 0.1172766627312082 0.04368358913813459 0.004722550177095631 0.02203856749311294 0.004722550177095631 0.0003935458480913026 0.1709689487467266 0.4919566030677142 0.01664796109240554 0.0927796483352039 0.02899364010475122 0.09689487467265247 0.0619154508043397 0.002244668911335578 0.02487841376730266 0.01253273475495698 0.0001870557426112982 0.1563413615480996 0.5146874564945008 0.007796185437839341 0.0935542252540721 0.03842405680077961 0.0935542252540721 0.06752053459557286 0.0032020047333983 0.02004733398301545 0.004733398301545314 0.0001392175971042739 0.1898328371880009 0.4879016868941302 0.001755591176246088 0.08907716968170369 0.04709564155407985 0.09327532249446607 0.06052973055491948 0.005114113426455996 0.01770857186474315 0.007633005114113427 7.633005114113426e-05 0.166609834276751 0.5214485439541704 0.01132101207119962 0.08183864147855147 0.03907795130600832 0.093841642228739 0.05633226488440293 0.002318761508558958 0.01957307508695356 0.00757007433676601 6.819886789879289e-05 0.1598583234946871 0.5520661157024793 0.007910271546635183 0.07284533648170012 0.02739079102715466 0.08713105076741441 0.06765053128689492 0.002715466351829988 0.01570247933884298 0.006611570247933884 0.0001180637544273908 0.1661442006269593 0.5303683385579938 0.01743730407523511 0.06269592476489029 0.02174764890282132 0.09717868338557996 0.05838557993730408 0.01312695924764891 0.02174764890282132 0.0109717868338558 0.0001959247648902822 0.1192970598175059 0.5133491044271714 0.01149036836769179 0.1081446434606286 0.04866508955728288 0.08583981074687395 0.03379520108144644 0.01892531260561001 0.04866508955728288 0.01149036836769179 0.0003379520108144644 0.002597402597402597 0.05974025974025971 0.08831168831168827 0.2597402597402597 0.3454545454545453 0.03116883116883115 0.002597402597402597 0.2025974025974025 0.002597402597402597 0.002597402597402597 0.002597402597402597 0.004545454545454546 0.004545454545454546 0.2045454545454546 0.1545454545454546 0.1045454545454546 0.1045454545454546 0.05454545454545455 0.3045454545454546 0.05454545454545455 0.004545454545454546 0.004545454545454546 0.06363636363636364 0.03863636363636364 0.2136363636363636 0.1886363636363637 0.2886363636363636 0.01363636363636364 0.02613636363636364 0.1261363636363637 0.02613636363636364 0.001136363636363637 0.01363636363636364 0.03557312252964426 0.03557312252964426 0.183399209486166 0.2268774703557312 0.3051383399209486 0.0007905138339920947 0.05296442687747035 0.1486166007905138 0.009486166007905136 0.0007905138339920947 0.0007905138339920947 0.07419786096256684 0.03743315508021389 0.1550802139037433 0.1256684491978609 0.3094919786096256 0.01537433155080213 0.05949197860962566 0.2212566844919786 0.0006684491978609624 0.0006684491978609624 0.0006684491978609624 0.06725245015207841 0.03007772896248733 0.2196688070294019 0.1378844204123015 0.3311929705981752 0.01149036836769179 0.07096992227103752 0.1267320040554242 0.004055424129773572 0.0003379520108144644 0.0003379520108144644 0.06238859180035651 0.03951277480689246 0.1636957813428402 0.1865715983363043 0.3434343434343435 0.01990493166963755 0.03624480095068331 0.1408199643493762 0.003565062388591801 0.0002970885323826501 0.003565062388591801 0.04009678534393362 0.03059108192188039 0.1522640857241618 0.1921880400967853 0.3366747321119944 0.01157967507777393 0.04009678534393362 0.1826823366747321 0.007777393708952643 0.005876253024541997 0.0001728309713100587 0.06045378407187452 0.0252779046748896 0.1559311710065479 0.187756966651439 0.3351606517435662 0.01522765341860819 0.05542865844373381 0.1492310035023603 0.01187756966651439 0.003502360286279883 0.0001522765341860819 0.05874905039250444 0.03367941250949608 0.181311724487212 0.2286654849328945 0.2843757913395797 0.005824259306153458 0.03925044315016461 0.1534565712838694 0.01139528994682198 0.003038743985819195 0.0002532286654849329 0.02813852813852814 0.004329004329004328 0.1789321789321789 0.1987734487734488 0.2860750360750361 0.008297258297258296 0.03607503607503608 0.2463924963924964 0.004329004329004328 0.008297258297258296 0.0003607503607503608 0.06142506142506142 0.05466830466830466 0.1898034398034397 0.1019656019656019 0.2641277641277641 0.01412776412776412 0.05466830466830466 0.2303439803439803 0.01412776412776412 0.007371007371007369 0.007371007371007369 0.02272727272727273 0.2727272727272728 0.02272727272727273 0.02272727272727273 0.02272727272727273 0.02272727272727273 0.2727272727272728 0.02272727272727273 0.2727272727272728 0.02272727272727273 0.02272727272727273 0.2727272727272728 0.02272727272727273 0.02272727272727273 0.02272727272727273 0.2727272727272728 0.02272727272727273 0.2727272727272728 0.02272727272727273 0.02272727272727273 0.02272727272727273 0.02272727272727273 0.1900826446280992 0.09917355371900824 0.09917355371900824 0.09917355371900824 0.1900826446280992 0.008264462809917354 0.09917355371900824 0.1900826446280992 0.008264462809917354 0.008264462809917354 0.008264462809917354 0.0641711229946524 0.1229946524064171 0.0641711229946524 0.1818181818181818 0.2994652406417112 0.0641711229946524 0.0641711229946524 0.0641711229946524 0.0053475935828877 0.0641711229946524 0.0053475935828877 0.3409090909090908 0.09090909090909088 0.09090909090909088 0.1742424242424242 0.09090909090909088 0.007575757575757574 0.007575757575757574 0.1742424242424242 0.007575757575757574 0.007575757575757574 0.007575757575757574 0.0474308300395257 0.09090909090909091 0.09090909090909091 0.2648221343873518 0.2648221343873518 0.003952569169960475 0.1778656126482214 0.003952569169960475 0.003952569169960475 0.0474308300395257 0.003952569169960475 0.07359307359307357 0.264069264069264 0.09740259740259737 0.09740259740259737 0.1926406926406926 0.1212121212121212 0.04978354978354976 0.04978354978354976 0.04978354978354976 0.002164502164502164 0.002164502164502164 0.1508704061895551 0.1295938104448742 0.04448742746615085 0.299806576402321 0.06576402321083169 0.1083172147001934 0.1295938104448742 0.04448742746615085 0.02321083172147001 0.001934235976789168 0.001934235976789168 0.1363636363636364 0.1769041769041769 0.0823095823095823 0.1363636363636364 0.2039312039312039 0.06879606879606878 0.05528255528255527 0.1363636363636364 0.001228501228501228 0.001228501228501228 0.001228501228501228 0.07727272727272724 0.2522727272727272 0.2272727272727272 0.1022727272727272 0.1272727272727272 0.1272727272727272 0.02727272727272726 0.02727272727272726 0.02727272727272726 0.002272727272727272 0.002272727272727272 0.06744868035190617 0.06744868035190617 0.03519061583577713 0.1319648093841642 0.2287390029325514 0.1319648093841642 0.09970674486803521 0.1964809384164223 0.03519061583577713 0.002932551319648094 0.002932551319648094 0.0222634508348794 0.1038961038961039 0.06307977736549164 0.08348794063079776 0.1038961038961039 0.06307977736549164 0.0222634508348794 0.2263450834879406 0.2263450834879406 0.08348794063079776 0.001855287569573283 0.09090909090909088 0.2575757575757575 0.1742424242424242 0.2575757575757575 0.09090909090909088 0.007575757575757574 0.007575757575757574 0.09090909090909088 0.007575757575757574 0.007575757575757574 0.007575757575757574 0.209090909090909 0.1090909090909091 0.209090909090909 0.309090909090909 0.009090909090909089 0.009090909090909089 0.1090909090909091 0.009090909090909089 0.009090909090909089 0.009090909090909089 0.009090909090909089 0.1573426573426573 0.1958041958041958 0.1573426573426573 0.1188811188811189 0.1958041958041958 0.003496503496503497 0.08041958041958042 0.04195804195804196 0.04195804195804196 0.003496503496503497 0.003496503496503497 0.1272727272727272 0.1772727272727272 0.05227272727272725 0.2022727272727272 0.2772727272727272 0.02727272727272726 0.002272727272727272 0.05227272727272725 0.07727272727272724 0.002272727272727272 0.002272727272727272 0.1065830721003135 0.07210031347962383 0.07210031347962383 0.2789968652037618 0.2789968652037618 0.07210031347962383 0.03761755485893416 0.03761755485893416 0.03761755485893416 0.003134796238244514 0.003134796238244514 0.1155844155844156 0.1298701298701299 0.05844155844155843 0.1298701298701299 0.2012987012987013 0.1012987012987013 0.087012987012987 0.1298701298701299 0.02987012987012986 0.01558441558441558 0.001298701298701298 0.1042780748663101 0.1189839572192513 0.03074866310160427 0.2219251336898395 0.2072192513368984 0.07486631016042779 0.1042780748663101 0.1042780748663101 0.03074866310160427 0.001336898395721925 0.001336898395721925 0.1436210847975554 0.1100076394194041 0.08479755538579069 0.2024446142093201 0.2192513368983957 0.05118411000763941 0.08479755538579069 0.07639419404125287 0.01757066462948816 0.009167303284950343 0.0007639419404125286 0.1643356643356643 0.07779720279720281 0.06818181818181819 0.2027972027972028 0.2124125874125874 0.05856643356643357 0.1066433566433567 0.08741258741258742 0.01048951048951049 0.01048951048951049 0.0008741258741258742 0.1403912543153049 0.1530494821634062 0.1277330264672037 0.1783659378596087 0.1277330264672037 0.07710011507479861 0.1024165707710012 0.07710011507479861 0.01380897583429229 0.001150747986191024 0.001150747986191024 0.05723905723905722 0.09427609427609425 0.1868686868686869 0.2424242424242424 0.1868686868686869 0.0202020202020202 0.07575757575757573 0.1313131313131313 0.001683501683501683 0.001683501683501683 0.001683501683501683 0.1421254801536491 0.1702944942381562 0.1421254801536491 0.1562099871959027 0.1280409731113956 0.05761843790012803 0.07170294494238154 0.1139564660691421 0.01536491677336747 0.001280409731113956 0.001280409731113956 0.05741626794258374 0.004784688995215313 0.1626794258373206 0.05741626794258374 0.4258373205741628 0.004784688995215313 0.05741626794258374 0.215311004784689 0.004784688995215313 0.004784688995215313 0.004784688995215313 0.005050505050505052 0.06060606060606061 0.1161616161616162 0.2272727272727273 0.3383838383838385 0.005050505050505052 0.005050505050505052 0.2272727272727273 0.005050505050505052 0.005050505050505052 0.005050505050505052 0.002754820936639117 0.002754820936639117 0.1845730027548209 0.2451790633608815 0.1845730027548209 0.0330578512396694 0.1239669421487603 0.2148760330578511 0.002754820936639117 0.002754820936639117 0.002754820936639117 0.0158102766798419 0.0158102766798419 0.160737812911726 0.2476943346508564 0.3636363636363636 0.001317523056653491 0.04479578392621871 0.1462450592885376 0.001317523056653491 0.001317523056653491 0.001317523056653491 0.03863636363636364 0.001136363636363637 0.1761363636363636 0.2386363636363636 0.3011363636363636 0.001136363636363637 0.06363636363636364 0.1636363636363637 0.001136363636363637 0.01363636363636364 0.001136363636363637 0.04890282131661441 0.0006269592476489028 0.2420062695924765 0.2213166144200627 0.2764890282131661 0.01442006269592476 0.04890282131661441 0.1454545454545454 0.0006269592476489028 0.0006269592476489028 0.0006269592476489028 0.0261412407335154 0.000390167772142021 0.1548966055403823 0.2021069059695669 0.3952399531798673 0.008973858759266483 0.06476785017557549 0.1377292235661334 0.000390167772142021 0.008973858759266483 0.000390167772142021 0.02659690429474603 0.002616088947024199 0.170481796381077 0.249618487028559 0.3623283191628516 0.002616088947024199 0.05057771964246785 0.1345105733594942 0.0002180074122520166 0.0002180074122520166 0.0002180074122520166 0.02384500745156483 0.007451564828614007 0.1549925484351714 0.2533532041728763 0.3517138599105811 0.0001655903295247557 0.06756085444610034 0.1367776121874482 0.003808577579069381 0.0001655903295247557 0.0001655903295247557 0.02425699300699301 0.005026223776223776 0.1853146853146853 0.2381993006993007 0.3607954545454546 0.002622377622377622 0.04589160839160839 0.1324300699300699 0.0002185314685314686 0.005026223776223776 0.0002185314685314686 0.0304043782304652 0.003648525387655823 0.1942839768926726 0.1809060504712679 0.3615080571602312 0.003648525387655823 0.06719367588932808 0.1508057160231074 0.006993006993006995 0.0003040437823046519 0.0003040437823046519 0.0007513148009015778 0.01728024042073629 0.2073628850488355 0.3726521412471826 0.2404207362885049 0.0007513148009015778 0.009015777610818933 0.1247182569496619 0.009015777610818933 0.01728024042073629 0.0007513148009015778</probabilities>
		</cpt>
		<cpt id="ProgramHobby">
			<state id="No" />
			<state id="SYes__both" />
			<state id="SYes__I_contribute_to_open_source_projects" />
			<state id="SYes__I_program_as_a_hobby" />
			<parents>JobSatisfaction ChallengeMyself</parents>
			<probabilities>0.2331730769230769 0.06009615384615385 0.53125 0.1754807692307692 0.53125 0.03125 0.03125 0.40625 0.2459239130434782 0.03940217391304348 0.4144021739130435 0.3002717391304348 0.3951612903225806 0.008064516129032258 0.3951612903225806 0.2016129032258064 0.1528776978417266 0.0737410071942446 0.4262589928057554 0.3471223021582734 0.3214285714285714 0.03571428571428571 0.4642857142857142 0.1785714285714285 0.2146464646464647 0.06313131313131314 0.5277777777777778 0.1944444444444444 0.225 0.125 0.625 0.025 0.2224137931034483 0.06379310344827586 0.4155172413793103 0.2982758620689655 0.3897058823529412 0.09558823529411764 0.3308823529411765 0.1838235294117647 0.1522988505747127 0.04885057471264367 0.5775862068965517 0.221264367816092 0.3125 0.0625 0.5625 0.0625 0.2285407725321889 0.03111587982832618 0.5118025751072961 0.2285407725321889 0.25 0.02777777777777778 0.4722222222222222 0.25 0.2101769911504425 0.06563421828908554 0.4550147492625369 0.2691740412979351 0.3006756756756757 0.05743243243243244 0.4763513513513514 0.1655405405405405 0.1457446808510638 0.06063829787234043 0.5074468085106383 0.2861702127659574 0.0625 0.3125 0.5625 0.0625 0.2338337182448037 0.04907621247113164 0.4901847575057737 0.226905311778291 0.4027777777777777 0.125 0.4027777777777777 0.06944444444444445 0.2511980830670926 0.06110223642172524 0.4444888178913738 0.2432108626198083 0.3327067669172932 0.04699248120300752 0.3928571428571428 0.2274436090225564 0.1447990543735224 0.07151300236406619 0.5065011820330969 0.2771867612293144 0.40625 0.03125 0.40625 0.15625 0.2420071047957371 0.05728241563055062 0.4604795737122558 0.2402309058614565 0.3785714285714286 0.06428571428571428 0.3785714285714286 0.1785714285714286 0.2234848484848485 0.0609504132231405 0.4783057851239669 0.2372589531680441 0.3727544910179641 0.03742514970059881 0.4026946107784432 0.187125748502994 0.1170634920634921 0.0667989417989418 0.4583333333333333 0.3578042328042328 0.625 0.125 0.125 0.125 0.2168079096045198 0.06520715630885122 0.4719868173258003 0.2459981167608286 0.3967391304347826 0.04891304347826086 0.375 0.1793478260869565 0.2539009497964722 0.06869063772048846 0.435719131614654 0.2416892808683853 0.3936950146627566 0.0593841642228739 0.3643695014662757 0.1825513196480938 0.1303159173754556 0.06713244228432563 0.4766099635479951 0.3259416767922235 0.1388888888888889 0.25 0.25 0.3611111111111111 0.2113697705802969 0.05280026990553306 0.5062415654520918 0.2295883940620783 0.5153061224489796 0.02551020408163265 0.3724489795918367 0.08673469387755102 0.2347476428175264 0.07057681641708265 0.4798946200776484 0.2147809206877427 0.3575794621026895 0.07151589242053789 0.386919315403423 0.1839853300733496 0.1308673469387755 0.06760204081632654 0.4900510204081633 0.3114795918367347 0.25 0.02777777777777778 0.4722222222222222 0.25 0.2251702042450941 0.05736884261113336 0.4930917100520625 0.2243692430917101 0.4522471910112359 0.04775280898876404 0.3286516853932584 0.1713483146067416 0.2256423089756423 0.06181181181181181 0.4625458792125459 0.25 0.3462990936555891 0.05626888217522659 0.4052114803625378 0.1922205438066465 0.1395180023228804 0.05357142857142857 0.4629790940766551 0.343931475029036 0.15625 0.03125 0.53125 0.28125 0.2148423969518531 0.064166955316938 0.4718565985452026 0.2491340491860062 0.3061797752808988 0.08146067415730338 0.4747191011235955 0.1376404494382023 0.2187403757314444 0.06321219587311365 0.4454111487526948 0.2726362796427472 0.3239795918367347 0.0761661807580175 0.407069970845481 0.1927842565597667 0.1286853552440793 0.05666988883518608 0.4790961817303045 0.3355485741904302 0.2954545454545455 0.1136363636363636 0.3863636363636364 0.2045454545454546 0.2095974329054842 0.06198949824970828 0.4721411901983664 0.2562718786464411 0.3630952380952381 0.1488095238095238 0.3392857142857142 0.1488095238095238 0.1870352007932573 0.06804660386712939 0.4269955379276152 0.317922657411998 0.2848189415041782 0.05083565459610028 0.4491643454038997 0.2151810584958217 0.1329047949965254 0.06410701876302988 0.4463168867268937 0.3566712995135511 0.15625 0.03125 0.28125 0.53125 0.2089512711864407 0.05217161016949153 0.4451800847457627 0.2936970338983051 0.33 0.01 0.37 0.29 0.1940729483282675 0.07796352583586627 0.416565349544073 0.3113981762917933 0.2394859813084112 0.05257009345794392 0.3983644859813084 0.3095794392523364 0.1492737003058104 0.07817278287461774 0.4176223241590214 0.3549311926605505 0.2361111111111111 0.06944444444444445 0.2916666666666666 0.4027777777777777 0.1041183294663573 0.04418020108275329 0.5840100541376644 0.267691415313225 0.3214285714285714 0.05252100840336135 0.4642857142857142 0.1617647058823529 0.1369502868068834 0.0501434034416826 0.5740439770554493 0.2388623326959847 0.1659061277705345 0.05378096479791395 0.5713820078226858 0.2089308996088657 0.06660061646851607 0.0388595332452664 0.5729854689564069 0.3215543813298106 0.1479591836734694 0.1887755102040816 0.4132653061224489 0.25</probabilities>
		</cpt>
		<cpt id="FormalEducation">
			<state id="SBachelor_s_degree" />
			<state id="SDoctoral_degree" />
			<state id="SI_never_completed_any_formal_education" />
			<state id="SI_prefer_not_to_answer" />
			<state id="SMaster_s_degree" />
			<state id="SPrimary_elementary_school" />
			<state id="SProfessional_degree" />
			<state id="SSecondary_school" />
			<state id="SSome_college_university_study_without_earning_a_bachelor_s_degree" />
			<parents>MajorUndergrad JobSatisfaction</parents>
			<probabilities>0.5092592592592593 0.0925925925925926 0.00925925925925926 0.00925925925925926 0.2592592592592593 0.00925925925925926 0.0925925925925926 0.00925925925925926 0.00925925925925926 0.4444444444444444 0.01587301587301587 0.01587301587301587 0.01587301587301587 0.4444444444444444 0.01587301587301587 0.01587301587301587 0.01587301587301587 0.01587301587301587 0.1623931623931624 0.008547008547008548 0.008547008547008548 0.008547008547008548 0.4700854700854701 0.008547008547008548 0.08547008547008547 0.008547008547008548 0.2393162393162393 0.3611111111111112 0.003968253968253969 0.003968253968253969 0.003968253968253969 0.2896825396825397 0.003968253968253969 0.03968253968253969 0.003968253968253969 0.2896825396825397 0.4277777777777778 0.002777777777777778 0.002777777777777778 0.002777777777777778 0.3777777777777778 0.002777777777777778 0.002777777777777778 0.002777777777777778 0.1777777777777778 0.5708812260536399 0.001915708812260536 0.001915708812260536 0.001915708812260536 0.2605363984674329 0.001915708812260536 0.03639846743295019 0.001915708812260536 0.1226053639846743 0.5630461922596753 0.01248439450686641 0.001248439450686641 0.001248439450686641 0.2259675405742821 0.001248439450686641 0.01248439450686641 0.001248439450686641 0.181023720349563 0.4606650446066505 0.008110300081103 0.0008110300081103 0.0008110300081103 0.2708840227088403 0.0008110300081103 0.008110300081103 0.0008110300081103 0.2489862124898621 0.4698944754810676 0.02296710117939168 0.0006207324643078832 0.0006207324643078832 0.2687771570453135 0.0006207324643078832 0.01738050900062073 0.0006207324643078832 0.2184978274363749 0.5381083562901744 0.0009182736455463726 0.0009182736455463726 0.0009182736455463726 0.2405876951331496 0.0009182736455463726 0.0009182736455463726 0.0009182736455463726 0.2157943067033976 0.3684950773558369 0.02672292545710267 0.00140646976090014 0.00140646976090014 0.279887482419128 0.00140646976090014 0.01406469760900141 0.00140646976090014 0.3052039381153305 0.3900074571215511 0.02087994034302759 0.0007457121551081282 0.0007457121551081282 0.2893363161819538 0.0007457121551081282 0.04101416853094705 0.0007457121551081282 0.255779269202088 0.03703703703703703 0.3703703703703703 0.03703703703703703 0.03703703703703703 0.03703703703703703 0.03703703703703703 0.3703703703703703 0.03703703703703703 0.03703703703703703 0.1111111111111111 0.1111111111111111 0.1111111111111111 0.1111111111111111 0.1111111111111111 0.1111111111111111 0.1111111111111111 0.1111111111111111 0.1111111111111111 0.03703703703703703 0.03703703703703703 0.03703703703703703 0.03703703703703703 0.03703703703703703 0.03703703703703703 0.03703703703703703 0.03703703703703703 0.7037037037037037 0.3703703703703703 0.03703703703703703 0.03703703703703703 0.03703703703703703 0.3703703703703703 0.03703703703703703 0.03703703703703703 0.03703703703703703 0.03703703703703703 0.03703703703703703 0.03703703703703703 0.03703703703703703 0.03703703703703703 0.3703703703703703 0.03703703703703703 0.03703703703703703 0.03703703703703703 0.3703703703703703 0.1587301587301587 0.1587301587301587 0.01587301587301587 0.01587301587301587 0.4444444444444444 0.01587301587301587 0.1587301587301587 0.01587301587301587 0.01587301587301587 0.2074074074074074 0.1407407407407407 0.007407407407407407 0.007407407407407407 0.2074074074074074 0.007407407407407407 0.07407407407407407 0.007407407407407407 0.3407407407407407 0.2690058479532164 0.1111111111111111 0.005847953216374269 0.005847953216374269 0.1637426900584795 0.005847953216374269 0.1111111111111111 0.005847953216374269 0.3216374269005848 0.3004115226337449 0.1152263374485597 0.00411522633744856 0.00411522633744856 0.1152263374485597 0.00411522633744856 0.1152263374485597 0.00411522633744856 0.3374485596707819 0.5793650793650795 0.2936507936507937 0.00793650793650794 0.00793650793650794 0.00793650793650794 0.00793650793650794 0.07936507936507939 0.00793650793650794 0.00793650793650794 0.2936507936507937 0.007936507936507938 0.007936507936507938 0.007936507936507938 0.2936507936507937 0.007936507936507938 0.2222222222222223 0.007936507936507938 0.1507936507936508 0.3802469135802469 0.04691358024691358 0.002469135802469136 0.002469135802469136 0.2469135802469136 0.002469135802469136 0.1802469135802469 0.002469135802469136 0.1358024691358025 0.5407407407407409 0.0740740740740741 0.007407407407407409 0.007407407407407409 0.2740740740740741 0.007407407407407409 0.007407407407407409 0.007407407407407409 0.0740740740740741 0.5925925925925927 0.00925925925925926 0.00925925925925926 0.00925925925925926 0.2592592592592593 0.00925925925925926 0.0925925925925926 0.00925925925925926 0.00925925925925926 0.3950617283950617 0.006172839506172839 0.006172839506172839 0.006172839506172839 0.3395061728395061 0.006172839506172839 0.006172839506172839 0.006172839506172839 0.228395061728395 0.4894894894894895 0.08408408408408409 0.003003003003003003 0.003003003003003003 0.2192192192192192 0.003003003003003003 0.03003003003003003 0.003003003003003003 0.1651651651651652 0.5519713261648747 0.003584229390681004 0.003584229390681004 0.003584229390681004 0.2939068100358423 0.003584229390681004 0.03584229390681004 0.003584229390681004 0.1003584229390681 0.5022222222222222 0.02222222222222222 0.002222222222222222 0.002222222222222222 0.2222222222222222 0.002222222222222222 0.002222222222222222 0.002222222222222222 0.2422222222222222 0.4506866416978776 0.02372034956304619 0.001248439450686641 0.001248439450686641 0.3495630461922596 0.001248439450686641 0.01248439450686641 0.001248439450686641 0.1585518102372035 0.4781523096129837 0.02309612983770287 0.0006242197253433207 0.0006242197253433207 0.3770287141073657 0.0006242197253433207 0.02309612983770287 0.0006242197253433207 0.0961298377028714 0.4919717405266538 0.04688503532434167 0.0006422607578676941 0.0006422607578676941 0.2954399486191393 0.0006422607578676941 0.01798330122029544 0.0006422607578676941 0.1451509312780989 0.4517304189435337 0.0009107468123861564 0.0009107468123861564 0.0009107468123861564 0.4107468123861566 0.0009107468123861564 0.05009107468123861 0.0009107468123861564 0.08287795992714024 0.4809741248097413 0.0563165905631659 0.0015220700152207 0.0015220700152207 0.3028919330289193 0.0015220700152207 0.0015220700152207 0.0015220700152207 0.15220700152207 0.4183574879227053 0.04444444444444443 0.0009661835748792268 0.0009661835748792268 0.2531400966183575 0.0009661835748792268 0.01835748792270531 0.0009661835748792268 0.2618357487922705 0.4506172839506172 0.06172839506172839 0.006172839506172839 0.006172839506172839 0.3395061728395061 0.006172839506172839 0.006172839506172839 0.006172839506172839 0.1172839506172839 0.1319444444444445 0.3194444444444445 0.006944444444444446 0.006944444444444446 0.4444444444444445 0.006944444444444446 0.006944444444444446 0.006944444444444446 0.06944444444444446 0.3919753086419753 0.1975308641975309 0.00308641975308642 0.00308641975308642 0.3641975308641975 0.00308641975308642 0.0308641975308642 0.00308641975308642 0.00308641975308642 0.2914653784219002 0.1610305958132045 0.001610305958132045 0.001610305958132045 0.3639291465378422 0.001610305958132045 0.001610305958132045 0.001610305958132045 0.1755233494363929 0.2851153039832285 0.2285115303983228 0.002096436058700209 0.002096436058700209 0.3794549266247379 0.002096436058700209 0.0209643605870021 0.002096436058700209 0.07756813417190775 0.3313492063492063 0.1617063492063492 0.000992063492063492 0.000992063492063492 0.3938492063492063 0.000992063492063492 0.00992063492063492 0.000992063492063492 0.0992063492063492 0.3497698882314266 0.1840894148586456 0.0006574621959237342 0.0006574621959237342 0.343852728468113 0.0006574621959237342 0.01249178172255095 0.0006574621959237342 0.1071663379355687 0.3175562269217859 0.1816045652903659 0.0003356831151393085 0.0003356831151393085 0.4172541121181605 0.0003356831151393085 0.006377979187646861 0.0003356831151393085 0.07586438402148372 0.2808956916099773 0.2655895691609977 0.0002834467120181405 0.0002834467120181405 0.3421201814058957 0.0002834467120181405 0.01558956916099773 0.0002834467120181405 0.09467120181405896 0.3449854348730753 0.2438618393674574 0.0004161464835622139 0.0004161464835622139 0.2962962962962963 0.0004161464835622139 0.01539741989180191 0.0004161464835622139 0.09779442363712026 0.3551336146272855 0.190576652601969 0.0007032348804500702 0.0007032348804500702 0.2981715893108298 0.0007032348804500702 0.01969057665260197 0.0007032348804500702 0.1336146272855133 0.3637152777777778 0.1215277777777778 0.0004340277777777778 0.0004340277777777778 0.3246527777777778 0.0004340277777777778 0.008246527777777778 0.0004340277777777778 0.1801215277777778 0.6759259259259259 0.00925925925925926 0.00925925925925926 0.00925925925925926 0.0925925925925926 0.00925925925925926 0.00925925925925926 0.00925925925925926 0.175925925925926 0.3931623931623932 0.008547008547008548 0.008547008547008548 0.008547008547008548 0.3162393162393162 0.008547008547008548 0.008547008547008548 0.008547008547008548 0.2393162393162393 0.3919753086419753 0.05864197530864197 0.00308641975308642 0.00308641975308642 0.2808641975308642 0.00308641975308642 0.0308641975308642 0.00308641975308642 0.2253086419753086 0.4772313296903461 0.05100182149362478 0.001821493624772313 0.001821493624772313 0.3296903460837887 0.001821493624772313 0.01821493624772313 0.001821493624772313 0.1165755919854281 0.3956228956228957 0.01683501683501683 0.001683501683501683 0.001683501683501683 0.335016835016835 0.001683501683501683 0.03198653198653199 0.001683501683501683 0.2138047138047138 0.4638329604772558 0.04772557792692021 0.0007457121551081282 0.0007457121551081282 0.3027591349739001 0.0007457121551081282 0.0007457121551081282 0.0007457121551081282 0.1819537658463833 0.4283801874163319 0.04886211512717535 0.0006693440428380185 0.0006693440428380185 0.3862115127175367 0.0006693440428380185 0.03078982597054885 0.0006693440428380185 0.1030789825970549 0.376797385620915 0.05915032679738562 0.000326797385620915 0.000326797385620915 0.4120915032679738 0.000326797385620915 0.01503267973856209 0.000326797385620915 0.1356209150326798 0.4219689775245331 0.05729661285216841 0.0003165558721114277 0.0003165558721114277 0.3592909148464704 0.0003165558721114277 0.01456157011712567 0.0003165558721114277 0.1456157011712567 0.4254461715601612 0.05238917674150834 0.0005757052389176741 0.0005757052389176741 0.3684513529073114 0.0005757052389176741 0.01611974668969487 0.0005757052389176741 0.1352907311456534 0.3866146848602988 0.07667316439246262 0.0006497725795971409 0.0006497725795971409 0.3632228719948017 0.0006497725795971409 0.006497725795971409 0.0006497725795971409 0.1643924626380766 0.4613625971650663 0.03337905807041609 0.0004572473708276177 0.0004572473708276177 0.2391403749428441 0.0004572473708276177 0.0128029263831733 0.0004572473708276177 0.2514860539551897 0.2777777777777778 0.02777777777777778 0.02777777777777778 0.02777777777777778 0.2777777777777778 0.02777777777777778 0.02777777777777778 0.02777777777777778 0.2777777777777778 0.2777777777777778 0.02777777777777778 0.02777777777777778 0.02777777777777778 0.5277777777777778 0.02777777777777778 0.02777777777777778 0.02777777777777778 0.02777777777777778 0.6759259259259259 0.0925925925925926 0.00925925925925926 0.00925925925925926 0.175925925925926 0.00925925925925926 0.00925925925925926 0.00925925925925926 0.00925925925925926 0.4097222222222223 0.06597222222222224 0.003472222222222223 0.003472222222222223 0.3472222222222223 0.003472222222222223 0.003472222222222223 0.003472222222222223 0.1597222222222222 0.6111111111111112 0.03968253968253969 0.003968253968253969 0.003968253968253969 0.2896825396825397 0.003968253968253969 0.003968253968253969 0.003968253968253969 0.03968253968253969 0.5021367521367521 0.05982905982905983 0.002136752136752137 0.002136752136752137 0.3098290598290598 0.002136752136752137 0.0405982905982906 0.002136752136752137 0.07905982905982906 0.5348148148148147 0.02814814814814814 0.001481481481481481 0.001481481481481481 0.3081481481481481 0.001481481481481481 0.001481481481481481 0.001481481481481481 0.1214814814814815 0.5244029075804777 0.03842159916926272 0.001038421599169263 0.001038421599169263 0.2533748701973001 0.001038421599169263 0.01038421599169263 0.001038421599169263 0.1692627206645898 0.475517890772128 0.04331450094161957 0.000941619585687382 0.000941619585687382 0.3738229755178907 0.000941619585687382 0.03483992467043313 0.000941619585687382 0.06873822975517889 0.4819624819624819 0.06637806637806636 0.001443001443001443 0.001443001443001443 0.339105339105339 0.001443001443001443 0.01443001443001443 0.001443001443001443 0.09235209235209232 0.4606481481481481 0.002314814814814815 0.002314814814814815 0.002314814814814815 0.3356481481481481 0.002314814814814815 0.002314814814814815 0.002314814814814815 0.1898148148148148 0.398989898989899 0.05808080808080807 0.001262626262626262 0.001262626262626262 0.2967171717171717 0.001262626262626262 0.04671717171717171 0.001262626262626262 0.1944444444444444 0.6246913580246913 0.02469135802469136 0.002469135802469136 0.002469135802469136 0.2469135802469136 0.002469135802469136 0.002469135802469136 0.002469135802469136 0.09135802469135802 0.6603174603174603 0.003174603174603174 0.003174603174603174 0.003174603174603174 0.2888888888888889 0.003174603174603174 0.003174603174603174 0.003174603174603174 0.03174603174603174 0.5013888888888888 0.001388888888888889 0.001388888888888889 0.001388888888888889 0.3888888888888888 0.001388888888888889 0.01388888888888889 0.001388888888888889 0.08888888888888886 0.6673654786862333 0.01956673654786862 0.0006988120195667364 0.0006988120195667364 0.23340321453529 0.0006988120195667364 0.006988120195667364 0.0006988120195667364 0.06988120195667363 0.5658212560386473 0.01147342995169082 0.0006038647342995168 0.0006038647342995168 0.3321256038647343 0.0006038647342995168 0.01147342995169082 0.0006038647342995168 0.07669082125603863 0.6249627643729521 0.01638367590110217 0.0002978850163836759 0.0002978850163836759 0.2764372952040512 0.0002978850163836759 0.01638367590110217 0.0002978850163836759 0.06464104855525767 0.5793120514724078 0.02920069289779758 0.0002474634991338778 0.0002474634991338778 0.3209601583766395 0.0002474634991338778 0.006928977975748579 0.0002474634991338778 0.06260826528087109 0.5341026779109337 0.02411599349016127 0.0001479508803077379 0.0001479508803077379 0.3277111998816394 0.0001479508803077379 0.01479508803077379 0.0001479508803077379 0.09868323716526116 0.5225460886895865 0.02927254608868959 0.0001245640259093174 0.0001245640259093174 0.3263577478824116 0.0001245640259093174 0.006851021425012457 0.0001245640259093174 0.1144743398106627 0.5327276962497088 0.0484509666899604 0.0002329373398555789 0.0002329373398555789 0.2979268576752854 0.0002329373398555789 0.01700442580945725 0.0002329373398555789 0.1029583042161659 0.5235638114895081 0.04059167526659787 0.0003439972480220158 0.0003439972480220158 0.3006535947712419 0.0003439972480220158 0.02201582387340901 0.0003439972480220158 0.1117991056071552 0.4870248538011695 0.01663011695906432 0.0001827485380116959 0.0001827485380116959 0.171235380116959 0.0001827485380116959 0.01498538011695906 0.0001827485380116959 0.3093932748538011 0.5435435435435436 0.003003003003003003 0.003003003003003003 0.003003003003003003 0.1381381381381381 0.003003003003003003 0.08408408408408409 0.003003003003003003 0.2192192192192192 0.4894894894894895 0.003003003003003003 0.003003003003003003 0.003003003003003003 0.2732732732732733 0.003003003003003003 0.003003003003003003 0.003003003003003003 0.2192192192192192 0.4722222222222223 0.001633986928104575 0.001633986928104575 0.001633986928104575 0.2222222222222222 0.001633986928104575 0.06045751633986927 0.001633986928104575 0.2369281045751634 0.4334121355397951 0.0007880220646178092 0.0007880220646178092 0.007880220646178094 0.2277383766745469 0.0007880220646178092 0.01497241922773838 0.0007880220646178092 0.3128447596532703 0.416354556803995 0.0006242197253433207 0.0006242197253433207 0.0006242197253433207 0.2365792759051186 0.0006242197253433207 0.04556803995006242 0.0006242197253433207 0.2983770287141074 0.3968710089399745 0.006066411238825032 0.0003192848020434227 0.0003192848020434227 0.2531928480204342 0.0003192848020434227 0.0491698595146871 0.0003192848020434227 0.2934227330779055 0.4155064155064155 0.000273000273000273 0.000273000273000273 0.000273000273000273 0.2361452361452361 0.000273000273000273 0.03467103467103467 0.000273000273000273 0.3123123123123123 0.4430130613705492 0.001789228842368939 0.0001789228842368939 0.0001789228842368939 0.1966362497763464 0.0001789228842368939 0.04365718375380211 0.001789228842368939 0.3125782787618536 0.4826692581794622 0.0001619695497246518 0.0001619695497246518 0.0001619695497246518 0.1619695497246518 0.0001619695497246518 0.03806284418529316 0.0001619695497246518 0.3164885001619696 0.4171797126942245 0.005570214013485781 0.0002931691586045148 0.0002931691586045148 0.1929053063617708 0.0002931691586045148 0.05834066256229845 0.0002931691586045148 0.3248314277338024 0.4027360694027361 0.01835168501835168 0.000333667000333667 0.000333667000333667 0.1895228561895229 0.000333667000333667 0.0363697030363697 0.00333667000333667 0.348682015348682 0.4501683501683501 0.007744107744107743 0.0001683501683501683 0.0001683501683501683 0.1244107744107744 0.0001683501683501683 0.02592592592592593 0.0001683501683501683 0.391077441077441 0.6033229491173416 0.009865005192107996 0.0005192107995846313 0.0005192107995846313 0.2715472481827622 0.0005192107995846313 0.0005192107995846313 0.0005192107995846313 0.112668743509865 0.5455840455840455 0.01353276353276353 0.0007122507122507121 0.0007122507122507121 0.334045584045584 0.0007122507122507121 0.01994301994301994 0.0007122507122507121 0.08404558404558403 0.5926803580832017 0.01448130595050026 0.0002632964718272775 0.0002632964718272775 0.2585571353343866 0.0002632964718272775 0.01211163770405477 0.0002632964718272775 0.1211163770405477 0.5897552819577444 0.01930384556923545 0.0001519987840097279 0.0001519987840097279 0.2395500835993312 0.0001519987840097279 0.006991944064447485 0.0001519987840097279 0.1437908496732026 0.5860985419808949 0.01256913021618904 0.0001256913021618904 0.0001256913021618904 0.260306686777275 0.0001256913021618904 0.005781799899446959 0.0001256913021618904 0.1347410759175465 0.5830176767676768 0.01654040404040404 6.313131313131313e-05 6.313131313131313e-05 0.2523358585858586 6.313131313131313e-05 0.01483585858585859 6.313131313131313e-05 0.1330176767676768 0.5780067702110713 0.01259458383114297 4.978096375945838e-05 4.978096375945838e-05 0.266178813221824 4.978096375945838e-05 0.01169852648347272 0.0004978096375945839 0.1308741537236161 0.567350473289737 0.01534832333004867 2.986055122577563e-05 2.986055122577563e-05 0.2725372510376541 2.986055122577563e-05 0.006748484577025291 2.986055122577563e-05 0.1378960255606318 0.5456564197233593 0.02097546619578886 2.675442116809803e-05 2.675442116809803e-05 0.2807876501591888 2.675442116809803e-05 0.01182545415629933 0.0002675442116809803 0.1404072022901784 0.5166137566137566 0.02023280423280423 4.232804232804233e-05 4.232804232804233e-05 0.2971851851851852 4.232804232804233e-05 0.01451851851851852 4.232804232804233e-05 0.1512804232804233 0.5316988161769125 0.03251006550087135 6.009254251547383e-05 6.009254251547383e-05 0.2374857280211526 6.009254251547383e-05 0.02223424073072532 0.0006009254251547383 0.1752899465176372 0.4749854566608493 0.006773040804454416 4.155239757333998e-05 0.0004155239757333998 0.1271918889719937 4.155239757333998e-05 0.01200864289869526 0.0004155239757333998 0.3781268179173938 0.2638888888888889 0.01388888888888889 0.01388888888888889 0.01388888888888889 0.01388888888888889 0.01388888888888889 0.01388888888888889 0.01388888888888889 0.6388888888888888 0.8222222222222223 0.02222222222222223 0.02222222222222223 0.02222222222222223 0.02222222222222223 0.02222222222222223 0.02222222222222223 0.02222222222222223 0.02222222222222223 0.6464646464646465 0.0101010101010101 0.0101010101010101 0.0101010101010101 0.101010101010101 0.0101010101010101 0.0101010101010101 0.0101010101010101 0.191919191919192 0.5703703703703704 0.003703703703703704 0.003703703703703704 0.003703703703703704 0.1037037037037037 0.003703703703703704 0.07037037037037039 0.003703703703703704 0.2370370370370371 0.6555555555555556 0.05555555555555556 0.005555555555555556 0.005555555555555556 0.05555555555555556 0.005555555555555556 0.005555555555555556 0.005555555555555556 0.2055555555555555 0.5174603174603174 0.06031746031746032 0.003174603174603174 0.003174603174603174 0.146031746031746 0.003174603174603174 0.003174603174603174 0.003174603174603174 0.2603174603174603 0.5357686453576864 0.0289193302891933 0.0015220700152207 0.0015220700152207 0.1659056316590563 0.0015220700152207 0.015220700152207 0.0015220700152207 0.2480974124809741 0.4618357487922705 0.009661835748792268 0.0009661835748792268 0.0009661835748792268 0.1922705314009661 0.0009661835748792268 0.02705314009661835 0.0009661835748792268 0.3053140096618357 0.5047372954349699 0.01636520241171404 0.0008613264427217915 0.0008613264427217915 0.140396210163652 0.0008613264427217915 0.008613264427217916 0.0008613264427217915 0.326442721791559 0.6643274853801169 0.001169590643274854 0.001169590643274854 0.001169590643274854 0.08538011695906431 0.001169590643274854 0.001169590643274854 0.001169590643274854 0.2432748538011695 0.5555555555555556 0.03247863247863248 0.001709401709401709 0.001709401709401709 0.1401709401709402 0.001709401709401709 0.001709401709401709 0.001709401709401709 0.2632478632478633 0.4598765432098766 0.05709876543209876 0.00154320987654321 0.00154320987654321 0.08487654320987653 0.00154320987654321 0.05709876543209876 0.00154320987654321 0.3348765432098765 0.1388888888888889 0.01388888888888889 0.01388888888888889 0.01388888888888889 0.1388888888888889 0.01388888888888889 0.01388888888888889 0.01388888888888889 0.6388888888888888 0.3518518518518519 0.01851851851851852 0.01851851851851852 0.01851851851851852 0.01851851851851852 0.01851851851851852 0.01851851851851852 0.01851851851851852 0.5185185185185185 0.1623931623931624 0.08547008547008547 0.008547008547008548 0.008547008547008548 0.2393162393162393 0.008547008547008548 0.008547008547008548 0.008547008547008548 0.4700854700854701 0.05291005291005291 0.005291005291005291 0.005291005291005291 0.005291005291005291 0.1481481481481481 0.005291005291005291 0.005291005291005291 0.005291005291005291 0.7671957671957671 0.1352657004830918 0.04830917874396135 0.004830917874396135 0.004830917874396135 0.2222222222222222 0.004830917874396135 0.04830917874396135 0.004830917874396135 0.5265700483091788 0.165374677002584 0.002583979328165374 0.002583979328165374 0.002583979328165374 0.1188630490956072 0.002583979328165374 0.04909560723514212 0.002583979328165374 0.6537467700258398 0.1273148148148148 0.002314814814814815 0.002314814814814815 0.002314814814814815 0.06481481481481481 0.002314814814814815 0.06481481481481481 0.002314814814814815 0.7314814814814815 0.1078748651564185 0.001078748651564185 0.001078748651564185 0.001078748651564185 0.09816612729234087 0.001078748651564185 0.03020496224379719 0.001078748651564185 0.7583603020496223 0.1078748651564185 0.001078748651564185 0.001078748651564185 0.001078748651564185 0.1078748651564185 0.001078748651564185 0.001078748651564185 0.001078748651564185 0.7777777777777778 0.1214814814814815 0.001481481481481481 0.001481481481481481 0.001481481481481481 0.06814814814814815 0.001481481481481481 0.001481481481481481 0.01481481481481482 0.7881481481481483 0.08662900188323916 0.01883239171374765 0.001883239171374765 0.001883239171374765 0.06967984934086628 0.001883239171374765 0.01883239171374765 0.001883239171374765 0.7984934086629002 0.2069716775599129 0.01089324618736384 0.001089324618736383 0.001089324618736383 0.07952069716775599 0.001089324618736383 0.03050108932461874 0.01089324618736384 0.6579520697167757 0.6074074074074075 0.007407407407407409 0.007407407407407409 0.007407407407407409 0.2740740740740741 0.007407407407407409 0.007407407407407409 0.007407407407407409 0.0740740740740741 0.47953216374269 0.005847953216374269 0.005847953216374269 0.005847953216374269 0.1637426900584795 0.005847953216374269 0.005847953216374269 0.005847953216374269 0.3216374269005848 0.6277777777777778 0.002777777777777778 0.002777777777777778 0.002777777777777778 0.2027777777777778 0.002777777777777778 0.02777777777777778 0.002777777777777778 0.1277777777777778 0.6722925457102672 0.0140646976090014 0.00140646976090014 0.00140646976090014 0.1279887482419128 0.00140646976090014 0.02672292545710267 0.00140646976090014 0.1533052039381153 0.667755991285403 0.01089324618736383 0.001089324618736383 0.001089324618736383 0.1481481481481481 0.001089324618736383 0.01089324618736383 0.001089324618736383 0.1579520697167756 0.5284827975183305 0.01579244218838127 0.0005640157924421883 0.0005640157924421883 0.2289904117315285 0.0005640157924421883 0.02594472645234066 0.0005640157924421883 0.1985335589396503 0.561427280939476 0.008581752484191508 0.0004516711833785004 0.0004516711833785004 0.1915085817524842 0.0004516711833785004 0.01671183378500451 0.0004516711833785004 0.2199638663053297 0.5449887928274095 0.003202049311559398 0.0003202049311559398 0.0003202049311559398 0.2135766890810119 0.0003202049311559398 0.01472942683317323 0.0003202049311559398 0.2222222222222222 0.5187283600881335 0.008813345923827511 0.0003147623544224111 0.0003147623544224111 0.2354422411079635 0.0003147623544224111 0.02864337425243941 0.0003147623544224111 0.2071136292099465 0.5181907571288101 0.01376597836774828 0.0004916420845624385 0.0004916420845624385 0.204031465093412 0.0004916420845624385 0.01819075712881022 0.0004916420845624385 0.2438544739429695 0.5645994832041343 0.006459948320413436 0.0006459948320413435 0.0006459948320413435 0.1866925064599483 0.0006459948320413435 0.01227390180878553 0.0006459948320413435 0.2273901808785529 0.5115480649188514 0.008739076154806492 0.0003121098626716604 0.0003121098626716604 0.1182896379525593 0.0003121098626716604 0.01435705368289638 0.0003121098626716604 0.3458177278401998 0.45679012345679 0.1234567901234568 0.01234567901234568 0.01234567901234568 0.2345679012345679 0.01234567901234568 0.01234567901234568 0.01234567901234568 0.1234567901234568 0.5679012345679013 0.01234567901234568 0.01234567901234568 0.01234567901234568 0.3456790123456791 0.01234567901234568 0.01234567901234568 0.01234567901234568 0.01234567901234568 0.6464646464646465 0.0101010101010101 0.0101010101010101 0.0101010101010101 0.101010101010101 0.0101010101010101 0.0101010101010101 0.0101010101010101 0.191919191919192 0.5700483091787441 0.004830917874396136 0.004830917874396136 0.004830917874396136 0.3961352657004831 0.004830917874396136 0.004830917874396136 0.004830917874396136 0.004830917874396136 0.4555555555555555 0.05555555555555556 0.005555555555555556 0.005555555555555556 0.1555555555555556 0.005555555555555556 0.05555555555555556 0.005555555555555556 0.2555555555555555 0.5023148148148148 0.002314814814814815 0.002314814814814815 0.002314814814814815 0.4189814814814815 0.002314814814814815 0.002314814814814815 0.002314814814814815 0.06481481481481481 0.5523349436392915 0.01610305958132045 0.001610305958132045 0.001610305958132045 0.2914653784219002 0.001610305958132045 0.01610305958132045 0.001610305958132045 0.1175523349436393 0.589605734767025 0.008960573476702509 0.0008960573476702508 0.0008960573476702508 0.2347670250896057 0.0008960573476702508 0.008960573476702509 0.0008960573476702508 0.1541218637992831 0.6181953765846383 0.007457121551081282 0.0007457121551081281 0.0007457121551081281 0.2356450410141685 0.0007457121551081281 0.02759134973900074 0.0007457121551081281 0.1081282624906786 0.5150150150150149 0.01501501501501501 0.001501501501501501 0.001501501501501501 0.4204204204204203 0.001501501501501501 0.001501501501501501 0.001501501501501501 0.04204204204204203 0.5838383838383838 0.00202020202020202 0.00202020202020202 0.00202020202020202 0.2929292929292929 0.00202020202020202 0.0202020202020202 0.00202020202020202 0.09292929292929292 0.4948148148148149 0.001481481481481481 0.001481481481481481 0.001481481481481481 0.1881481481481481 0.001481481481481481 0.01481481481481482 0.001481481481481481 0.2948148148148148 0.4074074074074074 0.2074074074074075 0.007407407407407409 0.007407407407407409 0.2074074074074075 0.007407407407407409 0.007407407407407409 0.007407407407407409 0.1407407407407408 0.2222222222222223 0.07936507936507937 0.007936507936507938 0.007936507936507938 0.507936507936508 0.007936507936507938 0.07936507936507937 0.007936507936507938 0.07936507936507937 0.3641975308641975 0.05864197530864197 0.00308641975308642 0.00308641975308642 0.4475308641975309 0.00308641975308642 0.0308641975308642 0.00308641975308642 0.08641975308641975 0.3863247863247863 0.03247863247863248 0.001709401709401709 0.001709401709401709 0.4786324786324787 0.001709401709401709 0.001709401709401709 0.001709401709401709 0.09401709401709402 0.4622222222222222 0.1022222222222222 0.002222222222222222 0.002222222222222222 0.3022222222222222 0.002222222222222222 0.04222222222222222 0.002222222222222222 0.08222222222222221 0.2962962962962963 0.09932659932659933 0.0008417508417508417 0.0008417508417508417 0.462962962962963 0.0008417508417508417 0.01599326599326599 0.0008417508417508417 0.1220538720538721 0.3637747336377473 0.06925418569254185 0.00076103500761035 0.00076103500761035 0.3980213089802131 0.00076103500761035 0.0350076103500761 0.00076103500761035 0.1308980213089802 0.3325310870437225 0.0834336141195347 0.0004011231448054553 0.0004011231448054553 0.4300040112314481 0.0004011231448054553 0.02567188126754914 0.0004011231448054553 0.1267549137585239 0.3174119241192412 0.146680216802168 0.0003387533875338753 0.0003387533875338753 0.4302168021680217 0.0003387533875338753 0.009485094850948511 0.0003387533875338753 0.0948509485094851 0.3410965550703542 0.1183891314895682 0.0004852013585638039 0.0004852013585638039 0.410965550703542 0.0004852013585638039 0.03978651140223192 0.0004852013585638039 0.08782144590004852 0.3874074074074074 0.1274074074074074 0.0007407407407407406 0.0007407407407407406 0.3407407407407407 0.0007407407407407406 0.02074074074074074 0.0007407407407407406 0.1207407407407407 0.3537206931702344 0.0693170234454638 0.000509683995922528 0.000509683995922528 0.2803261977573904 0.000509683995922528 0.01427115188583078 0.000509683995922528 0.2803261977573904 0.00205761316872428 0.00205761316872428 0.242798353909465 0.1502057613168724 0.0205761316872428 0.03909465020576131 0.00205761316872428 0.5390946502057613 0.00205761316872428 0.003003003003003003 0.003003003003003003 0.2192192192192192 0.1651651651651652 0.03003003003003003 0.003003003003003003 0.003003003003003003 0.5705705705705706 0.003003003003003003 0.02741702741702741 0.001443001443001443 0.05339105339105338 0.09235209235209232 0.01443001443001443 0.09235209235209232 0.001443001443001443 0.7027417027417027 0.01443001443001443 0.01623931623931624 0.0008547008547008545 0.1239316239316239 0.07777777777777777 0.0008547008547008545 0.08547008547008546 0.0008547008547008545 0.693162393162393 0.0008547008547008545 0.01426426426426426 0.0007507507507507505 0.06831831831831831 0.06831831831831831 0.0007507507507507505 0.08858858858858856 0.0007507507507507505 0.7575075075075074 0.0007507507507507505 0.003561253561253561 0.0003561253561253561 0.08048433048433049 0.1317663817663818 0.003561253561253561 0.08368945868945868 0.003561253561253561 0.6926638176638177 0.0003561253561253561 0.008641975308641978 0.000308641975308642 0.07253086419753088 0.1114197530864198 0.000308641975308642 0.05308641975308643 0.000308641975308642 0.7475308641975309 0.005864197530864199 0.003416037396619922 0.0001797914419273643 0.05519597267170084 0.1005034160373966 0.008270406328658757 0.08108594030924129 0.0001797914419273643 0.7445163610212154 0.006652283351312478 0.001515840533575868 0.0001515840533575868 0.0574503562225254 0.08746399878732759 0.005608609974230711 0.06563589510383509 0.0001515840533575868 0.7777777777777779 0.004244353494012431 0.002324500232450024 0.0002324500232450023 0.07136215713621573 0.100650860065086 0.0002324500232450023 0.04834960483496049 0.0002324500232450023 0.7721989772198977 0.004416550441655045 0.002208968411751712 0.0002208968411751712 0.1155290479346145 0.1095648332228849 0.002208968411751712 0.06582725867020103 0.0002208968411751712 0.6920698034018113 0.01214932626463442 0.001977530043244888 2.173109937631744e-05 0.03053219462372601 0.1478801312558402 0.0004128908881500315 0.1594193450246648 0.0004128908881500315 0.6575613360279896 0.001781950148858031 0.5555555555555556 0.05555555555555555 0.05555555555555555 0.05555555555555555 0.05555555555555555 0.05555555555555555 0.05555555555555555 0.05555555555555555 0.05555555555555555 0.6222222222222222 0.02222222222222222 0.02222222222222222 0.02222222222222222 0.2222222222222222 0.02222222222222222 0.02222222222222222 0.02222222222222222 0.02222222222222222 0.1851851851851852 0.01851851851851852 0.01851851851851852 0.01851851851851852 0.3518518518518519 0.01851851851851852 0.01851851851851852 0.01851851851851852 0.3518518518518519 0.5185185185185185 0.01851851851851852 0.01851851851851852 0.01851851851851852 0.3518518518518519 0.01851851851851852 