<?xml version="1.0" encoding="ISO-8859-1"?>
<!-- This network was created in GeNIe Academic, which can be used for educational and research purposes only -->
<smile version="1.0" id="Unnamed" numsamples="10000" discsamples="10000">
	<nodes>
		<cpt id="JobSatisfaction">
			<state id="State0" />
			<state id="State1" />
			<state id="State2" />
			<state id="State3" />
			<state id="State4" />
			<state id="State5" />
			<state id="State6" />
			<state id="State7" />
			<state id="State8" />
			<state id="State9" />
			<state id="State10" />
			<probabilities>0.02362430312258607 0.01028279344820949 0.04792559499148061 0.03936007318381142 0.04612844385890767 0.09042487500666037 0.1116484559501296 0.1898726943397468 0.209482653673116 0.131777118764394 0.09947299366095799</probabilities>
		</cpt>
		<cpt id="CompanySize">
			<state id="S10_to_19_employees" />
			<state id="S100_to_499_employees" />
			<state id="S1000_to_4999_employees" />
			<state id="S10000_or_more_employees" />
			<state id="S20_to_99_employees" />
			<state id="S500_to_999_employees" />
			<state id="S5000_to_9999_employees" />
			<state id="SFewer_than_10_employees" />
			<state id="SI_prefer_not_to_answer" />
			<parents>JobSatisfaction</parents>
			<probabilities>0.1156598974202647 0.1579567906111932 0.07733049567995255 0.1931056380030399 0.1717655229216944 0.06353355027290887 0.03575604031720012 0.161083213049293 0.02380885172445343 0.1120869747554258 0.174754781959037 0.1109702943656495 0.1564917042013196 0.1894954670079493 0.06126978446015693 0.05231809544633592 0.1319587899206638 0.01065410788346214 0.112688750711557 0.1625447825068606 0.1016269732004742 0.1645211738451643 0.2015823353590253 0.06987054797475244 0.04640326507618333 0.1149830212608139 0.02577915006516892 0.09607078485858271 0.179923561766395 0.08907842396234003 0.1810672742820656 0.2266176664980417 0.06239547045580926 0.05217653309089858 0.1000245659118923 0.01264571917397501 0.1214477477217245 0.1778973089474369 0.09525485828698808 0.1517742268444892 0.2196965089660326 0.0608090589620324 0.05149377273171412 0.1040983729950125 0.01752814454456962 0.113182930446068 0.1938934190825827 0.1116915359033142 0.1488270995838268 0.2135447163894049 0.07153403429070888 0.0409120007196835 0.09020699262373143 0.01620727096067965 0.09669979287910849 0.2021268627889036 0.09972529035837734 0.1480883107716134 0.2386466463955331 0.07026331939199482 0.04600902209575285 0.08349155316057194 0.01494920215814433 0.09740206757225318 0.1958218539386145 0.1080026964343338 0.1472783335287396 0.2332731258774118 0.0621228025841064 0.04319969298316303 0.09473703274943862 0.01816239433193891 0.1066152358331611 0.1971698075080968 0.1031434955097061 0.1481476889270035 0.2322133431742154 0.06762057497514408 0.04268917629645554 0.08885116103966732 0.01354951673655032 0.1110889060560322 0.1992800444933586 0.09896068538693698 0.1498866230942721 0.2210483370655886 0.06525140227397079 0.03640345904664816 0.1008044691278118 0.01727607345538098 0.1311102930710366 0.1669280873791325 0.08289002982371492 0.1298503438285609 0.2188912429199553 0.05790547978559666 0.03329324650059286 0.1458289818796192 0.03330229481179105</probabilities>
		</cpt>
		<cpt id="CompanyType">
			<state id="SGovernment_agency_or_public_school_university" />
			<state id="SI_prefer_not_to_answer" />
			<state id="SNon_profit_non_governmental_organization_or_private_school_university" />
			<state id="SPre_series_A_startup" />
			<state id="SPrivately_held_limited_company_not_in_startup_mode" />
			<state id="SPublicly_traded_corporation" />
			<state id="SSole_proprietorship_or_partnership_not_in_startup_mode" />
			<state id="SSomething_else" />
			<state id="SState_owned_company" />
			<state id="SVenture_funded_startup" />
			<parents>JobSatisfaction</parents>
			<probabilities>0.08357644786267321 0.06152626302469995 0.04050078400882529 0.03440698299011511 0.4578445238645059 0.1449506231799705 0.09105225112925538 0.007366932821197211 0.03308255608249158 0.04569263503626599 0.0906735957897685 0.04002863364451244 0.03159160723139436 0.03057310760142709 0.4850898085479289 0.1626769144967869 0.05913775726043378 0.0114708915806712 0.03457361519626414 0.05418406865081291 0.1015816851166059 0.05636639458386086 0.05727797815895836 0.04059642986794582 0.416260442060435 0.1535546138654457 0.08759058435431706 0.01780462351726369 0.03182535081942941 0.03714189765573826 0.07748063247509761 0.03897565743713901 0.03399169236474094 0.01942003067891468 0.4885998831685671 0.167660129228253 0.08180685084840095 0.01240270597772646 0.02999769656322621 0.0496647212579341 0.06492773182281877 0.04315406906041909 0.02787789865808089 0.04156124313146195 0.5220296352114187 0.1416997870224317 0.08367592542171119 0.007556441051554006 0.01814347683970019 0.04937379178040349 0.06984781941185775 0.05522925315955134 0.03430020829079361 0.03144559315321558 0.4910928549781354 0.1543906076198829 0.08621242325078984 0.007666792859201579 0.02348259665837014 0.04633185061820183 0.06181309547501099 0.05141663135110964 0.02997197655718791 0.02994132662643569 0.4998314415484561 0.1631317978605981 0.07674203425514438 0.01108584357429712 0.01756331022417881 0.05850254252758106 0.06874343969615629 0.04970581933735625 0.03244991260303655 0.0312868152640114 0.4751999342573644 0.1764393851360546 0.07841507993649986 0.007373982365543374 0.01846327727643222 0.06192235412754511 0.0700409869492587 0.04458998906178219 0.03440894240931736 0.03288716563061477 0.4629666255481282 0.177636875864804 0.07952624876659578 0.0104026987432889 0.01428662145936165 0.07325384556684847 0.06046511547679466 0.04986707001962004 0.03881482474132755 0.04276726674471205 0.4501025155569853 0.1651960682177805 0.07675373613887375 0.009244925058604003 0.01725181074740224 0.0895366672978999 0.06921123066381138 0.07231793331765062 0.03339217629790231 0.06071575855984767 0.4249835026345269 0.1415102458017324 0.07790822064031658 0.01066309760475601 0.01737978380110621 0.0919180506783497</probabilities>
		</cpt>
		<cpt id="CompetePeers">
			<state id="Agree" />
			<state id="Disagree" />
			<state id="SSomewhat_agree" />
			<state id="SStrongly_agree" />
			<state id="SStrongly_disagree" />
			<parents>JobSatisfaction</parents>
			<probabilities>0.2345086277940354 0.2234550979807451 0.2802535574449398 0.1410859610294983 0.1206967557507812 0.2315486420194538 0.2824252563245991 0.2793411580502358 0.1054059297563371 0.1012790138493741 0.247677890942491 0.2586163875966539 0.2675362546178223 0.1312238548328442 0.09494561201018857 0.1790129088772003 0.315181439198117 0.3122659338622535 0.07459455027949614 0.1189451677829331 0.2339161105708997 0.3105988077096359 0.2862499868525633 0.07998234020696238 0.08925275465993859 0.2388132875970283 0.2780779993147384 0.3106529475595436 0.07820390492465452 0.09425186060403543 0.2314690256742999 0.3158443097963003 0.2991980090873009 0.07362864255383497 0.07986001288826391 0.2319608367200454 0.3169354680087486 0.2968522283531733 0.06228820624171032 0.09196326067632235 0.2004146503560287 0.3475976903593074 0.2875401901881842 0.05792143579213996 0.1065260333043397 0.1858491516362586 0.3578189405517144 0.278119114970136 0.0550483245871779 0.1231644682547131 0.1674481233252058 0.3026384325565976 0.2450539132899712 0.1105592456590803 0.1743002851691452</probabilities>
		</cpt>
		<cpt id="Country">
			<state id="Afghanistan" />
			<state id="SAland_Islands" />
			<state id="Albania" />
			<state id="Algeria" />
			<state id="SAmerican_Samoa" />
			<state id="Andorra" />
			<state id="Angola" />
			<state id="Anguilla" />
			<state id="Antarctica" />
			<state id="SAntigua_and_Barbuda" />
			<state id="Argentina" />
			<state id="Armenia" />
			<state id="Aruba" />
			<state id="Australia" />
			<state id="Austria" />
			<state id="Azerbaidjan" />
			<state id="Bahamas" />
			<state id="Bahrain" />
			<state id="Bangladesh" />
			<state id="Barbados" />
			<state id="Belarus" />
			<state id="Belgium" />
			<state id="Belize" />
			<state id="Benin" />
			<state id="Bermuda" />
			<state id="Bhutan" />
			<state id="Bolivia" />
			<state id="SBosnia_Herzegovina" />
			<state id="Botswana" />
			<state id="SBouvet_Island" />
			<state id="Brazil" />
			<state id="SBritish_Indian_Ocean_Territory" />
			<state id="SBrunei_Darussalam" />
			<state id="Bulgaria" />
			<state id="SBurkina_Faso" />
			<state id="Burundi" />
			<state id="Cambodia" />
			<state id="Cameroon" />
			<state id="Canada" />
			<state id="SCape_Verde" />
			<state id="SCayman_Islands" />
			<state id="Chad" />
			<state id="Chile" />
			<state id="China" />
			<state id="SChristmas_Island" />
			<state id="Colombia" />
			<state id="Comoros" />
			<state id="SCook_Islands" />
			<state id="SCosta_Rica" />
			<state id="Croatia" />
			<state id="Cuba" />
			<state id="Cyprus" />
			<state id="SCzech_Republic" />
			<state id="Denmark" />
			<state id="Djibouti" />
			<state id="SDominican_Republic" />
			<state id="Ecuador" />
			<state id="Egypt" />
			<state id="SEl_Salvador" />
			<state id="Eritrea" />
			<state id="Estonia" />
			<state id="Ethiopia" />
			<state id="SFalkland_Islands" />
			<state id="Fiji" />
			<state id="Finland" />
			<state id="France" />
			<state id="SFrench_Guyana" />
			<state id="Gabon" />
			<state id="Georgia" />
			<state id="Germany" />
			<state id="Ghana" />
			<state id="Gibraltar" />
			<state id="Greece" />
			<state id="Guam" />
			<state id="Guatemala" />
			<state id="Guinea" />
			<state id="Guyana" />
			<state id="Haiti" />
			<state id="SHeard_and_McDonald_Islands" />
			<state id="Honduras" />
			<state id="SHong_Kong" />
			<state id="Hungary" />
			<state id="Iceland" />
			<state id="India" />
			<state id="Indonesia" />
			<state id="Iran" />
			<state id="Iraq" />
			<state id="Ireland" />
			<state id="Israel" />
			<state id="Italy" />
			<state id="SIvory_Coast__Cote_D_Ivoire_" />
			<state id="Jamaica" />
			<state id="Japan" />
			<state id="Jordan" />
			<state id="Kazakhstan" />
			<state id="Kenya" />
			<state id="Kuwait" />
			<state id="Kyrgyzstan" />
			<state id="Laos" />
			<state id="Latvia" />
			<state id="Lebanon" />
			<state id="Lesotho" />
			<state id="Libya" />
			<state id="Liechtenstein" />
			<state id="Lithuania" />
			<state id="Luxembourg" />
			<state id="Macau" />
			<state id="Macedonia" />
			<state id="Madagascar" />
			<state id="Malawi" />
			<state id="Malaysia" />
			<state id="Mali" />
			<state id="Malta" />
			<state id="SMartinique__French_" />
			<state id="Mauritius" />
			<state id="Mexico" />
			<state id="Moldavia" />
			<state id="Monaco" />
			<state id="Mongolia" />
			<state id="Montenegro" />
			<state id="Montserrat" />
			<state id="Morocco" />
			<state id="Mozambique" />
			<state id="Myanmar" />
			<state id="Namibia" />
			<state id="Nepal" />
			<state id="Netherlands" />
			<state id="SNetherlands_Antilles" />
			<state id="SNew_Caledonia__French_" />
			<state id="SNew_Zealand" />
			<state id="Nicaragua" />
			<state id="Niger" />
			<state id="Nigeria" />
			<state id="SNorth_Korea" />
			<state id="SNorthern_Mariana_Islands" />
			<state id="Norway" />
			<state id="Oman" />
			<state id="Pakistan" />
			<state id="Panama" />
			<state id="Paraguay" />
			<state id="Peru" />
			<state id="Philippines" />
			<state id="SPitcairn_Island" />
			<state id="Poland" />
			<state id="SPolynesia__French_" />
			<state id="Portugal" />
			<state id="SPuerto_Rico" />
			<state id="Qatar" />
			<state id="SReunion__French_" />
			<state id="Romania" />
			<state id="SRussian_Federation" />
			<state id="Rwanda" />
			<state id="SS__Georgia___S__Sandwich_Isls_" />
			<state id="SSaint_Helena" />
			<state id="SSaint_Lucia" />
			<state id="SSaint_Vincent___Grenadines" />
			<state id="SSaudi_Arabia" />
			<state id="Senegal" />
			<state id="Serbia" />
			<state id="Seychelles" />
			<state id="Singapore" />
			<state id="SSlovak_Republic" />
			<state id="Slovenia" />
			<state id="Somalia" />
			<state id="SSouth_Africa" />
			<state id="SSouth_Korea" />
			<state id="Spain" />
			<state id="SSri_Lanka" />
			<state id="Sudan" />
			<state id="Suriname" />
			<state id="Swaziland" />
			<state id="Sweden" />
			<state id="Switzerland" />
			<state id="Syria" />
			<state id="Tadjikistan" />
			<state id="Taiwan" />
			<state id="Tanzania" />
			<state id="Thailand" />
			<state id="Togo" />
			<state id="STrinidad_and_Tobago" />
			<state id="Tunisia" />
			<state id="Turkey" />
			<state id="Turkmenistan" />
			<state id="SU_S__Minor_Outlying_Islands" />
			<state id="Uganda" />
			<state id="Ukraine" />
			<state id="SUnited_Arab_Emirates" />
			<state id="SUnited_Kingdom" />
			<state id="SUnited_States" />
			<state id="Uruguay" />
			<state id="Uzbekistan" />
			<state id="SVatican_City_State" />
			<state id="Venezuela" />
			<state id="Vietnam" />
			<state id="SVirgin_Islands__British_" />
			<state id="SVirgin_Islands__USA_" />
			<state id="Yemen" />
			<state id="Zaire" />
			<state id="Zambia" />
			<state id="Zimbabwe" />
			<parents>JobSatisfaction</parents>
			<probabilities>0.002095553892530315 0.002693020036677354 0.001366146525408517 0.00867346879755951 0.003836573907384822 7.130480137037147e-06 0.002367473495467683 4.00286971848302e-05 0.0006343685522385022 4.463330566771472e-06 6.691800887537602e-06 0.0009731048170622618 0.001468837307308082 0.01379140659849594 0.00606910250708928 0.002811014345221926 0.0001489465154827116 4.98117880432111e-06 0.004618762039771465 4.141496931071042e-06 5.00559122119565e-06 0.007837277702520023 0.0009293546781268145 4.220598891537532e-05 4.147239112554072e-06 8.146719564359472e-06 0.001085678907119251 0.003359672180108411 5.24991232836517e-06 0.0001422014380212721 0.01347852109311191 0.0001015834858459672 1.53492822978618e-05 0.001895952511772877 4.141496931071042e-06 0.0008324408831452793 6.412375795542926e-06 7.774531813094276e-06 0.03818629953124105 4.141496931071042e-06 4.141496931071042e-06 4.15120910516734e-06 2.195830814295174e-05 0.006348388751193566 0.0008166653930023249 0.002650333375971634 0.0008324406515114925 1.057930449750371e-05 0.002581473891872759 4.615099019793468e-06 4.51176343045579e-06 4.153035695647963e-06 0.003202591407005455 9.374394142966634e-06 4.237777505247013e-06 0.0005378227202066266 7.911004638183715e-06 0.006396240931295799 4.195486465789037e-06 4.194163903776369e-06 0.002453855308274151 0.004932798191121977 4.141496931071042e-06 0.0008878557610205985 0.005193700314429801 0.0347737402323736 4.141496931071042e-06 4.141496931071042e-06 5.119296710750342e-06 0.07051258519591927 5.219191206537302e-06 4.141496931071042e-06 0.00432334250332414 4.141496931071042e-06 4.513499348082074e-06 4.141496931071042e-06 5.527670047487852e-06 1.079387119163729e-05 0.0007387988678958363 5.873861276187906e-06 0.001131218764801926 0.005135715160668921 5.867696865751894e-06 0.1568446342343157 0.01086238780828279 0.01218428794552415 6.636041924127107e-06 0.007979302160108885 0.009604203170260903 0.01724418542690637 4.141496931071042e-06 7.271430446605851e-06 0.009416273772796017 0.000987144763108555 5.910022402725246e-06 1.459039637671884e-05 4.517495418557446e-06 4.570399245868648e-06 1.863253071487936e-05 0.001065436409164822 6.210609405463394e-06 4.141496931071042e-06 0.001663650504430539 4.141496931071042e-06 6.317095853143658e-06 0.001551884997980435 4.141496931071042e-06 6.375267168718996e-06 4.719073364193363e-06 7.270078359984534e-05 0.007984615200595966 0.00010355685887963 4.695107041025189e-06 0.0008324408831452796 0.001463265873274383 0.002175853441383512 0.001618148800427298 4.48211031820084e-06 0.000951988493193432 4.149539579380018e-06 4.147372139413271e-06 0.003092283539241149 4.530629106371839e-06 0.0008739535728235863 4.141496931071042e-06 0.008520961516128273 0.01206537431679269 4.142875828311109e-06 4.86249347448041e-06 0.006488020684731929 5.097860910685743e-06 9.573998680315357e-06 0.006767696318575973 0.002694422548178396 4.141496931071042e-06 0.004452397416672431 6.087030379095088e-06 0.00598099117048142 4.751366903059531e-06 4.478735518702197e-06 9.78260152088431e-06 0.01965172532141259 4.141496931071042e-06 0.01729072527486547 8.106217752239356e-06 0.008119607388892952 4.801594377577082e-06 0.0008370086615128719 5.502334489313884e-06 0.01254670114345356 0.005577322451101931 0.001422346723195341 4.141496931071042e-06 4.148854419450889e-06 0.0008343117118828091 4.141496931071042e-06 0.001666437647416786 9.314173248484678e-06 0.002984500893267583 4.141496931071042e-06 0.01002325723442542 0.001026879704666758 0.005590668887023953 7.611736944390819e-06 0.003167241316828485 0.005670455026184925 0.01668849971039758 0.004814909547507491 0.0009005534951827579 4.141496931071042e-06 0.001395210130518876 0.01252072152531027 0.01116961899604479 0.001176845143717491 8.128344167384505e-06 0.003767114935773833 0.001129288978846824 0.002099005841440123 0.001059333998426649 4.824691824624884e-06 0.005042595231227397 0.006499843424916297 4.141496931071042e-06 5.515225043496204e-06 0.0008759457869328502 0.003941078139891409 0.003722555765584782 0.07284575425775569 0.1791302668293041 0.0009086197557704636 5.89521142392301e-06 5.94805760458973e-06 0.001907315770018924 0.002823754003333399 0.0001601324937937645 4.141496931071042e-06 4.250888753768562e-06 4.141496931071042e-06 4.695591919994879e-06 8.400376708706024e-06 0.009795026454575258 1.830338026085099e-05 0.01209411052484345 0.005283102152911383 7.966421645708155e-05 1.607293124446459e-05 2.750193731011407e-05 3.800367505080397e-05 4.444775762546106e-05 1.033579808858509e-05 1.666247485597066e-05 1.30304875113943e-05 1.688981710129644e-05 0.01620286239873776 0.02121523452525815 3.130926024440345e-05 9.870361665621681e-05 1.079731470591686e-05 0.00318888448436396 9.480904619984213e-06 1.172791239522587e-05 0.004494478712966404 1.859285343583539e-05 0.001774290281074194 1.320263744219327e-05 1.847200227305144e-05 9.84358881480718e-06 1.396544894499533e-05 2.490680780295931e-05 9.785644464456956e-06 0.009091559941349489 0.0001064727796469091 0.001505935291541061 0.002423937696288347 9.480904619984213e-06 9.480904619984272e-06 0.00904586067041711 0.007298553792200691 0.02969640810045676 9.480904619984213e-06 9.480904619984213e-06 1.562571883530751e-05 1.114181118250909e-05 0.002485877591950122 1.563196317148146e-05 1.060332123026392e-05 9.481421032375008e-06 1.959912979200714e-05 1.170462077765296e-05 0.002250827566789234 0.002132909802037697 9.600543635978617e-06 0.006946944163692541 0.002303395374321733 1.137892655026779e-05 1.186800085903536e-05 1.250840452931542e-05 0.003067085424971782 1.150472235544799e-05 3.34637197065462e-05 0.002352473996646379 7.450176690318112e-05 9.480904619984213e-06 0.0004749989447917176 0.004497067695793226 0.04806983525546248 9.480904619984213e-06 9.480904619984213e-06 0.002546438381118511 0.04521380129199044 0.002870365192413184 9.480904619984213e-06 0.002660791622451302 9.480904619984213e-06 1.123668152378056e-05 9.480904619984213e-06 1.503171525256964e-05 1.749402952366697e-05 5.820923202427934e-05 1.209489588114429e-05 1.487842316059629e-05 0.007068872827863834 1.25803324593114e-05 0.1864968373011651 0.01526831179872672 0.02982187983492622 0.003644509642754638 0.006650167001825552 0.0023705647251089 0.01405085194947069 9.480904619984213e-06 3.292285856929448e-05 0.00884941483836911 1.225746948316516e-05 2.593606284019712e-05 0.01297493156324082 1.033836126806722e-05 1.192773912617689e-05 4.426018898994013e-05 1.070437314963093e-05 2.425111921371669e-05 9.480904619984213e-06 1.791905681320765e-05 9.480904619984213e-06 1.224279426591546e-05 0.00243337275236691 9.480904619984213e-06 1.33037748140908e-05 1.170693182890842e-05 0.001022727011459574 0.003975282049435645 9.764201444014104e-05 0.004288056954065138 9.480904619984213e-06 0.0001194901348740456 0.002288095915566269 1.046924562564477e-05 2.658535741249094e-05 1.539055901787687e-05 1.061129582313737e-05 0.0002295595660920576 0.004078175248589911 2.649722968134047e-05 0.00234013409615996 9.480904619984213e-06 0.007215760580697988 0.002648095783333522 1.293981996351193e-05 1.203975989647748e-05 0.002278246866555667 1.166194250394336e-05 0.000145563253723139 0.004817149344611775 2.433603531698641e-05 9.480904619984213e-06 1.109115276927917e-05 7.224238332797776e-05 0.01613827503534022 1.160756274236292e-05 9.926952827233424e-06 0.002443651129464697 0.02042637948484591 9.480904619984213e-06 0.01669574052321104 1.847556222930407e-05 0.006937064058227803 1.508293002546774e-05 1.931181377819943e-05 1.258166340844642e-05 1.196528685228516e-05 0.006753960637153204 2.986512735879824e-05 9.480904619984213e-06 0.001817245793736067 1.423016880219816e-05 9.480904619984213e-06 1.824610921152066e-05 0.0001376371626747887 1.145816974293908e-05 9.480904619984213e-06 0.008760045979446409 0.002493320854278762 0.005195982812816278 2.071788307773821e-05 0.00927152391876864 0.006169079498065002 0.0254639191563417 3.3864347170131e-05 0.004714991006999955 9.480904619984213e-06 1.394388914769609e-05 0.004348475502957961 0.01278991912052367 2.104164262952475e-05 1.847425305705009e-05 0.002668374883544307 1.297367240044733e-05 0.002930721563828742 0.0003178921725331317 1.695409471554481e-05 0.003119442997871061 0.002619947608553717 9.480904619984213e-06 1.31525104226351e-05 1.859849342447366e-05 0.004409658879387794 1.198607759510442e-05 0.05044931469752219 0.1800603891325415 1.158848524084754e-05 1.425671464888886e-05 0.001829309841351659 0.006107138702636823 0.002941056784665279 0.0001129012747981217 9.480904619984213e-06 0.003534743312988024 9.480904619984213e-06 3.555969518940628e-05 1.231222584946538e-05 0.002137240260341199 0.00049771417287918 0.00166271840660719 0.001535468154306953 5.588532666931864e-06 0.000665199136255205 4.067009153662411e-05 2.796749019858207e-06 0.0007617388289483066 0.0008122025884739935 0.005882106930872038 0.00189599384568031 4.844656205026173e-05 0.01561364062796317 0.005936078862240825 4.212258176825817e-06 2.322296697233916e-05 2.417282903956901e-06 0.006632032169908252 2.042629075469617e-06 0.0004948732212496295 0.003335681087374788 0.0002579926799014674 2.402780250266137e-05 2.092289862316118e-06 4.031350996147019e-06 2.108845546919111e-06 0.000605025181270105 3.220230737101403e-06 5.771816731256322e-06 0.01167587277732134 3.011877404872207e-05 0.0001122385705358225 0.001490923684786888 2.042629075469617e-06 2.042629075469617e-06 3.332058635366022e-06 0.0002935311637918602 0.02946487668752246 2.042629075469617e-06 2.042629075469617e-06 0.0003775341556348454 0.004941890752177224 0.01079353343932653 2.738640411955623e-06 0.0005093410631334081 2.042629308318144e-06 0.0003960239615372237 0.0003526465582814441 0.002670450664744259 2.236623410927072e-06 2.070044109782555e-06 0.006685684637666709 0.005206074929213544 0.0004027120649149395 0.001565741078187305 0.000915411394220957 0.003647734776697254 2.142820529117855e-06 2.14002793656893e-06 4.621017194008272e-05 0.0001189987698360089 2.042629075469617e-06 2.908948627102447e-06 0.002731771284538049 0.03433306611860916 2.042629075469617e-06 2.042629075469617e-06 2.854119864464297e-06 0.09400178737373852 0.00234113239922165 2.042629075469617e-06 0.01121825449088906 2.042629075469617e-06 2.32369302722149e-06 2.042629075469617e-06 3.223602536152343e-06 1.232154263628602e-05 3.028382367902597e-05 3.181339755076578e-06 0.003541302161201406 0.00616387280133758 0.001025859439509654 0.1939529285789247 0.00417748726894888 0.01058787585726443 0.0008811785755128479 0.0004621914505259574 0.007626180831082036 0.02389119822441204 2.042629075469617e-06 9.817043602947548e-05 0.008847114460766539 0.0004253609413416185 0.001928977815408227 0.003046081132325184 2.228234765519478e-06 2.338575302968048e-06 5.792873085228426e-06 0.002712517915614207 4.595044702255166e-06 2.042629075469617e-06 4.233335537404947e-06 2.042629075469617e-06 0.003201928370414353 2.833183602379185e-06 2.042629075469617e-06 0.0007843114161004905 2.29179461931921e-06 1.096745169483746e-05 0.006837747440763036 2.658050042181348e-05 0.0002064908160244284 2.042629075469617e-06 5.034463431427336e-06 0.007289653093160172 0.001188317700703179 2.472062152635998e-05 0.0004927125626932778 0.0003967909547889476 2.164867978247946e-06 0.000519467456533216 2.409615636865722e-06 0.0009282908103641762 0.0004105684441693923 0.005540854313940673 0.007641566420948493 2.047719634611241e-06 2.314613727365149e-06 0.003895104122411736 2.653773198972859e-06 3.088034095078487e-06 0.005698956855651802 5.846171431519547e-06 2.042629075469617e-06 0.001839283223681289 0.0005431180003958814 0.01960151052322486 0.0002829046782432583 2.218527577249366e-06 0.0005308787440944947 0.003255346692009985 2.042629075469617e-06 0.01980022212020906 4.031710981267227e-06 0.008638749309959519 0.0004269311950509953 7.672324388918219e-06 2.714562780906795e-06 0.007036768477401035 0.01843603606260462 3.99103603627105e-06 2.042629075469617e-06 2.805441674338862e-06 2.177480934245049e-06 2.042629075469617e-06 0.002755311294763273 5.445323459872783e-06 0.002537139166463645 2.042629075469617e-06 0.004376930837560467 0.008353425769933722 0.00448004708643088 0.00202520242921356 0.00497216143424455 0.004999049548497584 0.01152580407716135 0.004147561483201574 2.327972602188944e-06 2.042629075469617e-06 2.605200301005518e-06 0.008323685482571924 0.008007870206805164 0.0002474200273679385 4.012699672149426e-06 0.002361071156930047 2.782128881499025e-06 0.002521063975369394 7.315159301491849e-06 0.001735939741951034 4.263964264794919e-06 0.01204054374396363 2.042629075469617e-06 0.0004770230523409063 0.001232595438263245 0.00357036768958735 0.002113902884480449 0.05193589870305625 0.1759277385230773 0.0005107151210309117 0.002489650290310572 3.373407993176101e-06 0.001370924390377412 0.003435435841817364 0.0001299387481083303 2.042629075469617e-06 2.173702412520285e-06 2.042629075469617e-06 2.561523010832597e-06 0.001085420800862822 0.002743763671383179 0.001070091077250979 0.004026151887234854 0.002309032903075445 1.125030772910841e-05 3.89040514765735e-06 6.500227735776091e-06 4.729771701218432e-06 4.574445870313638e-06 2.569964095072417e-06 0.003588415099345214 0.0006275822147738877 5.062905934040983e-06 0.02294056074835304 0.01018829353221371 4.144731057115119e-06 4.266674513829439e-05 2.716694947335151e-06 0.003362694768700599 2.476874934775265e-06 0.003100363156396268 0.002844960920861284 5.633908595847006e-06 6.934047805714673e-06 9.472479290645143e-06 0.0009694873804570254 2.526063695994976e-06 0.0006674435465916295 5.787883137855432e-06 2.819707903347634e-06 0.01589036224105588 2.765882547013569e-05 0.002148452958865564 0.005324605879329984 2.476874934775265e-06 2.476874934775265e-06 3.45766502637708e-06 4.034926110823683e-06 0.0325892206526653 2.476874934775265e-06 2.476874934775265e-06 3.363098463956787e-06 0.0005950967973151217 0.003624421843726689 2.910907967126248e-06 0.003248323803372827 2.47687510144842e-06 4.372227846509871e-06 0.0006317742511089796 0.003513468726359036 0.001106764587461797 2.564692576278401e-06 0.008807094681332605 0.003032416411374485 3.311542706382916e-06 0.0006165344000553474 3.527765258549451e-06 0.004957293289560571 2.910305674888541e-06 0.0009823867191766831 0.001828080624677744 0.001872272252689048 2.476874934775265e-06 0.0002612361095745439 0.002369346754747778 0.0321888683473418 0.0004978518618898291 2.476874934775265e-06 0.000689626878999807 0.08344843260948227 0.002911736421626163 2.476874934775265e-06 0.005050916803462423 2.476874934775265e-06 0.0005885121136944023 2.476874934775265e-06 4.860403602230519e-06 4.766387410867748e-06 4.503751648330965e-06 3.401120495922347e-06 0.006361204533818152 0.008429275236666497 3.502391290439664e-06 0.1422776864545266 0.004199604024388897 0.01137988817759067 4.508472386458768e-06 0.003424270154372052 0.00526233839364713 0.01559905558283899 2.476874934775265e-06 0.001190446937196816 0.009224107024297561 2.820988794473673e-06 0.000699822687485745 0.005649771377255927 2.700900531440119e-06 0.0006339826587984386 5.272696150086691e-06 0.001634163881168943 0.002064544175347955 0.0004978518618898295 4.417356054311335e-06 2.476874934775265e-06 3.06782963749096e-06 0.0006229979570989469 2.476874934775265e-06 0.000597269342488588 3.531284046802559e-06 4.976782836365274e-06 0.00577390134835532 3.453272031673116e-05 0.001676597662524228 0.0004978518618898287 4.379602689010897e-06 0.00402138055743887 0.001697153368034924 5.5289063884917e-06 3.322716433648936e-06 2.947297552829474e-06 1.450589442919136e-05 0.003150532732010883 0.0007043398268215881 0.001121487153815074 2.476874934775265e-06 0.003630995735012706 0.006279268657389848 4.213067321319628e-06 2.968657759511194e-06 0.003963313636977748 0.0006299570754617391 0.001371058613900284 0.008433758513421666 6.564340620978473e-06 2.476874934775265e-06 0.003541929673325533 4.104253632344457e-06 0.008329584420304358 0.001150805597564374 0.001102083943533613 2.918762220091538e-06 0.007435113527338383 2.476874934775265e-06 0.03023550368655223 4.834605645830576e-06 0.005488129590407017 2.902023305772546e-06 2.970339967141446e-06 3.287030648789203e-06 0.003618307530283325 0.0169129932177559 5.448104706468099e-06 2.476874934775265e-06 4.555513182477299e-06 2.440032504046635e-05 0.0004978518618898287 0.001379895181666112 1.927039068133397e-05 0.004104788832580308 2.476874934775265e-06 0.004446490521811219 0.003079484543769914 0.005753780196259443 5.120255998680947e-06 0.008187235378709912 0.003547655827760847 0.0154042054254506 0.002556821624822209 3.134209427827609e-06 2.476874934775265e-06 3.416520862585141e-06 0.006773157066211682 0.01088089156213896 3.666956077337097e-06 4.839631694514481e-06 0.003111638881039663 0.001900300960996949 0.003116489828774396 8.089305784461091e-06 3.60000983387364e-06 0.002576169826845486 0.0135011483617231 2.476874934775265e-06 0.001303089672481357 0.001906261736301571 0.005885141720038744 0.00283009929243495 0.08161100972681394 0.1907806685587585 0.001236354168887367 0.001381218535355181 3.282245102885686e-06 0.0006066082669998943 0.002022797692836876 5.543494367065595e-05 2.476874934775265e-06 2.728958562004437e-05 2.476874934775265e-06 3.605662501653553e-06 0.001326652813505107 4.415688315634068e-06 4.321127681227095e-06 0.0007204036412565009 1.069817005339231e-05 1.57184509023011e-05 3.077882089390511e-06 4.767807992660549e-06 2.915039738127957e-06 0.0006257503362226343 2.312878689652762e-06 0.006564149156821536 2.693151620253532e-06 3.988794478599899e-06 0.01803220130009312 0.006256101614548591 0.002114148622415836 6.056558609000075e-05 0.0004688055251229926 0.003773429125678741 0.0004244222033783224 0.00052972857256065 0.004449966396012407 3.226808977534457e-06 0.0003973542408175984 2.935392722946942e-06 4.117733714673097e-06 0.000432053469098225 3.045691387795105e-06 0.001351615876850351 2.51415268039199e-06 0.0184663743117331 4.545234906463271e-05 5.006379385917489e-05 0.006093896663233676 2.111553250638418e-06 2.111553250638418e-06 3.160514294156653e-06 0.0009798123763659695 0.03769370427585297 2.111553250638418e-06 2.111553250638418e-06 2.552163921510117e-06 0.0005214512656316049 0.005240005445467879 2.261210947376374e-06 0.001400008104681558 2.111553299134417e-06 3.903101661136505e-06 2.794721218725195e-06 0.002529922771462782 0.00192202888154364 0.0004361623674316074 0.006150005817514262 0.0005256096480660009 3.762363470748129e-06 0.001140666566937611 3.005953063381386e-06 0.002458894914351829 2.524370050911598e-06 3.220532053696329e-06 0.001582709729128203 0.001804918484144259 0.0004244222033783223 9.055787070729201e-06 0.003592450832192889 0.02665615872266444 2.111553250638418e-06 0.0004244222033783223 0.003125383294644538 0.07312469339693647 0.00310619183998638 2.111553250638418e-06 0.006544470112514708 2.111553250638418e-06 2.556957051313596e-06 2.111553250638418e-06 0.0009319305346454359 4.407059228466782e-06 2.588132693790133e-06 2.802848482234745e-06 0.002236467607751457 0.008390259620300405 2.924041971280156e-06 0.1757958983933577 0.002544309742105802 0.00940283079868608 0.0007368276854324585 0.00839938416294736 0.004537207062307025 0.01882777961065406 2.111553250638418e-06 1.2924479921163e-05 0.008979059578727269 0.001951495061121834 0.0006349179401382422 0.002537959376488759 2.30235272986669e-06 2.745594160811157e-06 1.142619375227987e-05 0.0009287345888978265 0.0006372816576078172 2.111553250638418e-06 3.728464065344532e-06 2.111553250638418e-06 0.003799300263986748 2.575279039877666e-06 2.111553250638418e-06 0.001009804283428451 0.000591791288943521 3.143117045331982e-06 0.005304572762251062 4.627953449275918e-05 0.0009863460333387351 2.111553250638418e-06 1.05435836691701e-05 0.007429267518521385 0.0004848435513396821 0.0003589775407954126 0.001138160478363839 2.610637060330756e-06 0.000353154226961515 0.006246415902969651 0.0008745588864436036 0.002507256420845656 2.111553250638418e-06 0.00344148277353003 0.009466661292805744 2.51323729742888e-06 2.588478511996044e-06 0.002592460912114689 2.82396986793772e-06 5.478452005436693e-05 0.00849336642627181 0.001125884627295613 2.111553250638418e-06 0.002543486951878089 0.0007811552569136609 0.009436476440952551 0.0005149004915988852 2.242072525122336e-06 0.0009652176704139282 0.007551491522562577 2.111553250638418e-06 0.02486542955384136 4.144745748709932e-06 0.006246051585215654 3.016759220247711e-06 0.0005421790655919136 2.801426563533445e-06 0.006776848658808773 0.01708548364303636 5.303084184087546e-05 2.111553250638418e-06 2.579788645703521e-06 1.641731097666986e-05 2.111553250638418e-06 0.002291489269381469 0.0005855841466400185 0.001551395677810177 2.111553250638418e-06 0.005361618879128283 0.003366314862271331 0.002766689866791545 7.125749279523332e-06 0.007086043429771559 0.004464815272061009 0.01282165562502938 0.003388129256983552 0.000579823574861381 2.111553250638418e-06 2.654164924915944e-06 0.009794361796557439 0.01228682898009272 4.293274330112065e-06 4.131314609520921e-06 0.002735555372204173 2.856059399131079e-06 0.001100574509734658 0.0001123882563419895 2.966058218161565e-06 0.002369738428347771 0.009051891997158007 2.111553250638418e-06 4.468733302563571e-06 0.001152974230059373 0.009137111693953259 0.003422238795938099 0.07618408878824406 0.1859072176807979 0.002028200796311459 0.0005942473888290243 6.943949569307139e-06 0.0005073534499201644 0.003508676273299004 0.0001438280716208004 2.111553250638418e-06 3.192934973056585e-06 2.111553250638418e-06 0.001515056671356195 0.0005013610350957691 0.0003820743993427974 0.001242064827828228 0.001107305225031968 2.717793102339549e-06 5.1989494494819e-06 1.642125383074425e-06 2.65954270815548e-06 1.939556109898932e-06 0.0004932379303303799 1.126383016852622e-06 0.006065199691327277 0.001384509858878075 2.945171597679796e-06 0.01534247388461293 0.007410998240611829 0.0004084431117322464 1.07396348959769e-05 0.0002389483882724032 0.008966728961017346 0.0002168705114665173 0.001623058015310489 0.005441400455731435 5.335728197542731e-06 3.679479796902486e-06 1.353169119948198e-06 2.10557951798225e-06 0.0006563849747338022 0.0008724267942654606 0.000416156457420696 1.395118746779662e-06 0.01353141069513202 1.66172980406613e-05 1.157988163323482e-05 0.007617235216924322 1.078957768490135e-06 0.0002168705114665171 0.0003265088927764146 1.586723505025976e-06 0.02840580861766153 1.078957768490135e-06 0.0002168705114665171 1.355132578820027e-06 0.002061257122757252 0.00567798230297498 1.23204158911339e-06 0.001169979392884085 1.07895789452191e-06 1.567491627489277e-06 0.001053749223691005 0.003794903293977077 0.0007467673345269485 0.0002243187221819698 0.006640136483178358 0.002842697879413168 1.504603110950412e-06 0.001148188962135998 0.0008867774117416798 0.002452208911637105 0.0005175705481128562 1.739433723018378e-06 0.0005151581023113576 0.001225851645485566 1.078957768490135e-06 0.0001958146580894669 0.003068724625467827 0.03445537030955564 1.078957768490135e-06 1.078957768490135e-06 0.000309316674932333 0.07267060428415423 0.001247204432884534 1.078957768490135e-06 0.00591620871754862 1.078957768490135e-06 0.000255622167075032 1.078957768490135e-06 2.336073062030598e-06 2.46235191496957e-06 1.553180555912954e-06 1.595466294850504e-06 0.003763286867828505 0.00463339083915323 0.0003298115069858591 0.1578264272921214 0.007535030413395266 0.01773709362972834 0.0003515361279166121 0.004376738902768865 0.006823170213059985 0.01374276810215337 0.0002168705114665176 0.0004512439507447372 0.008170358586757534 0.001745539294795821 0.0003144441161384156 0.001556959425023848 0.0002365021201262059 0.0002796286912064522 7.572243156205698e-05 0.001893466107377836 0.00191485012080953 1.078957768490135e-06 1.892237224300059e-06 0.000432662065164545 0.003240312844588576 0.0007721129507516748 1.078957768490135e-06 0.00130441085730955 0.0002846060172166132 2.066791388309657e-06 0.006703077631409085 1.36194836951679e-05 0.00101012659551857 1.078957768490135e-06 0.0008422394854275661 0.005238696775119436 0.001231845546819275 2.675978133007312e-06 0.0009430841766457367 0.0002705258511870291 3.056684424487251e-06 0.00251802754276931 1.453371959728611e-06 0.001229884803809294 1.078957768490135e-06 0.005516127475084133 0.007890028825185332 1.4400333588069e-06 1.315470599964734e-06 0.003545133675983619 0.0002589448272069616 2.84312749212252e-06 0.004915610918546353 3.154240231778529e-06 0.0002168705114665171 0.003696448803147576 1.795842296476662e-06 0.0119763277428237 0.0002601612372552217 0.0009740780842573339 0.00176625102491046 0.009090787471614886 1.078957768490135e-06 0.02253962146819623 2.112162488182205e-06 0.00685414737107206 0.0002396912024020725 1.499472750190915e-06 0.0002878778397995869 0.008588319028596678 0.02127126021711848 0.0007758702141173438 1.078957768490135e-06 1.656083650409645e-06 6.595898072072447e-06 1.078957768490135e-06 0.0009116609761080118 1.073938513933081e-05 0.005342943881909919 1.078957768490135e-06 0.003731849429821197 0.005189645906960512 0.006584420248651418 1.998085595518271e-06 0.006456748153816767 0.004767090437073161 0.01386912530512272 0.006525219088505642 1.415383264046012e-06 1.078957768490135e-06 1.344254040378271e-06 0.01018412446914594 0.009273645079437851 1.720425231461042e-06 2.121035498572515e-06 0.00256364931470735 0.000582011660013113 0.003798771869054794 0.0005135850575293248 0.0005136269654824321 0.002412521917599189 0.008023374924511434 0.0002168705114665171 1.847570476968475e-06 0.001127151523365475 0.008906883326244073 0.001758247239842037 0.06974131034193037 0.1992630841026035 0.001037277217335347 1.563365039454295e-06 1.33151961900273e-06 0.0005111189182240282 0.002407055176112642 2.716893433714961e-05 0.0002168705114665171 1.548358971962718e-06 0.0002168705114665176 1.995467698336027e-06 0.0008244764088778608 0.0002965090744620126 0.0003440253989613053 0.0008697721582986698 0.0003323860281054741 1.252412503694493e-05 1.209817844896731e-06 3.581417976679578e-06 1.327656760074707e-06 2.458009806172645e-06 9.028908648479376e-07 0.004176202625906911 0.0002226395081662589 2.629102217184818e-06 0.01386752050720131 0.006430329024371769 0.0005503005318822542 2.057360311853327e-05 0.0003839354242836607 0.005227058182512007 0.0001757044235147108 0.002438539227530248 0.01186230949285122 0.0003659970418193412 1.145839064260388e-06 2.920183319893107e-06 1.722352603262032e-06 0.000185216262307759 0.0004714126868003728 1.590830262484093e-06 1.405227948165954e-06 0.01738387291365844 3.5908277243353e-05 1.80486253159956e-05 0.005892227583401122 0.0001757044235147103 8.741513607697051e-07 0.0007430555433727908 0.0002259164189441435 0.04042626839556207 8.741513607697051e-07 8.741513607697051e-07 1.305818109799197e-06 0.003001592279871902 0.006992332851534218 9.558708379596375e-07 0.003658643286196559 8.741513872668753e-07 1.407587976796536e-06 0.001340665333332879 0.002665125806013064 0.0004023000561429118 0.0007208239103621317 0.008148995305573172 0.005055664203300024 1.221517614128837e-06 0.001884295620272631 0.0004989475147428381 0.002390768960258109 0.0006267029305893627 1.078824136984943e-06 0.001948767161148331 1.360604736754392e-06 8.741513607697051e-07 2.201341907000481e-06 0.004168897723541137 0.02958973128041726 8.741513607697051e-07 8.741513607697051e-07 0.002019106630216396 0.0735229960991136 0.0005080028570682043 8.741513607697051e-07 0.004970366491918909 0.0001757044235147106 0.0006569720417910701 8.741513607697051e-07 1.665371160041888e-06 0.0003388508861784877 1.161273188230964e-06 0.0004468218958034876 0.004025454913048145 0.005663743228215903 1.263389544099053e-06 0.1321497077324 0.007937426190742452 0.008782012807566129 1.48588407044937e-06 0.008905546901910441 0.009173460803358575 0.01721256383499364 0.0001757044235147107 0.000611597984433554 0.004355410459767522 0.0007936656706075767 0.0007275122389667287 0.001657217424114793 0.0001916154541626904 0.0004615549584409201 7.634029108577853e-06 0.002100435656929886 0.0009441460489812978 8.741513607697051e-07 1.481881987011828e-06 0.0003505346956686526 0.003494208103452061 0.0006197355682937818 8.741513607697051e-07 0.001660763088741043 1.202247312983389e-06 1.201126798531642e-06 0.003917613683327973 2.596786851305742e-05 0.001010893196730684 8.741513607697051e-07 0.0002901557979987294 0.005886668410816062 0.001211820070175375 3.309512511965958e-06 1.139151343982539e-06 0.000429732762068561 1.98821118641591e-06 0.00079727295056482 1.053471022023785e-06 0.0003896786186772682 8.741513607697051e-07 0.002015497096378775 0.01070916719435423 1.393424618196123e-06 1.044462462747505e-06 0.005372657621813543 9.991468960641481e-07 2.13523704792409e-06 0.002394419078364652 3.295737959993436e-06 8.741513607697051e-07 0.006208683535031761 1.39009256871705e-06 0.008520184014277517 0.0002243662084087204 0.0001926985779636308 0.001452961679873616 0.006209151922850649 8.741513607697051e-07 0.02589977344282648 1.721547023708858e-06 0.004997342997381911 0.0005749379748596885 0.0002430811124755459 1.160508149413745e-06 0.0109069737294519 0.0170442924930176 1.476554536587496e-06 8.741513607697051e-07 1.087703472745496e-06 1.295459285373791e-05 0.0001757044235147108 0.002009833460935624 0.0005683528178404612 0.004522754737059484 0.0001757044235147105 0.004618069241467606 0.002421404312225588 0.004196697321668618 1.647661217913192e-06 0.008325540274361748 0.0038039590880113 0.01965420220102974 0.00392971601289676 1.041477156447803e-06 8.741513607697051e-07 1.105955116502503e-06 0.01206390353891964 0.009412331382361043 0.0007147881480410477 1.706358813220084e-06 0.003381605537272058 1.122838379455848e-06 0.002236656662116948 0.0005011774941710501 0.000424429195939146 0.0004745702693146515 0.006623445872121466 8.741513607697051e-07 1.838078604004826e-06 0.0002161624423488969 0.006400746698513165 0.003218437630740795 0.08653493613301619 0.2070440959842539 0.002295070474540016 0.0002403321002744691 1.273103304701972e-06 0.001672992582766588 0.002882961774601907 5.1484777486367e-05 0.0001757044235147108 1.079447742426743e-06 8.741513607697051e-07 0.000257458510464064 0.0008766335221103738 0.0003465649708884197 0.0005869495511080928 0.001555293035762857 0.0006384266981666701 6.685237290655777e-06 0.0001445821171913055 1.2871250851085e-06 7.968659076495025e-07 6.468228366216001e-06 0.0001047683824702269 0.005447691355958687 0.001025377121564213 1.484466618666544e-06 0.01788976945680552 0.008260426912720545 0.0003144092596078143 8.189866909566836e-06 0.0001114673402185593 0.00277042701336349 5.13684006733894e-07 0.002370678606711695 0.009335835603793776 8.911282738169345e-06 6.103858471260368e-07 1.229949835567618e-05 1.001596239245691e-06 0.0002121412293099137 0.001792350887515344 0.000190070270366368 0.0001853713890689281 0.0147373992528381 1.482156905259352e-05 0.0001000215881461298 0.005249013871753539 5.13684006733894e-07 5.13684006733894e-07 0.0001594967281929254 0.0002576231505261748 0.0428543979336573 0.0001032504853535126 0.0001032504853535126 7.285881764379188e-06 0.00228318079526321 0.005930620110016661 5.837361461199658e-07 0.003877928075758687 5.13684025833272e-07 1.178697027283949e-06 0.0002621917743691995 0.003992300845117967 0.000593791691367771 0.0007407311719315503 0.007336053824749465 0.006070666651149306 7.302142314683138e-07 0.001651608513128324 0.0007471965949110059 0.00278712389934021 0.000629256786543068 5.941742166622111e-07 0.001802110631011375 0.0003166338967925383 5.13684006733894e-07 9.96193440252038e-06 0.005970865919959748 0.03593465171332778 5.13684006733894e-07 5.13684006733894e-07 0.0002962800745084479 0.0796554359373777 0.0007314775151106331 5.13684006733894e-07 0.007137343085070506 5.13684006733894e-07 0.001129673222931667 0.0001032504853535127 1.047354112078492e-06 0.0002050964819166582 7.629064717238932e-07 0.0005420519848548136 0.002370380761820584 0.006695527390638025 0.0004540800139751353 0.0850349735417147 0.007211558782908647 0.009217603934183822 8.953178263719825e-07 0.007395367815508517 0.01099868615990964 0.01961490452446646 0.0001032504853535127 0.0003492533977314709 0.00328319504845607 0.0006918076930083642 0.0002829975865065679 0.001293072004944799 0.0003366611905242248 0.0002950571317700361 1.196497865199069e-06 0.002300345114146151 0.001278110895526207 5.13684006733894e-07 9.403083897803893e-07 5.13684006733894e-07 0.004046473412618341 0.000389251255649371 5.13684006733894e-07 0.0007568229962330055 6.865830940059648e-07 7.644393938974546e-07 0.003575066332775135 1.043567914725777e-05 0.001079515036180793 5.13684006733894e-07 0.0005003281432548084 0.006408936053063921 0.001671211865790481 1.423622165677313e-06 0.0006514294280464688 0.0005071875330078478 9.349670900480772e-07 0.0006011819290235517 0.0001235452485882515 0.0005751415120426968 5.13684006733894e-07 0.001279164939021369 0.02419723019869557 0.0001543519862797105 6.040268317018489e-07 0.005821993446173747 0.0001244854250846581 1.000961686107744e-06 0.002455623862902319 1.449972290993249e-06 5.13684006733894e-07 0.00555030535476591 1.384901176471399e-06 0.009081618827521379 0.0006736474991393511 0.0003378375551562676 0.002188228750907041 0.006461712313928317 0.0001032504853535127 0.02961619197317135 1.011360448583215e-06 0.005305551240719013 0.0002403192432352295 0.0001376572162390319 0.0002734040210795132 0.01288700462435671 0.01845479864801391 0.0003629102660211458 5.13684006733894e-07 3.376168044150016e-06 6.820512441295864e-05 5.13684006733894e-07 0.0005458345935537769 1.670097099486047e-05 0.004184208172979104 5.13684006733894e-07 0.002485413028312351 0.002253885597764505 0.007802040039322592 8.842278695667333e-07 0.006515070429361779 0.002859455028764862 0.02125678368782733 0.003138213094992849 0.0003633551657623121 5.13684006733894e-07 0.0001346027329154885 0.01183627655828866 0.0115057432082057 0.000566335320050259 1.008924638647062e-06 0.001575314972466713 0.0002688016314481672 0.003388547846441541 3.588150613133739e-06 0.0001246280728308179 0.0008249124425832683 0.007406536020761403 5.13684006733894e-07 4.439074236129484e-06 0.0002501322560870388 0.007579580542753028 0.002022685880671302 0.09570768029554183 0.2060442841271548 0.001959922737171374 0.0005663698827525511 9.596010790816924e-07 0.0004820093635170163 0.002635349232160583 1.858132649638746e-05 5.13684006733894e-07 6.080094834005423e-07 0.0001032504853535127 7.163783406692062e-07 7.040962367783258e-07 0.0006476960505291003 0.0001813013599068884 0.000886762880249983 0.001042316158883988 6.987717032382114e-06 6.363698435902158e-07 0.0002438769321115706 7.893116642560857e-07 1.53701439927256e-06 4.70368977630423e-07 0.005833404109324878 0.001136498359270324 3.034700259691251e-06 0.0193738306622157 0.01087432422599371 0.0005294008944506625 1.202463743201714e-05 0.000499760851476813 0.002220549071920357 4.651426014616631e-07 0.002298115781305019 0.01019895595328073 1.240003886171237e-06 5.25993918305846e-07 0.0001659617544769335 9.111591856874095e-07 0.0006596502523971123 0.001490473776425565 8.977637662056545e-07 1.049877502227781e-06 0.01528490525699298 7.119697335242356e-06 1.659943514645065e-06 0.00430426069144364 4.651426014616631e-07 4.651426014616631e-07 0.0003714601559747272 0.000123465730389762 0.05120838245327963 4.651426014616631e-07 4.651426014616631e-07 5.832462591395103e-07 0.001689744314286758 0.00318157600510378 5.183951239714563e-07 0.00271995355021793 4.651426171761908e-07 5.692198034806068e-07 0.001308311347353071 0.00246255736682306 0.0008348285188182974 0.0005822297304003402 0.008389705985472597 0.008248631653575662 6.578239915837816e-07 0.0009906025387609154 0.0006804095320578805 0.002026425193254084 0.0005123770260415969 5.110547043473324e-07 0.0013475500747606 0.0005512021476149248 4.651426014616631e-07 2.079365783907868e-06 0.005802459992812294 0.03365390443680553 4.651426014616631e-07 4.651426014616631e-07 0.001047802027555434 0.08550143203295983 0.0006629824191185587 9.349366289379457e-05 0.005419946950438897 4.651426014616631e-07 0.001080702946924302 4.651426014616631e-07 8.808700912080492e-07 1.023470074987081e-06 6.077483457481028e-07 0.0001216120528433874 0.001347537127031481 0.006206071392836965 0.0009492509776760894 0.06570536017933369 0.004316376624872235 0.006628587587897053 8.288716483528244e-07 0.008308065433513197 0.01383395392760582 0.01471268607029786 4.651426014616631e-07 0.0004627820432031069 0.003833718159083158 0.0006201044177477545 0.000621082015812709 0.0009685418780441251 0.0004062587315639958 0.0001330436602441596 8.085167118120977e-07 0.001717730770140964 0.0009492103651765818 4.651426014616631e-07 8.153451144909174e-07 0.000186522183186127 0.003326741306361965 0.001092920976878051 4.651426014616631e-07 0.001064548654947165 0.0002480598117150628 0.0001252080665846711 0.002499432680093264 1.068216687660096e-05 0.0008712243014504279 4.651426014616631e-07 0.0001468874903504443 0.007614210604242098 0.001082345558926296 2.047004128430796e-06 0.0002317339735984644 5.646648720239048e-07 7.804324949563417e-07 0.0005210172590422152 0.00019883963381004 0.0003001534149727864 0.000186522183186127 0.001434506268699252 0.02351215812339311 0.0001388638340022519 0.000326413650791693 0.006179104059212378 0.0004483855385079593 8.12873334999992e-07 0.001479207939789847 1.376817515086935e-06 4.651426014616631e-07 0.007032224271508381 0.0001652045036039791 0.007619690958697671 0.0003436764528903865 0.0003042765352090239 0.001192106116111507 0.004616325364558992 4.651426014616631e-07 0.02708046968810974 0.0001820580443126563 0.00481969946697543 0.0004337586729025842 0.0001165601323062066 6.171796381220214e-07 0.01215266548047849 0.0167859279713955 6.969700740887907e-07 9.349366289379459e-05 5.398855775708213e-07 5.495276841235658e-06 4.651426014616631e-07 0.0006928901455545419 2.268062617174525e-06 0.004676992130033977 4.651426014616631e-07 0.003192362996550726 0.003114608587688738 0.006648617610084654 7.40657575245758e-07 0.009413146894390158 0.002402910725492133 0.01721319011506989 0.002956102091171601 0.0001089383149780492 9.349366289379439e-05 6.42603547529718e-07 0.014800684611823 0.01317150118107085 0.0001278859865840791 0.0001820649291295224 0.001178124219194824 0.0002360120511461763 0.001988811417194555 8.809600677879265e-07 0.0002241208538223629 0.0007143001680686115 0.005623921690687677 4.651426014616631e-07 2.461388294885414e-06 0.0003414797420216634 0.007046375233074255 0.001667134593280229 0.09411331887926767 0.2364385023082755 0.001104531581512716 0.000491853592424019 8.477273703613619e-07 0.001130657449615738 0.002327063981611831 8.460818395823627e-06 4.651426014616631e-07 5.17627077484993e-07 4.651426014616631e-07 0.0001190858363411338 5.806130570941194e-07 0.0002641602601813585 1.412284620978288e-06 0.0009148916059111874 1.375804591330431e-06 4.57151292920357e-06 1.047829108404212e-06 1.774625251823418e-06 0.0002844389513987103 3.847040360288208e-06 7.457517222398279e-07 0.005066001197178992 0.0009285694975724566 2.35801723385768e-06 0.02087896854919111 0.01070064652067782 1.002555580400582e-06 9.036628162909371e-06 7.91183270373792e-07 0.001454922148355328 7.397741225982271e-07 0.001348010514427355 0.007488942638749069 1.234903680217912e-06 8.228211854081827e-07 9.420478061916744e-06 1.440978812411981e-06 0.0003066686792573986 0.001558714588769389 1.341580799760596e-06 1.403627244484301e-06 0.0154046255160304 6.852694494003717e-06 2.212562231696615e-06 0.004428016031122419 7.397741225982271e-07 7.397741225982271e-07 9.777707648569714e-07 9.199963308787078e-07 0.05427056109560278 7.397741225982271e-07 7.397741225982271e-07 9.543925408045911e-07 0.002474440321526828 0.002252228203710276 8.641144112937311e-07 0.003062418141318041 7.397741503699409e-07 8.782727536457375e-07 0.00162604483350602 0.004595576562788264 0.0005011912227486049 0.0004629896552554568 0.01003995407585663 0.007654521508367315 1.08625417298831e-06 0.001022747412282622 0.0009137357024256743 0.001386683268537057 0.0001672067529633552 7.889289760265456e-07 0.002477294491202356 0.0004236682089064051 7.397741225982271e-07 2.70255317706801e-06 0.01040428428944115 0.03491439474106922 7.397741225982271e-07 7.397741225982271e-07 0.0006361037340607021 0.09153615952607443 0.00020649079007271 7.397741225982271e-07 0.004229777836350057 7.397741225982271e-07 0.001037523166844172 7.397741225982271e-07 0.0002615821816131616 1.837718952941603e-06 1.024444177115532e-06 1.016683927284011e-06 0.001432942585185333 0.006524758377297762 0.00121187875235396 0.05227210325830695 0.003955756273212915 0.008413615694146042 1.294987823837565e-06 0.004633459093173091 0.01257271067341711 0.01065151366932006 7.397741225982271e-07 0.0002370069861716848 0.001756061669458424 0.0003280547041468239 0.0009976552477697223 0.0008702182813925283 0.0003234790332504975 1.106903876466623e-06 0.000225738131124186 0.002736412948330377 0.001144569784690717 7.397741225982271e-07 1.377699522164834e-06 7.397741225982271e-07 0.004128765724665171 0.0005232517514410377 7.397741225982271e-07 0.0006697134069575935 0.0003882246031232124 1.015769858919492e-06 0.00212159523092175 7.046518338066517e-06 0.0003419822731467456 7.397741225982271e-07 0.0004675348131104592 0.007518909999127452 0.001204548592869514 3.906098551958681e-06 0.0003634463661427695 8.730621292035399e-07 1.05910876754779e-06 0.0006119976422962885 7.740251784588313e-07 0.0003199176077237223 7.397741225982271e-07 0.001479588453147263 0.02047682640309382 1.169042171853834e-06 0.0003405706473253343 0.0049247360794996 0.0003776629638353925 1.245616338595145e-06 0.001551380438238845 1.944607014899234e-06 7.397741225982271e-07 0.004067256751881735 1.265478609480941e-06 0.004277457719979678 0.0005568808648284446 0.0006330548995361481 0.0008701662988692904 0.005170712603905039 7.397741225982271e-07 0.02421786501509833 1.441827094881497e-06 0.003449473085190853 0.0003780295106672933 0.0003488870706185302 9.817291642669358e-07 0.01454520303165592 0.0123968176473131 1.03277725553718e-06 7.397741225982271e-07 8.639336708213521e-07 1.651544638049689e-05 7.397741225982271e-07 0.0001845182092973267 2.45779847959154e-06 0.005217126903755264 7.397741225982271e-07 0.001497671163245702 0.003274507298714478 0.00580470107252212 1.10584630509348e-06 0.007071999563233053 0.002236919974768972 0.01682148534142114 0.001371203827999132 0.0001723352799746091 0.0001486945986422437 1.027836801148009e-06 0.01247690865167098 0.01450614128604415 1.004984034704868e-06 1.443221788418133e-06 0.0005538938490571797 9.284224491934685e-07 0.001117644563159044 1.336242370365915e-06 0.0001718423798417451 0.0005703679140298551 0.005278640711063768 7.397741225982271e-07 1.982795821283721e-05 0.0005297812771212138 0.007222807113714795 0.000678602338110178 0.09469317342449173 0.2769544923591878 0.001261949165078973 0.0001895244260388349 1.425800316832288e-06 0.00119415887431061 0.001345242819689342 1.013356871423555e-05 7.397741225982271e-07 0.0001607893357495218 7.397741225982271e-07 0.0001810987947267794 0.0003456459550731142 0.005098288988115787 1.828309660760881e-06 0.002581988341416018 2.070064811655688e-06 7.959006467498491e-06 0.0005803683819806024 0.0006628975715091346 1.580535161894764e-06 0.0008835379355568898 1.003146283925015e-06 0.003116327250953841 0.001529250346990767 8.387305656923365e-06 0.01700765427545443 0.01331561845597036 0.0009457953718389172 1.94653943622455e-05 0.0002267513639335511 0.0024949390257205 9.807719199999905e-07 0.0007766541632480704 0.004627342014020245 8.941087586395066e-06 2.499174455749467e-06 4.218421621424218e-06 1.929240843064667e-06 0.001054535612223498 0.001650291155287542 1.762114485212038e-06 2.476018830208845e-06 0.01522042168092352 1.755782997760554e-05 6.831492519086353e-05 0.005760968958481542 9.807719199999905e-07 9.807719200000099e-07 0.0005764413572096032 1.424856660021089e-06 0.04842285412460045 9.807719199999905e-07 9.807719199999905e-07 1.354060746436887e-06 0.002482748926353563 0.002054903580441711 2.852045206474393e-06 0.004060275440797666 9.807729453470256e-07 1.095254176923775e-06 0.00169259557702702 0.004319492586011708 0.0002414717517319153 0.001028143830168269 0.009412712669590052 0.007284298761643463 1.378742005373002e-06 0.001350468202146223 0.001188186237126088 0.00326265408977159 0.0004473995053559401 1.071340701925923e-06 0.003137793847128178 0.001011316963642871 9.807719199999905e-07 2.333776205854708e-05 0.005797940828709051 0.03612127505274899 9.807719199999905e-07 9.807719199999905e-07 0.0008782459940486429 0.07688458636143042 0.001616969149308669 9.807719199999905e-07 0.005121739592462307 9.807719199999905e-07 0.0004465237850510319 9.807719199999905e-07 1.56049584240822e-06 2.588511474906266e-06 1.623475905910002e-06 0.0003661907619318233 0.001210065524060499 0.007905955364490647 0.001209492198558904 0.06993451700470692 0.003827276965586824 0.01082608550409559 0.0006963335389624153 0.007876370579114835 0.01909456559352101 0.00687807526603813 9.807719199999905e-07 0.0003510014752021786 0.004446793494565069 0.001558130877296345 0.0009030803632149983 0.003481481689121174 1.069549353834725e-06 0.0002953542208079133 3.261814207016439e-06 0.0008800445026279212 0.001116665056031158 9.807719199999905e-07 0.0003853333268293595 9.807719199999905e-07 0.00414764109672139 0.0004768162449719 0.0001971351559199982 0.002283889741012101 1.214251639284068e-06 1.356253925512071e-06 0.001939638088187689 3.107903992645778e-05 0.0009639802199073094 9.807719199999905e-07 1.500492805778889e-06 0.009939237238123491 0.001359377953024562 3.961062502136086e-06 0.0002598243717403653 0.0004708873746838633 1.53168094339908e-06 0.0005747367173335109 0.0002312661810980977 0.0006624657977664366 0.0001971351559199982 0.001364862829490172 0.01192784551288949 1.187285357081787e-06 0.0002346867369260584 0.00310139038617896 0.0005821911013484627 1.827610325803655e-06 0.004412124146998282 3.938001404158533e-06 9.807719199999905e-07 0.005148934869055338 1.379159008534403e-06 0.009363156006624197 0.0002556525966595207 0.0006580632045014975 0.0007204313994455875 0.005411458227693167 9.807719199999905e-07 0.01889782344616502 1.92044580285783e-06 0.004602964947770698 0.000986077969725936 0.0004663411038294073 1.301889388451836e-06 0.009564427081660042 0.02022507559924635 0.0005933477868694769 9.807719199999905e-07 2.141117678974644e-06 1.475641436060448e-06 9.807719199999905e-07 0.001049090328977432 5.500832766502823e-06 0.005763401941375993 9.807719199999905e-07 0.003061703932165471 0.003415893732393711 0.004564682524938835 1.483529861857406e-06 0.007046391444134561 0.002226926729568913 0.01147251527120117 0.003252511468138132 0.0002375307525869812 9.807719199999905e-07 1.386594019867381e-06 0.01207714074712767 0.010931408365746 1.773385523131191e-06 1.925944417698733e-06 0.0007056428799690992 0.0007791082520666675 0.001489619950570027 1.506147650460437e-06 0.0002324587289558195 0.0007929247486531104 0.006350171796337806 9.807719199999905e-07 1.914117606006722e-06 0.0002444832455624839 0.005980726034031071 0.001139854245355598 0.07979852804394404 0.2669987451567631 0.002155664501506284 0.000841129251539833 1.996684036530164e-06 0.002137078898956502 0.001547687938770183 5.313837917809491e-05 0.000589443923919995 1.176583754657394e-06 9.807719199999905e-07 0.0004779308438376635 0.0004574704747233179</probabilities>
		</cpt>
		<cpt id="DeveloperType">
			<state id="SData_scientist" />
			<state id="SDatabase_administrator" />
			<state id="SDesktop_applications_developer" />
			<state id="SDeveloper_with_a_statistics_or_mathematics_background" />
			<state id="SDevOps_specialist" />
			<state id="SEmbedded_applications_devices_developer" />
			<state id="SGraphic_designer" />
			<state id="SGraphics_programming" />
			<state id="SMachine_learning_specialist" />
			<state id="SMobile_developer" />
			<state id="Other" />
			<state id="SQuality_assurance_engineer" />
			<state id="SSystems_administrator" />
			<state id="SWeb_developer" />
			<parents>JobSatisfaction</parents>
			<probabilities>0.02551424479899917 0.00395946317167865 0.04352433863026363 0.04079052216407272 0.000325605793317396 0.04248405960978119 0.000377871294772778 0.008393330477182463 0.01089346689725589 0.07935298388578892 0.05236189385400762 0.004755951858875669 0.006040342404838302 0.6812259251591656 0.02452001150710131 0.01353809891164971 0.04328044205648485 0.01040814007240734 0.003635695061748465 0.0368973306328184 0.0007531331750019898 0.01057759397062282 0.01092903883872422 0.03682229257934001 0.04096118808149692 0.0002547642995771205 0.0002419299616478794 0.767180340851379 0.007707059894578277 0.004476486189347159 0.07370211471683732 0.02736237476171201 0.005164471453963539 0.05121266798264735 0.000725976698035079 0.0124893968733403 0.01224312796143982 0.07080211459744619 0.02785193780984399 0.005220177015816747 0.004490315321238748 0.6965517787237535 0.01481932397066111 0.007465084304592778 0.05779250653167951 0.03873696319342494 0.008211634557077603 0.03136190889459856 7.101221839347815e-05 0.009932779208968619 0.006177892355421623 0.07135472348381679 0.03541431684192336 0.003030702441089641 0.005909320850106993 0.7097218311482449 0.008563545079103235 0.003223550947758608 0.05896671177851377 0.02841162076104862 0.002554156895618086 0.04149128507678244 4.712406955562704e-05 0.00972215765137595 0.009189741134856809 0.07125623096870583 0.02636462302662427 0.003284583976467716 0.005151649489257785 0.7317730191443313 0.01382281823215089 0.004371998212480054 0.05661933231524833 0.02443464169396795 0.00617918489001371 0.04132567920790601 0.0007245069696344152 0.00824723918638681 0.009252191899971502 0.07487446233742119 0.02540817063555087 0.003182634129447514 0.002824488033867858 0.7287326522559529 0.01062521362657556 0.002953453479093763 0.04980231963878107 0.02968706850270032 0.006083170662999797 0.04287859090072935 0.0005454724017311057 0.007744487499462545 0.00833295138596259 0.06671933190925948 0.02695803024091089 0.002478948828242375 0.002472103361772312 0.7427188575617789 0.01103560177444191 0.00346418818492432 0.04791751316647069 0.02607571062626812 0.007993828221874298 0.0357222974659232 1.151924658034456e-05 0.006457196622548793 0.01176001138572656 0.07188889233906437 0.029985132490151 0.003768381798585256 0.002327039418124453 0.7415926872593167 0.0128034481504403 0.003167071470061197 0.0527418104218773 0.03016064673149512 0.006661444471713818 0.04358702483233529 0.000550231456274712 0.009209775910737459 0.01182060241928314 0.0727416073853018 0.03557034359714155 0.00342812558305895 0.00344817991207592 0.7141096876582035 0.01488185678816051 0.004818924412488033 0.04951278280151691 0.02929491447219855 0.006338955975350786 0.03535285176732238 0.000220734404146146 0.008378371161787792 0.01254959169680918 0.07841700108689603 0.03607983690572567 0.001827106502222927 0.003242230937442604 0.7190848410879326 0.01181410091634941 0.003763959281225723 0.04794651400390638 0.02621200923012467 0.00609840031533149 0.0368463093269679 0.0007017329790902439 0.0124743499764448 0.01203233768735235 0.07644994944006481 0.03760548165368231 0.002422937061625967 0.002698304713332033 0.7229336134145019</probabilities>
		</cpt>
		<cpt id="ExpectedSalary">
			<state id="S1_10000" />
			<state id="S100001_110000" />
			<state id="S10001_20000" />
			<state id="S110001_120000" />
			<state id="S120001_130000" />
			<state id="S140001_150000" />
			<state id="S170001_180000" />
			<state id="S180001_190000" />
			<state id="S190001_200000" />
			<state id="S20001_30000" />
			<state id="S30001_40000" />
			<state id="S40001_50000" />
			<state id="S50001_60000" />
			<state id="S60001_70000" />
			<state id="S70001_80000" />
			<state id="S80001_90000" />
			<state id="S90001_100000" />
			<parents>JobSatisfaction</parents>
			<probabilities>0.3493802866668322 0.002427275909281546 0.07350824392297919 0.01530110983136107 0.017861326394392 0.0167510835817755 0.01060824496347627 0.01029251541338642 0.02399064770502123 0.1208135127854768 0.0619103378224247 0.0564964275773563 0.06074164026694971 0.05961308354178777 0.04483319650987606 0.04110365303625165 0.03436741407137186 0.3127922622771727 0.01069782179019038 0.0274239528816917 0.04947504544046393 0.01438531354619167 0.02917340532403675 0.05734691266325727 0.01336878142240302 0.05934390546785614 0.127943237397268 0.06944512659279028 0.02288651384674462 0.05878282933647444 0.05111128480546782 0.01693587162371015 0.0326670854005717 0.04622065018370952 0.5400438482255523 0.005674059311143752 0.04975040215460591 0.006179313129420814 0.004634626341033762 0.01050597564157021 0.0064108493103381 0.001705217984069637 0.01040267701783607 0.04101796381141555 0.1138366335277722 0.05831710825039575 0.02635351979326251 0.02804061061552756 0.03276414836855023 0.0314835847634278 0.03287946175407794 0.243207903869847 0.03117324574504783 0.03490806978301111 0.04590344191734452 0.029149294579264 0.05972926782049389 0.0289203760331552 0.06117100361665822 0.02616432811899796 0.06984756411008701 0.01890110981398982 0.09482538992433441 0.01152916529430622 0.08286263156592985 0.04960681671511548 0.02292736454418097 0.08917302654823668 0.2597299280027047 0.01335050772571038 0.03106405139228107 0.01981750658891209 0.02690617666093381 0.01727399159597915 0.009435919845088203 0.02949556117365194 0.02907345668196486 0.1402969979357911 0.06626646647167156 0.0153793896171629 0.1163807730080583 0.03264284538372419 0.08373842838890506 0.07591779447392068 0.03323020505354022 0.1790404741597178 0.04301929763879849 0.06408640842994562 0.06993179151336755 0.05292430493018619 0.01656874946219459 0.03619578327213934 0.005223149129440712 0.07205457206891261 0.02643692627689687 0.04487353587904417 0.1042213561095226 0.09044683501950854 0.02304448821712244 0.07384321593184229 0.03744862886958176 0.06064048309177864 0.2109237872757861 0.003356302811677031 0.06074146459015478 0.0430106500377396 0.0524231439139676 0.0514603583597906 0.01442511680931739 0.0677248411049835 0.05651515429089999 0.00156216401789105 0.1064753965295386 0.06295356692683302 0.04118641515320869 0.09263315623357614 0.100762077385105 0.02296262788064254 0.01088377667888838 0.3003489506923279 0.02308126733224385 0.09410561449503221 0.0342706017147491 0.04696458138339287 0.004392430984488874 0.02014087445177999 0.002718825943906428 0.03179117698083301 0.04897593081644897 0.09443535133535254 0.09524920659607856 0.003394064059537395 0.07991378228254246 0.05542157031176925 0.02931298507577675 0.03548278554373985 0.1011242528286537 0.0563615677123913 0.1172786452566056 0.02909985270139285 0.01167676744157628 0.08118510696153022 0.07895281102302842 0.06535478630622697 0.02379966641699504 0.06299905963335675 0.002465984047980608 0.1241523921830808 0.1068049721619239 0.04728659679958975 0.04275565273778924 0.01257317370560655 0.03612871208227186 0.08540734093785389 0.01471585822650459 0.09163954918691064 0.003401507613656143 0.03331886989755847 0.006834815903790661 0.01223490027205584 0.04232524800448791 0.02949813421268024 0.1565871867051912 0.1442020508958423 0.04962276264443297 0.09683637568174719 0.09076736459727479 0.07747988680111298 0.03018673105242145 0.03494141736647875 0.05745512316493485 0.0609167235090332 0.09249436883582483 0.07872819470062287 0.007858548382259448 0.006255060315659963 0.001506618977976553 0.01644270177567742 0.02440879920847428 0.145521879126492 0.1215838576711128 0.0935034865071433 0.04615391556207722 0.08924367956498416 0.01633168233540325 0.08038815206761483 0.06120720829470903</probabilities>
		</cpt>
		<cpt id="Gender">
			<state id="Female" />
			<state id="Male" />
			<state id="Nonbinary" />
			<parents>JobSatisfaction</parents>
			<probabilities>0.09890604032465132 0.8574526219720148 0.04364133770333398 0.106535142950734 0.8590598536810139 0.03440500336825204 0.07314616325505265 0.9036968288059339 0.02315700793901342 0.0836970031312655 0.8986163560572822 0.01768664081145249 0.08814750953575075 0.9042729119207693 0.007579578543479869 0.08430505505546554 0.9032733142938844 0.01242163065064993 0.07901488306721564 0.9108477198129482 0.01013739711983603 0.07432839954128072 0.912693875432895 0.01297772502582442 0.07295622451416384 0.9173819040980044 0.009661871387831906 0.07961950245687655 0.9089662012287371 0.01141429631438636 0.07863144635791902 0.9072523401449825 0.01411621349709852</probabilities>
		</cpt>
		<cpt id="HaveAssembly">
			<state id="State0" />
			<state id="State1" />
			<parents>JobSatisfaction</parents>
			<probabilities>0.7171058855221085 0.2828941144778915 0.9520665201639491 0.0479334798360509 0.8379337576653048 0.1620662423346954 0.9684611984537557 0.0315388015462443 0.9605896278558016 0.03941037214419846 0.962799583678792 0.03720041632120787 0.9628548483360428 0.0371451516639571 0.9699512994102433 0.03004870058975664 0.9654554355569301 0.03454456444306998 0.963616652344749 0.03638334765525099 0.9412841515614231 0.05871584843857681</probabilities>
		</cpt>
		<cpt id="HaveC">
			<state id="State0" />
			<state id="State1" />
			<parents>JobSatisfaction</parents>
			<probabilities>0.4351622901854885 0.5648377098145115 0.8285102186878306 0.1714897813121694 0.4831502757141861 0.5168497242858138 0.8408118103693486 0.1591881896306514 0.8199891745501562 0.180010825449844 0.824728403531191 0.175271596468809 0.8391339103497351 0.1608660896502649 0.8548416335041124 0.1451583664958875 0.8409401454610689 0.1590598545389311 0.8488593175575611 0.1511406824424389 0.8037213183266018 0.1962786816733983</probabilities>
		</cpt>
		<cpt id="HaveC_">
			<state id="State0" />
			<state id="State1" />
			<parents>JobSatisfaction</parents>
			<probabilities>0.5825046185902882 0.4174953814097119 0.6929866704287815 0.3070133295712185 0.7313593896208345 0.2686406103791655 0.6785889943993677 0.3214110056006322 0.6575938098860368 0.3424061901139632 0.6530512074997513 0.3469487925002487 0.65156180496394 0.34843819503606 0.6553389712790125 0.3446610287209875 0.6524152557154902 0.3475847442845098 0.6597409222054819 0.3402590777945182 0.6665385283532786 0.3334614716467214</probabilities>
		</cpt>
		<cpt id="HaveC__">
			<state id="State0" />
			<state id="State1" />
			<parents>JobSatisfaction</parents>
			<probabilities>0.4574205610348924 0.5425794389651076 0.7676152170837885 0.2323847829162115 0.50044844945529 0.4995515505447101 0.7949647742006305 0.2050352257993695 0.8082002987008974 0.1917997012991027 0.7967239809297381 0.203276019070262 0.8120055037373183 0.1879944962626817 0.818705515298798 0.181294484701202 0.7939253786208075 0.2060746213791925 0.807483104654409 0.192516895345591 0.7728589534967892 0.2271410465032106</probabilities>
		</cpt>
		<cpt id="HaveClojure">
			<state id="State0" />
			<state id="State1" />
			<parents>JobSatisfaction</parents>
			<probabilities>0.9583093008703022 0.04169069912969766 0.9810743072335597 0.01892569276644019 0.9970838153983165 0.002916184601683609 0.9897274324453755 0.0102725675546244 0.9906776213398627 0.009322378660137218 0.9911526220976936 0.008847377902306467 0.9925377265768425 0.00746227342315753 0.9888929090486399 0.01110709095136018 0.9880291249072221 0.01197087509277803 0.9902109591314914 0.009789040868508644 0.9887669294580347 0.01123307054196535</probabilities>
		</cpt>
		<cpt id="HaveCoffeeScript">
			<state id="State0" />
			<state id="State1" />
			<parents>JobSatisfaction</parents>
			<probabilities>0.9253477886189263 0.07465221138107365 0.9610792021879189 0.03892079781208119 0.9858656019773511 0.01413439802264892 0.9740065992192124 0.02599340078078764 0.9754935723073017 0.0245064276926983 0.9732381725752505 0.02676182742474956 0.9666201843196308 0.03337981568036916 0.9707699518127541 0.02923004818724588 0.9655636677929917 0.03443633220700826 0.9651740731840436 0.03482592681595649 0.9575941107097621 0.04240588929023791</probabilities>
		</cpt>
		<cpt id="HaveCommonLisp">
			<state id="State0" />
			<state id="State1" />
			<parents>JobSatisfaction</parents>
			<probabilities>0.9410674286251119 0.05893257137488805 0.9881363995700861 0.01186360042991383 0.9863964625445475 0.01360353745545253 0.9936981335710762 0.006301866428923845 0.996010722062363 0.003989277937636973 0.991550232950276 0.008449767049724083 0.9947273052115779 0.005272694788422055 0.9945293627045568 0.005470637295443067 0.9942353064408177 0.005764693559182204 0.9961757765807722 0.003824223419227726 0.9916219619042266 0.008378038095773397</probabilities>
		</cpt>
		<cpt id="HaveDart">
			<state id="State0" />
			<state id="State1" />
			<parents>JobSatisfaction</parents>
			<probabilities>0.9747644163177915 0.0252355836822084 0.9898987233280666 0.01010127667193343 0.9960710325880074 0.003928967411992536 0.9981226939371017 0.00187730606289841 0.9952624694085471 0.004737530591452793 0.9965491104218164 0.003450889578183587 0.9965240227536818 0.003475977246318141 0.9967068597722915 0.003293140227708543 0.9974181679627462 0.002581832037253786 0.9958001911186817 0.004199808881318341 0.9950970334660835 0.004902966533916593</probabilities>
		</cpt>
		<cpt id="HaveElixir">
			<state id="State0" />
			<state id="State1" />
			<parents>JobSatisfaction</parents>
			<probabilities>0.9649383215598656 0.03506167844013434 0.9919414491473336 0.008058550852666331 0.9960250682346015 0.003974931765398604 0.9857481199023314 0.01425188009766875 0.9938747091314535 0.006125290868546558 0.9915404993688129 0.008459500631187153 0.9916341177576561 0.008365882242343935 0.9908804525335336 0.009119547466466343 0.9890757703953498 0.01092422960465018 0.9899342672780231 0.01006573272197686 0.9844931025458685 0.01550689745413138</probabilities>
		</cpt>
		<cpt id="HaveErlang">
			<state id="State0" />
			<state id="State1" />
			<parents>JobSatisfaction</parents>
			<probabilities>0.9571564529454375 0.04284354705456259 0.9926485825168228 0.007351417483177176 0.9942211615966464 0.00577883840335356 0.9912009572021963 0.008799042797803728 0.9952092193302783 0.004790780669721727 0.9938361894469969 0.00616381055300313 0.9935341099631185 0.006465890036881436 0.993233004928776 0.006766995071223867 0.9935750867399267 0.006424913260073286 0.9925041407457849 0.007495859254215147 0.9903752067929709 0.009624793207029105</probabilities>
		</cpt>
		<cpt id="HaveF_">
			<state id="State0" />
			<state id="State1" />
			<parents>JobSatisfaction</parents>
			<probabilities>0.9554124490516719 0.04458755094832808 0.9896918527672325 0.01030814723276746 0.9939749032115126 0.006025096788487297 0.9872507976776429 0.01274920232235716 0.9872758310921608 0.01272416890783929 0.9879939743491597 0.0120060256508404 0.9882838255949323 0.0117161744050676 0.987657898414441 0.012342101585559 0.9871756350731276 0.01282436492687238 0.9892729395626487 0.01072706043735126 0.9874674166057722 0.01253258339422777</probabilities>
		</cpt>
		<cpt id="HaveGo">
			<state id="State0" />
			<state id="State1" />
			<parents>JobSatisfaction</parents>
			<probabilities>0.8731196325292611 0.126880367470739 0.9656737149964759 0.03432628500352403 0.9765311738948075 0.02346882610519246 0.9580215969899315 0.04197840301006854 0.9606133603111157 0.03938663968888433 0.961582807306549 0.03841719269345113 0.9625718675869117 0.03742813241308836 0.9651361266004771 0.03486387339952296 0.9583474985535878 0.04165250144641212 0.949503916942514 0.05049608305748601 0.9496915081351396 0.0503084918648604</probabilities>
		</cpt>
		<cpt id="HaveGroovy">
			<state id="State0" />
			<state id="State1" />
			<parents>JobSatisfaction</parents>
			<probabilities>0.9543725706485593 0.04562742935144072 0.9624971942477919 0.03750280575220802 0.9869151147526102 0.0130848852473898 0.961088738934591 0.03891126106540887 0.9698451748335279 0.03015482516647202 0.9779488764271577 0.02205112357284237 0.9656996644739965 0.03430033552600357 0.9678038928439885 0.03219610715601152 0.9664978349727643 0.03350216502723562 0.9607389138738732 0.03926108612612678 0.9639038787702225 0.03609612122977746</probabilities>
		</cpt>
		<cpt id="HaveHack">
			<state id="State0" />
			<state id="State1" />
			<parents>JobSatisfaction</parents>
			<probabilities>0.9701363210757807 0.02986367892421938 0.9894552994826845 0.01054470051731548 0.9978512773207058 0.002148722679294183 0.9988590294111592 0.001140970588840639 0.9990034480251063 0.0009965519748936871 0.9963956491519003 0.003604350848099721 0.9985816459063488 0.001418354093651294 0.997965498484673 0.002034501515326932 0.9988506497274664 0.001149350272533626 0.9973800405932335 0.002619959406766562 0.9939723818754985 0.006027618124501468</probabilities>
		</cpt>
		<cpt id="HaveHaskell">
			<state id="State0" />
			<state id="State1" />
			<parents>JobSatisfaction</parents>
			<probabilities>0.8995551514070372 0.1004448485929627 0.9780255156124701 0.0219744843875299 0.967976202643107 0.03202379735689306 0.9825844996880316 0.01741550031196851 0.9820422967812408 0.01795770321875908 0.9872503069653962 0.0127496930346039 0.9856614027361721 0.0143385972638279 0.9882865559186518 0.01171344408134816 0.9852997977143333 0.01470020228566676 0.9835717521848787 0.01642824781512133 0.9817431215556897 0.01825687844431026</probabilities>
		</cpt>
		<cpt id="HaveJava">
			<state id="State0" />
			<state id="State1" />
			<parents>JobSatisfaction</parents>
			<probabilities>0.388201454356925 0.611798545643075 0.5444449344138498 0.4555550655861502 0.5006388449509525 0.4993611550490475 0.5945800916693613 0.4054199083306387 0.5991772980708929 0.400822701929107 0.6029964138974121 0.3970035861025878 0.5994023858118277 0.4005976141881722 0.6180242382986899 0.38197576170131 0.6256399846073166 0.3743600153926834 0.6368080010741416 0.3631919989258584 0.6061345565365616 0.3938654434634384</probabilities>
		</cpt>
		<cpt id="HaveJavaScript">
			<state id="State0" />
			<state id="State1" />
			<parents>JobSatisfaction</parents>
			<probabilities>0.3072506561200717 0.6927493438799284 0.3817300235581579 0.618269976441842 0.5815067929633972 0.4184932070366028 0.3600948816637692 0.6399051183362309 0.3877541265267801 0.61224587347322 0.3768436649938868 0.6231563350061133 0.3639777057298929 0.6360222942701069 0.3671128614405613 0.6328871385594388 0.3751726499422657 0.6248273500577343 0.3603040649923643 0.6396959350076357 0.3296496726116533 0.6703503273883467</probabilities>
		</cpt>
		<cpt id="HaveJulia">
			<state id="State0" />
			<state id="State1" />
			<parents>JobSatisfaction</parents>
			<probabilities>0.9708848707474879 0.02911512925251218 0.9925991101602455 0.00740088983975448 0.9961245076427055 0.003875492357294546 0.9964925179844909 0.003507482015509046 0.9963837837862929 0.003616216213706925 0.9970884178827406 0.002911582117259356 0.9981601502089247 0.001839849791075346 0.9975124598017127 0.002487540198287203 0.996591504004781 0.003408495995218969 0.9963183094442954 0.003681690555704606 0.9950573459926288 0.0049426540073712</probabilities>
		</cpt>
		<cpt id="HaveLua">
			<state id="State0" />
			<state id="State1" />
			<parents>JobSatisfaction</parents>
			<probabilities>0.8548007996492373 0.1451992003507628 0.9817845264836108 0.01821547351638928 0.9515147341027679 0.04848526589723217 0.9758406085554919 0.02415939144450819 0.9802453779969114 0.01975462200308867 0.9791819766821938 0.02081802331780628 0.9763262616087693 0.02367373839123072 0.9771199515615251 0.02288004843847495 0.9768487533178432 0.02315124668215684 0.9758380676725699 0.02416193232743014 0.9642401515871224 0.03575984841287756</probabilities>
		</cpt>
		<cpt id="HaveMatlab">
			<state id="State0" />
			<state id="State1" />
			<parents>JobSatisfaction</parents>
			<probabilities>0.8649161513665344 0.1350838486334656 0.9423485794784826 0.05765142052151739 0.8899526134464376 0.1100473865535624 0.9691163025288145 0.03088369747118549 0.9637392908382322 0.03626070916176784 0.967955799908276 0.03204420009172408 0.9644267328746146 0.03557326712538541 0.9638233021732663 0.03617669782673377 0.9621196246945566 0.03788037530544348 0.9646251127450167 0.03537488725498344 0.9576988967488218 0.04230110325117815</probabilities>
		</cpt>
		<cpt id="HaveObjective_C">
			<state id="State0" />
			<state id="State1" />
			<parents>JobSatisfaction</parents>
			<probabilities>0.8891774770745366 0.1108225229254635 0.9442413891689156 0.05575861083108424 0.9677923343341237 0.0322076656658763 0.9463842227228593 0.05361577727714061 0.9515245317960651 0.04847546820393487 0.9414051301948383 0.05859486980516172 0.9453486047391345 0.05465139526086553 0.9398466322065739 0.06015336779342596 0.9346518273799458 0.06534817262005425 0.9281119663387621 0.07188803366123789 0.9064257048594641 0.093574295140536</probabilities>
		</cpt>
		<cpt id="HavePHP">
			<state id="State0" />
			<state id="State1" />
			<parents>JobSatisfaction</parents>
			<probabilities>0.5322153569647995 0.4677846430352006 0.6643463965062256 0.3356536034937745 0.7704877251006036 0.2295122748993965 0.7000654907457293 0.2999345092542707 0.6993149218774339 0.3006850781225661 0.690199435822757 0.309800564177243 0.7207207469121584 0.2792792530878417 0.731317775129656 0.268682224870344 0.7450343876985606 0.2549656123014395 0.7397056906181597 0.2602943093818403 0.6721014614174173 0.3278985385825826</probabilities>
		</cpt>
		<cpt id="HavePerl">
			<state id="State0" />
			<state id="State1" />
			<parents>JobSatisfaction</parents>
			<probabilities>0.908915010524289 0.09108498947571086 0.9542302674998152 0.04576973250018472 0.9709010560509859 0.02909894394901411 0.9528388196128187 0.0471611803871813 0.9608051007837852 0.03919489921621476 0.9615914517760654 0.03840854822393444 0.9573158498018117 0.04268415019818838 0.9563436934975111 0.04365630650248889 0.9581507098531006 0.0418492901468995 0.9590737743910063 0.04092622560899373 0.9488579656391254 0.05114203436087456</probabilities>
		</cpt>
		<cpt id="HavePython">
			<state id="State0" />
			<state id="State1" />
			<parents>JobSatisfaction</parents>
			<probabilities>0.4328153227181217 0.5671846772818784 0.7335496332578991 0.266450366742101 0.5625106158426179 0.4374893841573821 0.7224364704269907 0.2775635295730093 0.6992724496386482 0.3007275503613517 0.7100597855462921 0.2899402144537078 0.7092201331520643 0.2907798668479358 0.6923264957967961 0.307673504203204 0.6989554944973467 0.3010445055026534 0.6647962848193552 0.3352037151806447 0.6770475943113822 0.3229524056886178</probabilities>
		</cpt>
		<cpt id="HaveR">
			<state id="State0" />
			<state id="State1" />
			<parents>JobSatisfaction</parents>
			<probabilities>0.9051254951724768 0.09487450482752323 0.9627658360533168 0.03723416394668314 0.9393935132628448 0.06060648673715514 0.9539155840877521 0.04608441591224776 0.9627534758523255 0.03724652414767445 0.9582313747228048 0.04176862527719508 0.9625602353993162 0.03743976460068373 0.9610291588709993 0.03897084112900088 0.9578315745972905 0.04216842540270948 0.9485923534086471 0.05140764659135291 0.954627690054049 0.04537230994595089</probabilities>
		</cpt>
		<cpt id="HaveRuby">
			<state id="State0" />
			<state id="State1" />
			<parents>JobSatisfaction</parents>
			<probabilities>0.8021960926231241 0.197803907376876 0.9349830747197888 0.06501692528021112 0.9549675202465795 0.04503247975342042 0.9255055176058219 0.07449448239417818 0.9160817365504302 0.08391826344956976 0.9220849812228081 0.07791501877719186 0.9099545009178385 0.09004549908216151 0.9108564645032485 0.08914353549675146 0.9097026737717223 0.09029732622827778 0.9014115510261609 0.09858844897383924 0.8928068562489715 0.1071931437510286</probabilities>
		</cpt>
		<cpt id="HaveRust">
			<state id="State0" />
			<state id="State1" />
			<parents>JobSatisfaction</parents>
			<probabilities>0.9296201019076311 0.07037989809236894 0.9927802583495635 0.007219741650436482 0.9855448304435859 0.01445516955641418 0.995653324069021 0.004346675930978931 0.9880820386635378 0.01191796133646205 0.9925221143517049 0.00747788564829505 0.9900172761554772 0.009982723844522775 0.9912724695172274 0.008727530482772621 0.9890306660889823 0.01096933391101772 0.9897180032338642 0.01028199676613574 0.9885476053730916 0.01145239462690827</probabilities>
		</cpt>
		<cpt id="HaveSQL">
			<state id="State0" />
			<state id="State1" />
			<parents>JobSatisfaction</parents>
			<probabilities>0.3904390538344882 0.6095609461655118 0.4638083896662891 0.5361916103337108 0.6283614874731467 0.3716385125268533 0.4477071407271448 0.5522928592728553 0.4566551811295939 0.5433448188704061 0.4668373097958539 0.5331626902041462 0.4683064263494998 0.5316935736505003 0.4847472400690997 0.5152527599309004 0.5020552711021482 0.4979447288978519 0.4875320045947481 0.512467995405252 0.4856286991035266 0.5143713008964735</probabilities>
		</cpt>
		<cpt id="HaveScala">
			<state id="State0" />
			<state id="State1" />
			<parents>JobSatisfaction</parents>
			<probabilities>0.9355119964009141 0.06448800359908577 0.970661999763219 0.02933800023678113 0.9858481205789612 0.01415187942103876 0.9649618805053773 0.03503811949462253 0.9741046822146443 0.02589531778535584 0.9676130852771129 0.03238691472288712 0.9654460735497056 0.03455392645029447 0.9649496742029201 0.03505032579707993 0.9605872150108984 0.03941278498910174 0.9584452929556659 0.04155470704433414 0.9636296169485766 0.03637038305142336</probabilities>
		</cpt>
		<cpt id="HaveSmalltalk">
			<state id="State0" />
			<state id="State1" />
			<parents>JobSatisfaction</parents>
			<probabilities>0.9756784532538509 0.02432154674614901 0.9884895944223575 0.01151040557764236 0.994419924721087 0.005580075278912953 0.9957866292854287 0.004213370714571329 0.9969464691189696 0.003053530881030458 0.9944272687471623 0.005572731252837728 0.9916103011966807 0.008389698803319431 0.9905273489717002 0.00947265102829967 0.9898996381720218 0.01010036182797832 0.9900203802846531 0.009979619715346864 0.98892304676151 0.01107695323848997</probabilities>
		</cpt>
		<cpt id="HaveSwift">
			<state id="State0" />
			<state id="State1" />
			<parents>JobSatisfaction</parents>
			<probabilities>0.8747746679754033 0.1252253320245968 0.9411612355094676 0.05883876449053232 0.9701229068681272 0.02987709313187286 0.944893282182471 0.05510671781752902 0.947374303518662 0.05262569648133786 0.9384358725080846 0.06156412749191528 0.942836868079507 0.0571631319204931 0.9367978110724811 0.06320218892751903 0.9372523379644202 0.06274766203557985 0.927390363552515 0.07260963644748497 0.9132314393480958 0.08676856065190411</probabilities>
		</cpt>
		<cpt id="HaveTypeScript">
			<state id="State0" />
			<state id="State1" />
			<parents>JobSatisfaction</parents>
			<probabilities>0.9043965508472634 0.09560344915273652 0.9295749631664622 0.07042503683353797 0.967107895349447 0.03289210465055312 0.9152732121684116 0.0847267878315883 0.9206474135704076 0.0793525864295923 0.9116939032351634 0.08830609676483658 0.9045657640673216 0.09543423593267845 0.906131399066015 0.09386860093398494 0.892837960625135 0.107162039374865 0.8951073024257112 0.1048926975742887 0.8865450196104184 0.1134549803895815</probabilities>
		</cpt>
		<cpt id="HaveVB_NET">
			<state id="State0" />
			<state id="State1" />
			<parents>JobSatisfaction</parents>
			<probabilities>0.8466022906058651 0.1533977093941349 0.9250810971004494 0.07491890289955062 0.9600679570244401 0.03993204297555983 0.9362348815228763 0.06376511847712385 0.9395782323282037 0.06042176767179627 0.9337073436509445 0.06629265634905543 0.936051200511859 0.06394879948814093 0.9371134925460942 0.06288650745390577 0.9398894453967038 0.06011055460329619 0.9464451078920765 0.05355489210792357 0.9403565689101979 0.05964343108980218</probabilities>
		</cpt>
		<cpt id="HaveVBA">
			<state id="State0" />
			<state id="State1" />
			<parents>JobSatisfaction</parents>
			<probabilities>0.9147108289700416 0.08528917102995837 0.9346867647266729 0.06531323527332702 0.9728569144739241 0.02714308552607606 0.9580433252661554 0.04195667473384465 0.9547345846497551 0.04526541535024493 0.9495708572264492 0.05042914277355082 0.9643200734266664 0.03567992657333363 0.9578197258814416 0.04218027411855826 0.9555345479728875 0.04446545202711248 0.9591495905144382 0.04085040948556187 0.9577637008628972 0.04223629913710271</probabilities>
		</cpt>
		<cpt id="HaveVisualBasic6">
			<state id="State0" />
			<state id="State1" />
			<parents>JobSatisfaction</parents>
			<probabilities>0.8833590877584983 0.1166409122415017 0.9281025261878666 0.07189747381213349 0.9778386675138767 0.02216133248612314 0.9658440331435542 0.0341559668564459 0.9733640428144433 0.02663595718555657 0.9624352704980116 0.03756472950198837 0.9759239713311023 0.02407602866889768 0.9758002666693273 0.0241997333306727 0.9751669739161143 0.02483302608388576 0.97393511152822 0.02606488847177991 0.9702344290126528 0.02976557098734704</probabilities>
		</cpt>
		<cpt id="MajorUndergrad">
			<state id="SA_business_discipline" />
			<state id="SA_health_science" />
			<state id="SA_humanities_discipline" />
			<state id="SA_natural_science" />
			<state id="SA_non_computer_focused_engineering_discipline" />
			<state id="SA_social_science" />
			<state id="SComputer_engineering_or_electrical_electronics_engineering" />
			<state id="SComputer_programming_or_Web_development" />
			<state id="SComputer_science_or_software_engineering" />
			<state id="SFine_arts_or_performing_arts" />
			<state id="SI_never_declared_a_major" />
			<state id="SInformation_technology_networking_or_system_administration" />
			<state id="SManagement_information_systems" />
			<state id="SMathematics_or_statistics" />
			<state id="Psychology" />
			<state id="SSomething_else" />
			<parents>JobSatisfaction</parents>
			<probabilities>0.02078536396799631 0.01074019469667113 0.02659511053357434 0.03075404673072538 0.02312127370183795 0.007362277994231279 0.1088343897318686 0.08818464809077085 0.5113572367416002 0.01308227081335591 0.01786202597846031 0.05026441094383327 0.0164620858469232 0.03554483615335849 0.003308260167381327 0.03574156790741148 0.01720561163152253 0.0002405932802153347 0.03014945170137468 0.03927394618628429 0.03473296385141596 0.008656841327006193 0.09618654312798901 0.1292111747502242 0.4364471260587919 0.01099573651635639 0.01553944148991865 0.06151386469870244 0.02229538399629324 0.03610417192580843 0.01495360876310462 0.04649354069499195 0.01138267980587091 0.002856971938338407 0.01406539176831581 0.04031948579589121 0.04762639075519969 0.00823593138387245 0.1425183063087415 0.06910523100926994 0.5133494958215318 0.008259534824900159 0.01312754723792869 0.05374407368328802 0.006850885321554857 0.03448817317766433 0.004982153323624092 0.02908774784400809 0.01913042448053866 0.001662846207350749 0.02356256406402052 0.04478932308914977 0.03991829732334026 0.02094276017563577 0.1043201136635352 0.09842262492103274 0.4741088686692018 0.01864062297075599 0.01352675182174696 0.0550890924295263 0.01463775286791826 0.04226854627369794 0.003454478885505229 0.02552493215704363 0.02413911556092804 0.001454537072402423 0.01676351148237978 0.02924249216891368 0.0377783172406019 0.01538848425945836 0.1054682108633287 0.1095134061646907 0.5037018821148831 0.01060559906077863 0.01306257721141335 0.06257241417427263 0.01055476866503468 0.02813468294307924 0.005327960138435952 0.02629204087939886 0.01731124229019275 0.002058700996547849 0.0141229392272906 0.0314953789172364 0.04273843944228541 0.0149623489783276 0.1073791431350406 0.1069148011102751 0.5025920501180525 0.009624894547596711 0.01279851154399801 0.05978872079939735 0.01347911337461311 0.03724658751262221 0.002706283457984102 0.02478084454853979 0.02114026042814075 0.003782723498104014 0.02016605571088993 0.03814538400907318 0.03753482830824542 0.01704792013275503 0.1016647238011619 0.09683171028166934 0.5041443938730195 0.0161680845307698 0.01134127842401138 0.05735222748072661 0.01544848211891081 0.03289941863623763 0.004227820384112253 0.02210468838217262 0.01957261840956493 0.003119479513666447 0.0241579140206442 0.04530295402904905 0.04600730789091189 0.01463311791130489 0.1003053123104944 0.08883941209093331 0.4980255500095551 0.01532918790647471 0.01440027407260061 0.04810889242527162 0.01647447128154372 0.03737447119662069 0.005209491796080114 0.0231395451352843 0.02243507766394047 0.003913717194110448 0.02108321473002913 0.0485029886757333 0.04248570777509002 0.01467737861556964 0.1061082246730503 0.08541164654591357 0.4960819705620265 0.01554573393703875 0.01274441831816913 0.04295752861306664 0.01797093846040068 0.0400835921000133 0.005465547553150656 0.02453231458269746 0.02494965683830505 0.003136506800383162 0.02419652812941341 0.05382808134246457 0.03756147982888003 0.01565927934747448 0.09080500125400323 0.07664792765807175 0.5072623088259496 0.01839956067029647 0.0152130190746142 0.04420878486947311 0.01431563437179314 0.04531944804679227 0.00584494152976162 0.02265184141232385 0.02228226330667264 0.004078763918336429 0.01978604338389844 0.04312132406779102 0.04616221906298442 0.01311343270624719 0.08608533681116859 0.09501937925180894 0.499389480016882 0.01717685625876685 0.01695103062697157 0.04793026249628221 0.01473370857535451 0.04121869418800134 0.005601801624578991 0.0273494037042549</probabilities>
		</cpt>
		<cpt id="Race">
			<state id="SBlack_or_of_African_descent" />
			<state id="SEast_Asian" />
			<state id="SHispanic_or_Latino_Latina" />
			<state id="SI_don___t_know" />
			<state id="SMiddle_Eastern" />
			<state id="SNative_American_Pacific_Islander_or_Indigenous_Australian" />
			<state id="SSouth_Asian" />
			<state id="SWhite_or_of_European_descent" />
			<parents>JobSatisfaction</parents>
			<probabilities>0.05656749775262653 0.07992069735973421 0.04549213919920912 0.03432960271642549 0.0490281436395091 0.009979833688300748 0.1432877909213111 0.5813942947228837 0.07857741339610629 0.07860889865802947 0.03980216202257304 0.01894242612393657 0.05905350511250305 0.0008721383135782384 0.1848850805078818 0.5392583758653915 0.02973749846714704 0.07619867986489244 0.04319815952575607 0.04158570877010771 0.05157440000674973 0.004706107715929512 0.1655498646375711 0.5874495810118463 0.04466562072761943 0.05259500595963827 0.04704829564499955 0.01990201668486116 0.04286791328423208 0.00300778015354799 0.1001464122344555 0.6897669553106462 0.04744522819331669 0.05773267732142319 0.04657780551775163 0.03397117189836029 0.03685866689579442 0.005873003557193637 0.1277554783675383 0.6437859682486219 0.03139520339271668 0.07281998285700048 0.04423508889648697 0.02156680380276753 0.03875699267294172 0.008541727226542693 0.1309435569277436 0.6517406442238005 0.02471789330943407 0.05573274778363097 0.05903822668036678 0.01735703411952708 0.03170056024037583 0.004784510343052981 0.1032703315624381 0.7033986959611742 0.020732927701083 0.04550825212702882 0.0602456792665556 0.01270475118071232 0.03596219282823893 0.005495835652745329 0.07754074742645871 0.7418096138171774 0.0204822604734837 0.04073776738338193 0.05088147691289183 0.009765380612329885 0.02950946538549238 0.006806608242213174 0.05937507332544718 0.7824419676647599 0.01592728588400407 0.03465674664679451 0.05924700969666969 0.01393716428616784 0.02699653321095753 0.006893229620978585 0.04182783474624831 0.8005141959081795 0.02572353888650104 0.03804767846749026 0.06752911971672082 0.01187062817589694 0.03712108844243887 0.006132859211152955 0.05791116617303624 0.7556639209267629</probabilities>
		</cpt>
		<cpt id="Salary">
			<state id="S1_10000" />
			<state id="S100001_110000" />
			<state id="S10001_20000" />
			<state id="S110001_120000" />
			<state id="S120001_130000" />
			<state id="S130001_140000" />
			<state id="S140001_150000" />
			<state id="S150001_160000" />
			<state id="S160001_170000" />
			<state id="S170001_180000" />
			<state id="S180001_190000" />
			<state id="S190001_200000" />
			<state id="S20001_30000" />
			<state id="S30001_40000" />
			<state id="S40001_50000" />
			<state id="S50001_60000" />
			<state id="S60001_70000" />
			<state id="S70001_80000" />
			<state id="S80001_90000" />
			<state id="S90001_100000" />
			<parents>JobSatisfaction</parents>
