<?xml version="1.0" encoding="ISO-8859-1"?>
<!-- This network was created in trial version of GeNIe, which can be used for evaluation purposes only -->
<smile version="1.0" id="Unnamed" numsamples="10000" discsamples="10000">
	<nodes>
		<cpt id="MajorUndergrad">
			<state id="SA_business_discipline" />
			<state id="SA_health_science" />
			<state id="SA_humanities_discipline" />
			<state id="SA_natural_science" />
			<state id="SA_non_computer_focused_engineering_discipline" />
			<state id="SA_social_science" />
			<state id="SComputer_engineering_or_electrical_electronics_engineering" />
			<state id="SComputer_programming_or_Web_development" />
			<state id="SComputer_science_or_software_engineering" />
			<state id="SFine_arts_or_performing_arts" />
			<state id="SI_never_declared_a_major" />
			<state id="SInformation_technology__networking__or_system_administration" />
			<state id="SManagement_information_systems" />
			<state id="SMathematics_or_statistics" />
			<state id="NA" />
			<state id="Psychology" />
			<state id="SSomething_else" />
			<probabilities>0.01682343649967795 0.002574469854378396 0.01736675450246156 0.03374705851077374 0.03339187178318084 0.01252088700092634 0.08528556238126728 0.07813146050026548 0.4087952780133092 0.01181866794130475 0.01143811517236281 0.04297769818556636 0.01209230263433655 0.03086123255633538 0.1769790609255091 0.003915570864857133 0.02128057267348715</probabilities>
		</cpt>
		<cpt id="CompetePeers">
			<state id="Agree" />
			<state id="Disagree" />
			<state id="NA" />
			<state id="SSomewhat_agree" />
			<state id="SStrongly_agree" />
			<state id="SStrongly_disagree" />
			<probabilities>0.1289237673941724 0.1831278473014178 0.4040050496242015 0.1726375150258668 0.04817167070521005 0.06313414994913151</probabilities>
		</cpt>
		<cpt id="JobSeekingStatus">
			<state id="SI_am_actively_looking_for_a_job" />
			<state id="SI_am_not_interested_in_new_job_opportunities" />
			<state id="SI_m_not_actively_looking__but_I_am_open_to_new_opportunities" />
			<state id="NA" />
			<probabilities>0.08507746896725861 0.1611439710365882 0.4033184563820875 0.3504601036140657</probabilities>
		</cpt>
		<cpt id="JobSatisfaction">
			<state id="S0" />
			<state id="S1" />
			<state id="S10" />
			<state id="S2" />
			<state id="S3" />
			<state id="S4" />
			<state id="S5" />
			<state id="S6" />
			<state id="S7" />
			<state id="S8" />
			<state id="S9" />
			<state id="NA" />
			<parents>JobSeekingStatus MajorUndergrad</parents>
			<probabilities>0.06602506523599132 0.01623948070426944 0.01928924371765044 0.04567413620678878 0.1017429963511215 0.1162382865778198 0.1183959341505807 0.09836421235499974 0.1244709747037803 0.07555889404861429 0.03327233590497 0.1847284400434137 0.08098090969544941 0.001038720086194191 0.02125988294442169 0.05137456326923489 0.05100096026438912 0.04036572726947772 0.082825848935152 0.1034610392084454 0.108841482899218 0.07285183827697642 0.02384277929117935 0.3621562478598618 0.08133003720321062 0.02872068821366419 0.01725370810780518 0.06260608691721589 0.1313739465815838 0.08667704574532821 0.09863548517305527 0.09531016008813416 0.1569498964630151 0.07074587498461929 0.03250781187960276 0.1378892586427657 0.05085571871563285 0.02015420570315122 0.01937966866412781 0.06630611004734557 0.1277823466755657 0.07735977530010896 0.1150688712295369 0.09373814770476903 0.1507729856951417 0.08286191979717927 0.03681778722930133 0.1589024632381399 0.03304298944685446 0.01617555782648402 0.02103114229953506 0.06645585258083077 0.1130167792535851 0.09689619872947326 0.1537512879415689 0.09227275291019611 0.1552340265039476 0.07434189283221998 0.0266375308341059 0.1511439888411988 0.02460037866252777 0.01104398263652164 0.0156646870598838 0.0564237296035034 0.1573142532532958 0.1084741886874479 0.142715859734098 0.1114367678522927 0.1307000167006376 0.06691349381820191 0.02839397991003145 0.146318662081558 0.05159193078808575 0.01790451043100054 0.01560908246038824 0.05873063875271137 0.11656370206643 0.1068488082113366 0.1514169723271321 0.09816309612706661 0.1345815969317607 0.07416131841343139 0.02587609884346045 0.1485522446471962 0.04619559932767112 0.02073884324535383 0.01760748655490956 0.05450175342954612 0.1130043675207614 0.1130672312496245 0.1545276526500877 0.09732901616757357 0.1217204117033107 0.0623790992115595 0.02248214418204632 0.1764463947575557 0.05195847232284132 0.01697607387812495 0.01865374035213337 0.06514260377581668 0.1121270523314868 0.1073437130944486 0.1490909479432659 0.101796348181143 0.1390106660083772 0.07196851283256211 0.02970432669541612 0.1362275425843838 0.06042040766759652 0.01559679697770796 0.02269465435537453 0.05462154842551763 0.1566480727955754 0.08131628809556783 0.101319965534832 0.1153992064882448 0.1495965859076236 0.07790817230315371 0.03737146873047743 0.1271068327183286 0.06198346880134333 0.01994238082749111 0.02110109883034886 0.06717597585336019 0.1109289014817143 0.09655083395042896 0.1283555752429167 0.07731236288583046 0.1373205638984014 0.06369660600458404 0.03018628434390518 0.1854459478796753 0.0326763790338352 0.01884335901800616 0.01645597860774526 0.057592985947087 0.1142622177415107 0.1170817793783317 0.1583745530545756 0.1065662340249796 0.1232469953699858 0.05815972719423841 0.02428120788610023 0.1724585827436044 0.0665885070379265 0.02989394291881173 0.01848789686865244 0.05272788032847845 0.1147904294140819 0.0784971431797806 0.1351396413914094 0.1052146944387478 0.1558051679340115 0.08695290744225274 0.02802138543595631 0.1278804036098908 0.0457477742719547 0.01907695108633108 0.02007575869571904 0.07237420733893035 0.1312791180773503 0.07957346134429315 0.1482181265633646 0.08831398247872034 0.1376461570308525 0.07564305180566609 0.03444745702679394 0.1476039542800237 0.03111624639588168 0.009493471739417655 0.01218645748031752 0.02829727927856971 0.04766646986356699 0.04298835270259863 0.06339954998700126 0.03939667029058886 0.05544949821575421 0.03051390200003658 0.01298646100857803 0.6265056410376889 0.02699102721532351 0.04644938004094924 0.01799857796776125 0.08181083987074761 0.08121590000830074 0.1151059462304193 0.08025677297947598 0.08612904110342511 0.1447534506829803 0.07801536971057607 0.03320126143757204 0.2080724327524688 0.05700151428443225 0.02771209949958836 0.0184023922556354 0.06614991519322207 0.1073467026328804 0.09674267354311572 0.1298810722418941 0.07964748218715513 0.1144831752939716 0.06351855159957726 0.0237099689820542 0.2154044522864736 0.004470565499330126 0.0006736550765130856 0.1476405741312092 0.001629953355009178 0.007511176551053624 0.01040118738787056 0.01792670519027181 0.03463391387015822 0.1506436453596367 0.2864291669286932 0.2609675186104513 0.07707193803980307 0.005638680377113702 4.431035021911886e-05 0.1673372383764088 0.001885359527429974 0.003871889935817071 0.003714391750601923 0.01289646807316494 0.03746126974352485 0.1354622795423381 0.2839967470377679 0.1923097247648375 0.1553816405207761 0.00563317564311633 0.00121873417728332 0.1350895235956307 0.002285441409177519 0.009921135747578318 0.007933896311678203 0.01527726358374349 0.03432830431425998 0.194308794841208 0.2743351574507509 0.2608192253776202 0.05884934754795298 0.00320790742679622 0.0007788602570509462 0.1381863927405033 0.002204381669747326 0.008788256289884897 0.006448776539293187 0.01623117455435928 0.03074745883706125 0.1699944209611395 0.2926274385570139 0.2690229033090806 0.06176202885806955 0.002281340120347078 0.0006841979981757287 0.1641385037390493 0.002418216337067074 0.00850752936129418 0.008840921700561048 0.02373774901865008 0.03312798454596875 0.1915696614677505 0.2873573732778976 0.2130365954438742 0.06429992698936446 0.00184709520962707 0.0005080249376359299 0.1329554410071222 0.002232854838583187 0.01287850308955764 0.01076351197705105 0.02396237126823231 0.04350977402757394 0.1754091466624648 0.2812802379030891 0.2469581150674543 0.06769492401160851 0.00383707317596498 0.0008158166730502684 0.1312298332484277 0.002302153273391107 0.009452168520224336 0.01050190488530691 0.02518273660037047 0.03796447327540837 0.1789093675094025 0.3087974933509424 0.2229290384276353 0.06807794105987573 0.003677459129342689 0.001011448102461486 0.1584460861860274 0.002286698641597934 0.009808267487231712 0.01189499062828844 0.02750828537337396 0.04029029181455111 0.17319676035493 0.2780125312709121 0.2073168104327038 0.08655037057857932 0.003678107446373925 0.0007362361212986693 0.1492694276145779 0.002430436966763805 0.00865422669275789 0.01004210481461279 0.02360094425852246 0.03747236187926179 0.1758916671224139 0.2852256581323819 0.2435775692239049 0.05942125972713006 0.003795960208861725 0.0006003233628870497 0.1611752952882852 0.001808644524127095 0.01073032509139824 0.00675142805134334 0.0142345288902858 0.03770089438985389 0.1679920713641468 0.2740305865115555 0.2719741996712523 0.04920574264600296 0.004398327294483855 0.0008669628698344988 0.1692597284301284 0.00251233102064225 0.008582349613182929 0.009054152260843709 0.02036744107541598 0.02852800774830796 0.1741712013272723 0.2530497907890742 0.2481251953762056 0.08108451219460842 0.00262317422843 0.0009267516345212481 0.1493323253116869 0.002436767072741701 0.01000105197860771 0.0124211733788227 0.0284307737231047 0.04448603107429507 0.1768473901669173 0.2613927854323601 0.225794334221683 0.08530744177682963 0.004448798454236891 0.001223597216585729 0.1396265042452086 0.00185667109638035 0.008361784242627965 0.006930704820655972 0.02018999820040688 0.03655364436809697 0.1860605990607105 0.3252412230366531 0.2168615703637836 0.05264490489465352 0.003050047822570112 0.0007792153002912123 0.1513023062861678 0.002543148438536116 0.009542939120557216 0.007011081682715459 0.02209775039056354 0.03061801133014952 0.1640324882272689 0.2823473691384988 0.2660378242379096 0.06063781802477174 0.003127562043878652 0.0005845957047220967 0.1384628005318794 0.001499044838642425 0.005223739908896226 0.005710177828224776 0.01425000353405898 0.02059155198305759 0.09961975177484748 0.1717095710259146 0.151202540774514 0.3880186600513639 0.001789340428140776 0.001886536921828155 0.1348803414782157 0.002858483059681974 0.00587035609360576 0.01008443145916853 0.0118977631574208 0.02969162754658789 0.1715266435987871 0.2895554584877179 0.2549633089488757 0.08499570881996976 0.00444809645461241 0.001324857164790583 0.1623300746492104 0.002720622622614227 0.009133270812444739 0.00997667870286183 0.02266437425341741 0.03231995035837639 0.1596829591897787 0.2775021891031155 0.2143227779871737 0.1035741487016042 0.009285995834837973 0.003102359222844369 0.03534315978240254 0.01139266186525069 0.03339456157152198 0.05599729472455427 0.07370161370010637 0.09684047792660024 0.2513136187237663 0.2377727428735968 0.1103766964240695 0.08147881735044896 0.0121060766912793 0.000210920892294755 0.04140494069144951 0.01362084755066779 0.01779306232403971 0.0206695847875429 0.05480336536985542 0.1082674145628738 0.2335842239570989 0.2436790058404516 0.08407214003557112 0.1697884172968752 0.01129796301733596 0.005419314067516668 0.03122497882391823 0.01542413994939873 0.04259023157958158 0.04124311695515716 0.06064610671700611 0.09268053597662278 0.3129957922136035 0.2198908356534082 0.1065151466805904 0.06007183836586051 0.006724983544810586 0.003620073738331061 0.0333863010718947 0.01555035110462679 0.03943427549879109 0.03504005914588671 0.06734879742540603 0.08676967224367764 0.2862221584559706 0.2451676986183671 0.1148374571572861 0.06589817199495158 0.004487622636438299 0.002983984516307187 0.03721091835390081 0.01600683439740692 0.03582048831638232 0.04507564392055033 0.09242220456813703 0.08772242643975633 0.302658035331637 0.2259058318224049 0.08533072152267333 0.06437528817440545 0.003516225909495907 0.002144178777640422 0.02916938207171471 0.01430315966709307 0.05247526346927969 0.0531079563373078 0.09028753133561619 0.1114971187434883 0.2681877325700692 0.2139959302079256 0.09572727635268602 0.06558824455768303 0.007321788701438558 0.003451422778232768 0.02885913523272805 0.01478207338084511 0.03860560113843699 0.05194016128253447 0.09511095249178571 0.09751778266972913 0.2741885880871991 0.2354884882567257 0.08661810250970246 0.06611590347064207 0.006953569566777156 0.004240255511929654 0.0345282916695708 0.01454966158600729 0.03969666332069453 0.05829645641698714 0.1029518057276065 0.102553312145366 0.2630261320084305 0.2100889094170864 0.07982140737326535 0.08329353525627879 0.007247515984597097 0.003216402309537689 0.03389762445429785 0.0161151050653658 0.03650016188726558 0.05128703865886657 0.0920459421271539 0.09939514387707959 0.2783615333820227 0.2246115921953051 0.09772979216108293 0.05959214789742533 0.008007629081126323 0.002807734356869458 0.03918450796943879 0.01283865485708609 0.04845035127757342 0.03691441956324822 0.0594341277094732 0.1070590238594691 0.2846231801680313 0.2310256190220228 0.1168247653310571 0.05282998680460411 0.009019537243996763 0.003941719218945059 0.04000220939063055 0.01733634665930657 0.03767078482668481 0.04812409879027127 0.08266918941106338 0.0787512553829483 0.2868614867648535 0.2073869863928708 0.1036078094841557 0.08462857643427321 0.004896339385280358 0.003835272362751275 0.03212416368385602 0.01530531959605163 0.03995690250609588 0.0600931684693651 0.1050373008044327 0.1117782654534248 0.2651198320906417 0.1949919929907184 0.08581877858523465 0.08104266407214734 0.008811239577626428 0.005373054346715868 0.03187100585301707 0.01237408983020949 0.03544826548234185 0.03557867617677735 0.07914820264468903 0.09745728088817973 0.2959701268208904 0.2574415667067133 0.08745845278929629 0.0530680388835434 0.006302515820661342 0.003569876907327167 0.03603184246843363 0.01768328777729343 0.04220765290729529 0.03755004190169272 0.09037865155724321 0.08516744217617084 0.2722302321175061 0.2331684827039749 0.1119374981671727 0.06377247549522871 0.006458728528765975 0.002676610585874314 0.03295397703276461 0.01041692960945987 0.02309002460177076 0.03056390447647912 0.05824606185235139 0.05724262045537007 0.1652287955817831 0.1417145381270789 0.06358066983315326 0.4078271393151488 0.003712208589343247 0.00867747118867873 0.03224940304861608 0.0199553352706868 0.02606787300479186 0.05422616844072298 0.0488556970911995 0.0829206561775637 0.2858052297030597 0.2400766700908142 0.1077065206608135 0.08974676673370974 0.008816277976300814 0.005821951883874165 0.03708033880407337 0.01814526825243981 0.03874709678885289 0.05125251345296847 0.08891300942047645 0.08623252303936219 0.2541960724465022 0.2198144801025517 0.08649765262517484 0.1044828152074229 0.01389821755833001 0.004252631157313074 0.0644326814098386 0.01380249178492903 0.03558182853419452 0.04984914564883506 0.0667396362541543 0.07860523879809819 0.2035932878363051 0.2204803833392311 0.1271521365576648 0.1216123211211062 0.01724441247077161 0.0002751690557241938 0.07184017113388581 0.01570546437634198 0.01804336674750041 0.01751204182785958 0.04723113990262685 0.08363858820624634 0.1800965112823845 0.2150504531501795 0.09217491234338768 0.2411877695030915 0.01721914737008673 0.007564684626364633 0.05796740468501433 0.01902891909933904 0.04621078976890461 0.03738720728069084 0.05592302267462963 0.0766062100515011 0.2582062820478773 0.2076327664064836 0.1249506481812783 0.09130291780782998 0.010174883180057 0.005016382391626156 0.06152855574432248 0.01904496037351711 0.04247505668709167 0.03153284007073203 0.06165158812752958 0.07119837945794601 0.2344003571979152 0.2298151856665659 0.1337326413659182 0.09942916973677861 0.006851709925295952 0.004172671694073381 0.06920273146858957 0.01978289102412753 0.03893462853521842 0.04093404189288281 0.08537587726818648 0.07263688650514133 0.2501218647691678 0.2136915490443761 0.1002775479165609 0.09801759995637985 0.005380930650865669 0.00300522249174337 0.05437234503238895 0.01771798298868355 0.05716854619971608 0.04833928992677006 0.08359583133830244 0.09253546592216653 0.2221448987196905 0.2028912910170068 0.1127540050573961 0.1000941906552699 0.01120704146607922 0.004838457832219797 0.05380557916486241 0.0183151639088844 0.04206743205534227 0.04728649597297248 0.08808065500857516 0.08095087573076065 0.2271642438568438 0.2233164603458846 0.1020464973255522 0.1009210973320228 0.01049524394158886 0.005861540539371574 0.06347899391891977 0.01777621498669772 0.04265408525408645 0.05233436296019646 0.09401451698049842 0.08394568375002891 0.2148822005485775 0.1964559227913264 0.09272989407595726 0.1253713402527507 0.01106338656463856 0.004496807357428712 0.06302870428984224 0.01991286343004678 0.03966574278354205 0.04656574769427386 0.08501190925506999 0.08228639161154631 0.2299984644776466 0.2124263262018197 0.1148263420554843 0.09071731427866109 0.01215183922296709 0.003902375848728893 0.07243069867354643 0.01577100099201566 0.05234279292465282 0.03331916910596585 0.05456952546391008 0.08811001844350622 0.2337895766696043 0.21720782948178 0.136454742278333 0.07995043089498981 0.01343282604006074 0.005376551762724054 0.07256669151182643 0.02089981228059021 0.03994015057702846 0.04262906388493562 0.07449086731268371 0.06360694922934178 0.2312449143218663 0.1913559195269066 0.1187657663726241 0.1256904871794119 0.007424657616287025 0.005326428987795872 0.0593344550959362 0.01878663464488437 0.04313389010624836 0.05419885021250477 0.0963661899526471 0.09192343198819206 0.2176025324256938 0.1831888190499455 0.1001619790355845 0.1225521308842805 0.01356316184043392 0.007574957134128836 0.05975715516909232 0.01541838432961557 0.03884550921856811 0.03257420090705201 0.07371251147452387 0.08135835714089241 0.2465974740045552 0.2455160397917959 0.1036194716608031 0.08146277732853879 0.009511899689157621 0.004934482018924106 0.0662384249629436 0.02160319571967239 0.0453488642603731 0.03370728669942503 0.08252687340001137 0.06970932341276605 0.2223855074937863 0.2180220556810004 0.1300302994311795 0.09598178723076042 0.008162597553570409 0.003098143697732416 0.05072936177216411 0.01065670029116085 0.02077435959454045 0.02297472064847476 0.04453732595887649 0.0392342004610523 0.1130274428059821 0.1109616806445866 0.06184749331118447 0.513995973260675 0.00555492108304569 0.01189251518683799 0.05878105981915558 0.02417164567385769 0.02776981675505406 0.04826301988263026 0.04423203838225132 0.06729335767364689 0.231490143659155 0.2225731372137191 0.1240518279970749 0.1339265166735716 0.01301910444294375 0.007874073421903155 0.06669752824373897 0.02169006720014416 0.04073398497879452 0.04501643058906564 0.07943965754971392 0.06906068397966381 0.203180246593672 0.2011080246937014 0.09831409985013753 0.1538660984565213</probabilities>
		</cpt>
		<cpt id="CompanySize">
			<state id="S1_000_to_4_999_employees" />
			<state id="S10_000_or_more_employees" />
			<state id="S10_to_19_employees" />
			<state id="S100_to_499_employees" />
			<state id="S20_to_99_employees" />
			<state id="S5_000_to_9_999_employees" />
			<state id="S500_to_999_employees" />
			<state id="SFewer_than_10_employees" />
			<state id="SI_don_t_know" />
			<state id="SI_prefer_not_to_answer" />
			<state id="NA" />
			<parents>JobSatisfaction</parents>
			<probabilities>0.07284382284382286 0.1754079254079254 0.08780108780108782 0.1540404040404041 0.1625874125874126 0.02797202797202798 0.05574980574980575 0.1241258741258741 0.02797202797202798 0.01087801087801088 0.1006216006216006 0.1018473505104521 0.1419543023821099 0.09382596013612056 0.1606708799222168 0.1740398638794361 0.04569761789013126 0.05639280505590665 0.1125425376762275 0.01361205639280505 0.008264462809917354 0.09115216334467671 0.06871316198865006 0.1067946274020027 0.1058305396700191 0.1383685006244659 0.1812704046977366 0.02749841144635071 0.04798527575100243 0.1154714169898552 0.01376016126558426 0.02267797278643266 0.1716295273779005 0.09459044892115757 0.1429594028019225 0.1002147458840372 0.1564577155128336 0.1992023724307189 0.04172205747008897 0.06646896410675938 0.09234073013600572 0.02259944779629819 0.009101135085387053 0.07434297985479088 0.08012891753723053 0.1620360080017782 0.08440764614358749 0.1626472549455435 0.2048232940653479 0.04651033563014005 0.05629028673038455 0.08685263391864861 0.01717048232940654 0.009835519004223164 0.08929762169370975 0.08740134463607134 0.1377764786124915 0.1077657604988795 0.1629640456007016 0.2004774432427166 0.04667251291045504 0.05524700380005847 0.09115268440027284 0.01076683231024067 0.01344636071324174 0.08632953327487092 0.09842424242424243 0.1298909090909091 0.09655757575757576 0.1706909090909091 0.1872242424242424 0.03575757575757576 0.06295757575757577 0.07602424242424242 0.01869090909090909 0.01175757575757576 0.1120242424242424 0.08971671442583225 0.1320268477027521 0.08485104909898647 0.1811066023039791 0.2145316075927457 0.04106006115737446 0.06306133046137276 0.07279266111506433 0.01588553185760717 0.01144296786353059 0.09352462642075504 0.09662370252081671 0.1310026234743926 0.0853313562221969 0.1755446560967264 0.2090452834492985 0.03840538382571005 0.05584578533135623 0.08232006387589827 0.01343675145431733 0.01393863351203376 0.09850576023725335 0.09106087590059095 0.1297964057314013 0.09284181980085809 0.1740973852505464 0.2053752124989881 0.03718732291750991 0.05978304865214928 0.07670201570468713 0.01759694001457136 0.01047316441350279 0.1050858091151947 0.08720683693773039 0.1309815050396321 0.09635646018853772 0.1752943862739342 0.1950288677952833 0.03177088430048603 0.05778451903317351 0.08648921942786314 0.01598329908340673 0.01311282904393777 0.1099911928760153 0.02079430962066888 0.03649731406834066 0.03141426060551049 0.03840345911690198 0.04484804475727594 0.01044666507133603 0.01344203586193238 0.03431886258427059 0.02061277199699638 0.0139866487329499 0.7352356275838167</probabilities>
		</cpt>
		<cpt id="CompanyType">
			<state id="SGovernment_agency_or_public_school_university" />
			<state id="SI_don_t_know" />
			<state id="SI_prefer_not_to_answer" />
			<state id="NA" />
			<state id="SNon_profit_non_governmental_organization_or_private_school_university" />
			<state id="SPre_series_A_startup" />
			<state id="SPrivately_held_limited_company__not_in_startup_mode" />
			<state id="SPublicly_traded_corporation" />
			<state id="SSole_proprietorship_or_partnership__not_in_startup_mode" />
			<state id="SSomething_else" />
			<state id="SState_owned_company" />
			<state id="SVenture_funded_startup" />
			<parents>JobSatisfaction</parents>
			<probabilities>0.04504985754985755 0.09205840455840457 0.03436609686609687 0.1027421652421653 0.02154558404558405 0.02581908831908832 0.4018874643874644 0.1347934472934473 0.07282763532763534 0.006588319088319089 0.02368233618233619 0.03863960113960114 0.06439393939393939 0.08845811051693404 0.02963458110516934 0.09113190730837789 0.02428698752228164 0.02428698752228164 0.4093137254901961 0.1392602495543672 0.05102495543672014 0.008244206773618538 0.02428698752228164 0.04567736185383243 0.04846549369325942 0.06340885353900538 0.04870651562625532 0.1737968988511288 0.02436330039366916 0.04533220856431269 0.3319072868964409 0.1116132401381859 0.06051659034305455 0.00725074315096007 0.01279424760986583 0.07184462119386197 0.0495875515560555 0.06421072365954257 0.03046494188226472 0.07433445819272591 0.03046494188226472 0.03158980127484064 0.4050431196100487 0.1497000374953131 0.08895763029621298 0.01134233220847394 0.02821522309711286 0.03608923884514436 0.06056438467807661 0.07278932355338223 0.03000203748981255 0.09173797881010595 0.02755704971475143 0.01594335778321108 0.4132538712306439 0.1430827220863896 0.06973308883455583 0.009830888345558271 0.02388956805215974 0.04161572942135289 0.05041979278313683 0.06596105752054304 0.03273490532332976 0.08739728474455163 0.02255269739192569 0.0343426223651304 0.4475259021078957 0.123302965344766 0.07239192568774563 0.005939621293319043 0.01505001786352269 0.04238120757413361 0.05335555555555556 0.06802222222222223 0.04055555555555556 0.1160222222222222 0.02695555555555556 0.02535555555555555 0.4061555555555555 0.1293555555555556 0.07148888888888889 0.005888888888888889 0.01842222222222222 0.03842222222222223 0.04825118115788731 0.07596431845426979 0.03915450250334955 0.09500387842888371 0.02392285452365842 0.02476905718919681 0.4184648473309358 0.1379486637049573 0.06454058246950144 0.008691206543967281 0.01419152386996685 0.04909738382342571 0.05358636553743203 0.07014847344207445 0.03740066917607695 0.1000104558762024 0.02598285236302802 0.02598285236302802 0.3988812212463405 0.1493203680468423 0.06588247595148473 0.005782099539941447 0.0148159765788373 0.05220618987871183 0.05366021074502819 0.06946608785989908 0.03395851884832294 0.1069772187592758 0.02727997922232116 0.02739128821608786 0.3860288661323835 0.1482728554467201 0.06634943603443158 0.00813483229444939 0.01147410210745028 0.06100660433363016 0.04594247099629231 0.06693278315990911 0.03751046525535223 0.110528046884344 0.03033429015667983 0.03553701710321732 0.3755083124028227 0.137976916636766 0.06424171749790696 0.007011721085994499 0.0140084918072001 0.07446776701351514 0.03404586850624792 0.03858430909806057 0.02732897643036519 0.7378672354845541 0.0141674987141085 0.00890290762760582 0.07979334967171946 0.02433360563976884 0.01335057940758222 0.004364467035793168 0.006361380896190734 0.01089982148800339</probabilities>
		</cpt>
		<cpt id="ProgramHobby">
			<state id="No" />
			<state id="SYes__both" />
			<state id="SYes__I_contribute_to_open_source_projects" />
			<state id="SYes__I_program_as_a_hobby" />
			<parents>JobSatisfaction</parents>
			<probabilities>0.2313034188034188 0.280448717948718 0.04967948717948718 0.4385683760683761 0.2199197860962567 0.2332887700534759 0.06216577540106952 0.4846256684491979 0.1866112316220776 0.3213424921667872 0.07019763798505664 0.4218486382260786 0.2050056242969629 0.2533745781777278 0.05427446569178853 0.4873453318335209 0.2281479217603912 0.2440403422982885 0.05944376528117359 0.4683679706601467 0.2241425509110397 0.2568327974276527 0.05854769560557342 0.4604769560557342 0.2304666666666667 0.2555333333333333 0.06646666666666667 0.4475333333333333 0.2194309287074254 0.235508779352655 0.06372963824836048 0.4813306536915591 0.2193538268506901 0.2566185696361355 0.05787327478042659 0.4661543287327478 0.2057268477292965 0.2720670080142475 0.0631400267141585 0.4590661175422974 0.1875224255471834 0.3014442052386078 0.06445102260495157 0.4465823466092573 0.1187482980847781 0.2598030316783153 0.04722247435781066 0.574226195879096</probabilities>
		</cpt>
		<cpt id="FormalEducation">
			<state id="SBachelor_s_degree" />
			<state id="SDoctoral_degree" />
			<state id="SI_never_completed_any_formal_education" />
			<state id="SI_prefer_not_to_answer" />
			<state id="SMaster_s_degree" />
			<state id="SPrimary_elementary_school" />
			<state id="SProfessional_degree" />
			<state id="SSecondary_school" />
			<state id="SSome_college_university_study_without_earning_a_bachelor_s_degree" />
			<parents>JobSatisfaction</parents>
			<probabilities>0.5045109211775879 0.02801519468186135 0.02801519468186135 0.01733143399810066 0.2160493827160494 0.004510921177587845 0.01092117758784425 0.06220322886989554 0.1284425451092118 0.4789067142008318 0.02168746286393345 0.02168746286393345 0.01633986928104575 0.2837195484254308 0.0002970885323826499 0.01633986928104575 0.0564468211527035 0.1045751633986928 0.4288047990144881 0.03810824562812994 0.01400605232853968 0.01328298652955197 0.2181516295760692 0.00798050400364211 0.01834444712246592 0.08438445676334323 0.1769368790337698 0.4916885389326334 0.02149731283589551 0.004624421947256593 0.007999000124984378 0.2577177852768404 0.007999000124984378 0.0169978752655918 0.060867391576053 0.1306086739157606 0.5043466449334421 0.023906547133931 0.009847867427329531 0.006791632708503125 0.2323417549578919 0.006791632708503125 0.01045911437109481 0.05508014126596035 0.1504346644933442 0.5005954507562226 0.0204239609384304 0.00541860188162439 0.00541860188162439 0.2455043467905205 0.007026318923425034 0.01399309277122782 0.06008098130284627 0.1415386447540788 0.4874962962962963 0.02296296296296297 0.006696296296296297 0.01096296296296296 0.2472296296296296 0.006962962962962963 0.01762962962962963 0.05762962962962963 0.1424296296296296 0.4882824436452531 0.0220247749335966 0.005523822955597866 0.008485532284982254 0.2543074066238864 0.004042968290905672 0.01525515360928942 0.05714218555344004 0.1449357121030487 0.4710302523351457 0.02498257353966262 0.004279938658859612 0.007793113062874669 0.2646312560992611 0.006287466889725359 0.01243552209675171 0.05785584832008921 0.15070402899763 0.45971851192243 0.03518600969625012 0.004687345404175324 0.007136143267042644 0.2590283961610765 0.005355199366775502 0.01414860987434451 0.06356980310675769 0.1511699812011477 0.4470956424670096 0.03608021369054738 0.006119682653590082 0.008631343938125424 0.2617709205437946 0.004146234501455169 0.01742215843399912 0.0663995534824383 0.1523342502890404 0.2457212590642744 0.0115377245267415 0.01417002006999284 0.06872207598358092 0.08515123092594272 0.07398666707008358 0.009903885913688943 0.3053563684406926 0.1854507680050023</probabilities>
		</cpt>
		<cpt id="HomeRemote">
			<state id="SA_few_days_each_month" />
			<state id="SAbout_half_the_time" />
			<state id="SAll_or_almost_all_the_time__I_m_full_time_remote_" />
			<state id="SIt_s_complicated" />
			<state id="SLess_than_half_the_time__but_at_least_one_day_each_week" />
			<state id="SMore_than_half__but_not_all__the_time" />
			<state id="NA" />
			<state id="Never" />
			<parents>JobSatisfaction</parents>
			<probabilities>0.2374465811965812 0.04300213675213676 0.109241452991453 0.04941239316239317 0.06223290598290599 0.0451388888888889 0.004540598290598291 0.4489850427350428 0.2810828877005347 0.05648395721925133 0.09124331550802138 0.03509358288770053 0.06985294117647059 0.02707219251336898 0.0003342245989304813 0.4388368983957219 0.3386659436008677 0.04847553627380092 0.1873041696794408 0.03473728609303447 0.09981320800192818 0.04558327307785009 0.001958303205591709 0.2434622800674862 0.2892294713160855 0.02938695163104612 0.07100674915635546 0.05075928008998876 0.06875703037120361 0.0406355455568054 0.003515185601799775 0.4467097862767154 0.3105898533007335 0.03186124694376528 0.08503973105134474 0.0440861858190709 0.09359718826405868 0.04286369193154034 0.001298899755501222 0.3906632029339853 0.3344721329046088 0.03490085744908896 0.07509378349410503 0.0477625937834941 0.09760182207931405 0.04133172561629153 0.00167470525187567 0.3671623794212219 0.3373666666666667 0.04136666666666667 0.09256666666666667 0.04136666666666667 0.08136666666666667 0.04403333333333333 0.001366666666666667 0.3605666666666667 0.3748942246668077 0.03831711444891051 0.09035857837952189 0.04720224243706368 0.09162788237782948 0.03852866511529511 0.000237994499682674 0.3188332980748889 0.3786856963613551 0.03702948557089084 0.09449498117942283 0.04217377666248431 0.0956242158092848 0.0365276035131744 0.00127038895859473 0.3141938519447929 0.3854769590382903 0.03184828584149599 0.1019729519145147 0.04720892698130009 0.09763190115761353 0.03941729741763134 0.001015694568121104 0.295427983081033 0.3911239684248296 0.032494617868676 0.1272201291711518 0.03769734481521349 0.1083826695371367 0.03715913168281306 0.001457660566917833 0.2644644779332616 0.06772487973132431 0.02597122628664791 0.04984342379958246 0.01044975946264863 0.0273327584641917 0.02787737133520922 0.6656190432967232 0.1251815376236725</probabilities>
		</cpt>
		<cpt id="YearsProgram">
			<state id="S1_to_2_years" />
			<state id="S10_to_11_years" />
			<state id="S11_to_12_years" />
			<state id="S12_to_13_years" />
			<state id="S13_to_14_years" />
			<state id="S14_to_15_years" />
			<state id="S15_to_16_years" />
			<state id="S16_to_17_years" />
			<state id="S17_to_18_years" />
			<state id="S18_to_19_years" />
			<state id="S19_to_20_years" />
			<state id="S2_to_3_years" />
			<state id="S20_or_more_years" />
			<state id="S3_to_4_years" />
			<state id="S4_to_5_years" />
			<state id="S5_to_6_years" />
			<state id="S6_to_7_years" />
			<state id="S7_to_8_years" />
			<state id="S8_to_9_years" />
			<state id="S9_to_10_years" />
			<state id="SLess_than_a_year" />
			<state id="NA" />
			<parents>JobSatisfaction</parents>
			<probabilities>0.05137917637917637 0.03214840714840714 0.03214840714840714 0.01932789432789432 0.01932789432789432 0.04924242424242423 0.030011655011655 0.01505439005439005 0.01719114219114218 0.01505439005439005 0.030011655011655 0.05778943278943278 0.1838578088578088 0.06419968919968919 0.07274669774669773 0.07915695415695413 0.0471056721056721 0.05565268065268064 0.02360139860139859 0.05992618492618491 0.03642191142191142 0.008644133644133642 0.0642926592124453 0.02418570734078755 0.0429022848808945 0.0429022848808945 0.02418570734078755 0.0322070977151191 0.0322070977151191 0.02953330092367525 0.002795333009236752 0.01883811375789985 0.03755469129800679 0.07231404958677684 0.1605493437044239 0.06964025279533299 0.07766164316966455 0.06161886242100145 0.04557608167233835 0.03755469129800679 0.0322070977151191 0.0589450656295576 0.0268595041322314 0.005469129800680601 0.03037971909989264 0.04725125440960581 0.02989767523390083 0.02845154363592542 0.02242599531102785 0.04146672801770415 0.03761037708976971 0.02507723657398278 0.02435417077499507 0.01326716185718355 0.02411314884199917 0.04773329827559762 0.2181358049037008 0.05930235105940095 0.06556892131729443 0.07159446964219199 0.05616906593045422 0.04315388154867547 0.03230789456385985 0.06195359232235589 0.0173645347181139 0.002421174872367931 0.04392064628285101 0.04954494324573065 0.02367317721648431 0.02704775539421209 0.02142345843133245 0.04729522446057879 0.03829634931997137 0.03267205235709173 0.01804888025360466 0.01354944268330095 0.01804888025360466 0.04842008385315472 0.1811534921771142 0.05629409960118622 0.06529297474179364 0.06529297474179364 0.06529297474179364 0.0551692402086103 0.04617036506800287 0.06079353717148994 0.01917373964618059 0.003425708150117599 0.03242387197154924 0.04770504556568126 0.02753389642142699 0.03120137808401867 0.02570015559013114 0.04098132918426317 0.03486885974661036 0.02203267392753945 0.02142142698377417 0.01164147588352967 0.02142142698377417 0.05259502111580351 0.1858468548566348 0.05870749055345632 0.06726494776617026 0.07765614581018004 0.05992998444098688 0.0464825516781507 0.0367026005779062 0.07948988664147588 0.01469771060235608 0.003695265614581018 0.04128909675533469 0.05093539900613855 0.02842736042092955 0.02789145474032934 0.02306830361492741 0.03593003994933255 0.03860956835233362 0.02146058657312677 0.01770924680892526 0.01235019000292312 0.01770924680892526 0.04771996492253727 0.1634755919321836 0.0637971353405437 0.08469745688395205 0.06862028646594562 0.06326122965994349 0.05468673877034005 0.03646594562993277 0.08469745688395205 0.01663743544772484 0.0005602650297184059 0.03494545454545454 0.04187878787878788 0.02774545454545455 0.03067878787878788 0.02054545454545455 0.04427878787878788 0.03574545454545455 0.02187878787878788 0.02001212121212121 0.01574545454545455 0.02294545454545455 0.04774545454545454 0.1848121212121212 0.05814545454545454 0.06987878787878789 0.07227878787878789 0.05894545454545454 0.06507878787878787 0.03627878787878788 0.06694545454545454 0.01974545454545455 0.003745454545454545 0.03660788122391676 0.05332038386830009 0.03237686789622478 0.02624189857107141 0.0279343039021482 0.04866626920783891 0.03512702655922457 0.02899205723407119 0.01608746658461065 0.01439506125353386 0.02391484124084082 0.04126199588437794 0.1703079023789834 0.05628209319768449 0.06516722118583765 0.0774371598361444 0.06410946785391465 0.05310883320191549 0.04528145854568533 0.06897513318076043 0.01122180125776487 0.003182875935150104 0.02647998174974335 0.0516995551499943 0.03413368312991901 0.03049503821147485 0.0257271586631687 0.04931561537584122 0.03902703319265427 0.02121022014372077 0.02196304323029542 0.01594045853769819 0.02409604197559028 0.04053267936580358 0.1884624158777232 0.04981749743355766 0.0696418387133569 0.06311737196304323 0.0572202577848751 0.05521272955400935 0.04329303068324398 0.07905212729554008 0.01104710847496293 0.002515113493783507 0.02293471221565612 0.04697745486926254 0.0329525216546588 0.0360691734801263 0.02783230794139076 0.04619829191289566 0.04241378612482799 0.02549481907229014 0.0204859143527888 0.01447522868938719 0.0233799481907229 0.03395430259855906 0.2309712215656116 0.05065065166356352 0.06000060713996601 0.06311725896543351 0.05332206751396423 0.04720007285679594 0.04241378612482799 0.06846009066623493 0.0082419250384522 0.002453857362583988 0.02117787128551391 0.0489855497928695 0.03283915582085657 0.02512476758978373 0.0245865544573833 0.05311185047460613 0.04396222722379881 0.0262011938545846 0.02135727566298072 0.01794859249111133 0.02709821574191865 0.03624783899272597 0.2447157256091594 0.04611507975340053 0.06100564308314578 0.05921159930847768 0.04970316730273674 0.04450044035619924 0.03893890465472812 0.06459373063248199 0.01023420426003849 0.002340411651498842 0.1444173054865621 0.02042710851824041 0.009716388721562547 0.008264087732182497 0.006902555554638701 0.01162253377012386 0.007901012484837485 0.005087179317913639 0.005087179317913639 0.003725647140369843 0.005177948129749892 0.1431465421208546 0.05056235404787643 0.1398788648947495 0.1089267000585872 0.07851914809344238 0.05328541840296402 0.03749164514345599 0.02641785009943311 0.0332255109871521 0.08777756690074019 0.01243945307665014</probabilities>
		</cpt>
	</nodes>
	<extensions>
		<genie version="1.0" app="GeNIe 2.2.2601.2 EVALUATION" name="full_cleaned_survey_results_public" faultnameformat="nodestate">
			<node id="MajorUndergrad">
				<name>MajorUndergrad</name>
				<interior color="e5f6f7" />
				<outline color="000080" />
				<font color="000000" name="Arial" size="8" />
				<position>705 145 777 193</position>
				<barchart active="true" width="156" height="324" />
			</node>
			<node id="CompetePeers">
				<name>CompetePeers</name>
				<interior color="e5f6f7" />
				<outline color="000080" />
				<font color="000000" name="Arial" size="8" />
				<position>723 415 795 463</position>
				<barchart active="true" width="128" height="126" />
			</node>
			<node id="CompanySize">
				<name>CompanySize</name>
				<interior color="e5f6f7" />
				<outline color="000080" />
				<font color="000000" name="Arial" size="8" />
				<position>571 571 643 619</position>
				<barchart active="true" width="128" height="216" />
			</node>
			<node id="CompanyType">
				<name>CompanyType</name>
				<interior color="e5f6f7" />
				<outline color="000080" />
				<font color="000000" name="Arial" size="8" />
				<position>350 434 422 482</position>
				<barchart active="true" width="128" height="234" />
			</node>
			<node id="JobSatisfaction">
				<name>JobSatisfaction</name>
				<interior color="ffff80" />
				<outline color="000080" />
				<font color="000000" name="Arial" size="8" />
				<position>520 307 592 355</position>
				<barchart active="true" width="128" height="234" />
			</node>
			<node id="ProgramHobby">
				<name>ProgramHobby</name>
				<interior color="e5f6f7" />
				<outline color="000080" />
				<font color="000000" name="Arial" size="8" />
				<position>354 49 426 97</position>
				<barchart active="true" width="147" height="90" />
			</node>
			<node id="FormalEducation">
				<name>FormalEducation</name>
				<interior color="e5f6f7" />
				<outline color="000080" />
				<font color="000000" name="Arial" size="8" />
				<position>118 283 190 331</position>
				<barchart active="true" width="270" height="180" />
			</node>
			<node id="HomeRemote">
				<name>HomeRemote</name>
				<interior color="e5f6f7" />
				<outline color="000080" />
				<font color="000000" name="Arial" size="8" />
				<position>128 78 200 126</position>
				<barchart active="true" width="282" height="162" />
			</node>
			<node id="YearsProgram">
				<name>YearsProgram</name>
				<interior color="e5f6f7" />
				<outline color="000080" />
				<font color="000000" name="Arial" size="8" />
				<position>901 340 973 388</position>
				<barchart active="true" width="128" height="414" />
			</node>
			<node id="JobSeekingStatus">
				<name>JobSeekingStatus</name>
				<interior color="e5f6f7" />
				<outline color="000080" />
				<font color="000000" name="Arial" size="8" />
				<position>505 64 577 112</position>
				<barchart active="true" width="128" height="90" />
			</node>
		</genie>
	</extensions>
</smile>
